3 3072
0.140425 0.0511697 0.00156852
-0.0403759 -0.0387877 0.11758
0.12712 -0.0338891 0.0712283
-0.13359 -0.0972923 0.176273
-0.000500554 0.0934867 -0.0632671
-0.219559 0.0569213 -0.0418926
0.0537177 0.0378798 0.259122
-0.0933368 -0.000688955 -0.0586193
0.0822078 0.0412189 -0.113291
-0.00541493 -0.152759 0.0771533
-0.00776577 0.0411415 -0.0584398
0.00913511 -0.158706 -0.025195
0.10152 -0.0701588 0.00442297
-0.00662066 -0.071916 -0.0569473
-0.0156892 0.0182522 0.001296
-0.0358349 -0.0139104 0.056611
-0.0898402 -0.245764 -0.00251032
0.0331368 0.0677944 -0.15139
-0.0500661 -0.0564418 -0.0564187
0.0817512 0.128619 0.0280397
0.117115 0.0657652 -0.130992
-0.0513891 -0.143586 -0.115009
-0.0295106 0.0827494 0.0273635
0.00542082 0.0845253 0.105008
-0.00652233 0.178298 -0.0723305
-0.133492 0.0485552 0.079577
0.0540064 -0.00646911 0.0625962
-0.132311 -0.283991 -0.0371173
-0.174383 0.0161131 -0.00806182
0.0113219 -0.0802837 -0.0578547
-0.0935956 0.066381 -0.0638358
0.0424956 -0.0245586 -0.107715
-0.0457991 -0.0901046 -0.0693765
-0.0133546 -0.00974935 0.0810303
-0.0380138 -0.0658088 -0.0256837
0.0288398 0.0186301 0.128585
0.113051 -0.0968417 -0.099444
0.0392793 -0.020942 0.0319621
-0.0241307 0.110945 0.0325593
-0.0570138 -0.0951783 0.161015
-0.0110486 0.0254481 -0.0131397
-0.15294 0.00522475 0.0476807
-0.000247556 0.143979 0.064247
0.0941767 -0.0592549 0.108062
0.0842763 -0.270484 -0.058182
0.0940182 -0.00791833 0.0670991
-0.131418 0.0406725 -0.0942685
-0.0416141 -0.0153962 0.0727106
0.0646635 -0.000898226 -0.130974
-0.116938 0.0477206 0.0940202
0.0990035 0.16636 0.0268226
0.0975998 0.0388871 0.110494
0.0999523 0.17081 0.0463128
0.108646 0.00315209 -0.0906861
0.0439621 -0.0502267 0.0396136
-0.101285 -0.0665135 0.113643
-0.0938932 -0.0614698 -0.0621852
-0.0525346 0.0269831 -0.104344
-0.0119868 0.0277049 0.166728
0.0681289 -0.0624452 0.154546
-0.0123992 0.0301268 0.0337679
-0.0307498 -0.150102 -0.0959224
0.0366308 0.0183404 -0.0648154
-0.00135446 0.0743189 0.0732341
0.0740976 -0.116195 0.117809
0.0171495 -0.070249 0.0255839
0.0621661 0.00538437 -0.0210005
0.112304 -0.0620931 0.0449067
-0.0666181 -0.137094 0.0546535
0.0310813 0.163927 -0.0550751
-0.0985576 -0.0476384 0.0138833
0.053758 0.0197523 -0.0110444
0.021002 -0.113173 0.134361
-0.158087 0.0342429 -0.175267
-0.130926 -0.00599877 0.0613745
0.132318 0.104745 0.000963907
0.0352966 0.0270927 0.123866
-0.0321077 -0.0645891 0.0619025
0.0703511 0.0289801 -0.1256
-0.0270232 -0.12817 -0.058085
-0.0678488 0.0500275 0.0671275
0.0388897 0.0147457 0.0521316
-0.0595817 -0.0315045 -0.118231
-0.0140363 0.0058786 0.0791546
0.0996827 0.17645 0.155562
-0.0347982 0.0784483 0.0203998
-0.0338106 -0.132333 -0.209522
-0.0373704 0.0196634 -0.133943
0.0887322 0.103511 -0.0869744
0.049021 0.0219312 0.0522441
0.0387922 0.171468 -0.0347698
0.0524325 0.0877474 -0.00789023
0.134944 0.0318937 0.0237169
0.0685773 -0.103006 0.0451811
0.141478 0.0201388 -0.0647978
-0.109426 0.123386 -0.0289661
0.0736217 -0.066253 -0.0888422
0.0153626 -0.0287241 0.0505455
-0.00703702 -0.0515874 0.00869546
-0.0472992 0.104747 0.0450627
-0.111353 -0.0526978 -0.0121752
-0.115058 0.00146214 -0.0610782
0.169769 -0.0842945 0.139622
0.069406 0.0979923 0.0876009
-0.00563038 0.0989365 -0.052101
-0.105566 0.087531 -0.15884
-0.0412616 0.132365 0.00698517
0.0633662 -0.0871417 0.0395042
-0.134173 -0.038492 -0.0392539
-0.121719 0.0748529 0.0353388
-0.0339342 0.00873288 0.152079
-0.0145739 0.0319059 0.149645
-0.0793044 -0.0734994 -0.0166827
0.0363205 0.00350598 -0.0234494
0.12008 -0.0572295 0.107133
0.0388366 -0.138248 -0.0318742
0.112335 0.00109975 -0.202819
0.0170633 -0.029348 0.0607851
0.0550546 0.108344 -0.00185273
-0.0956893 -0.0974211 0.0186742
-0.0435352 0.139226 -0.0603053
-0.00524735 -0.167045 -0.0114826
0.0620084 0.0848199 -0.0957218
-0.0591437 -0.112363 -0.00139662
0.0397776 0.00142093 -0.0455799
0.014948 0.137362 -0.0451003
0.109441 -0.00625644 0.044958
-0.0522611 0.00688402 0.0852079
0.00774374 0.0602917 -0.027933
-0.027219 -0.0777635 0.107309
0.0170096 0.0296959 0.0512629
0.0390489 0.0365421 0.0732717
0.0131749 0.0368569 -0.0050218
-0.135702 0.0025108 0.19423
0.225443 -0.000357886 -0.0530733
-0.0692906 0.111027 0.0815914
-0.0185593 -0.0278069 0.00603739
0.00922212 0.0705525 0.0633333
0.0721424 -0.00363979 -0.0750251
-0.0716738 -0.029609 0.121374
-0.0486753 0.0530363 -0.0220366
0.10914 0.0722647 -0.0535664
-0.00527234 -0.119911 0.110628
0.0416931 0.0819536 -0.11526
0.0451843 -0.0311761 0.00718106
-0.0310576 0.0430712 -0.0409474
-0.064874 0.0635505 0.0786027
0.081391 0.102753 -0.0695163
0.182926 0.0721571 -0.00478339
-0.00923057 -0.0863384 0.0414158
-0.0109686 -0.0133876 0.0731853
0.0671298 0.0452773 -0.0185981
-0.0247953 -0.112723 0.12901
0.0280586 0.116159 0.0833909
-0.107389 -0.0640918 0.0460126
-0.0349371 -0.0271298 0.0622642
-0.0282175 0.0779653 -0.0811445
-0.0969342 0.14796 0.0861548
0.140891 -0.0308167 -0.0693835
0.0769214 0.0258156 -0.0743004
0.0532507 -0.100475 -0.0415093
0.0351173 0.0195423 0.0824395
0.016009 0.0967271 -0.00743696
-0.0948396 0.0617616 0.134647
0.198717 0.0670332 0.088001
-0.0779802 -0.175821 -0.0760178
0.0200214 -0.104459 0.0149525
0.00961978 -0.119091 -0.0407115
-0.049767 -0.0363101 0.0744678
-0.10051 -0.0431775 -0.0787949
-0.0706444 0.0595882 -0.00583031
-0.0631081 0.145659 -0.0289737
0.122476 0.00880936 -0.17141
-0.0784788 0.087075 0.144014
-0.0531082 -0.0693068 0.0928501
0.0430425 -0.104543 -0.0821471
0.0214333 0.0046953 0.0912331
-0.000584062 0.0597641 0.200674
-0.175724 -0.00189612 0.158598
-0.191051 0.00413556 -0.0701189
-0.0419121 0.0743753 0.00800266
0.0247859 0.0405535 -0.145413
0.119095 -0.0606958 -0.0812012
0.0279981 0.158353 0.0701764
-0.0374876 -0.0528269 0.0345158
-0.0372178 0.0298393 0.078511
-0.0641549 -0.160871 0.0246096
0.0309011 -0.00342945 0.115887
0.0857662 -0.00794231 0.00242244
0.0765035 0.144063 -0.044643
-0.184729 -0.0637538 -0.0599731
0.0724751 -0.00437947 0.00270894
-0.0571603 0.024211 0.145832
-0.00775202 0.0146705 0.0577188
-0.0665248 -0.0535105 -0.0375066
-0.131504 -0.00268595 -0.0568948
0.0409275 0.040971 0.0610001
0.0987091 0.0126378 -0.0966576
0.165241 -0.116369 0.126036
-0.0816433 -0.119874 -0.0936264
-0.0360138 0.0974045 0.169786
0.0822449 -0.165923 -0.0475258
-0.0976073 -0.0203642 0.163235
0.00698754 0.0816413 -0.00567755
0.0827598 0.0205195 -0.0801788
-0.0150832 -0.0125608 0.0105831
-0.0205827 -0.108369 -0.0144674
-0.0495949 0.0187457 0.00121313
0.135419 0.109088 0.0296771
-0.0617653 -0.0245857 -0.0352217
-0.062449 0.00593806 -0.114758
0.164294 0.212612 0.160935
-0.0260136 0.0110197 0.0344214
0.027953 -0.0241327 0.130823
0.119995 0.00334017 0.0231265
-0.132782 -0.00115141 0.106182
-0.154054 -0.129626 -0.105637
0.0412075 0.0847714 0.0448416
0.0448342 -0.0279886 0.125043
-0.0410079 0.0693591 -0.147476
-0.0365543 -0.134239 0.0341319
0.0169634 0.147699 0.0850441
0.0109734 -0.103083 -0.0934881
0.0186115 -0.211555 -0.106739
-0.00151133 -0.0321308 -0.110683
0.0125294 0.0470699 0.0176414
0.0718625 0.0496854 -0.014512
-0.213939 -0.0396578 -0.0612897
0.0244158 0.0625968 0.0541193
-0.118658 0.0786414 0.0367975
0.0878518 0.0649984 -0.123811
-0.00542332 0.0505265 0.149864
0.13652 -0.124407 0.018371
0.0453098 0.0924283 0.0228226
0.202224 0.0336396 0.10643
-0.0033368 0.0782898 0.000257136
0.12429 0.0260395 -0.032322
0.0118939 0.0319786 -0.12618
0.0430011 0.164602 0.03559
0.0358312 -0.0933158 0.000823012
0.0234156 -0.0304782 -0.12927
-0.0835197 -0.119603 0.00284019
-0.0534601 -0.190363 -0.0859673
-0.0596431 0.0284592 -0.037629
-0.0636405 0.000557924 -0.0883787
0.0687234 -0.0590172 0.0516613
-0.0891499 -0.049754 0.0441223
0.0020898 0.11287 0.0505749
0.0769517 0.129636 0.0405764
-0.0109791 0.128456 0.0519077
0.012822 -0.0649383 0.0286476
-0.0051769 0.0261913 0.0522792
-0.229674 -0.0316934 0.113491
0.0356344 0.00398766 0.0598565
0.175677 0.0983004 -0.0480468
0.0278656 0.0938482 0.0225181
-0.0132082 0.127293 -0.114374
-0.130743 -0.0119144 0.0476242
-0.111795 0.130784 -0.0539054
0.153672 -0.0548162 0.135072
-0.130389 0.0384792 -0.0670236
-0.0205418 -0.0422104 -0.0392808
0.0562297 -0.119739 0.143511
0.0973561 -0.0462912 -0.0316482
-0.023979 -0.0513542 0.0950305
0.0941111 -0.1227 0.000985246
0.0958201 -0.11501 0.00983959
0.0948451 0.0591481 -0.248548
-0.0262792 0.126826 0.0209511
-0.0527105 0.0656493 0.104484
-0.0313033 -0.0330004 -0.066947
0.109978 -0.0924697 0.0889839
-0.0678075 -0.0379632 -0.0790324
-0.179204 0.114163 -0.00111593
0.158569 -0.0518153 0.00672137
0.00830206 0.0145731 0.0574726
0.0244602 0.0909103 -0.000722979
-0.0312747 0.14885 0.128897
-0.0562231 -0.0383553 -0.0547166
-0.0722988 0.00336315 -0.0409695
-0.00877958 0.0143093 0.015896
-0.0650323 -0.0335264 0.00119829
-0.0558247 -0.0195524 -0.0101152
-0.0352887 -0.000505973 -0.00728489
0.0487859 -0.071299 -0.025069
-0.19622 0.0215009 -0.066499
-0.0366371 0.0422562 0.114515
0.137489 0.0498837 0.124409
0.0825252 0.08814 -0.14921
0.15131 0.0717126 0.00331178
0.0485782 0.0785099 -0.0265366
-0.152796 0.0427059 -0.0881641
-0.0359834 0.079853 -0.00761367
0.185763 0.0712418 0.0929506
0.0975461 0.0814727 -0.0933524
-0.0462779 -0.085381 -0.0101602
-0.0768823 -0.117969 0.0543619
0.0199273 -0.0262038 -0.0257444
-0.106884 -0.174374 0.0691493
-0.143079 0.0173375 0.0285671
0.0400362 0.0164041 0.10868
0.056335 0.043509 -0.156693
-0.154727 0.262881 0.109576
-0.0425799 -0.0758631 -0.166375
-0.098877 -0.0721887 -0.0478446
0.0617352 0.0758921 0.040921
0.224397 0.187228 0.0775228
-0.0141754 -0.081034 0.0604954
-0.038889 0.166944 0.0617422
0.0873157 -0.0869722 -0.1348
-0.0277461 -0.0583994 -0.103269
-0.0766966 0.0696772 0.0480223
-0.0705901 0.11731 -0.032835
-0.0560113 0.136422 0.0435835
0.0174051 -0.157281 -0.0380756
0.12557 -0.0127947 0.0701413
-0.0118398 0.0307676 0.0433111
0.0351492 0.0313445 -0.12627
-0.0696303 -0.15637 -0.0750008
-0.00928977 -0.0246183 0.132271
-0.0862102 -0.13355 -0.0257505
0.0556277 0.0644191 0.0561687
-0.116344 0.164177 -0.0458763
-0.114449 -0.00416042 -0.100942
0.0759666 -0.0235752 0.0516019
-0.00255457 -0.0462809 0.00805387
-0.0443545 -0.0298293 -0.0715879
-0.0602042 0.0328841 -0.0244224
0.0377616 -0.0116197 0.110722
0.0914911 -0.117428 0.0323629
-0.0110788 0.0179245 0.0439063
-0.116872 0.0224331 0.0479101
-0.0469795 0.0286046 -0.0145694
-0.0354964 -0.02779 -0.125508
0.074023 -0.015478 -0.130329
0.0594109 0.0134817 -0.156878
0.109443 -0.144813 0.0422359
0.0861069 -0.139297 -0.110996
0.063731 -0.0912343 0.0261015
-0.0934925 -0.0690954 0.0753343
-0.0346865 -0.00336506 -0.131125
0.0428629 -0.05876 0.0500548
-0.0108174 -0.0420665 -0.0778932
0.0626194 -0.0988919 -0.0257999
-0.0161925 0.0215991 0.0784373
-0.0966061 0.110379 0.108565
-0.0592347 -0.00932283 0.115687
-0.122042 0.140908 -0.178579
-0.0635278 0.0908998 0.119157
0.0271327 0.0446194 0.0509475
0.136916 -0.00332264 -0.076087
-0.0145555 -0.0774088 0.042507
-0.013729 -0.0358584 -0.0139287
-0.165298 0.0450675 0.090204
-0.0297528 0.0654819 0.167706
-0.0113144 0.0187686 0.10704
0.0414438 -0.0758395 0.0479455
-0.0657148 -0.0102928 -0.101213
-0.116337 0.00889191 0.0334528
-0.0413574 0.167508 0.0414151
0.0250984 0.00796883 0.0740217
0.154878 -0.0123041 0.0332953
0.0629543 0.162743 0.131695
0.0338068 -0.0820399 -0.00735218
0.0808331 -0.016616 0.104248
0.0968188 -0.0161347 0.0862505
0.0848122 0.0324335 -0.020314
0.0585973 0.0153318 -0.0137086
-0.0622814 -0.0321646 0.0381127
0.0102253 -0.119903 -0.0874271
0.0823289 0.0369691 -0.0397533
-0.0177247 0.0761018 -0.0883462
0.0568798 -0.00137747 -0.102476
-0.0619741 0.0670184 -0.0961434
-0.0675001 0.0605703 -0.0559205
0.0188172 -0.0632428 -0.0850049
0.062462 -0.0820738 -0.0375278
-0.0714683 0.00129024 -0.135277
-0.095249 -0.0333907 -0.131522
-0.00392424 -0.0968735 -0.164808
-0.0428006 0.0576347 -0.0299038
0.0232331 -0.0528724 -0.0146916
-0.127752 -0.218815 0.0279513
0.0556168 0.0105601 0.00790771
-0.00281334 -0.200411 -0.0171587
-0.0693277 -0.0671121 0.0036265
0.00671898 -0.0824648 0.00197762
-0.130795 0.202401 0.0623363
-0.0345885 0.0299184 -0.075232
0.0762348 -0.131193 0.0997195
0.0675386 0.0592682 0.0104212
0.0982709 0.0879352 -0.0361604
0.15261 0.142524 0.0439524
0.189572 0.0400746 -0.0485685
0.0581702 0.0868836 -0.0430758
-0.0642927 0.0622552 0.0072662
0.0692385 0.140836 -0.0528229
0.0319465 0.0570515 0.014297
-0.0681007 0.0170504 0.0476605
0.040291 0.121727 -0.136179
0.0295327 -0.10695 -0.0755697
-0.025418 0.011739 -0.00510159
-0.0126265 0.0266663 -0.0375343
0.0538699 0.0328906 0.0508071
0.0532372 0.0539451 0.0447625
0.0261511 -0.00432553 -0.0357342
-0.0436588 0.0356731 0.0837466
0.003271 -0.182586 -0.035095
-0.0658278 0.015735 0.000389268
-0.0126488 0.051051 -0.0592353
0.169814 0.0435802 0.0533723
-0.104527 0.0682986 -0.108873
0.0691193 -0.120625 0.112014
0.110765 0.0100068 0.0234657
0.00669653 0.133759 0.0889032
-0.0544484 -0.0510964 0.0602852
-0.144157 0.184298 0.0063956
-0.0974722 -0.142198 -0.165562
0.146024 -0.0121303 0.172426
-0.00777878 -0.173135 -0.102381
0.063361 -0.0341848 -0.141434
-0.0789429 -0.0247731 0.0592386
-0.160958 0.0934025 -0.0291256
-0.0290273 -0.0810695 -0.0337847
-0.0907217 -0.163954 0.111017
0.0160596 0.143997 -0.0173462
-0.0303741 0.0731115 -0.0173374
-0.0181603 -0.105941 0.0933308
0.0465602 -0.0658264 0.0191848
0.00749619 -0.195365 0.0634019
-0.132277 0.00256352 0.0172129
0.0558689 0.143422 0.0797134
0.0638962 -0.117768 0.201363
-0.0465188 0.0128744 0.0797412
0.0304005 0.0724153 -0.040254
-0.00886493 -0.0345004 -0.0788692
-0.0616243 0.0113864 0.0603951
0.103804 0.0904584 0.00161789
0.0661696 -0.0128572 0.0113679
-0.0401053 -0.0170487 0.0147732
-0.0456297 -0.00158325 -0.116953
0.10742 0.0320531 -0.077998
-0.015424 -0.0770817 -0.107672
0.0584666 0.048285 -0.0689233
0.0728602 -0.0765311 -0.0173101
0.102585 0.0705746 0.00808557
-0.0460551 0.12246 0.166753
0.126787 -0.0257773 -0.0714198
-0.0698214 -0.0685028 0.0258749
-0.00936543 0.0232025 -0.043253
0.122805 0.112415 -0.00661461
-0.0211763 -0.127337 0.0029672
-0.0957843 0.0280883 0.0441693
-0.0183344 0.116637 -0.0755143
0.149495 0.100071 -0.0384226
0.0641815 -0.114085 -0.0275719
0.00331012 -0.0056882 -0.0102824
0.0463453 0.086562 -0.118744
0.0434909 -0.0152363 0.0627834
0.021754 -0.0736992 0.0778806
0.110775 0.0457745 -0.0206409
0.0694096 -0.105134 -0.0122977
0.0633525 0.10595 0.0194497
0.0015285 -0.12857 -0.0446846
0.0140984 -0.0873019 0.0144068
0.0257743 0.0251039 -0.0763789
0.0298008 -0.0945055 0.00827669
-0.109307 0.00543872 0.0353485
0.00819288 0.103531 0.0549562
-0.0176276 0.191382 -0.0271409
0.114663 0.229728 -0.107672
0.0140575 -0.0414756 -0.085305
0.0162066 0.0527076 0.0508521
0.0628879 0.00265795 0.107057
-0.0598242 0.0138807 0.0190231
-0.0624267 -0.0202331 -0.0505346
-0.0251792 0.083522 0.106157
-0.0740867 0.126532 -0.140793
-0.00945355 0.0680718 -0.133929
-0.0342786 0.0107682 0.0436868
-0.0491014 -0.11327 0.162374
-0.00738036 0.0366217 -0.0594248
0.0239609 -0.00965095 -0.0778068
0.000250303 0.0504477 0.00415042
0.0751739 0.0224806 -0.0252994
0.187313 0.148349 -0.0190013
0.0723814 -0.0493656 -0.0266908
0.0157191 -0.172394 0.0302789
-0.0733208 0.071316 -0.118077
0.00935701 -0.0433435 0.0427671
0.0364559 0.0438658 0.125846
0.0305971 -0.113235 -0.0294069
0.0235514 -0.0336702 -0.0530552
0.0832322 0.191932 0.0699768
-0.158486 -0.0487205 0.00940986
-0.316913 0.110164 0.0219993
-0.0785296 -0.0638289 -0.234947
-0.0983196 0.0527212 0.10127
-0.132543 0.225242 -0.0587152
0.0403254 0.0343482 0.105077
0.00888487 -0.061512 0.0474367
-0.0359636 0.0915771 -0.0134445
-0.107008 0.0600332 0.0194595
-0.0905834 -0.0083407 -0.0527069
-0.00519112 -0.0532174 -0.0651518
0.00468863 0.0165647 -0.0994053
-0.0313245 0.0450094 -0.0320549
-0.0203357 -0.0343574 0.0427114
0.0478946 -0.0392486 0.145292
-0.0475855 -0.0507123 0.124402
0.153115 -0.0341186 0.0611101
-0.113144 0.0301898 -0.146018
0.0602386 0.0160278 -0.034481
-0.0450015 0.0196851 0.0399161
0.00563356 0.0153155 0.122103
-0.133699 -0.111052 0.126423
0.0982998 -0.129913 -0.0489904
-0.05832 -0.0324561 -0.0779178
0.0266859 -0.194337 0.00691595
0.0163959 -0.107981 0.00546373
0.0440615 0.00197955 -0.0550174
0.0623356 0.0147741 -0.0295479
0.0293055 -0.108442 -0.119961
-0.0273142 -0.0802802 -0.0151543
0.0701656 0.00361095 -0.133418
0.0420664 0.0903317 -0.0224263
0.0557282 -0.0510303 -0.135366
0.00948371 -0.083245 0.0165766
0.0372631 -0.175642 0.00937901
0.0135323 0.0291104 0.00860352
-0.0743857 0.0728756 -0.0224559
-0.104027 0.19787 0.216118
-0.105811 0.208504 0.123855
0.121119 0.013784 -0.115365
-0.0135405 0.186824 0.0302445
0.0234093 0.0752227 0.00687931
-0.0312165 -0.0114069 0.00804923
0.101844 -0.0551044 0.0334552
0.0362087 -0.00741501 0.0709472
0.0521136 0.0425418 -0.0335988
0.0330285 0.0397678 -0.0367643
0.0255025 0.064292 0.00945542
0.0579941 -0.0598166 -0.0356137
0.0389102 -0.0877625 0.0864402
-0.0140431 0.0960317 -0.00724838
0.0909087 -0.0533707 0.0341048
0.0770344 0.160623 -0.0236511
-0.0412288 -0.0186148 -0.0800164
0.0343495 0.145175 -0.0273203
-0.112598 -0.105581 -0.0789414
-0.0113593 0.0674876 -0.0637643
0.0667393 -0.0573761 -0.040578
-0.0414388 -0.140437 -0.00855515
-0.038399 0.0657935 0.157693
0.0406964 -0.0384954 0.0128911
-0.0649102 0.00962783 0.142932
-0.100502 -0.112477 0.104467
-0.0110349 -0.0790272 0.00790764
-0.0431873 0.0543113 -0.0384339
-0.0348912 0.0634009 -0.088823
0.137279 -0.0957086 -0.156349
-0.0673554 0.0991871 -0.0331807
-0.0669774 -0.0155453 0.140221
-0.0351438 0.104899 0.0176227
0.015199 0.0915044 -0.0900927
-0.0253486 -0.00806887 0.0150845
-0.0616766 -0.117104 -0.0839935
-0.0246608 0.0120536 -0.15461
-0.0634407 -0.0696024 -0.074759
0.080388 0.0568824 -0.0547733
0.177693 -0.0599715 -0.049134
-0.028802 0.0272155 0.0234705
-0.11076 0.00244321 -0.148485
-0.0326745 -0.0398802 0.114262
0.072749 -0.0736485 0.0409902
0.00546365 0.0753329 -0.0440845
0.00194635 -0.0418557 -0.104871
0.0474117 0.0436445 0.0246946
0.0525182 -0.107398 0.10912
0.0479383 0.0189059 -0.102835
-0.174704 -0.0125799 -0.00763019
-0.06382 -0.113059 -0.0586659
0.162728 -0.0765329 0.0177309
-0.0283367 -0.0326696 -0.0130574
0.12982 0.139625 -0.014189
-0.159934 0.0686314 0.046265
-0.0551627 0.0348161 -0.018448
0.103834 0.0879547 0.0187415
0.126235 -0.149834 0.170413
-0.0906473 -0.0907089 0.0220158
0.0519249 -0.0880085 -0.0427264
-0.0596299 0.0908182 0.063012
-0.136244 -0.0947657 0.0863787
0.0151371 0.0351772 0.0246526
0.0254412 0.0144193 -0.0636771
-0.037564 -0.00769186 0.0123245
-0.156414 0.103128 -0.0364113
0.0303095 0.117047 -0.0148348
0.018981 -0.108489 0.153065
0.0307054 0.01421 -0.0409464
0.0941436 -0.033453 0.118319
0.0239059 -0.104646 0.0160301
0.0875349 -0.0589849 -0.0466694
0.116516 0.138469 -0.00472157
-0.175172 -0.226456 -0.0517197
0.0835562 -0.0149029 -0.0883661
0.0672928 0.0960142 -0.0210691
0.0785218 -0.0848714 0.0590717
-0.0425859 -0.00137098 0.07348
0.0161277 0.024856 -0.092587
-0.0299901 0.0123892 -0.0919487
0.0327638 -0.119295 0.0376647
0.0928427 0.053133 0.0865338
0.0268058 -0.0471428 0.0258349
0.107445 0.0712245 0.0277261
0.0499651 0.0265463 -0.119885
-0.139962 -0.0632445 0.0407629
-0.085702 -0.128287 0.133067
0.0742076 -0.034992 -0.00649992
-0.226744 -0.125178 0.00651031
-0.0101017 0.00168357 -0.0280343
-0.184583 -0.0691347 -0.112111
0.127478 -0.0776929 -0.0611111
-0.0928103 0.227647 0.0219578
0.0442286 0.077523 0.0371101
-0.0679157 0.00587803 -0.0263606
0.071029 0.100679 0.131652
0.0315566 -0.149593 0.0915045
0.12973 0.044318 0.11751
-0.0213255 0.0547615 0.021937
-0.0133813 0.0227577 -0.24947
-0.152602 -0.00867269 0.106307
-0.184212 0.143809 -0.0436229
-0.0274466 0.000830596 -0.00817484
-0.0100616 0.103475 -0.0577953
-0.0109514 -0.104007 0.000816689
-0.0431083 0.00875551 0.0286152
0.0483732 0.0163342 -0.00436519
0.127573 -0.0700813 0.0953913
0.0202149 -0.0840366 -0.0023221
-0.0719883 -0.0341331 -0.000389142
0.00222447 0.0158796 -0.0135095
-0.0586496 0.0535151 -0.0536967
0.00801786 -0.0901001 -0.107719
0.00195219 -0.0104595 -0.00373888
-0.0510351 0.0225284 -0.0967943
-0.0877423 0.0396694 -0.0816982
0.0312387 -0.00367999 0.0782551
-0.0157779 0.026248 0.205696
-0.00337631 -0.0302996 -0.116105
0.106204 -0.0375481 0.149043
0.0224063 0.100794 -0.0511612
0.0477534 0.00719957 -0.113922
-0.00453986 -0.155469 -0.0300205
-0.0661207 0.074793 -0.164202
0.0312631 -0.0894775 0.0126234
-0.0171986 0.0853383 0.121025
-0.0647865 -0.109498 0.171885
-0.0398437 -0.117299 0.0296304
-0.124935 -0.0451596 -0.0489726
0.0162169 -0.066697 0.0453775
-0.0413135 -0.0347742 -0.02946
-0.0247624 -0.0786876 0.0707567
-0.0994949 0.0925409 -0.0332526
-0.0561098 0.156267 0.140159
-0.0191943 -0.0459914 -0.00934984
-0.0235888 -0.171989 0.0411746
0.0536583 -0.0944604 0.0472831
0.153083 -0.018882 -0.035948
0.0102941 -0.0793526 0.130352
-0.0273021 -0.155771 -0.217152
0.0970446 -0.00956236 -0.0202449
-0.0136136 -0.109571 0.023241
0.0793745 0.0559282 0.212543
-0.0732233 0.064387 0.0366202
-0.0112015 0.0471432 -0.0293639
-0.0630725 0.0669742 -0.0450001
0.11314 0.0109677 -0.00974385
-0.0436284 -0.0567648 0.0657678
-0.0150664 0.115839 -0.00525888
0.153763 -0.0652939 0.100873
0.0487946 0.135332 -0.0231698
0.0723267 -0.056452 -0.130318
-0.0747515 -0.0196937 -0.0495224
0.0817603 0.00296695 0.0314009
0.17044 -0.0188788 -0.0149361
0.0151778 -0.0390695 0.0429359
0.148491 0.072283 -0.135497
-0.00574992 -0.140171 0.0800992
0.0557465 -0.0379803 0.0854713
-0.0430568 0.185492 -0.0593952
0.104822 0.0167159 0.185762
0.0433428 -0.0440213 0.125766
-0.0835326 -0.0515006 -0.0787261
0.152013 0.0104732 -0.172451
-0.0531883 -0.0405855 0.0124298
0.0807 -0.0188454 -0.119361
-0.0635058 -0.0473307 0.00319193
-0.152549 0.0703997 -0.00321314
0.061075 0.066746 0.00613151
0.0869091 0.0274665 0.00671969
-0.0417859 -0.0169389 -0.023133
-0.00917337 0.115469 -0.0862162
0.0221414 0.114094 -0.0611105
-0.123369 -0.00327428 0.0973364
-0.0408151 -0.11053 0.0196094
0.0323541 0.0198667 -0.139786
-0.0148906 0.0926134 -0.0821907
-0.0227999 0.0264058 0.0909357
0.0558131 0.0305401 -0.00719678
-0.0846526 -0.174147 0.0133518
-0.0110112 0.0692594 -0.00890096
0.221722 0.0566304 -0.0490354
0.154832 -0.102631 -0.090087
0.0118648 0.0724964 -0.0412203
0.0129505 0.069636 -0.0252359
-0.0632642 0.0344592 0.0665447
0.035716 0.0378003 0.0976393
0.00200724 0.0250542 0.0188636
0.00120769 0.0260747 0.0331458
-0.0444273 0.00312684 -0.0561167
0.0148976 0.119296 -0.222245
0.119619 0.0295164 -0.110067
0.00124582 0.11466 0.10058
-0.0198773 0.0238006 -0.105144
-0.0874676 -0.0301889 -0.0151713
0.0601779 0.0410514 0.0448108
0.112516 -0.0586311 0.0259801
-0.0597995 -0.112179 -0.033746
0.09041 0.0285196 0.00882762
-0.0702534 -0.0915238 0.00440834
-0.0580783 -0.0178718 0.075955
-0.0266509 0.126935 -0.0143485
0.0539952 -0.10673 -0.0720127
0.141499 0.0471082 -0.0381539
-0.182788 0.0324163 0.0568142
-0.0122157 -0.0467327 0.0565197
-0.0497849 0.11062 0.0687249
-0.148195 0.0151664 -0.128064
-0.015878 -0.100935 -0.0641491
-0.168612 -0.119342 -0.0449658
-0.0545996 -0.119792 0.0764906
0.0315791 -0.12525 -0.125535
-0.0338125 0.103635 0.0657073
-0.0983572 0.0109763 0.0810523
0.110837 0.0600862 -0.0938931
-0.0332858 -0.0681984 -0.00293535
0.127282 0.0390489 0.00459259
-0.00867965 0.156771 0.0801639
0.075417 0.0719538 0.122581
0.091019 0.0415035 -0.0903365
0.0292751 -0.200989 0.0704798
-0.1072 -0.028061 0.0985606
-0.122152 -0.0455705 0.0612183
0.000703186 -0.0452249 0.101616
-0.0637497 -0.00294907 0.0452699
0.0708377 -0.00458171 0.0952541
0.0893826 -0.266412 0.0219318
0.0894997 -0.0660374 0.0557655
-0.0449683 -0.00842466 0.00955134
-0.0312314 -0.0241222 0.0622331
0.130654 -0.0525974 0.0627504
-0.0150878 -0.0588442 0.094044
-0.0580609 -0.167071 -0.0675903
-0.0496419 -0.0988732 0.0539209
-0.0722612 -0.0808984 -0.0152137
-0.0189708 0.0642971 0.161363
-0.0463558 0.0325692 0.00172348
-0.135574 0.158125 -0.0731375
0.00222101 -0.0586154 0.0729803
0.120427 -0.00851208 -0.0937379
-0.0921316 -0.0128648 0.0828699
-0.071385 -0.0851537 0.0327994
-0.0349756 0.0340444 0.0441096
-0.0637217 -0.13251 -0.0589114
0.0328416 0.0751829 -0.0663049
-0.0290379 -0.0723912 0.0222389
0.0459209 0.0110755 0.0163263
0.0513803 -0.0092747 0.0364852
0.000769949 0.194906 0.119281
0.076834 -0.0795244 0.0985591
0.0924774 0.134578 0.0770376
0.0755635 -0.0239764 0.0760449
0.0445967 -0.196165 0.0275778
0.166378 -0.046047 -0.126935
-0.0331188 0.0493478 -0.0580598
-0.189027 -0.237152 -0.0793965
-0.0307127 0.0109152 -0.111812
-0.0871923 0.074708 -0.0944901
-0.092491 -0.126866 0.0200581
-0.044627 0.117712 -0.000995787
0.0129924 -0.0987034 0.205151
-0.00534434 -0.00651864 -0.102089
-0.0170574 0.0512607 -0.212108
0.0862319 -0.0511326 -0.0881843
-0.0140828 0.024937 0.0971089
-0.00320793 0.151815 0.120354
0.148325 0.129474 -0.0911371
0.14791 -0.0330424 0.0561422
0.0447538 0.0758151 -0.0440634
-0.03998 0.042453 0.0296405
0.0530421 0.134096 -0.0146656
-0.0968589 0.193392 0.00281384
0.0273291 0.117361 0.0698172
-0.0585661 0.00704042 0.0291004
-0.0384897 -0.174295 -0.0446006
0.0283579 -0.109706 0.033768
-0.103602 -0.00403328 -0.0850696
-0.0412775 -0.0447614 -0.014769
0.0594332 -0.116194 0.106179
0.0298715 -0.0950442 -0.00898899
0.125047 0.0248647 -0.0538802
-0.0188991 0.0654702 0.0297632
-0.0169831 0.0132545 -0.0583963
0.0150885 -0.01073 -0.0275507
-0.0414461 -0.0291206 0.0688752
0.00496943 -0.0251437 -0.1319
0.0585907 0.0299448 0.0810956
-0.13635 0.0167626 0.0123624
0.0103195 0.0137912 -0.0223527
0.0327152 0.0119939 0.0405969
0.0789442 -0.0458892 0.0344938
0.122097 -0.0384178 0.0951497
0.0750978 0.00177357 -0.0939476
0.0268232 0.0759264 0.227912
0.0153952 0.00671823 -0.0136279
0.0255191 0.0992365 -0.0675892
-0.107382 -0.132083 0.0954033
-0.184088 -0.0573371 0.0448831
-0.00943961 0.117637 -0.089844
-0.0747403 -0.0292134 0.0418601
-0.0817715 -0.0612139 0.038579
-0.0892014 -0.0255034 -0.146195
0.011464 -0.00807443 0.0700227
0.12136 0.0597169 -0.0143713
-0.0136207 -0.0514438 0.0663773
-0.0369053 -0.0538924 0.0654872
-0.121244 -0.0472675 0.0733355
-0.0609808 0.0393022 0.0200844
0.105258 0.0251601 0.0122645
-0.0326996 -0.00119883 0.0167198
-0.0175535 -0.0802491 0.175502
-0.21723 0.00300785 0.0802889
-0.0671232 -0.121346 0.0659232
0.0355334 0.111865 0.0396427
-0.0591178 -0.0885873 0.10248
-0.180214 0.00197901 -0.0935671
0.0464953 0.0139366 -0.0218439
-0.108054 0.0502957 -0.0812421
-0.0588002 -0.104207 -0.0854496
-0.00331844 0.0697925 -0.0213586
0.0740506 0.0734867 -0.117845
-0.0481632 0.00603832 0.0669914
-0.14007 0.0806833 0.120684
0.0486206 0.112157 0.000721933
0.0982935 0.04748 0.0157048
-0.0574856 -0.0740633 0.133098
-0.0436097 0.0356315 -0.170901
-0.0250122 0.0924967 -0.0499129
-0.0650838 0.02902 -0.029351
-0.0588235 0.0504065 0.0126618
-0.150893 -0.010944 -0.0617109
-0.0484794 0.0551822 -0.0633745
-0.0498553 -0.106399 -0.154141
0.0397424 0.0656562 0.0330516
0.070795 0.0568152 0.0314312
-0.061073 -0.00151753 0.00377125
0.131883 -0.0583691 -0.136811
0.0363447 -0.0901987 0.076663
-0.0192133 0.116693 0.0442799
0.113433 0.0352956 -0.0461128
-0.0625897 -0.00450548 0.019059
0.0708514 -0.0166103 0.0132702
-0.0221251 -0.0176625 0.0821563
0.05456 -0.0128624 0.0208125
0.0248832 -0.00847265 0.0770703
0.0499792 -0.0864999 0.143484
-0.0808377 -0.0644237 0.0166166
0.0108987 -0.0932465 0.157242
0.0567808 0.0967582 -0.0313261
0.0926431 0.092726 -0.211323
-0.10341 -0.0850645 0.0465646
-0.055975 0.166517 -0.0277981
-0.0259094 0.0959521 -0.0255896
0.159286 0.0113955 0.0683426
0.219368 -0.136081 -0.0448573
0.0543343 0.103991 0.0290706
0.0618014 0.13728 0.0558821
0.0150307 0.00545928 0.116834
-0.0292392 -0.0896033 -0.162954
0.0186084 0.111833 0.122546
-0.122029 -0.122312 -0.0566717
0.146224 0.132105 0.105161
0.00531635 0.140453 0.0345443
0.0110843 -0.13155 -0.0782784
0.0178795 0.00630982 -0.0479723
0.000824982 0.0600864 0.0341236
-0.0316048 0.0201156 0.0778694
-0.002101 -0.115035 -0.0190663
0.0770062 -0.0251498 0.0767605
-0.12786 0.0566334 -0.0220338
0.0403062 -0.080255 0.0136888
0.114943 -0.0395958 -0.0189114
-0.092787 0.0314899 -0.0874885
-0.0887533 0.027883 0.022171
0.0116308 0.0791033 -0.0551893
0.0374852 0.0530482 0.264938
-0.00850304 0.0573772 -0.0117179
0.0490127 -0.0111138 -0.17595
0.208907 -0.154197 0.0409608
-0.0531177 -0.0818538 -0.0406094
-0.00564495 0.0209985 0.00206726
-0.0718709 -0.0531947 0.0917678
-0.0980323 0.057422 -0.0257515
0.0697044 0.0405584 0.0588421
-0.0082904 -0.141321 -0.0628539
0.133121 0.0685645 -0.0647655
-0.00571562 -0.041627 0.0717248
0.0933181 0.0956316 -0.0673917
0.143374 -0.0718537 0.0339951
-0.0255406 0.0663517 0.0944951
0.0115383 0.0102668 -0.10421
0.00346792 0.0981108 -0.115905
0.0631667 0.0520837 0.0350391
0.0844256 -0.0568127 0.0399982
0.145436 -0.102252 -0.0448901
0.0519315 0.0739619 0.0200711
-0.0356242 0.0179329 -0.0938765
0.00801487 -0.0384674 0.0853647
0.0322966 0.0154059 -0.0381553
-0.0400228 -0.0264019 -0.118124
0.131204 -0.0381727 -0.0613258
0.0658566 0.0297344 0.141988
0.0321722 0.00409599 -0.149187
-0.152754 0.00989241 0.108509
0.17871 -0.138689 0.123839
-0.011942 -0.0456564 0.109726
-0.0936418 -0.0850749 0.0104246
-0.0231451 -0.0154408 0.0143109
0.160442 0.0795301 0.0757983
0.0651313 -0.0759542 -0.0451912
0.136228 0.034656 -0.0128894
0.0555606 0.19205 -0.055926
-0.0661704 -0.0471692 0.0432345
-0.0899487 0.00363372 -0.199047
0.0657902 -0.00555505 -0.00413129
0.0328855 -0.0731717 0.0867323
0.112584 0.216421 0.0105094
-0.191292 0.097611 0.104727
0.0295346 0.0297831 0.0303974
0.0248505 0.0112091 -0.128335
-0.0741896 0.00633512 0.0432761
0.0651121 -0.102408 -0.183844
-0.0202849 -0.0234415 -0.00122963
0.0145934 -0.164725 -0.0229772
-0.0572887 0.0200508 -0.128398
-0.0925126 0.0924972 0.0067937
0.0301396 0.0481716 -0.0283209
-0.156304 -0.0219422 0.107406
0.0139234 -0.10765 0.117674
0.128881 -0.0704438 0.0281691
-0.0662666 -0.100367 0.0818705
0.12956 0.0650254 0.0234043
-0.0858428 0.0173737 -0.0348816
0.115492 0.120954 0.0711854
-0.00433524 0.138704 -0.0119956
0.131686 0.00829033 -0.0563966
0.0416768 -0.0235514 -0.0279685
0.0183932 -0.0602874 -0.0663633
0.0582365 0.0175787 -0.019951
0.059004 0.0440775 -0.131428
0.0961758 -0.00172081 -0.0225025
-0.124716 -0.00533074 -0.171759
0.06895 0.0199636 -0.0102285
-0.026852 -0.0381027 0.0226382
-0.0109114 0.0637489 -0.142012
0.0441643 -0.140232 0.00418588
-0.0247909 0.166947 -0.0365291
0.0400342 0.0159999 0.107471
-0.0344998 0.228537 0.0427659
-0.0547108 0.0675896 -0.024456
-0.0326384 0.0618879 0.0608802
-0.0968096 -0.0845671 0.00535601
0.170672 0.00955936 0.0488573
0.0452558 -0.0638655 -0.0402533
-0.1853 -0.00910728 0.0566814
0.0590443 -0.0932296 0.161358
0.0625028 0.0455441 -0.0566936
-0.141241 -0.0297454 -0.0866302
-0.020379 -0.0469893 -0.0508605
-0.0465285 -0.0874752 0.138487
0.0551878 -0.00103372 -0.12685
-0.00960035 -0.0604193 0.064478
0.124347 -0.149854 0.0469948
0.0290582 -0.0753464 0.0628707
0.046898 0.0817384 0.188951
-0.00801078 -0.0144582 0.0270987
-0.00912025 0.125781 0.00481639
-0.170355 -0.0515653 0.210287
-0.0951207 -0.00483039 0.0584126
-0.0175702 -0.0459761 -0.0169268
0.0415933 -0.0480463 0.0190688
-0.137742 0.142035 0.00465
0.143764 -0.101459 -0.0684485
-0.0812597 -0.0679147 -0.183046
-0.00472826 0.0305738 0.0904027
-0.0798809 0.0628684 -0.0589813
0.0393049 0.0549506 0.0200553
0.128129 0.0109693 0.010553
0.0413062 -0.0352733 -0.0527415
-0.147241 -7.58505e-05 0.0305144
-0.0869098 0.0371372 0.0896985
0.06957 0.0938528 -0.0143047
-0.0748803 0.00241123 -0.0164948
0.135511 0.110485 0.060216
0.0541609 0.0653208 0.059605
-0.0473778 -0.01992 -0.137028
0.0638502 -0.0327776 0.0269939
0.0613841 -0.211284 0.000952269
0.103299 0.090912 0.0121872
0.0253068 -0.0503218 -0.0704364
0.0689263 0.120076 -0.0702417
0.0622541 0.0126173 0.0394465
0.00981731 0.102983 -0.172213
-0.165507 -0.0614787 0.0260155
0.0470981 -0.103729 -0.150703
0.00604931 -0.02992 0.0852447
0.0398198 -0.0102588 -0.0123148
0.0548192 -0.13031 0.0634742
-0.021266 0.00870679 0.102082
0.048995 0.0602081 0.0153126
-0.0951756 0.118906 0.0565962
0.0639442 -0.139792 0.0093783
0.040772 0.157019 0.214113
-0.0961016 -0.0579118 -0.0656604
-0.0280078 0.160816 0.138096
0.196347 -0.111496 -0.051701
0.0383382 -0.0123658 0.0425451
-0.0807666 0.0387589 -0.11293
-0.0628588 -0.0699557 0.0827529
-0.0879966 0.068305 -0.0621583
0.026188 -0.0181953 0.0260499
-0.0333293 0.0526188 -0.0482702
0.060531 0.0663631 -0.0351754
-0.0202712 0.0447992 0.0237006
-0.0725105 0.107944 0.0952678
0.0176321 0.100043 -0.122041
0.150786 0.0764258 0.0569542
0.126663 0.0894793 -0.0200627
-0.028333 0.0539762 -0.0465323
0.0647952 0.0585929 0.0497914
-0.00168119 -0.120807 0.109335
-0.12512 0.0436107 -0.0892198
0.0185808 0.00115445 0.0556788
-0.0944193 -0.194532 -0.0615006
0.0155668 0.107923 0.0551782
-0.0807924 -0.05631 -0.131565
0.0890736 -0.0339648 0.209504
-0.0641133 -0.0541641 0.00613275
-0.137347 -0.0290183 0.0465378
0.0625453 0.0410997 0.0143947
0.0665208 0.0621234 0.100992
-0.0135348 0.0291193 -0.0852616
0.0635308 -0.0243954 -0.0210823
0.154386 0.0469271 0.119917
-0.0309777 0.12413 -0.0229295
0.176429 -0.0185127 0.125822
0.00756169 -0.0508253 0.0531897
0.147987 -0.0235609 0.106632
0.0496945 -0.0447497 0.0868495
-0.124894 -0.0413622 -0.0154956
0.147683 0.0730666 0.0167849
0.025126 -0.132865 0.0385189
-0.0802552 -0.121636 -0.0215245
-0.0348925 -0.0787442 -0.114917
-0.0202176 0.068564 0.0318719
0.0380068 -0.0426435 0.0677262
-0.0398261 0.00684107 0.0596459
0.0523262 -0.111689 -0.0174313
-0.136002 0.0525857 -0.104091
0.0195246 -0.0593791 0.127726
-0.0174518 -0.0877259 0.0392272
-0.202719 0.0617924 -0.0264972
-0.0425798 0.0416033 -0.0483125
-0.0949421 0.177154 0.048986
-0.0281436 0.0423056 0.0795193
0.144709 0.0453779 -0.082378
-0.0763982 -0.0871612 0.0716639
-0.0188135 -0.0200587 -0.0781254
0.135549 -0.023872 -0.0414982
0.0309108 -0.161192 -0.130975
0.0552181 -0.062992 -0.0723493
-0.052552 -0.0417956 -0.0895364
0.0134644 0.102296 -0.0350215
-0.0105446 -0.0408302 -0.0176107
0.0271098 0.118985 -0.0416322
0.0128263 0.141611 0.0589405
0.0589842 -0.0965475 0.0446129
-0.0329955 0.0944235 0.0548607
-0.0443983 -0.0172311 -0.117696
0.0106015 0.0575551 0.0141065
0.106284 -0.108605 -0.0163054
0.0664131 0.110027 0.0220925
0.0433669 -0.0241913 0.0249826
-0.0813479 -0.0877631 -0.0411296
0.0534574 -0.113179 -0.126351
0.021648 -0.090596 0.0357364
-0.019935 -0.0849067 -0.0488616
0.0428054 0.0661539 -0.0305353
-0.00143591 0.0229819 0.125955
-0.0268866 -0.0575691 0.0805545
0.0782171 -0.065339 0.0730207
0.0478184 0.0112629 0.167201
0.0751741 0.0297683 0.0357365
0.168235 -0.0150522 -0.0295511
0.107154 0.0565652 0.0329567
-0.0918036 -0.0459953 -0.0260957
-0.000441979 -0.138142 -0.134249
-0.094561 0.123213 -0.00710647
0.015004 0.0892052 -0.0137056
-0.003197 -0.054267 0.0124525
0.0723305 -0.00730608 -0.0257931
0.0367015 0.097148 0.0859982
0.0196675 -0.132817 0.0847621
0.00900157 -0.270023 -0.147182
0.0155212 0.074987 0.053771
-0.118514 0.0318794 0.164855
-0.0249943 -0.0299312 0.0849649
-0.0108129 0.0930101 0.0793473
0.0914825 0.253644 -0.165639
0.0049616 0.156109 -0.0246623
0.0320344 -0.054208 -0.0834421
0.0118652 -0.0841724 -0.0184122
-0.00820828 -0.117831 0.0481323
0.189927 -0.00237223 -0.0537779
-0.114653 -0.0217892 0.0758472
-0.0133638 0.0111557 -0.0324839
-0.130616 0.0474086 0.027946
-0.00665649 -0.107741 -0.14729
-0.0939832 -0.0727705 0.0431271
0.192719 0.0908999 0.0867304
0.0396186 -0.133024 -0.0553426
0.0527961 -0.157175 -0.0384069
0.0562722 -0.121431 -0.0249594
0.0119899 -0.0684876 -0.0528647
-0.0493327 -0.0274747 -0.00785457
0.00780445 0.0972472 -0.0585806
0.189936 -0.00958934 -0.00849744
0.0299469 -0.0413945 -0.0360597
0.0960973 0.0363991 0.0305911
-0.0101828 0.0298435 0.103128
0.041603 0.0939946 0.0251417
-0.0658803 -0.0188045 -0.0451679
-0.215756 0.0432904 -0.0910676
0.0991061 -0.142173 -0.154601
-0.155245 0.0237527 0.00882139
0.0219645 -0.128176 -0.0398213
0.0239128 -0.0924419 -0.227282
0.0665492 0.00647623 0.0391709
0.00981742 -0.080649 0.0491328
-0.00918405 -0.00954949 0.16132
0.0848127 0.0400025 -0.0374787
-0.184281 0.0803085 0.091396
-0.0566062 0.0809199 -0.0907306
-0.108327 -0.0275356 -0.113219
-0.0467974 0.045308 0.0962311
-0.044713 0.0287677 0.0110282
-0.085948 -0.0939247 -0.00294851
-0.135557 0.0379495 0.114655
0.0401897 0.0577871 -0.0957053
0.0813024 0.0202767 0.113522
-0.12211 -0.0364299 -0.0629807
-0.0775766 -0.03641 -0.223857
-0.0314608 -0.0558545 -0.160506
-0.0813028 0.0159679 -0.0330995
-0.0767543 -0.219586 0.0107324
-0.0645902 -0.122104 0.13118
-0.0361597 0.0772244 0.0921698
0.0851402 -0.0162388 0.0546032
-0.12187 0.0434448 0.00749534
0.0643427 0.21563 -0.0641717
-0.042983 0.0943567 -0.125113
-0.122625 0.0699446 -0.00795121
0.164338 -0.00167247 0.106572
-0.0865868 -0.0255693 0.0674257
-0.0164582 0.160495 -0.0138365
-0.0166715 -0.0161424 -0.0110913
-0.0695283 -0.151929 -0.0373565
-0.0557516 -0.00766305 -0.0238487
0.151483 0.183662 0.0935614
0.121847 -0.098751 -0.0327629
-0.020557 -0.0376013 -0.0213402
0.0366885 0.142683 0.0485915
0.0686877 0.0818174 -0.0270572
-0.0266987 -0.0452835 -0.0514799
0.0989214 0.0972907 0.0522245
-0.0700809 -0.0262899 0.115292
-0.0249527 0.152313 0.0590768
-0.0804791 0.0556611 0.0121733
0.0649743 0.180991 -0.141223
0.0332248 0.0178683 0.0031956
-0.186397 -0.0448238 0.0256105
-0.00616467 0.013744 0.0143716
-0.00796703 0.0685215 -0.224685
0.0110812 0.0239274 0.0635732
0.0352408 0.0972029 -0.051813
0.0066238 0.0419711 0.0209298
-0.00488747 -0.00868168 -0.0460432
0.0570946 0.0847235 0.0162277
-0.0695489 0.0587881 0.0592174
-0.0398874 0.0224046 0.0590706
0.0360183 -0.0559825 -0.0933297
-0.103173 -0.0909912 -0.0625666
-0.040967 -0.138247 -0.0931761
-0.0236923 0.0276358 0.0324607
-0.0727293 -0.108759 0.039754
-0.0989111 0.0802465 0.0234917
-0.0472757 0.0318189 0.0918807
0.0519997 0.0786724 0.0069544
-0.12081 -0.0410054 -0.0456142
0.00597873 0.0541988 0.0823841
-0.0308596 -0.030136 0.0413909
-0.0989244 -0.00919358 0.0122336
0.145768 0.00622547 -0.0326533
0.134574 0.0357903 -0.190416
-0.0817781 -0.0293019 0.053323
-0.126658 -0.0455516 -0.115152
0.163089 -0.0332144 0.0324516
-0.013116 0.00177147 0.0369903
0.0643374 0.0232334 0.114791
0.0850842 0.0391087 0.0589443
-0.100098 -0.0391617 0.0707105
0.0876915 -0.0245572 0.000531704
0.0458386 -0.0155265 -0.0622707
-0.0300991 -0.10486 -0.0859023
-0.136054 0.0328174 0.0739611
-0.197415 -0.0487601 0.0778531
0.0764543 0.0330032 -0.0803709
0.0246015 0.0418403 0.0145531
0.0647617 0.0351968 0.106385
0.00934618 0.0414449 -0.200294
0.0941149 -0.160406 -0.0366167
-0.112357 0.0929777 0.013487
0.074337 -0.0387778 -0.02079
0.0482669 -0.0810981 -0.00453347
0.00341719 -0.112215 -0.0231693
-0.00324522 -0.0884819 -0.148417
-0.0429533 -0.167338 -0.047734
0.110925 -0.0366028 0.046267
-0.127892 0.0951848 -0.0463647
-0.0972101 -0.0224453 0.0644301
0.0887507 0.0290428 -0.00441883
-0.192978 -0.0313564 -0.0260211
-0.052835 -0.2312 -0.047794
0.0444859 -0.0887825 0.0135381
0.0761284 -0.00545951 0.122307
-0.182636 0.00766718 0.0364569
-0.160971 0.0551269 0.0856795
0.0469751 -0.00930979 0.0218836
0.0028527 -0.104218 -0.0377441
-0.0651845 8.82759e-05 -0.0402575
0.0926341 -0.0140822 -0.042015
0.0335382 0.101912 0.150211
-0.11315 0.0628805 0.0672987
0.0371886 0.12165 -0.00588989
0.07081 0.172476 -0.0362732
0.0781641 -0.1189 0.0197527
-0.086949 0.00865322 -0.0715922
0.0111287 0.0103776 -0.0696006
-0.0887651 -0.0219452 -0.0829422
-0.136944 -0.0460205 0.0100239
0.067177 0.0172815 0.0396521
0.0018724 -0.0237007 0.126162
-0.0201119 -0.105408 -0.117915
-0.0230467 -0.0603689 -0.14724
-0.0434358 -0.0203557 -0.0110964
0.0265997 0.013786 0.0398106
-0.0485158 -0.128861 -0.0402053
0.00703986 -0.0563672 0.111596
-0.0601221 0.0213433 -0.075556
-0.0057734 -0.00832327 0.0374339
-0.020415 -0.072713 0.00303485
0.0573193 0.226087 -0.00586457
-0.0835752 -0.0422547 -0.0115762
-0.0383542 -0.058163 0.020908
0.149716 0.0553573 -0.0948537
-0.0145448 0.16266 0.0152007
-0.0617441 0.054427 0.0413268
0.0465978 0.0619005 -0.0847264
0.0463174 0.00767459 -0.111139
0.0845554 0.0704419 0.0428696
-0.0844778 -0.0610764 -0.0682944
-0.0743794 -0.0945707 -0.0999135
0.129619 -0.0943332 0.0583642
-0.0640647 0.039946 0.083967
-0.0238156 0.0140394 -0.111564
-0.056621 0.0212571 -0.0750022
0.0568637 0.0199463 -0.109732
0.0406871 -0.0325909 0.0188349
0.0948634 0.00694201 0.0966295
0.0401067 0.108408 -0.0782321
0.0565625 0.0856231 0.103072
-0.0163182 -0.00256699 -0.079712
-0.0444244 -0.0329894 -0.0121508
-0.0611228 0.0539181 0.0284858
-0.0534094 -0.0934094 -0.0660015
0.0227173 -0.149969 0.044375
0.00318286 0.0101979 -0.0501816
0.07418 -0.0638301 0.0880742
-0.0298612 -0.0257913 -0.0161415
-0.00808777 -0.0851701 -0.00526057
0.0560684 -0.0240915 0.133147
0.0998976 -0.0461557 0.118905
0.0207229 0.0385914 0.076125
0.101463 -0.0864135 0.0675604
0.0132918 0.140282 0.0331378
0.00953718 -0.0393502 0.00901082
-0.0182126 0.0987793 0.0523838
0.0638356 0.0521342 -0.0125966
-0.0144865 0.0563584 -0.0456493
0.0255958 0.133892 -0.0188599
0.044452 0.0611942 -0.0686714
0.103885 -0.25936 -0.0504628
0.22523 0.0703413 0.0429491
0.0280543 -0.0289655 -0.141913
0.0749286 -0.0835137 0.00964657
-0.0543907 -0.113982 -0.0422674
0.0734452 -0.0841848 0.0477395
-0.175098 0.113682 -0.0298458
0.0853291 0.0144427 0.18916
-0.0547967 0.135468 0.0706447
-0.159436 0.034494 -0.0291971
0.114065 -0.0384813 -0.0116645
0.180023 -0.164895 -0.150004
-0.0252246 -0.197202 -0.199338
0.186046 -0.0946993 -0.0788933
0.0918925 -0.0348542 -0.117609
-0.000865761 0.00218485 -0.025559
-0.112666 0.106085 0.038952
-0.0252345 0.0802394 0.104597
-0.0858105 -0.188548 -0.0924154
-0.0271484 0.0253637 0.0853966
0.0375222 -0.0385789 -0.0379609
-0.0227442 0.0797077 -0.0649565
-0.0550065 0.0259638 0.0515362
-0.0958541 -0.0258489 0.109118
-0.0473285 0.0200319 0.0079986
0.121357 0.18493 0.017288
0.0416059 -0.0325414 -0.0121397
0.00839945 -0.0205697 -0.0357903
-0.0287088 0.162383 -0.110517
-0.0680074 -0.0114528 -0.0741986
-0.105598 0.033701 0.022536
0.0777844 0.123103 -0.098444
0.0547084 0.0186739 0.128979
-0.0677114 -0.0886311 0.108156
-0.0994529 -0.06075 -0.0301106
-0.215409 0.117635 -0.0353363
-0.097907 0.093928 0.0865951
-0.0720758 0.0581838 0.0771826
-0.116443 -0.0422772 -0.128382
0.0495824 -0.136212 -0.00434556
0.0208045 0.0801863 -0.174017
0.0124591 0.0821908 0.0656916
-0.0349617 0.0578852 -0.107681
0.0748392 0.238475 0.0669342
0.0368285 0.0698332 0.0977623
0.212266 -0.127681 0.016902
0.116681 0.134744 -0.00957088
-0.168935 -0.0788767 -0.0452962
0.00996313 0.0532904 0.0555725
-0.0222402 0.077959 0.0346327
-0.0605642 -0.092932 -0.129679
-0.104061 -0.00494992 0.0316866
-0.143703 0.109171 0.0591858
-0.0589769 0.00334048 -0.0150551
-0.109046 0.0412819 -0.00995703
-0.0660682 -0.0537031 -0.0176265
0.102322 0.0243351 0.0141909
-0.0863424 -0.0618321 0.183502
-0.0589902 0.0251785 -0.0864984
0.0314254 -0.0671549 0.112308
-0.0844476 -0.0560834 0.0251803
0.0252475 0.0268651 0.0131971
-0.0733543 0.0238528 0.00813093
-0.00897348 -0.204962 -0.192451
-0.0423915 0.0385659 0.0794191
-0.0750177 -0.0406089 -0.0516758
-0.0325501 0.0459454 0.170293
0.127092 0.0906672 -0.15979
0.0259156 0.0344785 -0.116905
0.100976 0.0636766 0.021821
0.0569508 0.0764968 -0.0129585
0.09554 0.127984 0.0516894
0.1047 0.0697905 -0.0836701
0.00603345 -0.0588014 0.0596868
-0.00835921 -0.0956491 0.0122602
-0.0910694 -0.030987 0.0401541
-0.0513949 0.00274333 -0.0131992
0.0266875 0.0693442 0.0247043
0.0462499 -0.128415 0.0466294
-0.133951 -0.103237 -0.0896903
0.0564605 -0.0199688 -0.145214
0.140815 -0.0468429 -0.00545108
-0.149157 0.00401939 0.0347956
0.101511 -0.103487 -0.0219044
-0.126677 0.0354823 0.0742096
-0.0279139 0.0469705 0.0307453
0.0243392 -0.049978 -0.0980346
0.110366 -0.0528889 -0.0831006
-0.108 0.110115 -0.00817336
-0.182983 0.00109612 -0.0598882
0.0832512 0.145685 -0.0912129
0.165946 0.0307514 -0.116629
-0.00894876 0.0905351 0.0855375
0.0807742 0.0332046 0.0398386
0.0477947 0.108827 0.0478766
0.0392723 0.0175102 0.0855041
0.0327756 0.0181715 -0.0696974
0.0598112 0.017699 -0.0105811
-0.0373731 -0.075938 -0.0450113
-0.0236534 0.065033 -0.13795
-0.164219 -0.101094 0.0710162
-0.060068 -0.0296282 -0.00481923
0.0856764 -0.0113271 -0.0593117
0.0436602 -0.0226534 0.0973046
-0.065011 0.0244268 0.0168595
-0.070297 -0.0674427 -0.0636026
-0.0319616 0.0609414 0.074362
0.0214718 -0.132178 -0.00389535
0.0654416 -0.179722 -0.016036
0.081174 -0.0401726 0.0570527
0.0260022 -0.0200793 -0.108326
0.0832708 0.0432183 0.0312626
-0.00833373 0.0188771 0.106892
0.0174712 0.169184 0.0823089
-0.0164539 -0.107759 -0.0942997
0.123887 0.171747 -0.0386359
0.00634795 0.0873253 -0.00439308
0.0271997 -0.172229 -0.00804308
-0.0301079 -0.0145891 -0.14449
0.0454459 -0.000814075 -0.0368945
-0.0341102 -0.0444605 -0.0317904
0.0391665 0.0237554 -0.0455727
0.0171323 -0.107287 0.167502
0.277228 -0.138116 0.0527816
0.0616605 0.0623958 0.111717
-0.158195 0.0791577 -0.0155218
-0.00135878 -0.153399 0.0340032
-0.088761 0.0798014 0.0343805
-0.0786631 0.0172549 -0.123047
0.139506 -0.0446252 0.17155
-0.0899884 0.0493528 -0.115093
0.00821435 -0.0118394 -0.0157981
-0.0522278 0.0113297 -0.0569652
0.00778109 0.085142 0.0562732
0.179833 -0.113084 -0.174182
0.0112692 0.136691 0.0717991
-0.102933 0.0885851 0.013452
-0.0822526 -0.0896158 0.0320147
0.037534 -0.0466525 -0.0272308
0.0336617 0.150289 -0.0114783
0.0220972 0.0406925 -0.0331003
0.0545208 0.0607109 0.0453952
0.00181485 -0.0682304 0.0805985
-0.126166 -0.115301 -0.158815
0.021454 0.104729 0.0290179
0.0556861 -0.0252559 0.0991233
-0.10866 -0.0273949 0.0506677
-0.0193776 -0.0763381 -0.014287
-0.0422422 -0.149427 -0.11447
0.0466657 0.043103 0.0739598
0.0599844 -0.0623128 0.141259
0.0627036 -0.000214312 0.197781
-0.0278051 -0.058304 -0.029337
-0.125986 0.0347842 0.0301881
0.0420516 0.101313 -0.0395072
-0.160933 0.00586071 -0.146825
0.00312249 -0.100062 0.102673
0.0290156 0.0429595 0.158512
-0.0405506 0.135475 0.0246757
0.207595 -0.0226542 -0.0881435
-0.0496447 -0.00257834 -0.0886301
0.00589338 0.138758 0.0320107
0.0979599 0.0320995 -0.00450396
0.0586654 -0.176651 0.0572611
-0.0172806 -0.0163246 0.0464531
-0.031832 -0.095752 -0.036933
-0.0494237 0.128784 -0.028382
-0.0193251 0.0677304 0.0817962
0.179264 -0.0868056 -0.0546634
-0.024556 0.00864935 0.0593334
0.0541578 0.0836841 -0.0423217
-0.150724 -0.0676866 -0.0805639
-0.147111 0.0408578 -0.165601
0.0730987 0.146088 -0.0811424
-0.0125638 0.0242088 0.0935391
0.0562863 -0.00370595 -0.0642187
-0.0405826 -0.134876 -0.0418545
-0.0507112 -0.0881471 0.0845273
-0.107779 -0.0324335 -0.0690646
0.0824739 0.0184677 0.0858419
-0.00253132 -0.101128 -0.0139339
0.00872145 -0.0005833 0.0571354
0.0774614 0.0467958 0.11057
0.103945 0.00838292 -0.0647344
0.0170261 -0.111858 0.0517197
0.0079752 -0.019289 0.171779
0.0151671 -0.00871834 0.0983285
0.126166 -0.0307438 0.11123
-0.0512018 -0.0457525 -0.0883478
-0.209414 0.069599 0.230497
-0.0409423 -0.043965 0.0128291
0.0382327 -0.0369356 0.146996
-0.153278 -0.0119254 -0.0506636
-0.0905278 -0.109796 -0.0737338
-0.0315605 0.0271095 -0.0404505
0.0382711 0.0606842 -0.0563572
0.072137 0.0177133 -0.021442
-0.214577 0.153798 -0.0947102
0.0158806 -0.0678614 -0.0240196
-0.0416138 0.0744774 0.0822554
0.0991437 -0.0382749 -0.0136785
0.102521 0.0213212 -0.00818407
-0.130418 -0.0343452 0.101991
-0.00667231 0.0403366 0.109716
0.00516296 0.0778542 0.0114523
0.0491317 0.0233585 -0.0233811
-0.0151776 0.107816 0.0414555
0.039752 0.123641 0.144053
-0.010329 -0.105342 0.111907
0.0436479 0.101109 -0.0396216
0.0122269 0.0456974 0.0743852
0.00130923 -0.0330837 -0.00849378
-0.0701771 -0.0976606 0.0168276
-0.0851046 0.00197826 0.091371
-0.0554082 -0.113058 0.0481963
0.101234 -0.136372 -0.0137476
0.149127 -0.0315587 0.168844
0.0639145 -0.0194757 -0.029622
-0.157835 0.0553025 -0.0831379
-0.0811746 0.0894002 -0.0339611
-0.0920675 0.124335 -0.176869
-0.13461 -0.0649858 0.11287
0.0356016 -0.0223511 -0.0199171
0.07575 0.04028 0.145891
-0.00445969 -0.0741522 0.0606079
-0.0369127 0.215171 0.0011434
0.0360307 -0.153619 0.0882498
0.0704074 -0.0422078 0.199875
0.0328007 -0.027431 0.0774964
0.0612544 0.0844146 0.0166745
-0.0540071 0.017998 -0.016915
-0.0450883 -0.017044 0.0689446
0.000964597 -0.0283424 0.0441682
-0.0179405 -0.00377913 0.00316418
0.101863 0.0969915 0.0246483
0.0981021 -0.0802694 -0.0291556
0.114791 -0.104496 0.0702159
-0.0187785 0.00396224 -0.079137
-0.117222 0.115771 -0.0557876
0.0765275 -0.0626555 -0.0363481
0.130637 0.136008 -0.128307
0.128021 -0.0824877 -0.0782961
0.103686 0.0132307 0.040539
-0.122483 0.197879 -0.109451
-0.111843 -0.0137006 0.0364919
0.144048 0.018492 -0.012261
-0.0209993 -0.067044 -0.141147
0.142458 0.0703195 -0.0885748
-0.0123638 0.0921206 0.0773974
0.175451 0.0986551 -0.0443329
-0.0125613 -0.165419 0.187798
0.0380527 -0.0330982 -0.0338099
0.0607951 0.123542 -0.00502046
-0.0177422 -0.00380407 0.00458683
-0.0225845 -0.00508317 -0.0325226
0.203488 -0.0199854 -0.0125976
0.0170357 -0.0626437 0.06316
-0.175897 -0.0186165 0.105703
-0.0234689 -0.043046 0.0433056
-0.0378085 0.114281 0.115314
-0.096549 0.0373611 0.0609131
-0.0492739 -0.0456602 -0.0970399
0.075092 0.0328039 0.0141717
0.00382506 0.0296919 0.0388031
0.0422638 0.0221876 -0.0559614
-0.0326412 -0.0546508 0.0123616
-0.0651107 0.0838848 -0.0192948
0.0383625 -0.129189 -0.0355869
0.058331 -0.0227534 0.1534
0.0326133 0.0188056 -0.0801622
0.141361 0.172197 0.0808779
-0.0396208 -0.0472052 -0.0586465
-0.0365427 0.154844 -0.0148584
0.000746454 0.0738391 -0.0843078
0.171754 0.102325 0.116696
0.0476378 -0.125491 0.194061
0.0133208 0.0348685 0.215722
0.0282814 -0.0940939 -0.0443476
-0.0353768 -0.02114 -0.104992
-0.120541 0.0795229 -0.0437953
0.0516304 -0.104569 0.0699599
0.0283087 -0.00758626 0.0909899
0.01405 -0.0346911 -0.0040585
-0.00878188 -0.0835633 -0.0393642
0.0261073 -0.00567437 -0.00921988
0.0578075 0.135766 -0.00307921
0.172667 0.139407 0.096661
0.0377409 0.030587 0.0507148
0.0772173 -0.00055109 0.077804
0.173587 -0.054998 -0.0226546
-0.0285064 -0.0616191 -0.0320386
-0.174894 -0.0848616 0.165723
0.092474 -0.0974269 -0.109807
-0.0624772 -0.0539526 0.102189
0.0310214 -0.00773083 0.0496011
0.0396998 -0.0837097 -0.0931943
0.143056 0.00275223 0.0637897
-0.0370016 0.0326206 -0.117722
-0.00360138 0.0952148 0.0792339
-0.0236889 0.0524155 0.0238351
0.0100483 -0.108582 -0.126861
0.181191 0.00660042 -0.0250928
-0.0778359 -0.105342 -0.0431383
0.0254663 0.0128304 -0.177139
-0.0904433 -0.0315808 -0.0410885
0.0946419 0.0242599 -0.146309
-0.0925568 -0.00145501 0.0661291
-0.113436 0.0381786 0.0861514
0.0393671 0.143338 0.00139546
0.132479 -0.109983 -0.123304
0.0051767 -0.0334913 -0.0314463
0.0295981 0.0906479 -0.0282559
-0.0183309 0.0293616 0.0968607
-0.0758764 -0.00634096 -0.0277906
-0.220163 0.0810796 -0.00359166
-0.11332 -0.107238 -0.0194969
0.0138013 0.0356266 -0.0845595
0.137557 -0.0280805 0.00894351
0.0123959 0.0402728 -0.0868468
0.0346104 0.00878167 -0.0879864
-0.07521 0.011882 -0.124202
0.166648 0.0137579 -0.130899
0.0187095 0.0727056 -0.0149178
0.0558975 -0.00469513 -0.110442
-0.0286999 0.0174374 0.0449814
0.0363032 0.0487141 -0.0752023
-0.0433695 0.00338804 0.131618
0.0753952 -0.125817 0.0292486
0.0471665 -0.0854711 -0.0248522
0.049669 0.0794125 0.143291
0.0336661 -0.0225102 -0.0604925
0.12181 0.096872 0.0718993
-0.0813925 0.164089 -0.0707215
-0.0527038 -0.130711 0.124722
-0.115677 -0.067564 0.0296338
0.103302 -0.016437 -0.0281056
-0.0846518 0.0818822 0.131041
-0.0241994 -0.0592591 0.0287654
0.117288 0.11777 -0.0642183
0.104158 0.027806 0.022934
0.0595009 0.0774137 -0.0226086
0.0363581 0.131817 0.0162226
-0.115999 0.0038 -0.00836198
-0.0536702 -0.0207129 -0.0132892
-0.0176799 0.00910815 0.128885
-0.0947001 -0.0214175 0.247822
-0.164655 -0.0430639 -0.192089
-0.0185153 -0.293665 0.118931
-0.0715333 -0.121546 0.0996046
0.107593 0.206122 0.0913437
0.068103 0.00155343 0.0808086
-0.0998085 -0.0134918 -0.0255275
-0.0135251 0.0409096 -0.0361194
-0.0366731 0.0905775 0.144925
0.100652 0.0999089 0.177907
-0.0571357 -0.0254429 0.0260214
-0.123648 0.00357089 -0.0338478
-0.122086 -0.0676292 -0.129099
-0.0640919 0.018656 0.115507
-0.0788465 0.0259045 0.0438736
0.019555 0.0445192 0.0624889
0.0935419 0.0149979 -0.177819
-0.138198 -0.0624701 -0.114482
0.0448065 -0.0313971 0.11659
-0.155896 0.0635427 -0.00231832
-0.118697 -0.0888241 -0.102151
0.174527 -0.0788994 -0.0129438
-0.122004 0.0459599 0.0959016
-0.0818801 0.0757598 -0.00874764
0.0425445 -0.0511026 0.158074
-0.0137706 -0.0359679 0.0491198
-0.0228923 0.121099 0.18358
-0.0935773 -0.0290353 0.0235005
0.0358878 0.136964 -0.102969
-0.0552889 -0.0398336 0.00686651
-0.130956 0.0477233 0.0335379
-0.0673769 0.041662 -0.0760593
-0.0111304 -0.077158 0.00877539
-0.0393365 0.157296 0.0182021
-0.0682656 -0.148016 -0.0100494
0.0426395 0.0894112 -0.0874774
0.0840591 -0.0533668 -0.0381329
0.0911166 -0.0333591 -0.176243
0.164118 0.225334 -0.0263107
-0.0208697 -0.0175215 -0.104582
-0.00804932 0.102013 -0.14509
-0.0908822 0.00807912 -0.132512
0.0297699 0.0168005 -0.00374757
0.0444079 0.157482 -0.0833126
-0.0199658 0.0172603 -0.0653907
0.159992 0.0160295 -0.104293
-0.0727486 0.0215029 -0.0354768
-0.129367 -0.0264845 -0.0763914
0.0779745 -0.0867535 0.0408073
0.136572 -0.0251628 -0.0826438
-0.119929 -0.0375631 -0.0917467
-0.0224424 -0.116635 0.0644267
-0.0605676 0.128301 0.0722992
0.147009 -0.0741589 -0.133272
0.0313628 0.179012 -0.163555
-0.0539969 -0.000572348 0.00107411
-0.174256 0.080048 -0.0937755
-0.190101 0.0735487 -0.0356734
0.0276823 0.0616348 0.115679
0.0975971 -0.18972 0.112729
0.131786 0.0529539 -0.0702686
-0.0395786 -0.133071 -0.0737415
0.0645621 0.00962931 0.00780118
-0.0241759 0.0839743 0.114827
0.0535021 -0.0223302 0.086304
0.067044 -0.0277399 -0.038695
0.137316 -0.034416 0.0849825
0.0147248 0.0414668 -0.102226
-0.0313127 -0.0159663 0.0772168
-0.126347 0.177823 0.0377125
0.049169 -0.127318 0.0753934
-0.0495931 0.00825049 0.0400395
0.0387097 -0.000286266 -0.0216756
-0.129209 0.0146413 -0.043032
-0.0494647 -0.0484773 -0.0117237
-0.0578739 0.000140005 0.101033
3.727e-05 0.114934 0.0820307
-0.00975537 -0.0114487 -0.0566289
-0.00654089 0.110034 -0.04347
0.0546622 -0.180181 0.0520989
0.000284371 0.123967 -0.0440905
-0.0130339 0.0601417 0.0331287
0.0976204 -0.0440079 -0.0228371
-0.086245 0.0663582 0.0530737
-0.0446196 0.0275013 -0.0396472
-0.0708047 0.111553 0.0323426
0.0833558 -0.0429777 -0.111364
0.153473 -0.198464 -0.0265407
0.0632588 0.0612526 -0.0581891
-0.0783847 0.0168826 -0.0962923
0.169093 0.00325428 0.0287456
-0.0034324 0.144322 0.000219007
0.0993462 0.12231 0.0951734
-0.0059796 -0.0482235 -0.0893746
-0.0699626 0.0474385 0.0459074
0.0126823 0.0488505 0.0890616
0.0278897 -0.021817 -0.0157275
0.0964762 -0.0734443 0.0287634
0.0495657 0.143643 0.0381348
0.0512429 -0.0991097 -0.0574647
0.0368917 0.0306508 -0.0854454
0.0916481 -0.120391 0.0290024
-0.0321862 0.0158431 0.000804887
0.0947098 0.0536817 0.0280697
0.112227 -0.0317062 0.0460565
0.00132284 0.0117296 0.00694611
-0.0976651 -0.131437 -0.115442
0.124296 0.102119 0.0456473
-0.0235722 0.127556 -0.00291535
-0.0270703 -0.0303699 0.0814743
-0.00026746 -0.0454651 -0.00475541
-0.150957 0.181538 -0.141023
0.105628 0.0791334 0.118358
0.0138829 0.053553 -0.12498
0.0225542 -0.0611516 -0.0816263
-0.0771778 0.00889935 0.0118759
-0.0342875 0.00031815 -0.0716509
0.0762493 0.0754999 -0.0705591
0.0751412 0.0254391 0.116553
-0.0829071 0.125904 -0.151363
-0.071345 0.128947 0.111504
0.223122 -0.00472486 -3.6221e-05
0.0133266 -0.0408117 -0.00392187
0.0481263 0.0493038 0.151675
0.0287232 -0.0259777 0.0113457
0.0504549 -0.0111923 0.117424
-0.153461 -0.0758283 0.00576581
-0.0759166 -0.0382082 -0.0686999
-0.157468 0.0134259 -0.0773133
0.0389069 -0.106597 -0.156845
-0.058774 0.0228669 0.0264804
-0.0215248 0.0693802 0.00483381
-0.114776 -0.0638753 0.0581459
0.0517151 -0.0331729 -0.0309131
-0.152152 -0.0961074 -0.105238
-0.0890589 0.0509209 -0.0436211
0.106794 0.171093 0.0310567
-0.114668 -0.00332014 -0.0241293
0.085821 -0.0214301 -0.0516341
-0.0237768 -0.0357158 0.130409
0.123794 -0.0473495 0.055794
-0.0630801 -0.000905717 0.0386641
-0.0545586 -0.0598519 -0.0489432
-0.108963 0.00946495 -0.0286896
0.0595737 0.0458923 0.0715413
-0.0436532 -0.0667085 0.0518227
0.175944 0.0094166 0.0411709
-0.0889579 0.0159561 0.0611872
0.096125 -0.020418 0.0147235
0.02464 0.0292057 -0.0369276
0.166196 0.0233021 0.0425865
-0.0549288 0.0682862 0.00953145
-0.00830027 -0.00962161 -0.0585364
-0.233286 -0.032315 -0.0269587
-0.144959 -0.0781907 0.0809643
-0.142683 0.00986589 -0.0993942
-0.0649185 0.10202 0.0201756
-0.00432198 0.0620146 0.0172624
-0.0428525 0.0079811 0.018276
-0.174747 -0.0439013 -0.147473
0.0137973 0.202985 -0.0151275
0.145899 0.0175594 -0.0577447
0.0183869 0.0521837 -0.0429095
-0.0101102 -0.135369 0.0222218
0.0224321 0.0620715 -0.0220205
-0.0945796 0.0389282 0.00615354
-0.0477741 0.0807732 -0.0305449
0.0974923 -0.00723001 0.0322597
-0.155279 -0.022612 0.0215063
-0.0258459 -0.106085 -0.10027
0.0981447 0.0421773 0.000478522
0.0486658 0.0704214 0.0188502
-0.0193718 0.0929571 0.0723242
-0.0238063 0.129439 -0.0547203
0.0248982 0.0543777 -0.0406669
0.111699 -0.1055 0.0206281
-0.0408941 0.194014 0.0114293
-0.0620939 0.0137835 -0.114565
-0.115478 -0.244878 -0.0996628
0.0458378 -0.181056 -0.0421497
0.0143597 0.0850224 0.00833043
-0.0470546 0.0161092 -0.0846946
0.116552 -0.00222819 -0.0029235
0.0261605 -0.181371 0.04516
0.0361044 -0.0326657 -0.0172422
0.159664 -0.0283628 -0.0503402
-0.0805347 0.115756 -0.02418
-0.060655 0.0541081 0.071182
-0.0471614 0.119236 0.111236
-0.0781845 -0.126708 -0.107395
0.132408 -0.1393 -0.0253668
0.0225435 -0.0421685 0.0207463
0.0281945 0.012106 0.0752334
-0.0690777 -0.00598354 0.0785425
-0.0281697 0.0874182 -0.0181385
-0.0184235 -0.0595909 -0.0683284
-0.0587649 -0.0667161 0.0758033
-0.0733298 0.104003 -0.00102609
-0.0173655 -0.0393094 -0.0120162
0.0335426 -0.0459351 0.186391
-0.151987 0.0224373 0.0182511
-0.0982465 0.147619 0.11165
0.113226 -0.076811 0.0926639
0.0465587 0.112313 -0.0965825
-0.0928697 0.0529414 -0.00977897
0.0480914 -0.0382421 0.0539776
-0.0364144 0.217596 0.0177169
-0.00608765 0.0689766 0.153118
-0.0996638 -0.0931591 0.0771916
0.0600555 -0.109665 -0.070103
0.0998846 0.103735 0.00979853
-0.044822 -0.0934236 0.0265362
-0.0170265 -0.0131609 -0.0762935
0.0371411 -0.0858892 0.0480568
0.0176494 0.0635846 0.054498
0.230521 -0.100677 -0.0339264
-0.138463 -0.0789137 -0.147389
-0.0170128 -0.0712137 0.0308711
-0.0200075 -0.161293 -0.106439
0.000482743 0.0509139 0.200845
0.0823689 -0.0283052 -0.030693
0.0311198 -0.082451 -0.00753073
0.0926475 0.185133 0.153353
0.0318996 -0.0621916 -0.0500385
-0.111892 -0.00125612 0.0211443
-0.0255246 0.0752794 0.129297
-0.183843 -0.0787159 0.0322638
-0.0202854 0.021712 0.0802517
0.0617644 0.0862243 -0.150635
0.060449 -0.0859605 0.0108056
-0.0938058 0.140743 -0.142145
-0.0104035 0.0801552 0.0370365
0.049253 0.0372216 0.0890364
0.0218685 0.118969 -0.15459
0.0763004 -0.0179275 -0.0195051
-0.0134141 -0.0977502 -0.144465
-0.0378379 0.0334243 -0.0655273
0.0426181 -0.115926 0.166673
-0.0222483 0.0195716 0.011668
-0.101684 0.0304767 0.139746
-0.0703188 0.0652943 0.0270424
0.00853022 -0.0500215 0.0560853
-0.0742803 -0.141489 0.0573428
-0.0396379 0.0272681 0.0522868
-0.0147831 -0.0579444 0.164728
-0.0242997 -0.0122794 -0.175281
-0.054374 -0.0179585 -0.0474907
-0.00499106 0.103051 0.0281761
0.0622994 0.101943 -0.0553971
-0.13761 -0.0266758 -0.0300552
-0.0247616 0.0614242 0.0677971
-0.0691039 -0.0146865 -0.17125
0.0700647 -0.0198064 0.160304
-0.178814 -0.0105328 -0.0184583
0.130504 0.0678431 -0.116811
0.0688509 -0.0213674 0.0379866
0.0132978 0.0497915 0.154407
-0.182255 -0.116887 0.080416
0.139065 0.101842 -0.0979063
-0.0932902 0.0347299 -0.0688049
0.0408576 -0.061869 0.0052464
0.103115 -0.006252 0.0363533
-0.131285 -0.0433451 0.024045
-0.113486 0.0552256 0.0239823
-0.0712732 -0.0152562 -0.221461
-0.102653 0.0395295 0.0277458
-0.0077268 -0.0414381 0.0911908
0.0571799 0.0479885 0.145815
0.0688093 -0.203577 0.119874
-0.135972 0.0523484 -0.111444
-0.151211 -0.0952358 -0.0532469
0.12464 0.0633598 0.0574336
0.00455171 -0.0549537 0.0375532
-0.179878 0.100318 0.0201836
-0.0998283 -0.0504474 -0.0840125
0.0990646 0.0563291 0.0521155
-0.078381 0.0437694 -0.00537129
0.0903136 -0.0793849 -0.128868
-0.107826 -0.0144215 -0.0382051
-0.0627974 -0.0276211 0.0636329
0.0493137 0.0707711 -0.0599973
0.0504021 -0.0208486 0.143845
0.0839919 0.0363873 0.0333128
0.143951 0.0495719 0.0533268
0.0588377 -0.149475 0.15608
0.0506429 0.0174179 0.00564288
0.0186026 -0.0413196 0.00587552
0.0239989 -0.127683 0.0729515
0.0694321 -0.0192253 -0.133848
0.027811 0.0744683 -0.0990009
0.0122131 -0.14097 -0.0440549
-0.0918426 0.177839 0.0712673
0.0467566 -0.0640686 -0.09937
-0.11525 -0.124372 -0.0447006
-0.0495592 -0.033854 -0.0340333
-0.00429786 -0.0192974 0.165413
-0.00501341 -0.0803034 0.0777877
-0.0270217 -0.00286842 -0.0937185
0.00638675 -0.0656224 0.052093
0.110733 0.0999891 0.0554812
0.00873256 0.0852038 -0.009307
0.0152726 0.0406715 -0.109182
-0.110431 -0.0553526 0.0159051
0.0907412 0.0963779 0.0140585
0.070008 -0.0552507 0.0765546
-0.0260527 -0.0750202 0.0339794
0.00887046 -0.040142 0.00380414
0.0726002 -0.0741011 0.0423958
0.103068 0.0818341 0.00171796
-0.0854697 0.0293794 0.121696
-0.011579 -0.100111 0.0507663
0.0235537 0.0220499 0.124783
0.0795333 -0.0953404 0.0719985
0.0752912 -0.0242859 0.247949
0.0403514 0.081643 0.00301959
-0.0798069 0.0898906 0.0564426
-0.0519964 0.0821163 0.0741437
0.106193 -0.121712 0.00688035
0.0376769 0.00158697 0.173976
-0.0642859 -0.0522075 0.0103197
0.0540039 -0.0549012 -0.0393295
0.0384791 -0.0284995 -0.0964948
0.120217 -0.127753 -0.0161291
0.128974 0.00020077 0.0470332
-0.0844768 0.1217 0.163211
-0.00265479 -0.0334207 0.0752677
-0.145902 0.0854694 0.0974494
0.01644 -0.0406125 -0.102758
0.0238428 -0.188132 -0.166829
-0.0176666 -0.0157679 0.0617217
0.226401 0.103339 0.0370353
-0.0222752 -0.0855932 -0.090932
-0.091168 -0.117288 -0.00138257
0.0258367 0.112317 -0.137017
-0.0333019 -0.0845474 0.0193881
0.112801 0.0485725 -0.0382058
0.0609225 -0.128007 -0.0211479
0.140468 9.32065e-05 -0.0585023
0.0484793 0.0238303 -0.0169934
0.0302409 0.0131337 0.0812188
-0.0347343 -0.0448684 0.00183902
-0.0297799 -0.00780485 0.0554254
0.0640645 -0.157644 0.0368418
-0.0150246 0.060463 0.0682937
0.015299 0.0158715 0.00991945
0.0649594 -0.0178629 0.0297515
-0.0100403 -0.00250092 -0.129012
0.121895 0.0125192 0.108956
0.0777552 0.123526 -0.060869
-0.0210615 0.0630838 0.0432823
-0.0745975 -0.0178244 0.037746
0.0284794 0.106467 0.0391441
0.0764954 0.0866329 0.000102837
0.0161142 -0.153951 0.0304895
0.024555 -0.00847099 0.065731
-0.0690104 -0.0123875 0.0514737
0.0380417 0.146377 -0.109398
0.0316459 -0.168276 0.0235092
-0.0161255 0.102449 0.103498
0.115516 -0.103164 0.0906642
0.100286 -0.0975149 -0.0934761
0.0645679 0.0932078 -0.14697
-0.0919981 0.00345257 -0.0378808
-0.114582 -0.0547836 -0.0413166
0.00345819 0.0174999 -0.0249274
0.0184103 -0.0221862 -0.000145902
-0.0473325 0.085461 -0.049427
-0.0783763 -0.0228549 -0.0265976
-0.0244839 0.168256 -0.173859
0.0288864 0.239068 -0.0206988
0.0464612 -0.0504397 -0.0430393
0.0464909 -0.0130155 -0.0075628
0.121457 0.000852198 0.00700204
0.146784 0.0358964 -0.0464447
-0.0380705 -0.0666077 -0.0988396
0.0826514 0.0946818 -0.0586412
-0.0174519 0.0250231 -0.0804398
-0.125694 0.103226 0.123682
0.0339946 -0.102568 -0.154763
-0.240613 -0.054762 -0.0789418
0.0845073 0.126197 0.0564027
-0.0788149 -0.0806967 0.0253278
-0.0395278 0.112599 0.0292562
0.183441 0.0371422 0.0368215
0.0840617 -0.0122843 0.0748986
0.0489549 -0.158571 0.0650783
-0.0646975 0.0321617 -0.0374918
0.154623 0.071472 -0.00445924
-0.065857 0.0233916 -0.123664
-0.00658691 -0.0478104 0.0718514
0.0333413 0.0127215 -0.0468293
-0.0874715 0.0395366 -0.0385451
-0.00333353 0.14834 0.128108
0.0366077 0.00954794 -0.0071977
0.0221277 0.0358986 -0.163537
0.0349479 -0.0425331 -0.053659
-0.00100653 -0.0280931 0.0163333
0.0670039 0.0121737 -0.0945983
0.014391 0.0306134 -0.0480414
-0.159648 -0.00819843 0.0137569
0.143306 -0.0636248 0.015344
0.0243315 -0.072208 -0.0938688
-0.030838 0.0895772 0.114872
-0.0510197 -0.191325 -0.00847369
0.100906 -0.0856592 0.143496
-0.0719011 0.0487226 -0.0884458
-0.0224915 0.0360585 -0.101852
0.202206 0.0248577 0.00775921
0.0149392 -0.0141369 0.102285
-0.0286142 0.0127943 0.0715438
-0.102458 -0.0515521 0.138381
0.0601244 -0.126176 0.116682
0.00223866 0.0613784 -0.0677475
0.0793207 0.0994038 -0.054723
0.0755343 -0.120335 0.0302747
0.075755 -0.0143434 0.0142144
-0.0777811 0.0232883 -0.0560944
-0.0889625 0.0185287 0.114334
0.089802 -0.0413798 0.0695399
0.0277121 0.0253596 -0.0425979
0.0189872 -0.0227432 -0.0532583
0.0560471 0.126214 0.0652409
0.0479624 -0.00691975 0.0450742
-0.0230807 0.0930392 0.111373
-0.0352629 0.110067 -0.111852
-0.0542802 -0.0502444 0.102891
-0.0995263 -0.0205351 0.0751003
-0.0471046 0.170463 0.118945
-0.0834887 -0.0277144 -0.0915776
-0.0732336 -0.024475 -0.0682861
0.0566189 0.0374581 -0.0393844
-0.059459 0.0294007 0.0382166
0.0334696 -0.0388751 0.13049
0.0895663 -0.173939 0.0189391
0.202441 -0.0302666 0.15483
0.0368099 -0.0811516 0.108383
0.0354347 -0.00533407 0.0545263
0.0977245 -0.0563026 -0.0656223
0.0798281 -0.0258309 -0.0116722
-0.0578953 -0.087258 0.0626411
0.0589116 0.00397152 -0.0079908
-0.0147411 -0.0156007 0.00519915
-0.0424931 0.0274077 0.179966
-0.207565 -0.126563 -0.0192039
-0.137108 0.01978 -0.0761924
0.0120812 0.0877646 -0.0624656
-0.079823 -0.169987 -0.0667851
0.055543 0.0914623 -0.211441
0.0422597 0.0839451 -0.0242875
-0.0126462 0.136407 0.129435
-0.168442 0.179414 -0.0267341
0.134637 0.0379332 -0.0657316
-0.0144848 0.0912616 -0.0547075
0.0845453 0.0665892 -0.031295
0.138043 0.124159 0.0158656
-0.0260806 0.0318047 -0.000340874
-0.11458 -0.0644455 -0.0519556
0.0567484 -0.0411391 -0.0576561
-0.0616737 0.0423774 -0.0457762
-0.00867704 -0.00928316 0.0798562
-0.106661 -0.0068207 -0.104383
0.0237459 0.0480586 0.0164584
-0.117386 0.0486684 -0.0889796
0.0222764 0.100712 0.0319315
-0.0796966 -0.0219787 0.0604068
0.214349 -0.0585409 -0.0490737
0.101373 0.0553478 -0.029515
-0.0813368 0.073052 0.0688141
0.200235 -0.113922 0.073136
0.121377 -0.090275 -0.0803115
0.0734526 0.0091225 0.00274927
-0.0269826 0.0526146 -0.0841267
-0.0560351 -0.00663908 -0.0386701
0.137041 -0.0887389 0.0139075
0.159153 0.047185 0.0777941
-0.00408476 -0.0654816 -0.0389965
0.0135785 0.111645 -0.131676
-0.178951 -0.0195848 0.0511845
0.0545947 -0.159827 -0.0986328
0.127698 -0.122862 0.037832
0.174287 0.00779945 0.0503241
-0.00951581 0.048569 -0.0671402
0.0714367 -0.133116 0.104169
-0.146003 0.192097 0.00579757
0.218447 -0.0925698 0.045549
0.0129953 0.0140576 0.0926099
-0.0202835 -0.0978444 -0.122064
-0.0249515 0.0420212 -0.115857
0.0591443 -0.0301382 0.0301104
0.0735398 -0.0249524 0.0130224
-0.0498789 -0.0497107 0.0301006
0.025836 -0.00079064 0.267851
0.12545 -0.12023 0.0951735
-0.114117 0.0583349 0.212447
-0.0913161 -0.0859257 -0.122893
-0.190148 0.176765 0.0120733
0.099631 0.0594913 -0.171074
0.0347495 0.0184086 -0.0834695
-0.115274 -0.137379 -0.0313368
0.0033645 0.0271035 0.00665498
0.0171169 -0.0485375 -0.133997
0.0183611 0.0914051 -0.0320922
0.0432865 0.0576629 0.0830018
-0.0596142 -0.0740246 -0.0809663
0.0244894 0.0582923 -0.0904259
-0.0494718 0.11517 -0.0828422
0.0276979 -0.143475 -0.0240506
-0.0442799 0.147125 -0.0747711
0.011708 0.0844443 0.0290646
0.0608163 0.0235416 0.120407
0.0546899 -0.24704 -0.0843654
-0.0751838 0.0533246 -0.0362201
-0.000739076 0.00193623 0.0569163
-0.0787184 -0.128339 -0.13608
-0.106609 -0.0362598 -0.0635388
-0.111558 0.00132679 0.0589244
-0.110747 -0.0667249 0.0605841
0.0977424 0.0320329 0.016573
0.0436197 0.0922099 0.15556
0.0221389 -0.172844 -0.0727252
0.0241676 -0.020811 0.099965
-0.070859 -0.158013 -0.0186686
0.0930116 -0.107891 -0.111144
0.0706363 0.0349442 0.00613545
-0.0468921 -0.0481135 -0.0796357
-0.0440567 0.043781 0.0191062
-0.14083 -0.164298 -0.0207357
-0.0719025 -0.00338828 -0.0582629
-0.0518476 0.0359321 -0.0831611
0.0868032 0.121382 0.176138
-0.0708679 0.0055927 0.131719
-0.010011 -0.123401 0.0675445
-0.000288636 0.0266517 -0.0141786
0.0280517 -0.0415391 -0.0470784
0.022446 0.057164 -0.0955251
0.136736 0.0924227 0.0376529
-0.064787 -0.0232197 0.160546
0.0973152 -0.197858 0.0082239
-0.0026187 0.00530643 0.0601366
0.04551 0.0104371 0.0940218
-0.132249 -0.0308505 -0.113561
-0.0126141 -0.148948 0.130258
0.124074 0.0559236 -0.0585845
0.0805325 -0.0573574 0.0385923
-0.0102657 0.0186342 0.0168561
0.0997611 -0.0526769 0.0981716
0.00935821 -0.00220848 -0.0373369
-0.0873347 -0.00977458 0.0767045
0.0387112 -0.0294888 -0.109799
-0.120242 0.0534389 -0.087506
-0.0648155 -0.0589753 0.00133261
-0.00387989 -0.00467024 0.0391988
-0.07835 0.0690547 0.0738659
0.00300523 0.0802316 -0.0883891
-0.0312408 0.143973 -0.0369372
-0.0346828 0.0182773 0.0180226
0.0390927 -0.0513974 -0.0158848
-0.136853 -0.000361039 0.0180676
-0.0054594 0.00543651 0.0371183
-0.0286946 0.0166936 -0.0321191
0.00280699 0.00550725 -0.0579991
0.0722835 0.173882 -0.158152
0.0474229 0.0454465 0.0991725
0.192527 0.0923706 0.0522542
0.0127378 0.0839549 0.179104
0.0145926 0.138759 0.10526
0.0381178 0.0862854 -0.141437
0.169468 0.00702974 -0.0189034
0.0594008 -0.0833655 0.05915
-0.0431427 0.0264028 0.0383395
-0.0563481 0.233061 0.0164485
-0.0963247 -0.170535 -0.136112
-0.0448657 -0.141032 -0.233197
0.14089 0.037704 0.0218152
0.0475109 -0.010039 -0.0853037
0.150469 -0.0528739 -0.0719243
0.0818774 -0.0425307 -0.0418599
-0.00418414 0.106018 0.00211541
-0.0174632 0.0969838 0.0143753
0.0160706 0.110287 0.00548201
0.0636262 -0.012412 0.043333
-0.109069 -0.0345251 -0.0384112
0.14195 -0.0582532 0.0411284
0.0192605 -0.170421 -0.0159661
-0.102529 0.0283927 -0.111324
-0.0635436 0.00288303 0.0339211
-0.0709266 0.110373 0.00962974
-0.0785668 0.026759 0.148645
-0.00804049 0.018876 -0.0837954
-0.0192883 -0.154736 -0.0651132
0.146556 -0.164708 -0.00330057
-0.0920038 0.00406871 0.064708
0.1569 -0.0528207 0.0319782
-0.0496879 -0.102134 0.0209526
0.00383731 -0.0648032 0.144049
0.0958859 -0.0215385 0.082673
0.00234864 0.0773949 0.16335
0.0146078 -0.0296436 -0.0869621
-0.00885883 -0.111256 -0.0501898
-0.0400122 -0.0295237 -0.0787899
0.0828071 0.0530799 0.0832792
-0.000739423 0.0323584 -0.0516764
-0.0563656 0.0483281 0.0613316
0.032182 0.0735717 -0.0288298
0.0914915 0.140571 -0.0580768
-0.0503099 -0.0347626 0.0364299
0.106611 -0.0192062 0.00646981
-0.030203 0.0317129 -0.0514589
0.168112 0.113387 -0.0566119
0.151539 0.0324728 0.0305079
-0.0801367 0.155168 0.173556
0.085698 -0.0613811 0.0157272
-0.121227 -0.0710699 0.164712
-0.181757 0.000930496 -0.0435844
0.0624931 -0.0200088 0.0699558
-0.110032 -8.5143e-05 0.01702
-0.0671527 -0.0290829 0.0399868
-0.0981432 0.0749595 0.0442995
0.0812978 -0.0496468 0.0332382
0.0417374 0.105948 -0.198555
0.168025 0.123913 0.0784738
-0.255113 -0.0565738 0.0556951
-0.0102797 0.253012 0.138011
-0.0561385 -0.0357458 0.0655356
0.0126902 0.050075 0.0733989
0.00839692 0.00929211 0.0469903
-0.050022 0.170106 0.0765343
0.126586 -0.0916533 -0.106101
-0.0197362 -0.0254501 0.10448
-0.0759161 0.052529 -0.0181803
0.0196671 0.0277378 -0.0464928
0.0147014 -0.0750275 -0.135323
-0.0879312 -0.014134 -0.0862647
0.0914616 0.0139339 0.0826711
-0.11758 -0.0845573 -0.0927938
0.0815422 -0.065777 -0.124321
-0.0112688 0.0936568 -0.111421
-0.163458 -0.0456714 -0.0347584
-0.0810103 -0.00133144 0.0741542
0.0383499 -0.0717369 -0.0658024
-0.118954 -0.0471441 -0.0855301
0.0111502 0.0648152 -0.0177155
0.0301054 0.00859276 -0.0161143
-0.0524273 -0.000634602 0.0577374
0.0780122 0.083273 -0.0774191
-0.0728839 0.0500454 0.0669912
0.0433841 -0.188016 0.0570012
-0.0435054 -0.0491931 0.0241884
0.0603858 0.0521958 -0.137666
0.0623104 0.0729126 -0.1013
-0.0777558 0.075321 -0.0598123
0.0013649 -0.0316939 0.0137108
-0.0778429 0.107428 -0.0467627
-0.0519134 -0.0208187 -0.0898582
0.102139 -0.0572476 0.137393
0.0303107 -0.0840896 -0.0623176
-0.13732 -0.153125 -0.0451997
-0.0152997 -0.0196339 0.0194641
0.0505518 -0.0266956 -0.11009
-0.0393388 -0.0610932 -0.0639699
0.0538345 0.148334 -0.0260012
0.110663 -0.083702 -0.0507516
-0.0611342 -0.0448568 -0.0985879
0.138782 -0.042028 -0.0142378
-0.056442 0.0428869 0.107804
-0.0168063 0.0324477 -0.0876695
-0.0409705 -0.103548 -0.021222
-0.0092169 -0.0814898 0.0090453
0.0786008 -0.0464777 0.0367484
0.0443908 -0.0574862 -0.0806385
-0.0818057 0.048703 -0.0916822
-0.142067 0.0968657 -0.128018
0.0583589 0.202042 0.0611602
-0.126183 0.0227368 0.156663
-0.0256655 -0.0142984 -0.000998969
-0.0251288 -0.061635 -0.0951824
0.0913754 0.0319927 -0.0537458
-0.0961106 0.0313501 0.0533573
-0.115062 0.0570221 -0.081804
0.101652 0.106633 -0.062035
-0.0226774 0.000731149 0.0409083
-0.108716 0.145355 0.0030099
0.0536431 0.018033 0.176295
0.0256234 0.203437 0.0421584
0.0101381 0.0611343 -0.0513003
0.131226 -0.0891289 0.0899003
0.0702426 0.0757604 0.0293967
0.0288025 -0.0996492 -0.0457553
0.00167903 0.0093333 -0.0208885
-0.0207305 -0.0574462 0.00898157
-0.0631538 0.120568 0.123921
-0.090999 -0.0648062 -0.0776518
-0.0262869 -0.0720251 -0.0846977
0.039925 0.0254681 -0.0826164
0.0408166 -0.0303551 -0.165773
0.0800878 -0.0500378 -0.0681834
-0.128795 -0.132242 0.0324839
0.0444458 -0.0107265 -0.0388652
0.0447683 -0.0880367 -0.0367363
-0.136871 0.0931314 -0.0897301
0.0516836 -0.0531261 0.00390506
-0.0584185 -0.0396844 -0.0820349
0.0856766 0.0265569 -0.0482543
-0.156221 -0.0629798 -0.198927
0.00853768 0.0267426 0.255254
0.0104929 -0.0995364 0.0253985
0.0281963 0.0189092 0.0975281
0.0141613 -0.0681466 0.0414047
0.0107522 0.122142 -0.0591241
-0.0162446 -0.0342593 0.0254374
0.0810294 0.101196 0.15552
0.089796 0.0373468 0.0552242
0.137868 -0.0822096 0.0195867
0.0712835 0.0137129 0.237786
0.0129828 0.0391002 -0.0459974
0.0698088 -0.0103868 0.0269878
0.0668302 -0.212902 -0.157444
0.118865 0.194539 0.0112302
-0.0578785 -0.0511118 0.108681
0.11737 -0.0167206 0.0279604
0.0474539 0.14769 -0.0865595
0.0203188 -1.79117e-05 0.00716943
-0.029127 0.0546702 -0.0202873
-0.00647452 -0.00981439 -0.098903
-0.00559265 0.0227888 0.0699821
-0.0473912 -0.0702283 0.00677546
-0.0380914 -0.167829 0.0209091
0.136281 0.0258295 0.062396
-0.0143364 -0.00629944 0.0182836
0.0620976 -0.0332408 0.0464146
0.0525833 -0.074907 -0.0888373
0.0385297 0.118908 -0.0826538
-0.0022044 0.0589239 -0.037353
-0.00600534 -0.063104 0.0262248
-0.144508 0.0665408 -0.0466233
0.0722026 -0.117427 -0.0240996
0.0352052 0.0603005 -0.0396895
0.0986763 -0.10182 -0.0400323
0.0952129 -0.111434 -0.0239018
0.0199083 0.0666627 -0.00617965
0.0766147 0.0853847 0.16349
0.0456345 0.147373 -0.127537
0.0611229 0.0949741 -0.0619819
0.112302 -0.160865 -0.149527
0.0315205 -0.0314896 -0.11617
-0.0380575 0.0440045 -0.0339095
-0.1371 -0.028331 -0.0413949
0.152516 0.0569278 -0.0966458
0.0738852 0.0663669 0.0768636
-0.200787 -0.148416 -0.000306606
0.0140111 -0.00518812 -0.0164263
0.138216 0.0588137 -0.0281451
-0.0209833 0.0206069 0.0493828
-0.067294 0.0267522 -0.0941647
-0.0201118 0.0169875 -0.0901148
-0.0679981 -0.0873782 0.0169381
0.195854 0.00153257 -0.00699132
-0.164985 0.059521 -0.0164892
-0.16034 -0.0724011 -0.0435809
0.0517559 -0.18652 -0.147099
-0.0893273 0.0733493 0.0295181
-0.0632136 0.0306315 0.0607129
0.102632 -0.059196 0.0908875
-0.020699 0.0692969 -0.0136693
0.0978872 0.0615635 -0.0425199
0.1013 -0.0258257 -0.0225431
-0.0309138 -0.0182802 -0.0966945
-0.123751 -0.105894 -0.0256909
-0.0300014 -0.0182869 0.0774323
0.0504994 -0.0552267 -0.00241044
-0.016476 0.0526204 0.169211
-0.158709 -0.0740853 0.0011915
0.0468764 0.150041 0.0356244
-0.0127553 -0.0448134 0.0240811
0.0687112 0.0584475 -0.0413241
-0.0563934 0.0207853 0.00689981
-0.0514629 -0.0316929 -0.0346863
-0.0103823 0.107231 0.0326116
-0.0984532 -0.00765631 -0.0805837
0.0786178 -0.0074233 0.0827124
-0.0626326 0.0367453 0.0253675
-0.101272 -0.064883 0.174879
0.0500682 0.0713034 0.0561277
-0.0218095 0.0255533 0.00181996
-0.0488276 -0.00408015 0.0583522
0.0423411 -0.00177271 -0.0408502
0.0296966 -0.0355859 0.0338742
-0.0103835 -0.0765774 -0.0558727
0.0440186 -0.2114 0.0399087
0.0831409 -0.048074 0.0267761
0.0356445 -0.0879335 -0.0105424
-0.0304471 0.0259274 -0.157899
0.153235 -0.00541481 -0.0211815
-0.192499 -0.111527 -0.0967243
0.162175 0.131061 0.0646664
-0.0631795 0.0534523 -0.0921221
-0.13144 0.0128683 0.0288828
0.00617725 0.0667535 0.0202893
-0.0858923 0.06625 -0.00227892
0.0840908 -0.025262 -0.0177328
-0.032241 0.130571 -0.081837
-0.0899601 0.0540649 -0.0416146
0.0430424 -0.00588224 -0.022612
-0.0564282 -0.0359393 -0.101244
0.128331 0.113058 0.0452298
0.113697 0.0142532 -0.166183
0.0925885 0.0198182 -0.0077959
0.0732921 0.0481047 -0.0125694
0.0646167 -0.208684 -0.0473562
-0.0262941 0.146791 0.0311339
-0.0316889 -0.00965479 0.0808406
0.0293803 -0.00272925 0.070997
0.00779669 -0.0462793 -0.0645767
0.0657827 -0.107088 0.0828288
0.073908 -0.0871361 0.117619
0.146554 0.0150372 0.0570325
-0.0391059 0.0185159 0.0828664
-0.00439015 0.0404344 0.0133094
0.0687395 0.0329935 -0.0272603
-0.0337691 -0.151706 0.166279
0.0111112 0.00706094 0.0275159
0.026367 0.0475511 -0.0724286
-0.0903625 0.00160702 0.0660158
-0.147766 0.159131 -0.245825
0.102951 0.167673 0.0304241
-0.114864 0.00275063 -0.0878691
-0.0549374 -0.0505292 0.146469
-0.10651 -0.0179083 0.0379767
0.0589614 -0.00404301 0.00559906
0.0215004 -0.0944126 0.00534481
-0.0147255 -0.0416081 -0.0206744
-0.072327 0.105938 -0.0597763
-0.167149 -0.0246723 0.0799886
-0.0169354 -0.048075 -0.0432784
0.205675 -0.0211184 0.108758
0.150597 -0.0368614 -0.0225858
0.122418 -0.0863838 -0.0710381
-0.0699513 -0.0555254 0.0580581
0.111227 0.0561116 -0.0544573
0.0968925 0.101341 -0.0844949
-0.223309 0.137955 -0.0579589
0.0296599 -0.0565564 0.0989267
0.0113747 -0.0341494 -0.0888678
0.0771018 0.211097 -0.00200187
-0.00960409 0.00219786 0.157182
-0.0670877 0.0913847 0.025953
0.0586081 0.0901042 0.018782
0.0321233 0.076533 -0.138124
-0.000437819 -0.125285 -0.084184
0.0641947 -0.0341273 0.0534082
0.0683182 -0.0827731 0.0481071
-0.0452966 -0.0620166 0.0611403
0.142881 0.149012 -0.111324
0.130468 0.0577448 0.0521919
0.0434248 -0.139513 -0.0539823
0.0315627 0.0411942 -0.078899
-0.08228 0.104338 -0.0708596
0.0866244 0.109874 0.0519225
-0.0516474 -0.0888023 -0.0690508
-0.215477 0.129636 -0.0870642
-0.13461 -0.0491869 0.101293
-0.0391593 0.0726958 -0.111419
0.0148583 0.0860956 0.107874
-0.0444901 -0.00980463 0.0248304
-0.0423761 -0.115643 -0.1141
0.0981949 -0.107008 -0.0499924
-0.062088 0.174371 -0.0613654
0.0337583 0.0238622 -0.0341383
-0.0279075 0.00355311 -0.0897972
0.09729 -0.0598924 0.0385059
0.128135 0.044481 0.100736
0.11857 0.0101505 0.0968262
0.0921995 -0.0110082 -0.0286771
-0.0255732 0.0701813 -0.0749978
-0.051372 0.0236 0.133378
-0.164625 0.0282971 0.0767546
-0.072891 -0.00812892 -0.00126012
0.0713063 0.0507904 -0.094283
-0.20199 -0.00558867 -0.00872377
-0.120646 0.0269294 0.00506006
-0.0437868 -0.0939005 0.104121
-0.225314 -0.0639471 -0.0912698
0.129949 0.0390145 0.012766
0.111836 -0.0228678 -0.14355
0.0584242 -0.0395248 0.0113228
-0.0475931 -0.0638489 0.1703
0.0356111 0.0259732 -0.0105241
0.020481 -0.0486182 0.0867936
-0.0720338 0.0548084 0.0375565
0.0290068 0.0334519 -0.0830313
-0.0178413 0.0100674 -0.104402
-0.0310516 0.0827097 0.0977463
0.0743966 -0.102648 0.0230137
0.0813752 -0.0336068 0.0935874
-0.000481115 -0.049799 -0.0124366
0.0573253 -0.0304456 0.0426653
0.0694514 0.0808083 0.015872
0.0271536 0.094317 -0.0472259
0.0871016 0.14553 0.0700196
0.00975426 0.00689662 -0.182069
-0.0501553 0.0288993 -0.17266
0.0808138 0.0634491 0.0997061
0.0484859 0.00317344 -0.044067
-0.0801646 -0.154674 0.076577
0.0494401 0.04254 -0.175568
-0.0707801 0.0639924 0.031436
-0.0144069 0.0485485 0.0540288
0.202221 -0.115098 -0.0328867
0.0198966 0.116536 0.140315
0.131937 -0.083082 -0.0540538
-0.0545588 -0.0630704 0.0166343
-0.00122035 -0.0298298 -0.0259599
-0.0648669 0.116941 -0.0367914
-0.0286898 -0.0566446 -0.155184
0.0151347 -0.0444766 0.101016
-0.067437 -0.0278027 -0.0591181
0.166496 0.0844738 -0.140292
-0.155458 -0.0562187 0.0536762
-0.134029 -0.0736727 0.110028
-0.0595862 -0.0744899 0.10514
-0.00154803 0.114188 0.204007
0.0316865 -0.184143 -0.0104595
-0.0712183 0.0161991 -0.171177
-0.00635843 -0.0456126 0.044079
-0.0556845 -0.123772 0.022051
-0.169209 -0.0464513 -0.121179
-0.0207298 -0.0322598 -0.0129838
-0.0283626 0.0129995 -0.0774746
0.180684 -0.0179433 0.115945
-0.00410677 -0.0126524 0.00574486
0.126969 0.0300157 -0.0170168
0.022911 0.00556534 -0.0719303
0.0156677 0.184058 0.145933
-0.0798741 0.0157728 -0.061032
0.017618 -0.055475 0.0652515
-0.0135775 -0.114567 0.0421552
0.111448 -0.0317261 0.0885682
-0.0970717 0.145739 -0.010983
0.090546 -0.0159877 -0.0907783
-0.051092 0.0259666 -0.0871873
0.0219998 0.0903366 0.0576007
-0.0783213 -0.143579 -0.0263616
-0.0627035 -0.123313 0.0283828
0.0327444 -0.0208778 -0.0271385
0.00511204 0.153498 0.0365576
-0.115364 0.0343238 0.0135414
0.0118282 -0.0732208 -0.118142
-0.00228532 0.0133118 0.0302713
-0.0727379 0.035322 0.0725101
-0.0187558 0.0972924 0.0872368
-0.0743151 0.0137525 -0.013545
-0.00897185 -0.115917 0.0265039
0.0850608 -0.00744956 -0.0174465
-0.0638355 -0.0636783 -0.191849
0.105603 -0.00673139 0.151811
-0.236349 0.0937384 -0.118841
-0.039497 -0.0693797 -0.0677348
0.0598549 0.0258848 -0.113659
0.0242118 -0.0402759 0.0624821
0.0477714 0.0234009 0.032413
0.0781858 0.103374 0.103852
0.164046 0.0274132 -0.0908934
0.0077348 -0.0994535 0.0104
-0.0198021 0.105466 -0.00192134
0.0177713 -0.119765 0.060882
-0.00913417 -0.0765226 -0.048194
-0.0309599 0.0558583 0.124447
0.0514983 0.0625174 -0.0506096
-0.0424987 0.00897176 0.00671968
0.0564244 0.0826081 -0.0529625
-0.0607078 0.0828618 0.0140626
-0.0183781 0.0627239 0.0195796
0.0318136 -0.0314149 -0.1709
0.0745508 -0.0279501 -0.0803185
0.048347 -0.0164006 0.121751
-0.0422914 -0.0245145 -0.00303249
-0.0984868 0.0337481 -0.0926643
0.107935 0.193732 0.0848852
0.0510463 -0.0204902 0.151876
0.00185555 0.0758374 -0.0610858
0.0698397 0.0700856 0.0493178
-0.0372171 0.0139345 0.0681781
-0.00936328 -0.025468 -0.0781889
0.068071 -0.0513187 0.0330293
0.0398926 -0.101631 0.0330353
-0.10621 -0.0486974 0.0415441
0.072768 0.114384 0.147289
-0.195445 -0.142854 0.0655862
0.0973367 -0.0320919 0.00856314
0.0795455 0.0375315 -0.0646256
0.0379125 -0.0963071 -0.00966222
0.157181 0.023681 0.0644111
0.0162901 -0.109359 0.0957967
0.0547875 -0.067413 -0.0630538
-0.0118503 0.00039777 0.107104
-0.032577 0.0891225 0.135133
-0.0941731 -0.0302018 0.0583331
-0.193565 -0.00531243 -0.000482557
-0.00519617 -0.0810702 -0.0586551
-0.0075123 -0.111114 0.0767921
0.0109721 -0.0538399 -0.0458427
0.130337 0.0344372 0.0120014
-0.0625948 0.0899241 -0.138022
-0.107122 -0.133328 0.0396735
-0.0373731 -0.16991 -0.0305206
0.0937891 0.0558343 0.13137
0.0458466 -0.0481511 0.00894345
-0.0734905 -0.0927749 0.0104677
0.00572469 -0.0936989 -0.118427
-0.0757098 -0.0986752 -0.0437015
-0.0513982 -0.0332256 -0.0365235
0.00744725 -0.0626239 -0.0863912
0.0140186 -0.12574 0.000997149
-0.00791801 0.0860717 -0.102063
-0.0752209 0.0694205 0.107692
0.0248206 0.11271 0.100333
-0.0211166 0.0919586 -0.0860162
-0.0575406 -0.021296 0.014928
-0.0674525 -0.00843363 -0.00966872
0.0504622 0.0234321 0.0192792
-0.0650431 0.0595121 -0.148505
0.0409641 0.0370246 -0.0221774
-0.0641644 -0.140203 -0.126395
0.00283413 -0.103889 0.0163564
-0.030485 0.0646635 -0.0654754
0.0169284 -0.0168739 -0.0128612
0.0258042 0.194924 0.0361496
-0.1466 0.0631338 -0.0299747
-0.171719 0.178527 0.0957425
-0.0453184 0.0802538 0.107453
0.0877992 -0.0812515 0.00362694
-0.0287635 0.0621741 -0.0395836
-0.203962 -0.1939 0.0971713
0.0728953 -0.0156204 0.0118237
-0.0749625 -0.0167704 0.180532
0.148928 -0.0218881 0.101781
-0.160761 -0.0468294 0.0871136
0.0190224 0.137457 0.0731955
0.0837281 -0.091174 -0.195988
-0.0104017 0.0738867 -0.0632401
0.0296752 0.018905 0.14722
-0.165164 -0.0477892 -0.0697661
0.0494292 0.129228 -0.058022
0.108719 -0.0507655 0.0162693
0.0172104 0.130493 0.0460497
0.0683106 0.169025 -0.00846922
0.0114152 0.0889349 -0.124619
-0.0130391 -0.0244729 0.11148
-0.0280483 -0.128815 0.0169663
0.0288868 0.0251005 0.0522178
-0.079842 -0.0842307 0.00851275
-0.0735068 0.189125 0.0494407
0.0924778 -0.0631863 0.0154879
-0.125726 -0.0908545 0.187645
0.0131849 -0.0127213 0.0238247
0.00653249 -0.0722361 -0.146652
-0.0146594 -0.0625557 0.109548
-0.104849 -0.110459 -0.0972748
-0.0418125 -0.00296966 0.135619
-0.0675899 0.04299 0.0288492
0.122261 0.0830012 0.0804216
-0.087737 -0.148864 -0.0711049
0.0360999 -0.031226 -0.00346084
0.107052 -0.104903 0.0542462
-0.159879 0.0864306 0.0405933
0.0956967 0.0862089 0.0969441
-0.167075 0.0654799 0.0616343
-0.0729867 0.224968 -0.0336362
0.0429215 0.117761 -0.014901
-0.0677399 -0.117459 -0.0431153
-0.0346751 0.0368996 -0.0726526
-0.155741 -0.138984 0.0308543
0.186908 0.0486621 0.02662
-0.000337746 -0.0185511 0.248323
-0.125835 0.0936099 -0.169874
0.0129032 0.00582895 0.0622102
0.0281574 0.198606 -0.0644973
-0.124255 -0.0427294 -0.166257
-0.0265392 -0.0841607 0.144632
-0.0909047 -0.150848 0.0131431
-0.079716 0.17355 -0.106554
0.154179 -0.150975 0.0802056
-0.107318 -0.0285435 0.0242539
-8.30888e-05 0.0174992 0.0752147
0.08772 0.0228589 -0.0041152
0.0618624 0.09867 -0.0889665
-0.108234 0.0623856 -0.0196064
0.147457 0.147612 0.00771528
0.0893683 -0.176957 0.0445755
-0.0596013 -0.0289465 0.129332
-0.0819025 0.10279 0.191532
-0.123265 -0.107885 0.0125152
0.0849158 -0.0400233 -0.0779826
0.0990803 -0.153833 -0.134041
0.0442063 0.00557228 -0.0100698
-0.149454 -0.0627565 -0.175253
0.0112054 -0.0195258 0.0776107
0.0513666 0.114446 0.0308327
0.00532366 -0.0834389 -0.0277658
-0.0342396 -0.088529 -0.0941987
-0.148165 0.0184636 0.0410726
-0.0679341 -0.0508233 -0.100048
0.0310077 0.121735 -0.0646977
-0.0183409 0.0356431 -0.0244994
0.054655 0.0515421 -0.0101557
0.0872951 -0.000914594 0.155641
0.148625 -0.114138 0.107469
-0.00719424 0.0271261 0.0587258
0.0376449 -0.172303 0.062332
-0.0190998 0.0693589 -0.185814
-0.0878163 0.0633291 -0.0127263
-0.0869438 0.00649344 0.0155073
0.150981 0.0522198 -0.073914
0.0604366 -0.0374637 0.00580815
0.000839546 0.157754 0.111308
0.0437855 -0.0441774 -0.0493829
0.0201286 0.0584232 -0.0539555
-0.129875 0.00201116 -0.0463361
-0.04101 -0.004186 -0.0665807
0.0170167 0.183104 0.10165
0.0568585 0.0331572 -0.0294895
-0.0733926 0.0308043 0.0096219
-0.0560627 0.125016 -0.00957437
0.026742 -0.018481 0.0105605
-0.0579418 0.0588877 0.0451059
-0.00377983 -0.187086 0.063011
0.227088 -0.0920759 -0.00834036
-0.075473 0.00413772 0.0231664
0.0144543 0.075422 0.0488588
-0.137183 0.0771325 -0.160528
0.0745099 -0.0214686 -0.0277232
-0.109897 0.0040151 0.0891079
-0.159675 -0.0503499 0.0474466
-0.0240206 -0.0262793 0.145488
0.0838667 0.170776 0.0834976
-0.0996401 -0.0066505 -0.16587
-0.0663397 -0.149551 -0.130304
0.134855 -0.0636028 -0.072129
0.0841844 0.0050634 -0.0640615
0.030839 -0.0580362 0.00588771
2.28936e-05 0.00900003 -0.129794
-0.0886664 -0.132401 -0.0849831
-0.0671952 0.0264449 -0.0712771
0.0691974 0.0394593 0.000981987
-0.0481988 0.128067 0.0212025
0.013388 0.12607 0.0717594
0.0614439 0.0266581 -0.120274
-0.0267184 -0.0860108 0.0120476
-0.0105725 -0.0356364 0.182595
-0.0263004 -0.072727 0.142984
-0.0369538 -0.0188222 -0.107269
-0.020524 0.0859841 -0.218938
0.113774 0.0519325 0.00414357
-0.17182 0.193129 0.0396853
0.0541738 0.0901987 0.0303943
0.0563373 -0.205105 0.122209
-0.0643423 0.0378114 0.128155
0.0898781 -0.025548 0.0988683
0.0106404 0.0499016 0.00309463
-0.0744904 0.0638919 0.0802731
-0.00610875 0.0570124 0.00454367
-0.0608114 -0.0638515 -0.0585914
-0.0742546 -0.151635 -0.0952563
0.11304 -0.0871072 -0.0690887
0.0450921 -0.101129 -0.0127931
-0.052273 -0.0798703 0.0514666
-0.0416411 0.0492403 -0.0672557
-0.0988538 -0.043685 0.118691
-0.108933 -0.00226248 0.125331
0.00158966 0.053105 0.00207571
-0.0653429 0.0220762 -0.0455542
-0.0868693 -0.0369627 -0.00339071
-0.00422531 0.0585301 0.0212329
0.0872239 0.000404672 -0.0262447
-0.033713 -0.0248255 0.0465924
-0.0215987 -0.0209354 0.194144
0.104577 -0.148117 0.13056
-0.0590052 -0.117635 0.0639057
0.0203066 0.0659122 -0.130993
0.0537197 0.053841 -0.10338
-0.079034 -0.112079 -0.0870674
0.0368437 0.0224363 0.0692289
0.0235664 0.00582951 -0.0878055
-0.0306996 -0.0471084 -0.110337
0.21837 0.060365 -0.0924928
0.0908131 0.0289908 0.00590492
-0.0442787 0.0392582 0.0921214
0.0282565 -0.0781749 0.0353465
0.179283 0.0567875 0.0339766
0.0768951 -0.055137 0.118562
-0.126716 -0.113106 -0.0362625
0.0219515 0.0615306 0.0625642
-0.00527207 -0.041677 -0.200616
-0.12933 -0.000915163 -0.0857686
-0.194697 0.190925 0.172104
0.0211858 0.0580338 0.142782
0.0145068 0.0710718 -0.099426
-0.0230723 0.0132231 -0.038796
0.149493 -0.0451348 -0.097884
-0.0191672 -0.00904035 0.00224726
-0.0478125 -0.0911476 -0.113571
-0.0746397 -0.0568335 -0.0729075
-0.020238 0.0635559 -0.0215871
-0.0318027 -0.0904939 0.000362285
0.0432233 -0.000581567 -0.223079
-0.0882261 0.0537287 -0.132055
-0.0504409 0.120777 -0.0284344
0.0126916 0.131834 -0.0979811
-0.0741774 0.0408267 -0.137712
-0.151991 -0.0970702 0.0829399
0.0293242 0.0693633 0.0365163
0.0827771 -0.121289 -0.0356544
-0.0721074 -0.115395 0.044398
-0.0613191 0.0718838 0.0136022
0.0214849 0.0505415 0.0671472
0.0241977 0.102452 -0.149403
0.115295 0.0551192 0.0074634
-0.055268 0.0640122 -0.0867865
0.115311 0.0358437 0.00539385
0.0221155 0.0753469 0.249459
-0.00940275 0.0329633 0.0230537
-0.051777 -0.06811 0.0231962
-0.0824088 0.00848105 0.00778496
0.105493 0.0233467 -0.0732191
0.0889747 -0.0895704 -0.029555
0.0412185 0.0597179 0.0586391
0.0952456 -0.0235243 -0.0127375
0.0435551 0.02587 0.0755095
0.0605789 0.00524652 -0.0189496
0.0197661 -0.0225785 0.0162861
-0.0721425 0.0945877 -0.0465743
0.0377685 0.165078 0.114631
0.110622 -0.00483193 0.0162086
-0.208198 -0.124091 -0.0399092
0.0782644 -0.220971 -0.0159735
-0.0891754 0.0606023 -0.0484937
-0.119451 -0.16888 -0.114915
0.000177879 -0.0827365 0.0753724
-0.0973404 -0.0360792 0.0713467
0.082656 -0.0149126 -0.0430771
0.00951345 0.245234 -0.00848131
-0.0286573 0.0085968 -0.0861687
-0.0334388 -0.112997 0.140037
-0.0958507 -0.096906 0.136399
-0.10098 -0.00735026 0.102058
0.0710114 -0.010117 0.126955
0.0836734 -0.0437712 -0.0111144
0.0885292 0.0649115 -0.0515357
0.166504 -0.0733517 0.145056
-0.0135796 0.0282734 -0.0436152
-0.0250706 -0.0398795 -0.30786
0.066419 -0.0936481 -0.0387714
-0.00819229 -0.13671 0.00500471
-0.0632186 -0.0113844 -0.00721964
-0.00984385 0.0457014 0.0384268
-0.10769 0.02193 0.00428858
0.00653754 -0.0373479 0.0338617
-0.0486571 -0.0272309 -0.00758992
0.127328 0.205531 0.0129791
0.114579 -0.025536 0.1361
0.0483064 -0.0211504 0.0634598
0.2115 -0.155267 -0.0390281
0.0979492 0.0513802 0.0317156
-0.162456 -0.0212344 -0.0332352
-0.00421858 -0.00831169 0.0544174
0.0324614 -0.0159332 -0.108085
-0.12983 0.0147686 -0.0612428
-0.0187738 0.0779544 0.107906
-0.0633071 -0.0156379 0.0881292
-0.0595716 -0.0566891 0.0824786
0.0370976 -0.164847 0.244271
-0.0286567 -0.0877119 -0.000437342
-0.0149837 -0.0168496 0.00755756
0.0508101 0.101996 0.0191715
-0.0142848 -0.0886381 0.0336092
-0.0234277 -0.073901 0.154037
-0.0579529 0.0258153 0.0429804
0.0569608 -0.130639 0.105177
0.0677522 0.133115 -0.0562879
-0.128692 -0.0590512 -0.0230478
-0.0329565 -0.0260487 -0.0413823
-0.0637457 0.173679 0.0818943
-0.0106506 0.00765019 -0.128467
-0.105873 0.0849523 0.035519
0.0730247 -0.0256551 -0.0130236
0.184733 0.0153676 0.0587739
-0.0731708 0.0696452 -0.0670835
0.0278865 -0.00946021 0.112492
-0.0483725 0.149827 0.0833581
-0.20944 0.0239174 0.139612
0.0741839 0.0771084 0.00463653
0.0106449 0.0611046 0.0830512
0.110457 -0.0584792 0.118463
0.0484343 0.0554913 0.0295054
-0.0872864 0.162944 0.134939
0.00462866 -0.0690295 0.0937905
0.207761 0.0211534 0.152001
0.0267707 0.0281175 -0.00986345
0.000295057 0.0288105 0.156245
0.0591965 0.0372784 -0.0428067
-0.0342492 0.00931719 0.0990854
0.0604824 0.137385 0.124077
0.0255062 -0.141025 0.080335
-0.00996777 0.132355 0.0625127
-0.0530155 0.0357698 -0.132322
0.0726503 -0.0910513 0.0823944
-0.0590751 -0.0223785 0.0520574
-0.0514353 -0.0605457 0.00571312
-0.197578 -0.0511973 -0.0549161
-0.0504757 0.0688708 -0.057377
-0.0134845 -0.125085 -0.00608031
0.00588418 0.0621594 -0.0966389
-0.0894971 0.0335443 -0.0980227
0.0458186 0.129183 -0.0200625
-0.0244852 -0.128238 -0.046073
-0.118493 0.000431824 0.0876377
0.223295 0.127943 -0.0780829
0.00775435 0.0101026 -0.0116741
-0.204521 -0.111654 0.0430118
0.0154382 0.114186 -0.177216
0.0793868 0.0579713 0.107128
0.0982924 -0.0775846 -0.0389042
0.0574097 -0.00236827 0.0292854
0.0665981 0.0992175 0.0962252
0.0640358 -0.118967 -0.0688197
-0.147104 -0.0100776 -0.0101366
0.00731714 -0.0576518 -0.0531565
-0.0452808 -0.0467361 -0.0922806
-0.050536 -0.0271364 0.0358216
0.0353078 0.095325 -0.0687359
0.0580509 0.0713065 -0.0828661
0.0632992 -0.0308403 0.0391268
-0.00624694 -0.0627132 0.0687273
0.0546601 0.115384 -0.0179689
0.0830993 -0.0100272 0.166809
-0.00760949 -0.0530563 0.0341473
-0.0375133 -0.0154661 0.0228475
0.015937 0.0998215 0.0908475
0.144812 0.0198245 0.112244
-0.0333084 0.0313982 0.0650096
0.023019 0.0361079 0.0398533
-0.0184847 0.122812 0.114581
0.0657382 -0.0612085 -0.0337492
-0.0386147 0.0928397 -0.0272393
-0.0829796 -0.0304008 -0.0739619
0.107755 0.0294593 0.00279573
0.137314 -0.0282884 0.0795412
0.113799 -0.0535605 -0.0127215
0.0233517 -0.0243885 -0.0103603
0.037175 -0.00886628 -0.124221
-0.0278241 -0.0344204 0.133747
0.0178003 -0.088069 0.0173746
-0.134382 -0.0454412 -0.0466225
0.0580656 0.00432292 0.0161615
0.0872039 -0.024417 0.0128075
-0.00215388 0.0204458 -0.144666
-0.148816 -0.0576553 -0.0721118
-0.160381 -0.093822 0.162082
-0.0363781 0.0296646 0.0551138
-0.222512 0.158334 -0.142509
-0.085446 -0.0276034 0.0389442
-0.0292321 -0.0173002 -0.0912853
0.0324798 0.0484422 0.0179131
0.0815211 -0.101543 0.0448468
-0.051255 0.0638906 0.0863568
0.0623052 -0.0546283 0.0065488
-0.0234199 -0.0215121 0.0487753
0.00824408 0.0314863 -0.00914207
-0.0477482 0.0117131 0.0418578
0.126626 0.0644982 -0.06062
-0.0916282 0.0982877 0.0762639
-0.0160165 -0.114531 0.0563352
-0.00895565 0.000227519 -0.0304021
0.0879301 -0.133467 -0.0287316
0.0918002 -0.0783874 0.0499495
0.00420423 0.0555127 -0.0527939
-0.134502 0.0949019 -0.107156
0.105708 -0.00870018 0.114755
-0.146781 0.0734819 0.0706212
0.243515 -0.0322662 -0.011413
0.127824 0.0708676 0.0820909
-0.0914427 0.0282025 -0.118778
-0.0421511 0.111579 -0.117628
-0.145162 0.107212 0.0750678
-0.0259017 -0.0617563 -0.0637927
0.0472603 -0.0254151 -0.105022
0.040095 0.0466749 -0.00897005
0.00651317 -0.241927 -0.00804309
0.0974054 -0.0844092 -0.0848262
-0.0976804 0.0442668 -0.127947
0.131448 0.10378 -0.0146308
0.0914378 0.0867478 0.0599896
-0.0289135 -0.101293 0.108127
0.0781743 0.069803 -0.0546559
0.055785 -0.0928786 -0.00551281
0.00479725 0.0630777 -0.00778842
0.0797458 0.0184968 0.0742601
-0.0794932 0.067236 0.00792723
-0.147323 -0.0578359 0.0339283
0.0772169 -0.0155073 0.0514113
0.0675871 -0.057738 0.0315641
-0.0961213 0.0723945 0.0601756
0.0449968 -0.0303151 0.0283477
-0.0367655 -0.0832642 -0.0456773
-0.0166775 0.160741 -0.052473