3 12288
0.056762 -0.0976034 -0.00679763
-0.0273639 0.00714623 -0.00542817
0.0752085 -0.104563 0.0124082
-0.0328518 -0.0910035 0.0219342
0.0388257 -0.00495086 0.018466
0.0360739 -0.0405115 0.0174584
-0.0330422 -0.00471818 0.00193647
0.0174578 -0.0190716 0.0524882
-0.0121752 0.121175 -0.0732265
0.0852866 -0.000586407 0.0108648
0.0968457 -0.0371292 -0.073416
0.0829312 0.00448796 -0.0438827
0.00230877 0.0447526 0.0233801
-0.00620857 0.0849837 -0.0108854
0.0136674 -0.0746441 0.136294
-0.0103191 0.0875738 -0.0567973
0.0647367 -0.00634572 -0.002626
-0.0818383 -0.0116167 -0.0407358
-0.00570096 0.00799118 -0.0242231
0.0413705 -0.00990326 -0.0151461
0.00899616 -0.0855813 -0.0112535
-0.0512983 0.0144212 0.0267104
-0.0961632 0.0569811 0.0943372
-0.0176327 -0.0522702 -0.000219065
-0.0142116 -0.0145653 -0.00551823
-0.0505062 -0.0185173 0.0621804
0.0113156 0.024078 0.0246694
0.00949891 0.077848 0.0209793
0.0437955 0.0800022 -0.126935
-0.0130583 -0.0101515 0.0907508
-0.130074 0.0224964 -0.103755
-0.0427557 0.00819395 0.00655134
-0.00044563 0.0774579 -0.0615911
-0.0220776 0.00110198 -0.109362
0.037663 -0.0485365 0.0118737
-0.117638 -0.0268413 -0.0819195
-0.024849 0.054292 0.0868403
-0.0227087 0.0384517 -0.0442133
0.0531498 -0.0246064 0.00479757
-0.0160156 -0.0255001 0.0809211
0.0498788 -0.0186212 0.0553405
0.00746456 -0.0365937 0.0552556
0.0518344 0.0777799 -0.124518
-0.0420927 -0.0330739 0.0860072
0.00381198 0.142797 -0.0303225
0.0399046 0.00129112 -0.0627958
-0.0610905 0.101233 -0.0758113
0.0312587 -0.0618232 0.00774085
0.00260471 0.0728454 0.0384625
-0.0491733 -0.0106009 0.0624506
0.0806739 -0.0283851 -0.09189
0.12865 -0.0203685 0.0525298
-0.0433496 0.0283728 0.0939094
0.0191858 0.0240765 0.0693766
-0.0823635 -0.0135519 0.0310067
-0.0200802 0.0322446 -0.0325546
0.0953979 -0.0776286 -0.0800955
0.0145555 -0.0047618 -0.0550625
-0.0261583 0.0371007 -0.0864613
0.0284686 -0.00738326 -0.096033
0.0213516 0.024638 0.0644928
-0.0877686 0.0947718 0.0134668
0.0385104 0.100068 -0.0778927
0.00107209 -0.0606432 -0.0847383
-0.0439921 -0.0044137 -0.00644839
-0.0136014 0.0180773 -0.0392783
-0.086285 0.122195 0.0339533
-0.0198594 0.137804 -0.0318314
0.0639455 -0.0961841 0.0778558
0.0146663 -0.0244189 0.066732
-0.0634091 0.0442241 0.0730669
-0.0518797 0.0611703 0.0145848
-0.105321 -0.0233249 0.0551317
-0.0324702 -0.093329 0.00456839
0.0679017 -0.0642196 0.0456124
0.0139225 -0.137795 0.0530033
-0.0687231 -0.0539742 0.0415485
0.0100285 -0.0321603 -0.00471496
-0.0321198 -0.0545609 0.0464188
-0.115119 -0.0131445 0.124457
-0.000309603 0.072008 0.0153591
-0.0600379 -0.140172 -0.0411811
0.0197002 0.0212085 0.00903536
0.0429925 -0.0468274 -0.0373832
0.0888656 -0.016386 0.0202366
0.0103178 0.00758408 0.0726568
0.0116309 -0.0460706 0.0214203
-0.0635573 -0.0888862 0.0386506
-0.0777297 -0.0346172 0.0312093
0.05533 -0.0717441 0.130121
-0.0125437 0.0776808 -0.00404048
-0.0229118 0.0140293 0.0759174
-0.0275442 -0.00397215 -0.0377007
0.0754293 -0.0658083 0.0249387
-0.0560029 -0.0203186 0.018184
0.0331884 -0.0387687 0.0380804
0.0222539 -0.0392639 0.0564054
0.0457671 -0.0365224 -0.0102631
0.118077 -0.0745498 -0.118869
-0.00510418 -0.0994059 -0.0482177
0.0798415 0.0288145 -0.00984734
0.00859717 -0.0353983 -0.036339
0.032539 0.0699217 0.0105101
-0.0338392 -0.0286172 -0.0819231
-0.0615539 0.0250689 0.0209928
-0.178212 0.00107636 0.0447541
-0.0467079 -0.00773349 0.139397
-0.100636 -0.0141544 0.121729
0.0395501 0.0653252 0.017602
-0.0308539 -0.0240174 -0.137773
0.0572925 0.0190852 -0.0868259
0.030638 0.0126951 -0.00136303
-0.0510172 0.046072 -0.00838478
-0.0200989 0.044422 -0.0704246
-0.0471665 0.0259084 0.0637185
0.0411097 -0.0229199 -0.0496845
0.0516526 -0.0514594 -0.0134815
-0.101223 0.043205 0.0420222
-0.0225352 -0.0559193 -0.00300066
0.0499747 -0.0499699 0.0413857
-0.0158784 0.0342832 0.0709578
0.0900522 -0.0702962 0.0823916
0.0216407 -0.0963826 -0.0340326
0.0607802 -0.0174683 0.0874807
-0.0190218 0.0263947 -0.00112014
0.00290045 -0.0848876 0.0761949
0.062913 0.0197879 0.0621288
-0.108661 -0.0361572 -0.0401214
0.0169328 -0.113039 0.0169908
-0.0719656 -0.0398114 -0.0337179
-0.0272222 -0.0272644 0.0171199
-0.00593926 0.00940942 0.0130487
-0.0276155 0.00202451 0.0256467
0.0898121 -0.072751 -0.0539521
-0.00560326 0.00150786 -0.0296153
0.00236175 -0.0255251 0.0136112
0.061628 0.0304145 -0.0396283
0.018363 0.0153249 -0.04257
-0.0757785 -0.0556423 0.135223
0.0437769 -0.0153253 -0.047986
0.145155 -0.0568343 -0.0587907
-0.0276036 0.073831 0.020747
-0.00367495 0.0079937 0.0531662
-0.0432216 -0.0355036 0.0226791
-0.0672313 -6.82464e-05 -0.0658307
0.0144477 -0.000494967 0.015727
-0.0421336 0.0629676 -0.062666
-0.0216577 0.0601986 0.0764404
0.0884243 0.0685449 0.0296155
0.0283317 -0.00141613 -0.0270247
0.00702848 0.0448193 0.00662629
0.0424467 -0.0668621 0.0166405
0.0085459 0.0365985 0.00123804
-0.0157945 0.125967 -0.0721523
0.0132466 -0.0106058 -0.00226757
-0.000139142 -0.0430294 -0.00654658
0.0225478 -0.017029 0.000641967
0.0042087 -0.0796022 0.03257
0.115158 0.0769631 0.0401272
0.0143401 -0.116505 0.0723344
0.0255928 0.0338928 0.0395355
-0.0261836 -0.0301195 0.0315744
-0.0558177 -0.0922555 0.115683
-0.0168583 -0.00282716 -0.0263081
0.0116844 -0.00625547 -0.131713
0.0997454 -0.0609118 -0.0179444
-0.0336294 -0.12177 0.0173049
-0.0298483 0.0766871 -0.0202729
0.0617954 0.0851131 0.142213
-0.0347311 0.017393 0.0979733
-0.0415436 -0.0175027 0.0133009
0.0498161 -0.0210065 0.0152621
-0.0670216 0.0229129 0.0011058
-0.0343373 -0.0336092 0.0502903
0.0315368 -0.00414043 0.0570439
-0.0389975 -0.00301492 0.038731
0.0442496 -0.108792 -0.0726829
0.0634874 -0.00181436 0.00326406
0.0346887 -0.0436951 -0.0371708
0.0423519 -0.0481758 -0.0880734
-0.0408409 0.0283085 -0.059635
-0.0679923 -0.119382 -0.0588916
-0.0374462 -0.0354366 -0.0439732
-0.0136418 -0.0107947 -0.154149
-0.0302703 0.0437658 0.116331
-0.0159845 0.0540285 -0.0717043
-0.028976 -0.0270816 -0.0260288
0.0292702 -0.119662 0.15684
-0.0104579 -0.00176139 0.0496227
-0.0118577 0.148616 0.0400063
0.147921 -0.0100039 0.124105
0.00336992 -0.0455537 0.00486888
0.0305986 -0.0245234 0.00480084
-0.10356 0.0762501 -0.0527657
0.0320487 -0.0781702 -0.00762071
0.0134961 -0.00789904 0.0475986
-0.0599965 -0.0155627 -0.00600546
0.02049 -0.102387 -0.00657782
-0.0310357 0.0988653 0.0775503
0.0189797 0.0479993 0.0667293
0.0536512 -0.0607213 0.0116819
-0.0336828 -0.0101932 0.0947115
0.0130761 -0.0378168 -0.0696677
0.0513803 -0.0897428 -0.0934254
-0.0526692 0.041619 -0.0328154
-0.0523237 0.0413314 0.0864547
0.0804893 0.0710807 0.00632568
0.0163572 -0.0167771 0.0190728
-0.0308289 0.0279003 0.108732
0.120627 -0.0831543 -0.0172308
-0.0290679 -0.011469 0.00627728
0.0696746 -0.195229 0.015307
0.0654513 0.0802078 -0.0136343
-0.0625538 0.0275783 -0.0310314
0.0486307 0.0475666 0.108196
-0.0330324 -0.0102129 0.00348447
-0.0236078 0.0363837 -0.120082
-0.012635 0.098502 0.109348
-0.0534494 -0.0428362 -0.0244741
-0.0616523 -0.113639 0.0642998
0.0558594 0.101582 0.0420299
-0.0306603 -0.00305078 -0.0490044
0.0219622 -0.0442357 -0.0121345
0.0406347 -0.0663764 0.0547873
0.0240731 -0.0732387 0.0546668
0.023171 0.0162594 0.0415454
-0.0885219 -0.0218619 -0.0239522
-0.0554312 0.0189905 0.0123871
0.0258005 -0.0499851 0.0338171
0.0128044 -0.00611969 0.0455542
-0.0454686 -0.0246915 -0.0055223
-0.0761562 -0.0745549 0.088298
0.0878918 0.0297812 0.0605245
-0.0149713 -0.0828118 0.0224221
0.0241142 -0.112286 -0.00176759
-0.0172627 0.120303 -0.0297819
0.00471695 0.00189588 -0.0020195
-0.00567002 0.0564902 0.0227999
-0.0344425 -0.00413758 -0.0308459
0.0704214 -0.0975694 0.00801354
-0.0912856 0.0576273 -0.0498082
-0.067433 0.00471292 -0.0663108
0.117266 -0.0404585 -0.0641891
0.0358386 -0.0188245 0.0261848
0.121977 -0.0097938 0.0430185
-0.00369793 -0.025894 -0.0046811
-0.030642 -0.0580168 0.0192544
-0.0652292 0.0573364 0.105595
-0.0231458 0.0448049 0.00879277
0.00890743 0.034867 0.0141761
-0.0182525 -0.113862 0.0190691
-0.103455 -0.0288706 -0.0881059
0.170601 -0.0387149 0.00384116
0.0400781 0.00367463 -0.0486613
0.074231 0.00183335 -0.0264727
0.0592986 -0.0305472 -0.0398337
-0.0310842 0.0147862 -0.0944315
0.0972399 -0.00250882 0.0543872
0.0240422 0.0159361 -0.00268258
-0.0052872 -0.0218278 0.00676139
-0.0391228 0.0445438 0.0253985
-0.037104 -0.00682313 0.0336854
-0.0104908 -0.0351544 0.0140511
-0.0433813 -0.0401915 0.143562
0.107979 0.0427288 0.0134603
0.0152036 -0.102751 0.0160477
-0.0312681 -0.0343204 -0.0681636
0.0916496 0.0683062 -0.0187544
0.0221893 0.0238719 0.0305571
0.0275272 -0.0419326 -0.0360184
-0.00718575 -0.033632 -0.00214538
-0.0222388 -0.058697 0.00652414
-0.0238532 -0.00688546 0.0314233
-0.0269573 -0.0599179 0.0700284
0.0444027 -0.0384622 -0.0621475
-0.0574702 -0.00338751 0.057376
-0.0406145 0.0256169 -0.0103362
0.0369748 -0.0620343 0.0788436
-0.0101628 -0.062697 -0.0163045
0.0294189 -0.112525 0.0247211
-0.0422595 0.0532948 -0.0482056
0.0164099 0.0887163 0.0960164
0.0251104 0.0718654 -0.017858
-0.0222197 0.0156128 -0.0966963
-0.0211939 -0.00360497 -0.0242084
0.0221761 -0.104806 0.0760179
-0.00220584 0.035897 0.0420287
0.0180323 0.0413837 0.07946
-0.0315156 0.0587952 0.0291613
0.0361155 -0.0983715 -0.0169826
0.0522565 0.0361937 0.0591488
0.100551 -0.0063712 0.028806
0.124232 -0.0415875 0.083549
0.0475073 0.0442039 0.0444297
-0.0610886 0.138185 0.0428483
0.0777263 -0.00767896 -0.00861246
-0.0310127 -0.0453827 0.0092376
0.0192984 0.0287635 -0.0908395
-0.1364 -0.000229247 0.0930592
-0.0390476 0.0433113 -0.0997602
0.0494226 0.0759095 -0.0393319
0.00188006 -0.0667452 0.0662624
-0.0745234 -0.0797683 0.0258584
-0.0298553 0.0468131 -0.0358951
0.00251122 -0.102748 0.0190545
0.0307367 -0.0116506 0.119797
-0.0436035 0.133663 -0.014314
-0.103039 0.0626346 -0.0869501
-0.0209226 -0.138441 0.0613341
0.116515 -0.0126297 -0.105895
0.0298821 -0.0127724 -0.022584
-0.0361871 0.052391 -0.0164979
-0.0116882 0.0158828 0.0566767
0.0640356 0.0534713 0.0686418
-0.00694539 -0.0122378 0.0565118
0.0805005 0.0155656 -0.0509495
-0.0600234 -0.0218206 -0.00536816
0.0930175 0.00532324 0.0064004
-0.0372692 0.0223312 0.0298679
0.000586675 0.0300941 -0.0673128
0.0731186 0.0239843 0.00196541
-0.0140729 0.0183362 -0.174031
0.0563428 -0.0888514 -0.042874
0.110469 0.0723072 -0.032319
0.043055 0.0372207 -0.0479324
-0.00771341 0.0281369 -0.0344396
0.131231 -0.0293929 0.0254302
0.0898417 -0.0153658 -0.163367
-0.0049638 0.0286079 0.0513058
-0.0662757 -0.0605422 0.0783907
-0.0152117 -0.043706 -0.0890147
-0.0390777 -0.111429 -0.0528541
0.00582859 0.0797635 -0.0124384
-0.0759562 0.0759072 0.0599317
0.0203172 -0.109202 -0.0539866
0.0930279 0.0367936 0.0720463
0.0299189 -0.0844985 0.0173991
0.0424214 0.0472051 -0.0456204
0.00579162 0.0357603 -0.0955085
-0.00848529 -0.0238857 0.022396
0.0339891 0.000421076 0.0325374
-0.0021159 0.046051 -0.0478998
-0.0386991 -0.0607521 0.0194968
-0.0334676 0.0770834 -0.0710221
-0.0338178 0.0278064 -0.003501
-0.0697557 0.00466054 0.0356037
-0.0558921 0.102246 -0.0252062
0.0148595 -0.0299135 0.0351604
0.00417883 -0.000481831 -0.0779729
-0.0689606 -0.00859768 0.0178592
0.163174 -0.0270088 -0.00972341
-0.0540006 -0.117075 -0.0161377
-0.0653542 -0.00889261 0.140616
-0.0759051 -0.0133921 0.00808606
0.0896582 -0.0198092 0.0102754
0.0111577 -0.0021846 -0.0706097
0.0883569 0.00396074 -0.100272
0.0477238 -0.0322728 0.0468754
-0.0103728 0.0519713 0.0850925
0.0541736 -0.0161414 0.024398
-0.0424225 -0.0860209 0.0348235
-0.0260393 -0.019195 -0.0503398
-0.0176828 0.0365 0.00783858
0.0234447 -0.0763905 -0.0988781
0.0884764 0.0434303 -0.0248299
-0.0158603 -0.112655 0.0306801
-0.0512154 -0.0700566 -0.0235155
-0.0611861 -0.0439769 0.0413804
0.000337449 -0.0758994 0.0761297
-0.007719 -0.111627 0.0442255
0.0251253 -0.119492 0.0498885
0.00265482 -0.0283402 -0.0559791
-0.0232968 -0.124232 0.0174971
0.0108634 -0.121266 0.0790593
-0.0513505 0.0138097 -0.0648468
0.0242626 -0.0524798 0.0703314
-0.0352442 0.0084601 -0.0958179
0.0981532 0.0305472 0.0129743
0.0745056 0.0660442 0.128831
0.0255025 0.0331442 -0.0604571
-0.0418466 0.101874 -0.110246
0.0612655 0.066993 0.00594488
0.0850188 -0.043365 0.0441164
0.0735301 0.0140416 0.0459306
-0.030125 -0.0105264 0.0264856
0.181826 0.0390005 0.0505365
-0.0652465 -0.0630187 -0.104548
0.101103 0.0441852 0.0273381
-0.0583512 0.0490677 0.0777584
0.0610665 -0.0171004 -0.0905656
0.0414857 0.0610587 0.00121219
-0.0317049 -0.00692741 -0.0410597
0.0375054 0.119143 0.0302491
0.0260995 0.132464 -0.0583021
-0.000165493 -0.012156 -0.0915959
-0.0473276 0.0851152 0.095078
0.127299 0.0113943 0.00663622
0.0951524 -0.0240033 -0.0773038
-0.0189848 0.142444 0.00405617
-0.0747709 0.0760952 -0.0669321
0.0452584 0.0490676 0.012933
-0.120772 0.0391024 0.0525698
0.0210054 0.0605018 -0.00282333
-0.0474887 0.126646 -0.0663167
-0.0327633 0.0751452 0.0762361
0.00457402 -0.0271977 -0.0343957
0.057692 0.0645545 0.0457069
0.038346 0.0219872 -0.0519062
-0.149625 -0.0629724 0.120474
0.0404446 0.0409214 0.00508771
0.0146715 0.0267864 0.0878984
0.00736062 -0.0989525 -0.022788
0.00179067 0.0385052 0.0792633
-0.0744766 0.0879121 0.11113
0.0444503 -0.00708391 0.0105536
-0.0683142 0.00308737 0.00537543
0.128593 -0.0293731 0.0302642
0.00342826 -0.0509788 -0.0468393
0.018561 -0.0476403 0.0509039
-0.0978515 -0.025871 0.0682565
-0.0727828 -0.0209154 -0.0118558
-0.0106334 0.00661725 0.0314149
0.0391633 0.0583158 -0.00651052
0.101882 -0.0302812 0.0339712
-0.0342138 0.0135242 0.0596064
-0.0232608 0.021565 -0.0270457
-0.0153484 0.0391373 0.00691346
-0.0754817 -0.00417626 0.0153008
0.0171729 0.105026 0.12667
-0.0168382 -0.0719816 -0.101189
0.0411612 -0.132765 0.0029983
0.0641881 -0.0359772 0.0579263
0.00835606 0.0291402 0.0174038
-0.0220602 -0.0752734 -0.00260017
-0.0652817 -0.0242197 -0.100411
-0.0407512 0.0451304 -0.028903
0.110168 -0.0764406 0.0622753
0.0970615 0.0860765 0.105763
-0.0584871 -0.125837 0.00345028
-0.134664 -0.0701318 0.0853816
-0.0217386 0.00313153 -0.0463164
-0.0790558 0.0756056 -0.0371409
-0.00541613 -0.0101146 0.0420406
0.0370869 -0.0937693 0.0830303
-0.0189236 0.120718 -0.072129
-0.00273668 0.0760186 0.0316152
0.00262037 -0.0169012 -0.0530954
0.141981 -0.0751325 -0.120715
0.00785919 0.164962 -0.0427009
0.0905559 0.0490514 -0.0513582
0.0219673 -0.0467675 0.0167341
0.00318014 -0.00791629 -0.0793668
0.0388881 -0.0482777 -0.0323125
-0.00356507 -0.078053 -0.0161404
0.020466 0.0836073 -0.132999
0.0145595 0.0665963 -0.0860986
0.0346965 0.047038 -0.0785269
0.00281505 -0.0148926 -0.0395657
-0.151925 -0.0347507 -0.048438
-0.0436822 -0.0323641 -0.0257207
-0.0676267 0.0265054 -0.0935403
-0.00493743 -0.091751 0.0965033
0.0876668 0.0307034 0.1055
0.0426792 0.0419517 -0.045131
-0.0431134 -0.0225099 0.00758115
0.0260824 -0.0326291 0.105101
0.00682531 -0.0388543 0.0421858
-0.0302497 -0.0582856 0.0736179
0.0108853 0.01123 0.100432
0.00264473 -0.0218289 0.0536573
0.0674531 -0.0744199 -0.143508
-0.0501236 0.114946 -0.0456998
0.0191253 0.0571813 0.0309207
0.0265777 -0.00981833 0.0323777
-0.0093336 0.0106964 -0.0379501
0.0529938 -0.0207829 0.00685946
0.0789268 -0.0509083 -0.0293287
-0.026478 -0.0758879 -0.0272759
-0.000352085 -0.0386811 0.0161446
0.0540721 0.0201334 -0.0822383
-0.0171006 0.0344688 0.0044249
-0.0753727 0.0294104 0.0114136
-0.0385992 0.046008 -0.00222821
-0.0123623 0.031616 -0.0128498
0.0609564 0.0963423 -0.0219569
-0.0247698 0.00981104 -0.0358677
0.0614693 -0.0496938 0.0108676
-0.0174431 -0.0215012 0.0159082
0.0203617 0.00063099 0.0248091
0.0430485 0.00178203 0.0154726
0.0227786 -0.0683871 -0.0172434
0.0404426 0.0308982 0.0347738
-0.0191087 0.0254461 0.00805447
0.0207216 0.00267377 -0.0308584
0.0126938 -0.0339209 -0.0255926
-0.0863644 -0.0212191 -0.0401639
-0.0723871 -0.0247317 0.0612314
-0.0115455 0.0291277 -0.00434707
-0.0937967 -0.0618759 -0.0888523
-0.0639215 0.114161 -0.0590914
-0.0296643 0.0558101 -0.0280793
0.0147806 0.0189485 -0.111891
-0.0365937 0.0525552 -0.0414808
-0.0236148 -0.0572034 -0.0249538
0.0146951 0.01783 -0.0501271
-0.0344813 0.0323406 0.0293888
-0.0232552 -0.0151822 0.044654
-0.11464 0.025382 0.0452696
-0.0597484 0.0148584 0.0775245
0.0800475 0.0142102 -0.0173556
-0.0434125 0.0356833 0.142586
-0.00247117 0.0818828 -0.0891221
-0.0224663 -0.0384298 -0.039776
0.038901 -0.0496355 -7.06281e-05
0.0681168 0.00656392 -0.0885919
0.0758103 -0.0728801 -0.0163361
0.105385 0.0209765 0.00914057
0.0471393 -0.0315325 0.0592182
0.056132 0.00751263 0.0626384
0.0233348 -0.0234895 0.001257
0.149591 -0.0826534 -0.0157052
0.107209 -0.0508409 -0.108808
0.0743575 -0.0357468 0.034199
-0.103533 -0.0128668 0.000482119
-0.0725914 0.0864828 -0.0935171
0.047121 0.0125415 0.0664223
-0.0105948 0.00299748 0.0665586
-0.00193934 -0.00275956 -0.000321404
-0.012615 -0.0331788 0.012809
0.0195707 0.0384535 0.00336093
0.0538664 0.0158318 -0.0406775
-0.126258 0.000393223 -0.0355655
-0.00055344 0.0533605 -0.0221586
-0.0102046 0.0438169 -0.0241169
0.0180099 -0.00018464 0.0489688
-0.0399656 0.0179225 -0.044786
0.0162992 0.0179657 0.0123094
-0.0580993 0.0828231 0.0593759
0.081067 -0.0129569 -0.0110496
0.075142 0.101688 -0.0201575
0.00167499 -0.0736019 -0.0847832
0.0193339 -0.0355764 0.0677864
-0.00935735 -0.0322922 -0.0969298
-0.0320912 -0.0532319 0.0666744
0.0204471 -0.0442367 0.00246364
-0.0764733 -0.0469176 -0.0235125
-0.0233729 0.0237402 -0.128081
0.0965647 -0.0347065 -0.0954322
-0.011192 -0.0387609 0.0151335
-0.0697638 -0.00673179 -0.0300599
-0.0489494 -0.145241 0.0301845
0.080062 -0.110721 -0.0453588
0.0193079 -0.0721325 0.0329003
-0.0551134 -0.125546 -0.0500224
0.0168386 0.0168494 -0.0343101
-0.0562647 0.00597221 0.0609912
0.0252351 -0.0383552 -0.100533
0.0640427 0.0578921 -0.00540534
-0.0187428 0.0321938 0.0273151
0.00790095 -0.0879073 0.0441184
-0.119964 0.0766815 0.0164699
-0.000603041 -0.0134208 0.0386952
-0.00743939 0.0932164 -0.0427396
-0.0265172 -0.0305187 0.068148
0.0452278 0.00978575 0.00402404
-0.0575274 0.0822292 -0.000584768
0.00237961 -0.10425 0.0840501
0.05028 -0.0931462 -0.0407619
0.0725215 -0.00250101 0.0680176
0.0209878 -0.0169059 0.0953404
0.080279 0.0229187 -0.0648632
-0.05754 0.0937981 -0.0190005
-0.0191553 0.104134 0.0580743
-0.0357521 0.0329634 -0.0234208
0.0766296 0.0247929 -0.0267561
-0.0323687 -0.0231165 0.0404125
-0.0778167 0.0926268 -0.0120681
-0.076323 -0.0414149 -0.0450966
0.0759532 0.0100315 0.00747731
-0.0414604 0.166136 0.000304721
-0.0663564 -0.0114111 0.0510914
-0.118416 -0.00853237 -0.01057
0.0122437 0.0246518 -0.017689
-0.0153259 -0.0382846 -0.0248822
-0.0373381 -0.00199307 -0.123897
-0.0621837 0.0641997 -0.00382337
0.111301 0.101834 0.142853
-0.0455497 0.0517694 0.0290692
0.0788298 0.0294526 -0.0934535
0.0450018 -0.00854718 -0.0262127
0.11654 -0.131779 0.127586
-0.0123098 -0.00502276 0.0141436
-0.154973 0.0693957 -0.0249743
0.0702345 0.0684628 0.0263022
0.00882423 0.0348002 0.0241222
-0.146389 0.0171899 -0.0824139
0.00253917 -0.0595044 -0.0242689
-0.0488291 -0.0566345 0.0320781
0.0119377 0.0129472 -0.0262735
0.0688204 -0.0943681 0.0101922
0.07867 -0.0479673 -0.123558
0.0205534 -0.0969926 0.0208337
-0.00956248 -0.0565361 -0.0352684
0.100612 0.138606 -0.144462
-0.0549722 0.10639 0.0664725
-0.017003 -0.0770802 0.0510239
0.0271674 0.000802759 -0.0090665
0.0715985 -0.0299538 -0.130996
0.0846721 -0.0472009 -0.0950067
0.0420725 -0.0371425 -0.0133563
-0.0761185 0.0709963 -0.070315
-0.055586 0.00158092 -0.14648
-0.0181553 -0.0103943 0.0345785
-0.0133312 -0.0136468 0.0344016
-0.0610124 -0.072621 -0.0168198
-0.0321151 0.0470504 0.102754
0.0457822 -0.06628 0.118028
-0.00313753 0.0592141 -0.117231
-0.0155954 -0.0388623 0.0814267
-0.0249738 -0.0889799 -0.0763118
0.0966901 -0.0621932 -0.110183
0.1116 -0.0330025 -0.0137873
0.0370222 -0.0086143 -0.0714904
-0.00994149 -0.0793161 0.0507835
-0.0437076 -0.0564371 0.00847998
-0.0516424 -0.0747138 -0.0284027
-0.00385689 0.125634 0.0498996
-0.00980652 -0.0549838 0.0835788
0.0574781 0.0743031 -0.0907071
-0.0665796 0.0179006 0.0381976
-0.0124153 0.0146117 -0.00575721
-0.0424426 -0.0718329 -0.0522891
-0.0090009 0.00940651 0.0519906
-0.0264786 -0.00138535 -0.0800446
-0.0991679 0.0244017 0.0759266
0.0447292 0.0117068 0.0593665
0.0144694 -0.0757372 -0.102657
0.0132152 0.0819237 0.0109076
0.101404 -0.0394866 0.00655969
-0.0506448 0.0554212 0.0523623
0.0773042 0.0200403 -0.0197023
0.0625017 -0.102466 0.00382026
0.0114203 -0.060636 0.100834
0.0139821 -0.0279621 -0.0637572
-0.142507 0.03269 -0.00808983
-0.0753651 0.0375511 0.00109891
-0.0129283 -0.0365308 0.0959301
-0.101423 -0.0740754 0.0885303
-0.0393246 0.040939 0.023502
0.0906744 0.0555631 -0.0130508
-0.00920362 -0.0221746 0.0322075
-0.00978768 0.0825923 0.017499
0.0642025 -0.03877 -0.0790861
0.00974565 -0.0704478 0.0450796
-0.0240913 -0.0271284 0.0603616
0.0341264 -0.0629744 0.0107096
-0.019763 -0.00103476 -0.011932
-0.103289 -0.0298149 0.0774307
-0.00968965 0.0233906 0.00728988
0.00860396 -0.0139484 0.0195422
0.024579 -0.0760833 -0.116934
-0.0350042 0.0639782 0.0317138
0.0761332 -0.0616601 -0.00286126
-0.0226954 0.0120586 0.200494
0.00107116 -0.0132825 -0.0809805
0.0689183 -0.0831058 0.0912926
-0.0492617 -0.0815029 0.0168595
-0.0323247 0.0405778 0.0570594
-0.0582035 -0.00803745 -0.0186792
0.0188909 -0.113083 -0.00313679
0.0193398 -0.05817 -0.028425
-0.0562814 -0.157098 0.0398682
-0.0740199 0.0397623 -0.00497645
-0.0655231 0.00367967 0.0654944
-0.0239652 -0.0371783 0.0449121
0.0801176 0.000636746 -0.0650391
-0.0451869 0.032613 0.0131155
-0.0409206 0.0331909 0.0265901
-0.0284997 -0.0182647 0.0557205
-0.00849206 -0.0645273 0.065521
-0.00529057 0.0488158 -0.0262853
-0.0208439 0.0317909 0.0294053
0.07969 -0.0590783 -0.0682051
0.0607816 -0.0238638 -0.0457198
0.11749 0.0296069 0.162214
-0.0969015 0.0282263 -0.0616367
0.031463 -0.0120234 -0.0189705
-0.119563 0.103983 0.0238186
-0.0164252 0.0118968 -0.00570693
0.0220724 0.00938246 0.0127489
-0.17105 -0.0477681 -0.0266563
-0.00537101 -0.04588 0.0190477
-0.0154877 0.0696188 -0.0496519
0.0326906 0.0899432 0.0161707
0.0659883 0.0177062 0.062229
-0.0907056 0.00497361 -0.0396192
0.101764 -0.0202799 -0.0441215
0.0660183 0.0718193 -0.000953362
-0.0346212 -0.00962617 -0.044763
0.0183356 -0.00764545 0.0032816
0.0873897 -0.148355 -0.00437459
0.0261884 -0.0551502 0.0238516
-0.0899074 0.118939 0.025866
0.0235223 0.0583626 -0.0218725
0.032398 0.0114501 0.0230872
-0.0773949 0.029049 0.0899375
0.00609361 0.0468579 -0.073355
0.0267837 -0.0958872 0.0632183
-0.0497626 -0.101619 -0.061268
-0.0333011 0.049301 0.0585381
-0.132087 0.111987 0.0488068
-0.0362228 -0.0708851 0.0774676
-0.0732925 0.0049562 -0.0158111
-0.00889021 -0.0454194 -0.0702391
0.0964453 0.114897 -0.0826071
0.00616661 -0.000273842 0.0677289
0.0569069 0.0610141 0.0307711
0.0251481 -0.0151823 -0.00376786
0.042056 -0.043451 -0.0828188
-0.137882 0.00391025 0.0316002
-0.155513 -0.0829309 -0.042859
-0.0127732 -0.0569097 -0.0150918
-0.0824822 -0.0358455 -0.0266126
-0.0128982 -0.0241363 0.0392939
0.0763304 -0.0642151 -0.0292174
0.0853191 -0.0942291 0.0497596
-0.0543192 0.0715871 -0.00359091
0.0170717 0.0118356 -0.0193797
0.0894672 -0.067032 -0.0290568
-0.0223305 0.0349187 -0.0767344
0.0684436 0.143254 -0.0970853
0.0467766 -0.111664 0.00550828
0.0932604 -0.0194323 -0.0428742
-0.0262627 0.0588943 0.00839152
-0.0667974 -0.0240814 -0.0402721
-0.0760749 -0.00385142 -0.0144683
0.0193142 0.0323768 0.0457059
-0.0064592 -0.0556024 -0.0289841
0.0129717 -0.0240095 -0.107597
0.0244338 -0.0516582 0.0455157
0.0474119 0.00426652 -0.00135182
-0.0830619 -0.0124258 0.0524957
-0.13138 0.027301 -0.0588521
0.0451817 -0.044493 -0.0458043
0.103835 0.00505273 -0.031147
-0.00871292 0.0368154 -0.0158268
0.0890012 -0.048757 -0.128363
-0.150351 -0.0140392 0.0183544
0.0598887 0.0423507 -0.0465813
0.0557062 0.178926 -0.055022
-0.0656297 0.0163848 0.0167951
0.0389181 0.0226188 0.0708385
0.0356184 -0.0217555 0.0976751
-0.0875404 0.0763831 -0.00960052
0.0113041 -0.0447086 -0.026671
0.10138 0.0698047 -0.0637539
0.0371689 0.0156825 -0.037721
-0.0755955 -0.060712 -0.0685073
2.56698e-05 -0.0266828 -0.00205161
0.0378889 0.0532163 -0.0382681
0.0252105 -0.0404546 0.0431936
-0.0137724 -0.0500125 -0.050735
-0.0141671 -0.0227974 0.0114513
-0.00780112 -0.00154168 0.0341785
0.0609074 -0.0339945 -0.0339476
-0.0208559 0.0324168 0.119151
0.102054 0.0287085 0.0148546
0.0882216 -0.0387852 0.0499779
-0.063746 -0.0479904 0.0502366
-0.0199776 -0.0165992 -0.0447836
-0.0488677 -0.00536239 0.0546482
0.000978523 -0.0921039 -0.0909428
-0.0979575 -0.0963693 0.0161521
0.00154418 -0.0851612 -0.0911787
0.0924233 -0.0378888 -0.131566
0.0841438 -0.00353741 0.0190449
-0.0144104 0.0681639 -0.088212
-0.062357 -0.05349 0.113975
-0.123923 -0.120417 -0.0210087
0.00791836 -0.00665774 -0.0595414
0.0714374 0.0320369 0.0664917
-0.0593429 -0.0466573 -0.0369816
-0.036821 -0.0630556 -0.115165
0.0233446 -0.0349864 -0.00148596
0.0470202 -0.046419 0.139944
-0.026673 0.00587859 -0.0240322
0.0397225 0.00308418 0.0602018
-0.0438431 0.115486 -0.0819685
0.128503 -0.00174896 -0.10247
-0.0849907 -0.000788599 -0.102984
0.0872934 -0.0119933 0.0505545
0.0528451 0.0629229 -0.122511
0.073944 -0.0115318 -0.0148154
0.00316635 0.0646315 0.0289473
-5.48777e-05 0.0343398 0.00827144
-0.0397043 -0.00454829 -0.126899
0.0898273 -0.0376118 -0.0707295
0.0233942 -0.00439823 0.000859159
0.0433937 -0.0198786 0.0477192
-0.00543084 -0.0967077 -0.0074068
-0.0300422 -0.00943984 0.147741
0.0107861 -0.0293094 0.0216726
-0.00653213 -0.0590793 0.00581289
0.104938 0.109744 -0.0265316
0.0258592 -0.022655 -0.0385144
0.0313157 0.00611999 0.0121157
-0.0754169 -0.0297127 0.0526842
0.016337 -0.118921 -0.0767482
0.0798131 0.126885 0.024534
-0.134374 -0.00759199 -0.056042
0.0459224 0.0342212 -0.0579484
0.0694523 0.047523 -0.110599
-0.131169 0.0315361 0.0300967
-0.0643943 -0.0448329 0.0140194
-0.0689619 -0.0181893 -0.063825
-0.00493653 -0.0167888 0.0513437
0.109914 0.0306394 0.000326311
0.0443191 0.0413689 0.0585555
-0.108897 0.0950095 0.017725
-0.0387695 -0.0667455 0.129611
0.0582658 -0.0415711 -0.00459926
0.00129959 -0.0161728 -0.00380594
-0.0750718 -0.0122883 -0.0788568
0.0462045 -0.133275 0.0306175
0.0677449 -0.0420897 -0.0969212
0.0427933 -0.00392179 0.0512675
0.0840006 0.0246181 -0.0629776
-0.158207 0.0643084 0.0707931
-0.0888235 0.109147 -0.0406428
-0.0696651 0.0267249 0.0390294
0.117951 -0.0443869 -0.00134484
-0.0425841 0.0582382 0.0818956
-0.0401998 0.0739873 -0.0725812
0.0194809 0.0229299 -0.0575747
0.091011 0.139183 -0.0348144
0.0600269 0.00304371 -0.0286231
0.00670986 -0.0603019 -0.0375582
0.0248398 0.0579993 0.121003
0.0575418 0.0117275 0.0715979
0.134095 -0.0288075 -0.0925514
-0.0196499 -0.0662702 0.00297114
0.0446379 0.00885672 0.0831584
0.100423 0.0275975 0.073787
-0.00385334 -0.0183816 -0.027127
0.0119319 -0.0330184 -0.0682528
-0.00269817 0.0176659 0.0499085
0.10739 0.0133916 -0.0625089
-0.00860706 0.0683143 -0.0657153
0.00875845 -0.00901708 -0.0163816
-0.0411685 -0.0456424 0.0117057
0.00738456 0.139707 -0.0456127
-0.0552214 0.0582766 -0.0583641
0.0575559 -0.0221906 -0.0790485
0.00404764 0.00728101 0.000380804
0.0303558 -0.00763222 0.0856559
0.0602936 6.61221e-05 -0.0512847
0.0437675 -0.0523974 -0.0146445
-0.0642256 -0.00704641 -0.0203745
0.0311045 -0.0263984 -0.0894042
-0.0538193 -0.0859209 -0.01855
0.0508378 0.0695699 0.0322637
0.0182679 -9.43406e-06 -0.103239
0.0395867 -0.0529108 0.00146873
-0.0298857 0.00711077 -0.00474274
0.0297725 -0.0213962 0.0153038
-0.0661807 0.060699 -0.00211027
0.0661942 -0.0030001 0.0168953
0.0712266 0.0328354 -0.0106213
-0.0736751 -0.0460039 0.0630677
-0.0412627 -0.0882388 -0.0371284
-0.0235519 0.08991 0.0771592
0.0257272 0.0939739 0.0571862
0.0424034 0.0260544 -0.00131093
0.0018426 0.105566 0.0747692
0.131927 -0.0577658 -0.0530129
0.0389318 0.000336105 0.0179663
0.0328939 0.055367 0.0171503
0.00384435 -0.0404023 -0.0670467
-0.152877 -0.0410124 0.0332081
-0.0195335 0.0533081 -0.0637708
0.0355313 0.0723523 0.0120789
0.0614734 0.0497326 0.0823331
0.0718453 0.0310246 0.0333452
0.0639188 -0.121158 -0.00512924
-0.0451242 0.0515479 0.0685723
-0.0517274 -0.065635 0.106804
0.0320556 0.0902685 -0.0126272
-0.142091 -0.0207266 0.133324
-0.034584 0.0231476 -0.0378432
0.0113468 0.0437223 -0.0221215
0.0959618 0.00556045 0.00607072
-0.0554881 0.0696733 0.00348001
0.00834195 -0.0556843 0.0115027
0.0236319 -0.0141015 0.0140048
0.00113759 -0.0276965 -0.0859208
-0.0531971 -0.000173458 0.123697
-0.0987866 -0.0410499 0.0638223
0.0351361 0.0474048 0.0288324
0.0113154 0.000676764 -0.0256005
-0.058797 -0.133133 -0.0376132
0.0317999 0.0722352 -0.00840573
0.0446697 0.0211586 -0.0633712
0.0533959 0.0433197 0.0303329
-0.00686226 0.0549611 0.100354
0.00559237 0.0404697 -0.0760197
-0.0120943 0.0202274 0.0254755
0.0429735 -0.0479365 -0.00986919
-0.0557173 0.0304436 -0.0280953
-0.0773214 -0.0247183 0.046093
-0.0222427 -0.0172961 -0.00338739
-0.0282837 0.0320674 -0.0277209
0.0940598 0.0407189 -0.0872809
-0.0775779 0.0519772 0.0535173
0.00862309 -0.0908788 -0.0184881
0.0271178 -0.0245993 0.035459
0.101111 0.0721996 0.00858952
0.0849971 0.0823254 -0.00326585
0.0186406 -0.0149607 -0.02536
-0.070964 0.0577679 0.0362346
-0.0124515 0.0569646 0.0336262
0.0794143 0.0287037 0.0388674
-0.0600493 0.100654 -0.0480728
-0.0156248 0.030746 -0.0650972
-0.0551623 0.0137483 0.0484412
0.00236507 -0.138411 0.0184075
0.0197876 0.0525176 0.000381319
0.00670756 -0.0528097 -0.0108689
0.0749697 -0.0131772 0.0141312
0.118541 -0.00236887 -0.148104
0.102489 0.109754 -0.0886514
0.0502638 -0.0210286 -0.126882
0.0526868 0.0093728 -0.0294977
-0.148961 -0.0620068 -0.127012
-0.0703748 0.0687894 -0.0481428
-0.094385 -0.0474741 -0.109961
0.12488 0.0426245 0.0158159
-0.0264125 -0.00547842 -0.0490353
-0.0216306 -0.00365329 0.0443151
0.0892215 0.0113163 0.0122081
-0.00467126 0.06771 -0.0955556
-0.0173736 -0.00181339 0.0121613
0.0259226 -0.039554 -0.0432633
-0.00392713 0.0409121 -0.0737662
0.0132933 0.0285663 0.0214908
0.0473642 -0.0100467 0.0393746
-0.099167 0.0960376 -0.0349118
0.0377391 0.0288178 0.0154033
0.0165113 -0.00972665 -0.0311871
-0.0575962 -0.0314 0.0417156
-0.0658285 0.0210175 -0.0263507
0.0400593 0.00621773 0.0442702
-0.163499 0.065887 -0.0053844
-0.0365163 0.0654527 -0.0264902
0.0325699 -0.0794895 0.00529754
0.0328836 0.0258318 0.04103
-0.0364612 0.0237007 0.0269045
0.0818978 -0.081595 -0.022016
0.145721 0.00622533 -0.0209243
-0.0384054 -0.0159433 0.0929253
-0.020329 -0.0585681 -0.0739355
-0.030834 0.0423897 -0.0113373
-0.00729322 0.0588441 0.124483
-0.0915882 -0.0313206 0.0685497
0.0125642 0.10373 0.00670281
0.030801 0.01964 0.0713282
-0.0249653 0.0454602 -0.0418431
-0.0655388 -0.0221138 0.00409275
0.0331433 -0.127324 0.0485744
-0.0910712 0.113672 -0.0913009
-0.00237228 -0.0685355 -0.0120989
0.0296433 0.0104711 0.0106901
-0.107037 -0.00517219 0.106044
0.0729867 0.0620847 0.0288912
-0.023712 0.0122363 -0.0212665
0.0531943 -0.0178857 0.0272889
0.0334317 -0.0216034 0.0453156
0.0187064 0.0116119 -0.0808394
-0.0486078 0.0166009 0.152227
0.0381589 -0.017226 -0.0385737
0.0267757 -0.0274271 -0.0523023
0.012435 -0.0326931 -0.0198328
-0.0136984 0.00446585 0.0130859
0.107132 -0.0532292 -0.107027
-0.0379653 -0.0654182 -0.0276343
-0.00860016 -0.0189338 0.129451
-0.0254849 -0.0929666 -0.0402169
-0.0456544 0.0658448 0.0298777
-0.0689187 0.00685838 -0.123401
0.035528 -0.0256883 0.0290183
-0.0307476 0.0488092 -0.0252381
-0.10315 -0.0290533 0.0323771
0.0349797 0.00180036 -0.0619782
0.0710596 -0.063931 -0.0779888
-0.0314051 0.06322 -0.0256163
-0.00884486 -0.00942923 -0.000978892
0.00682167 0.0468248 0.0159778
0.0199383 -0.072813 -0.0865941
-0.0903749 -0.0190588 -0.149443
-0.0304647 0.0532873 0.0355453
-0.000927344 -0.039628 -0.0651578
0.0117645 0.0506569 -0.00569678
0.0646416 0.0186824 0.000205741
-0.0296905 0.00450617 0.0208337
0.0743507 -0.0450507 -0.0334164
0.0397336 -0.0334982 0.0827539
0.0503283 -0.0475092 0.0800697
-0.0148537 -0.0044367 -0.0571333
0.085749 0.0221329 -0.00677088
-0.0559489 0.0779397 -0.0236335
-0.0346372 -0.0458982 0.0744151
-0.0578304 -0.0913122 0.0473822
-0.10316 0.103553 -0.08365
0.0408568 -0.158587 0.0974696
-0.0283421 0.000189769 0.00494284
0.0224389 0.0441031 0.0396251
-0.0362058 0.0426165 -0.00773964
0.0353691 0.079313 -0.00924219
0.111699 0.0447054 0.10948
0.0248528 0.0230469 0.0414517
0.0826421 0.0384669 -0.0119708
-0.00982549 -0.0213082 0.0158032
-0.0694507 -0.103802 -0.016087
-0.0287066 0.0272253 -0.0011673
-0.0339193 -0.0362665 -0.193197
0.0827722 0.0494717 0.0504692
0.0165778 -0.0270843 0.0572388
-0.0192116 -0.106703 -0.0544299
-0.010353 -0.0802706 -0.0368354
-0.0708227 -0.0401967 -0.0363934
-0.033445 0.104361 0.0572079
-0.0567051 0.043902 -0.0132215
-0.0185346 -0.0551425 0.0741981
0.0336066 0.0460819 0.0224869
0.103585 -0.0480721 -0.0534934
0.0327837 -0.0101172 0.0525786
-0.0945714 -0.0589102 -0.102298
-0.0431665 0.0616561 -0.0425552
0.0186571 -0.0142929 -0.0179778
0.0177249 0.0234905 0.0519806
0.045893 0.0113626 0.0470197
0.000584726 0.0615071 -0.0494819
-0.033632 -0.0171025 0.0304817
-0.0186823 0.0325786 -0.0515163
-0.0649175 -0.0814149 -0.0744166
-0.0217218 -0.0806173 0.0525269
-0.0373121 -0.0201768 0.0220326
0.0407149 -0.0752807 -0.0430383
0.130313 -0.0226889 0.0254437
-0.0175326 0.106486 0.042726
0.0766845 0.0232984 0.0840552
0.0220329 -0.0969751 0.0431663
0.022211 -0.0675933 -0.109485
0.050685 -0.0881204 -0.0781653
0.006881 -0.0362125 0.0254135
-0.106124 -0.106858 -0.0111676
0.0464938 -0.00229468 0.0541314
-0.0576695 0.00773424 0.0266877
-0.0680496 0.0316583 0.0664971
-0.0113893 -0.0194846 -0.0324624
-0.108036 -0.0147976 -0.0122675
-0.0288775 -0.050686 -0.0463437
0.0490096 0.00602215 -0.0675413
0.0572395 0.0102103 -0.0848761
-0.0100684 0.039154 0.0211035
0.00247616 0.181004 0.00273203
0.00305559 -0.0423707 -0.00785731
0.0244771 0.0448265 -0.0985239
-0.102658 -0.0142686 0.035993
0.082241 -0.0993306 -0.0539528
-0.0427194 -0.0332455 -0.0368997
0.104116 -0.073361 -0.0690443
-0.0110226 -0.0385512 0.044071
-0.114825 -0.0399904 -0.0415971
-0.0174289 -0.0531976 -0.0535986
-0.0636138 -0.0416843 0.00838183
-0.0347176 -0.00576357 -0.000757072
-0.0444536 0.0427113 -0.102743
-0.0076607 -0.00621365 0.00709356
-0.048811 -0.018896 -0.0484279
-0.0769385 -0.00140853 -0.0640003
-0.00683612 -0.0975213 0.0979291
-0.0320879 -0.0117836 -0.0127386
0.00631216 0.0585385 -0.0386487
-0.0296535 -0.0716134 -0.0652423
0.0387846 0.0738273 -0.0136554
-0.0210887 0.00709589 -0.00377211
-0.0206516 -0.0984666 -0.0205911
0.133691 -0.0267951 0.0349879
0.0322178 -0.108711 0.0901354
0.0260329 0.0502436 0.048314
0.0754527 0.0418486 -0.0582628
0.00920361 0.0090282 0.0668302
-0.00868557 0.029585 -0.073704
0.00557637 0.0640059 -0.0799984
0.0491005 0.0180996 -2.94869e-05
-0.0698386 0.00664327 0.0841728
0.0497632 0.117229 0.0123584
-0.0103425 0.0276911 0.0474383
-0.0455926 0.042192 0.0424327
-0.0374217 -0.0421957 -0.01068
-0.0712951 0.00968795 0.0343547
-0.0649817 0.0875201 0.0317543
0.0610254 -0.0246155 0.17813
-0.0177142 0.109222 0.0620881
-0.0728949 0.00538519 0.0883019
-0.0372463 -0.0614444 0.0684824
-0.0332976 0.0643268 0.0446951
0.0412886 -0.0356939 0.0198709
-0.0331621 -0.053092 0.0321471
-0.0243897 0.013468 -0.00349053
-0.0184047 0.0709236 -0.124303
-0.0837932 -0.126754 -0.0170392
0.109868 -0.0400117 0.0683714
0.0198135 -0.0161267 0.0023982
0.0134506 -0.0242975 -0.053313
-0.0218965 -0.0622645 -0.0404853
0.0654406 0.0489008 -0.0351295
0.0366732 0.0324003 -0.0600452
0.0848802 0.113832 0.0476697
-0.109482 -0.0120948 -0.0335956
0.0195634 0.00653306 0.0287367
0.0314622 0.00192578 -0.0150041
0.0503338 -0.00519291 -0.0339049
-0.0411568 0.0314882 0.0962099
-0.00836092 -0.0214187 -0.0019638
-0.0112779 0.0209059 0.0443941
-0.0888734 -0.124717 -0.0162366
-0.0732619 0.0780467 -0.0121382
-0.0131249 -0.0597689 -0.0449587
-0.0461481 -0.0167138 -0.0466757
-0.0421309 -0.0564261 0.0537402
-0.0325806 0.0530096 -0.0260992
0.039053 0.046855 -0.0492584
0.0396387 0.0284853 0.0324467
-0.00294366 0.0498622 0.0649624
-0.0141625 -0.108735 -0.0126054
-0.0139191 -0.0524497 -0.0703838
0.0106097 -0.00943853 0.0855935
0.0605801 0.0458072 0.1246
0.000904287 0.0850207 0.042047
0.00255152 0.0812707 0.011693
-0.00617707 0.0429163 -0.000124214
0.0359674 -0.0435709 -0.0138676
-0.0746112 -0.0919349 0.0393032
-0.0201135 0.0500572 0.123598
0.0367424 0.0975256 -0.0539618
-0.00557881 0.0203513 -0.00569547
0.0188607 0.0468708 -0.0545614
0.00899827 -0.0524831 0.0403067
-0.0397213 -0.0289983 0.0034101
-0.0883144 -0.0434644 -0.0450802
-0.0396354 -0.0633003 -0.0356693
0.0587986 -0.0247349 -0.0383704
0.0148443 -0.092025 -0.0623295
0.106724 -0.0520757 -0.0258193
0.0408957 0.0604205 -0.0251141
0.112892 0.0279826 -0.0460059
-0.026064 0.0236986 0.106677
-0.0585108 0.053627 0.216245
-0.0756142 0.0500428 -0.0395672
-0.0474854 -0.00605763 0.0538204
-0.110423 -0.0344967 0.0469935
0.0293669 -0.0318101 0.059985
-0.0434811 -0.0264962 0.00594648
0.00867936 0.0256895 0.041155
0.0105593 0.0505098 0.0028151
0.0295282 -0.131178 -0.0379461
0.0626669 -0.0974193 -0.0676658
-0.0114449 0.0948484 -0.0219642
0.0144556 -0.0211212 0.087908
-0.0443162 -0.0204111 -0.0233537
0.0290165 0.0553951 0.0671082
0.0634377 0.10521 -0.0420214
0.0826358 0.0521755 0.0576753
0.00978179 0.105951 0.060074
0.141151 -0.105372 0.12161
-0.0990507 0.079095 -0.0842238
0.0291064 0.0712569 -0.0648676
-0.0305268 -0.0851102 -0.0419588
0.121633 -0.00186268 -0.0694464
0.0348213 0.0336133 0.13216
-0.0224742 0.0726526 -0.0165488
-0.0460513 -0.0735854 0.00176286
-0.0731544 -0.0404297 0.0394292
0.134335 -0.106714 -0.0297191
-0.00820062 -0.019845 -0.0073914
0.00162751 0.0568182 -0.111051
0.0486033 -0.122798 0.0217003
-0.0221607 -0.000131083 0.0159084
-0.0647045 -0.00700205 -0.0504194
-0.0490181 -0.0507475 0.0851936
0.137361 0.0636285 0.0019844
0.0345807 0.0262343 -0.0504049
-0.0365714 -0.0192243 -0.0541335
0.0219278 0.063288 0.0614632
0.0377918 -0.00724197 0.0795847
-0.0743192 -0.108172 0.0153402
-0.0877298 0.0647451 -0.0689367
-0.0212624 -0.0985541 0.062225
0.0964058 0.0156493 -0.00901352
-0.0632667 0.0402318 -0.0288706
0.0526525 -0.0732138 -0.00924265
-0.0458466 0.00249364 -0.0814775
0.0177082 -0.00363823 0.020628
0.00317585 -0.0380679 0.0520162
0.0810754 0.0594076 -0.120271
-0.0312679 0.00587374 -0.0334615
0.115336 -0.0435185 -0.00895302
0.042153 0.0366702 0.00125227
-0.0674915 -0.0554184 -0.0810261
0.0602273 0.0192701 -0.0165136
-0.0613971 0.0215089 0.0537095
-0.150675 -0.0490895 -0.0691714
-0.0492075 0.0226662 0.0318471
0.050767 0.0649634 -0.135599
-0.0244132 0.0607166 0.00914516
0.0101517 -0.0964252 0.165472
0.0263352 0.0645536 -0.0203204
0.0341505 -0.0627996 -0.11112
-0.0560643 0.0983107 0.0867557
-0.11355 0.0454104 0.03527
0.0507653 -0.104701 -0.0258954
-0.0012266 -0.053265 -0.0442022
0.0270307 0.0180556 -0.0583528
0.036737 0.0513143 -0.00440135
0.0547012 0.00375839 -0.0456442
0.00194562 -0.0251081 -0.0032332
-0.0429033 -0.0553651 -0.0205031
-0.0111496 -0.0521282 0.00834151
0.028156 -0.0142552 -0.0458707
-0.0246639 -0.0198413 0.0391516
-0.010905 -0.0848034 0.0159678
0.0239104 -0.0032034 -0.0715379
-0.126602 0.0548684 -0.0298381
0.113349 -0.0952097 0.030729
0.00844511 0.0261087 0.0564448
-0.0705224 -0.0329878 0.030095
-0.0203084 0.00976391 -0.123252
0.0623374 0.0881438 -0.0374584
0.0383731 -0.0364697 0.0558321
-0.185785 -0.0643317 0.049234
-0.00198216 -0.0571496 0.0347582
0.00803308 0.00336837 0.023372
-0.0503233 -0.00125021 0.0234446
-0.00785036 0.0852458 -0.0505474
-0.0584021 0.0665964 -0.00067271
0.00620902 -0.0881744 -0.0617807
-0.0599819 0.119626 -0.044377
0.0531291 0.0211634 0.0384001
-0.0473089 0.0159046 -0.0844026
-0.0033843 0.0958964 0.0832426
0.0727513 -0.0330427 0.0791743
-0.0553928 -0.00334826 0.0295897
-0.0600359 0.0180184 0.0431116
0.0733196 0.00649585 -0.0793573
-0.0822423 0.0906485 -0.049917
-0.0361444 -0.0441178 0.0585701
0.042491 -0.00249568 0.0124778
0.0278676 0.0328585 -0.0114503
0.0238095 -0.0691008 -0.027284
-0.0306835 0.0744032 -0.0203811
-0.105031 -0.056894 0.0189558
-0.00918316 0.0343933 -0.0333155
-0.0647053 -0.0640165 0.086877
0.100982 0.0419804 -0.00428377
0.126316 0.0273916 0.0654642
-0.00631191 0.0633733 -0.0364725
0.0659948 0.0639684 -0.000511002
-0.0676121 -0.0633286 0.0803661
-0.00597103 -0.0155478 -0.000738654
0.0136145 -0.0364977 -0.00155375
0.0106674 -0.0530183 0.0733315
0.0356292 0.0245482 0.0405543
-0.0306728 -0.0809152 -0.0801771
-0.0493596 -0.0168932 -0.0342101
-0.0160913 0.0233518 -0.0678532
0.00285077 0.0616067 0.00536236
0.0789918 -0.00959253 0.0152991
-0.0018044 0.0107735 0.00143397
-0.0266043 0.00951842 -0.013113
0.107547 -0.0430965 0.00630697
-0.019513 0.0184195 -0.0107258
0.0776445 -0.0317215 0.083196
-0.0499376 0.0625799 -0.214203
-0.00991318 0.0054931 -0.0473497
-0.0140492 -0.0489152 0.0348829
0.00649639 -0.108093 -0.0102555
0.0502267 -0.0101706 -0.0789339
-0.0594902 -0.0529464 -0.00416615
0.0372429 -0.03464 -0.0727302
-0.0985583 -0.0242331 0.0919636
-0.0145287 0.021401 0.0261692
-0.0705995 -0.0216597 -0.0272132
0.0358838 0.042578 0.0582932
-0.15998 0.0111016 0.0221457
0.0342205 -0.0443383 -0.0226403
-0.011661 -0.0991728 0.0698941
-0.0182371 -0.0044224 -0.0647298
0.0404682 -0.00483509 0.0434476
0.0813414 0.0384789 0.0979773
-0.0298832 0.0878746 0.0578031
0.0560797 0.0811566 -0.129332
-0.0406853 0.00952915 0.0108096
-0.015699 -0.0530043 0.0133511
0.0566906 0.0146458 0.0471445
0.032875 -0.0680897 -0.0451159
-0.000153904 0.0554162 0.107406
-0.05287 0.114168 0.0380554
0.0431335 0.0223969 0.0975099
-0.0379593 -0.0409307 -0.0642986
0.138274 0.0192313 -0.020766
-0.0477529 -0.0176476 -0.0981413
-0.0183021 0.041511 -0.0212737
-0.122077 -0.050265 0.102703
0.038863 -0.0448614 0.0547018
-0.0680158 0.0050351 0.0355719
-0.0407881 -0.0163904 0.0656203
-0.0317188 0.136357 -0.0417538
-0.0162633 0.0651314 -0.0192062
0.0294043 0.0145154 -0.0586158
-0.0964387 0.0655067 -0.00395267
0.00881286 0.0989754 0.0395887
0.0312134 -0.0197419 -0.0101013
0.0135543 -0.00642473 0.0860929
-0.0338841 0.0128157 -0.011457
0.00242122 0.0300094 0.00455436
0.0202878 0.122542 -0.00830839
-0.0201224 -0.0138713 0.00847513
0.0490914 -0.00909748 0.111233
0.0962096 -0.0577481 0.0783478
0.020598 0.0471095 0.0474096
0.0462405 -0.0360067 0.0440462
0.0618832 0.00544559 0.0425434
-0.0567061 -0.0516134 -0.0589541
0.0676505 -0.0166036 0.0455316
0.146481 0.050977 -0.0666759
0.00575139 -0.0295611 0.0761156
-0.0413173 -0.0842567 -0.0758656
-0.00527802 -0.0913673 -0.110893
0.0350942 -0.0215485 -0.0421797
0.0221168 -0.0772335 0.0268914
0.0455551 0.020496 0.0629022
0.00616646 -0.117563 -0.022671
0.0470931 0.00263859 0.00873288
-0.12066 -0.00163302 -0.0565912
0.0554273 0.0689848 0.0815883
0.014775 -0.0346224 0.0212934
-0.141458 -0.0343379 0.0680277
-0.0499207 0.0104106 -0.0527371
-0.00211937 -0.0503628 0.0171881
0.0119991 -0.176488 -0.0234106
-0.00768896 -0.00137583 -0.0836868
0.0821161 0.0414604 0.0748629
-0.0281437 -0.0163546 -0.0271679
0.0101714 -0.0568616 -0.02772
0.0964133 -0.0163725 -0.052371
-0.0875808 -0.0165106 0.130092
-0.060624 -0.0854567 -0.0131333
0.106142 -0.105936 -0.0870013
-0.0279158 0.0391886 -0.065651
0.030511 -0.046397 -0.0752621
-0.0475344 0.0230615 -0.0994759
-0.0899841 0.0419715 0.06539
-0.0681571 0.00907892 -0.0304567
0.0371662 0.1359 0.0456373
0.0258675 0.0325541 0.0934679
-0.00485594 0.00031217 0.0444995
0.114168 -0.082566 -0.0388463
0.0504161 -0.029807 -0.00151918
0.0776019 0.0774658 -0.0431306
0.0191116 -0.078784 0.0296251
0.0263267 0.0480948 0.0472903
-0.0646954 0.0171396 -0.0625545
-0.0279066 0.0455968 -0.0406574
-0.0255277 0.110301 0.0176944
-0.0353583 -0.0161969 -0.0238977
-0.0298339 -0.0806644 0.00531587
0.0314724 0.0504369 -0.021752
0.0326377 -0.0305449 0.00597646
0.0561552 -0.0606496 0.020036
-0.0405149 0.0127298 -0.0766718
0.0133042 -0.0466331 0.119092
-0.0914334 -0.001639 -0.0298858
-0.0579299 0.00287118 0.0163563
0.041609 -0.0169306 0.0150232
-0.0395843 0.0234638 0.0241652
0.00743232 -0.0198147 -0.00874068
0.148478 -0.03582 0.0078826
0.124969 -0.0159844 -0.000591339
-0.0260484 0.0691604 -0.0322907
-0.00816534 -0.023718 0.0260755
-0.031941 -0.0221938 0.0421962
-0.0642124 0.0413808 -0.0241191
-0.00296232 0.0881489 -0.0721454
0.000295795 0.00438363 -0.0902978
0.0123057 0.0573258 -0.0753674
-0.0354863 0.0119687 0.0456578
-0.00932326 0.0271685 0.0651989
0.000604336 -0.0114539 0.0423434
0.0439104 -0.0567457 0.0766522
-0.0242013 0.00677159 0.0388275
0.00849904 0.0397474 0.0416681
-0.101047 -0.0278647 -0.0475941
0.100001 -0.00777632 -0.0217429
0.00710763 0.0201229 0.0237602
0.0177141 -0.00374166 0.0579923
-0.00445074 0.0770312 -0.0171347
-0.0261575 0.079981 0.0183919
-0.00504245 -0.0489394 0.000618515
0.00976378 0.000611973 0.0966569
0.060923 0.00181005 -0.0451912
0.0938917 0.0210836 0.0323871
0.0262909 0.00123355 0.00914308
0.0236589 -0.0805149 -0.0310944
0.0624108 0.0482182 -0.0481287
0.0394648 0.0174955 0.0157034
-0.174379 -0.0266481 -0.0778762
-0.0249141 -0.0646648 -0.0774522
0.0190186 -0.0372943 -0.0704005
-0.0587197 0.0394371 -0.0818397
-0.00754094 0.0297471 -0.0157966
0.0472728 0.00408544 0.0492792
-0.0691661 0.0302435 -0.0188339
-0.0409081 -0.0249509 0.0642829
-0.0672337 -0.03028 -0.0273923
0.0044935 -0.108096 -0.0777151
-0.0454 0.0443713 -0.0386734
-0.0737578 0.030481 -0.0211389
-0.00323681 0.102288 0.107783
0.0404779 -0.00559763 -0.02522
0.0444885 0.105114 -0.0370375
-0.0393848 0.0463204 0.0571343
0.0473009 -0.101791 0.0506606
0.00418708 -0.00420345 0.0297333
0.00512531 0.018823 0.0368007
0.0285681 -0.125972 -0.0280728
0.00286524 -0.0635483 -0.0995074
0.0988014 -0.0652701 0.0458755
-0.0321133 -0.0483855 -0.0864796
0.114381 0.00638123 -0.00893585
-0.0297404 -0.0826618 -0.0493131
0.112531 0.033188 0.0593407
0.172693 -0.0560681 0.0268596
0.056587 0.0146514 0.0260008
0.0133549 0.109291 0.0357903
-0.0362271 0.11698 -0.0507183
-0.0228795 -0.0131803 0.00270984
0.00994941 0.0804431 -0.0600647
0.102276 -0.00844208 -0.0117945
-0.0362157 0.0625639 0.0564515
0.0148258 -0.0434725 0.0529426
0.0744923 0.122936 0.0539953
-0.106815 0.138323 -0.0196823
0.0650266 -0.101381 -0.0335604
0.0626228 0.0140284 -0.0304191
-0.0362463 -0.101744 -0.045402
-0.0394568 -0.135805 -0.0346724
0.0912176 -0.00382322 0.0222316
-0.0127545 0.0433391 0.159066
0.00582485 -0.0376202 -0.0100883
-0.070355 -0.0546275 -0.0446775
-0.0380489 -0.123119 -0.0503538
-0.0154938 -0.129282 -0.0156124
-0.0541908 0.0129165 -0.00416791
0.0814164 0.0375087 -0.0303926
-0.0213945 0.0546028 -0.0988286
-0.0937202 0.0785739 0.0194164
-0.0562887 -0.0161242 -0.0630971
0.03065 -0.037093 0.0366227
-0.00963038 0.0337373 -0.0985291
-0.0670329 -0.00116416 0.054853
0.0719227 0.0648627 0.066443
-0.0474591 0.0173305 0.0536982
0.0447537 -0.123748 0.0245122
0.0769966 -0.0161998 -0.0416742
0.0424896 -0.0233164 -0.0501778
0.0308917 0.0787232 0.0897722
-0.0186377 -0.0450412 0.104933
0.0591137 -0.0486355 -0.0270616
-0.0548986 0.0394376 0.00468694
-0.0934017 -0.0142886 0.0349463
-0.145863 -0.0439167 0.0226745
0.17933 -0.00416852 0.0125532
0.0502439 -0.121908 0.101868
-0.0877602 -0.0588917 0.117102
-0.0467258 -0.131582 -0.0180686
0.0233273 -0.0837875 -0.0763216
-0.0546623 -0.0333054 -0.0647688
-0.0661956 0.0270013 0.0159985
-0.00390156 -0.00675993 -0.0123285
-0.0117479 -0.0237472 0.031816
-0.019914 -0.0460968 0.0319732
0.0934641 -0.0207327 0.0462383
-0.0164584 -0.0292031 -0.0597063
0.00943683 -0.0053094 0.0380733
0.0285029 0.0149784 -0.00132891
-0.088156 0.0519811 0.0260838
0.00999421 -0.0714009 -0.00737053
0.00369067 0.0605821 -0.06502
-0.000719841 -0.100343 -0.00598588
-0.0527708 0.037673 0.0451773
0.0847411 -0.122133 0.012148
-0.023152 0.0407286 -0.0889009
-0.043263 0.0722127 -0.0414798
0.101512 -0.0504309 0.00388972
-0.0506077 0.0937141 0.038645
-0.0129768 -0.0066914 0.0217878
0.00849203 0.0466815 -0.0153167
0.0119048 -0.0590588 0.0324062
-0.0103089 0.0492891 0.0674211
0.0454062 0.0255651 0.0314156
0.0290584 0.016729 0.0255607
0.0403154 -0.018697 -0.00395614
0.0675762 0.0683948 0.0148244
-0.00137286 -0.0411838 -0.0564844
-0.00930385 0.00948165 0.0110174
0.0321804 0.0615435 -0.0198685
0.0278827 0.00802343 -0.0154723
0.0119386 0.0431395 -0.0869843
-0.0973551 -0.0241951 -0.0800147
-0.0778735 -0.0351974 0.00844693
-0.0871426 0.0442187 -0.0689155
-0.0891671 -0.0635544 0.0270822
-0.0530894 -0.0689416 -0.0236059
-0.107652 -0.067517 0.00228633
-0.0305481 -0.0103998 -0.0245012
0.0395252 -0.0225659 -0.00909064
-0.02077 0.090054 0.0119042
0.00303949 -0.098935 0.0470269
-0.0133097 0.0928977 0.043106
0.0567289 0.00615695 -0.0632323
-0.0407506 -0.0846691 0.0623245
0.0158115 0.00874329 -0.107337
0.00638759 -0.00482415 0.0254962
-0.0176726 0.0403147 0.0200071
-0.0330365 -0.126138 0.0241506
-0.0305977 0.0212131 -0.0130688
0.0378143 -0.0734424 -0.0324986
-0.0241409 0.00807878 -0.076203
0.0399882 -0.0912865 -0.0109022
0.0381222 -0.0224905 -0.0544553
-0.0614715 -0.0491805 -0.0410887
0.0587727 -0.0908227 0.0580884
0.0061784 -0.000782583 -0.0231029
0.0649646 -0.0318471 0.0154918
-0.0393028 -0.012123 0.062224
0.0389763 0.0106937 -0.0672375
-0.0534178 0.0687289 -0.0207593
-0.0733042 -0.0211762 0.0216541
-0.0234239 0.0441109 0.0638565
-0.0699132 -0.0394177 0.0744911
-0.00874711 0.12897 -0.0106351
-0.0289504 0.0440134 0.14523
-0.0385006 -0.0311288 -0.101312
-0.0850057 -0.0386928 0.00664149
-0.0856747 -0.0696175 0.0477989
0.0378802 0.0429686 0.0204848
-0.0343664 0.106947 0.0537311
-0.0436803 -0.075883 -0.0384526
0.0681357 -0.0191017 -0.0533812
0.0126737 0.00258408 0.11654
0.00363716 0.0427986 0.0714983
-0.015973 0.0588309 0.0460864
0.0741092 0.0126161 -0.0395829
0.0087757 0.00500089 -0.0286368
-0.00563759 -0.173231 0.0143975
0.0240865 -0.0514387 -0.0677335
0.0900472 0.00698843 -0.0970586
-0.0091539 0.0314234 -0.0910681
0.024066 -0.109399 -0.0465577
-0.0618901 0.0321574 0.0062067
0.0522996 0.064735 -0.00913797
0.0323136 -0.00832992 0.117374
0.0427416 0.0578454 -0.0363026
0.00470644 -0.00582366 -0.012315
-0.0722745 -0.00724152 -0.0112636
0.0509765 -0.0496564 -0.0663071
0.0594038 -0.00589293 -0.0497077
-0.0345671 -0.0517534 -0.0275978
0.0902201 -0.0146717 0.0806389
0.00803673 0.0931667 -0.00173519
0.00130793 0.0259852 0.0685345
0.0301953 -0.0630317 -0.0688101
0.0187645 0.0497464 0.0885942
-0.0137033 0.108894 -0.0683023
0.0194394 -0.0945646 -0.0354898
-0.0287039 0.0314367 -0.0326441
0.1292 -0.0210817 0.0192662
-0.0227233 0.0562947 0.077144
-0.0376854 0.0250875 0.0500082
0.0206668 -0.029694 -0.0195341
-0.0167617 0.029932 -0.0198009
-0.0192998 0.0253145 -0.0330008
-0.0809622 -0.0998487 0.0562667
0.0532405 -0.0904177 -0.0411859
0.00055277 0.0302991 0.0375617
0.0123895 0.0781089 0.0173088
-0.131265 0.0858094 0.0253747
0.0839342 -0.0318849 -0.0508036
0.0102015 0.108933 0.0190252
0.073197 -0.0578197 0.0495004
0.0134668 -0.0340417 -0.0350188
-0.023563 -0.0839011 0.0373749
-0.0597212 0.00957545 0.0586202
-0.0146982 0.00291296 0.0553683
0.0165985 0.0337977 -0.0491815
0.0245093 -0.0136385 -0.116071
0.113602 -0.0274356 0.0581761
-0.0670436 -0.0716379 0.0550038
0.0482891 -0.0221613 0.00648924
-0.0229438 -0.0649905 -0.0247959
0.0252697 0.114856 0.0177559
0.0211725 -0.0535856 -0.0396511
-0.0792897 0.0967407 0.0391704
-0.00666902 0.0120961 -0.0219644
-0.0396182 -0.0238898 -0.0885246
0.0784941 0.003638 0.0371809
-0.00862292 -0.00288094 0.0136358
0.126847 -0.0983041 0.0160594
-0.02533 -0.150545 0.078013
-0.0589395 0.00827498 -0.061218
0.0891964 0.0810289 -0.013395
0.0579281 0.0682779 -0.0730055
-0.123067 -0.0287476 -0.0105073
-0.0777766 0.0128118 0.0168222
0.0745995 0.0664 0.0123018
0.0391367 -0.0448652 0.0346373
0.0825685 -0.0559862 -0.0220168
0.0157181 0.0490983 0.0364126
-0.0195046 -0.0724829 -0.038898
-0.0272013 0.115144 -0.0315235
0.0132266 0.0473316 -0.0317197
-0.00634506 0.0571783 -0.00176583
-0.0283755 0.0619599 0.00779779
0.069337 0.0774852 -0.0109212
0.0394445 0.00713314 0.00219053
-0.0649517 0.114776 0.0217898
-0.0344782 -0.0467809 0.0847316
-0.0569359 0.0262581 0.0830622
-0.00215831 0.0669686 -0.0112461
-0.0192677 -0.0430001 -0.041468
0.0243231 -0.0301576 0.0893834
0.0225802 -0.0138937 0.0706237
-0.0372532 0.0334425 0.0583847
0.0952926 0.0805967 -0.112168
0.0700855 -0.0498456 0.00833734
-0.024273 -0.00942938 -0.00864385
0.0525495 -0.0582441 0.081444
-0.0675158 0.0671644 -0.0517961
0.0369641 0.12337 0.0892428
0.0382299 0.0464929 0.051533
0.00658305 0.0546215 0.0143363
0.0585667 0.0560335 0.0687967
0.033815 0.0234269 0.00581549
0.00383189 -0.0187079 0.0651411
0.0691141 -0.0430587 -0.0354397
0.124646 0.0779333 -0.161988
0.00196104 0.00301511 0.0558738
-0.0704309 0.0458028 -0.0105657
-0.0886337 -0.0473391 -0.0634601
0.0574805 -0.093118 0.0731734
-0.0197246 -0.0141843 0.024347
0.0425555 0.120246 0.00593286
-0.0582446 -0.0593475 -0.0584257
0.0754297 -0.0824331 0.0356256
-0.0656656 -0.0594578 -0.0263835
-0.017158 -0.0794107 -0.0903329
-0.0460364 0.0470034 -0.0278491
0.0461817 0.0516846 -0.0580139
0.0392878 -0.0771825 -0.0950216
-0.112939 0.00394924 -0.0215423
0.0198027 -0.0702557 -0.0289747
-0.0822224 -0.0410365 0.077775
-0.0186043 0.0206132 0.0744568
-0.0065296 0.157127 0.00848407
0.0311769 0.0192443 -0.00951108
0.0572314 0.0721779 -0.0113612
0.0604128 0.101857 -0.00932648
-0.00369577 -0.0202668 -0.0901417
0.0359521 0.0347968 -0.0126835
0.08313 -0.0190868 -0.0402523
0.0836842 -0.0667583 -0.0330956
-0.0735695 -0.0551692 0.0822047
0.0596868 -0.0458378 0.0401464
0.12107 0.135645 0.0620291
-0.0280483 -0.0254261 -0.0014163
0.0557842 -0.0161687 0.0097803
-0.051543 -0.102099 -0.0171945
-0.0361565 0.0462623 -0.0244342
0.0380032 0.0125344 -0.0499564
0.0234373 -0.0453834 0.0193983
0.0298324 0.0983447 -0.068196
-0.159378 0.0383778 -0.0151831
0.0956899 -0.0432104 0.0342409
-0.0151377 -0.0619556 0.0538106
-0.00462832 0.0962703 -0.0521196
-0.0389948 -0.175374 0.041969
0.0183275 0.0365039 -0.0410595
0.0730318 -0.00731564 0.136035
0.105627 -0.00641363 0.0218704
0.0668612 -0.0835458 -0.0244307
-0.0138926 0.0556508 0.00393385
0.0652948 0.0424352 -0.19112
0.0155133 0.0338413 0.0975788
0.0213916 -0.116311 0.0767415
0.00687233 0.109403 -0.0314039
0.0413916 -0.0356864 0.0976485
0.0413407 -0.020478 0.00747593
0.0194088 0.0394486 0.139223
-0.0371891 -0.0375061 -0.0768805
0.0635332 -0.0745323 -0.0181833
-0.0618514 0.112705 -0.00698224
0.0307602 -0.0332855 -0.099834
0.0621571 -0.100446 0.0703889
-0.0324158 0.0549091 -0.156325
0.0674342 0.00682538 -0.114284
0.0424988 -0.0298064 0.167388
0.000597491 0.0199928 0.0397228
0.0330926 -0.04506 -0.0151261
0.0550095 0.00752298 0.0630211
-0.00162719 0.0174432 0.00744235
0.0466343 -0.0433811 0.0456605
-0.0385148 0.0115898 0.0297149
0.0197842 0.0499727 0.104541
-0.0252298 -0.0371464 -0.0933379
0.0789601 -0.0640786 -0.0069168
-0.107166 -0.0245349 0.0518521
-0.0594872 0.0436776 -0.00885614
0.0521927 0.0387917 0.130904
0.0583462 -0.0371326 -0.116269
0.151621 0.00586531 0.0826536
0.0244709 0.0411794 0.0790387
0.012084 0.0242939 -0.0191836
0.0793718 0.03305 -0.144521
-0.0274004 -0.0771891 0.0322233
0.00886035 -0.0307217 -0.130438
-0.050333 0.0746002 -0.0668489
0.0491026 0.026912 0.04117
-0.00828161 -0.0314461 -0.0553523
-0.0200881 -0.0633082 -0.0913583
0.0541084 -0.000523471 -0.0820861
0.00151109 0.0211215 -0.0573043
-0.0120509 -0.00607553 -0.0204392
-0.0880216 -0.0567478 0.107351
-0.00445009 0.0375999 -0.0221671
0.0448834 0.0051326 0.0232302
-0.0105742 -0.0242316 0.0757802
0.0153249 0.00310875 0.0235659
-0.0287674 -0.0609538 -0.0134929
-0.0122324 -0.0623482 -0.0608201
-0.115719 -0.16029 -0.0606056
-0.0298747 0.0420218 0.00544286
-0.010158 0.0234825 0.0522531
0.00515692 0.0729868 0.0454464
-0.152535 0.117617 0.0237208
0.0370938 -0.0747846 -0.0160951
-0.0458086 0.173541 -0.000428244
0.031418 -0.122273 -0.0166378
-0.0355464 0.0176745 -0.00203603
-0.070476 -0.160013 0.0952982
0.0116548 0.0200681 0.091013
-0.0331854 0.00776331 0.0391141
0.02248 -0.0324165 0.0441889
-0.0125896 -0.00994424 0.148137
-0.0376276 0.100887 -0.0184667
0.177553 0.0494813 -0.00861053
-0.00315136 -0.0144041 -0.0205651
-0.0464583 0.0292588 -0.0210235
0.00450815 0.00147975 -0.00451232
-0.0711309 -0.117653 -0.0372897
0.00551824 -0.0752843 -0.0365676
0.00365301 -0.00439065 -0.0465261
-0.00209623 -0.109734 0.022323
0.0105757 0.0119306 0.0694469
0.0662211 -0.0886635 -0.0220824
0.0442915 -0.0811099 0.0657989
-0.0182735 0.00564844 -0.0529054
-0.0657703 -0.0255021 0.0288897
0.039673 -0.0257247 -0.0219201
0.0592258 -0.0241962 0.0774306
-0.00821092 -0.0771186 -0.0469236
-0.0356378 0.0297697 -0.00875357
-0.0154338 0.0999278 -0.0235077
0.027348 -0.078484 0.00603035
-0.0299536 0.0505222 -0.0432745
-0.0196046 0.0172055 0.0364918
-0.0539637 0.00709357 -0.044112
-0.0112393 0.0314456 0.00463545
-0.0739645 0.0179952 -0.0982497
-0.0148502 -0.10995 -0.00421983
0.0317758 0.0324491 -0.0378546
0.0724911 0.0321783 -0.0652783
0.0348859 -0.0208095 -0.0364387
0.00200948 0.0102882 0.0423089
0.0965317 -0.0285551 0.0751564
-0.0697575 0.120515 -0.0377287
-0.0375301 0.00566929 0.163613
-0.0861303 0.0222737 0.0627741
-0.0692858 0.0452642 -0.000791705
0.00136276 -0.0306747 0.00883089
0.0384205 -0.00767898 -0.00745606
0.00918517 -0.0382603 -0.0912252
-0.0710022 -0.0703871 -0.0142083
-0.0731263 -0.0102754 -0.0736629
-0.0255507 0.0611347 -0.0525697
-0.119222 0.0560216 -0.0240172
0.00360216 -0.0573288 -0.100865
0.0868543 -0.0375597 0.0746136
-0.11651 0.0723899 -0.011345
-0.00796939 -0.00919506 0.0410463
0.0298392 0.0248493 0.0529837
0.0119126 0.0393777 0.0699739
0.0266059 0.128679 0.00925678
0.0513137 0.0712814 -0.015394
-0.0312666 -0.00610869 -0.0900789
-0.045278 0.0501645 -0.0812377
0.0217086 -0.0345253 0.0819634
0.0131796 -0.0133281 -0.0168201
0.0148902 -0.0379689 0.0540786
-0.0285218 -0.0710137 0.0219232
0.0702105 -0.00812115 -0.0156432
0.0381858 0.0821565 0.0101463
-0.114374 -0.0821211 0.00224273
0.0176672 -0.0334965 -0.00671415
-0.0616314 -0.0219964 0.0349106
-0.00989452 -0.00762224 0.154841
0.0272445 -0.0611474 0.0421654
0.119652 0.00201366 0.0271184
0.0805532 0.119526 0.0331799
0.0154257 0.0666433 -0.00833571
-0.0799084 0.0712696 -0.0573686
0.045664 -0.126203 -0.0521341
-0.0274146 -0.0162316 -0.025694
0.000743994 0.0122736 -0.0393854
-0.0628323 -0.0246672 0.0615854
0.0378056 -0.0383607 -0.0510473
0.0429768 -0.000874309 0.0208296
0.0116639 -0.0614709 -0.0348915
-0.0965534 -0.0391007 0.0503013
-0.0429857 -0.0242085 0.00560984
0.0552213 -0.0553094 -0.0187791
0.0598372 -0.00254148 0.0429079
-0.0323643 -0.0637871 0.092729
0.0707 -0.0299972 0.0621994
0.026906 0.00203871 0.01949
-0.00248504 0.0221868 -0.0485091
0.0503603 0.0118673 -0.143075
0.076302 0.101241 0.0608627
0.0694814 0.00425911 0.0850179
-0.0474426 0.0563843 -0.109953
0.0275498 0.0440428 -0.041495
0.0131841 -0.0715035 -0.0265096
0.121371 0.00939224 -0.0280547
-0.0423971 0.0374081 -0.0132901
-0.0729094 0.0543608 0.151128
-0.104812 -0.0234968 -0.0860778
-0.143366 0.0314353 0.0665996
-0.0353857 0.0281845 -0.0683326
-0.0417069 -0.0357713 0.0326487
0.0362534 0.0204336 0.0466939
-0.0435662 0.0267258 0.0106595
0.105136 -0.091027 0.0228822
0.0800746 0.0235974 -0.0369767
0.0310935 0.0380473 -0.059616
-0.00505342 0.0182969 -0.0263834
0.00821039 0.0941776 -0.0285649
0.0651269 -0.0952222 -0.0481293
0.0609985 0.17528 0.0357871
-0.017469 0.0869562 0.0336805
-0.0181493 0.0283336 -0.0256625
-0.0746266 0.0686796 0.00757039
0.0134169 0.0229574 0.0434492
0.0339753 -0.0088371 0.0258398
0.0152041 -0.0467029 -0.0586716
-0.0734331 -0.013256 0.000793259
-0.0888901 0.0118197 -0.00569167
0.158979 0.0274702 -0.0916559
0.0910948 0.0868727 0.0318759
-0.103712 0.00208244 0.023921
0.0106508 0.0635299 0.0168669
0.0405874 -0.0434612 0.0223258
-0.114306 0.108696 0.0844857
0.0119372 0.0581092 0.0329553
0.0389874 0.0631892 0.0209317
-0.0752754 -0.0180398 0.0505656
0.0774457 -0.0180174 0.0172883
-0.0302568 0.0346565 0.0584568
0.0512491 -0.116684 -0.102748
-0.0103393 -0.0740148 -0.0695245
0.00804984 0.045619 -0.110751
-0.110089 -0.00821253 -0.0670037
-0.0419658 0.0693138 -0.0423316
-0.155663 0.00244543 0.0548748
0.00866066 -0.0137177 0.0234204
0.0012639 -0.0551043 -0.0681034
0.07341 0.00205357 -0.0409879
-0.0299871 -0.024064 -0.0537362
0.0521459 -0.0107071 -0.080294
0.0189906 -0.0950604 -0.0670425
-0.0478024 0.120594 -0.0620811
-0.059213 0.00646819 -0.0955626
-0.105522 -0.111426 0.0873537
0.0348225 -0.0742138 -0.0219319
0.0692425 0.0695131 -0.0133732
0.0443017 0.059943 0.00191836
-0.00751365 0.118637 -0.0690895
0.00473901 0.0171387 -0.104745
-0.0547225 0.0483993 0.0591313
0.042095 5.60942e-05 0.0804195
-0.0407198 -0.0413782 0.0128905
-0.0436095 0.021345 -0.0352674
0.0458098 -0.108197 0.0144915
0.0344194 0.0917696 -0.040464
-0.0368657 -0.0504083 0.0146049
0.0370558 0.0665572 -0.0754632
0.0151725 0.0180685 0.0235045
0.0684074 -0.0034533 -0.0757316
0.0275149 -0.00126064 -0.00997097
0.0293758 0.0964572 -0.00375383
-0.0100603 -0.00993073 0.0100905
-0.0721328 -0.017513 0.0550092
-0.0450024 -0.0336727 0.00832054
0.0373085 -0.0370888 -0.102151
0.0310582 -0.0349201 -0.133911
-0.0820939 0.0570309 0.0216933
0.068173 -0.108826 -0.124958
-0.0881956 0.0581024 0.0269382
0.0520772 0.0151603 -0.0160301
0.09828 0.0642743 0.0539929
-0.0288252 8.85599e-05 0.0423264
0.0156637 0.057876 -0.0715823
-0.0370007 -0.0445482 -0.0492097
0.0335788 0.00888384 -0.148716
-0.0200549 -0.00464031 0.148966
-0.056958 0.124236 -0.0464845
-0.000934954 0.0239117 -0.081635
-0.044172 -0.0707766 -0.0771634
0.0414947 0.0323102 0.0316292
-0.00968119 0.035133 -0.0418986
0.0137772 0.0253398 0.0230292
-0.0695921 0.000751196 -0.0274497
0.059989 -0.100113 -0.162867
-0.0590166 -0.0507195 0.0871123
-0.0996066 0.0244108 0.0380242
-0.0527261 -0.0296966 -0.0414611
-0.0245914 -0.112431 0.0161724
0.18206 0.0604605 0.0678863
0.0134727 -0.0169893 0.0659957
0.0164237 -0.0118868 0.0454844
0.0212297 -0.0644721 0.100078
-0.0178804 0.105237 0.0190276
0.148643 0.0569943 0.116164
0.00576238 0.0213493 -0.0187748
0.128727 -0.0201307 0.0481842
-0.0722837 0.0369534 0.104543
0.0443544 -0.0858688 0.122863
-0.049339 0.0254589 -0.0384911
-0.0467877 -0.0336562 -0.0417371
-0.0799571 0.00583674 -0.140173
-0.138317 0.0174922 0.0422566
0.0123092 0.0536575 0.00766316
0.0422111 -0.00910371 -0.00783405
-0.0216652 -0.108525 0.00155247
-0.0498618 0.000799558 0.0186559
-0.0785849 0.0510898 -0.0528554
0.0359627 -0.0129049 0.0375352
-0.0958504 -0.0107235 -0.0764672
-0.0114147 -0.00351315 0.0111025
-0.00729294 0.0336801 0.0770891
-0.0615042 -0.01555 0.155041
0.0977501 -0.0400521 -0.0375668
0.0184794 -0.0813725 0.108949
-0.0640889 0.0625812 -0.0248496
0.0446267 -0.0105983 -0.0271251
0.0554512 0.0347937 -0.0227885
0.0644406 0.0164294 -0.027069
-0.0451394 -0.0842175 -0.0749035
-0.0782822 0.0547778 -0.103915
-0.0291015 0.0926891 0.0148182
-0.116114 0.00427365 -0.047663
0.0187149 -0.0104294 0.0859713
-0.109867 -0.0645456 0.0383529
0.0628662 -0.0914469 -0.0295879
0.0392073 0.0364391 -0.00783994
-0.00154814 0.00936756 -0.0220173
0.00561721 0.0207767 -0.0038667
0.0779136 0.0570823 0.0606122
0.0103311 -0.0736726 -0.0462118
-0.0552171 -0.021913 0.0244558
0.0109952 0.0197234 0.0272281
0.0135544 0.000337879 0.0384609
-0.013498 -0.000612164 -0.00264056
-0.0889963 0.0217826 0.00547009
0.0866382 -0.0509907 0.0344058
0.0737914 0.00837534 -0.00716387
-0.0916664 0.0479876 -0.0409375
-0.0133076 -0.105574 0.0640333
-0.0485974 0.0214397 -0.118266
-0.0054276 -0.0603683 -0.0655642
0.0235007 0.0738284 0.0456575
-0.0207361 0.0977502 0.020253
-0.0714702 0.0918739 0.0494083
0.0323852 -0.0746975 0.0395204
-0.158952 0.00752035 -0.0302623
-0.00672045 0.0224121 0.108431
-0.0249403 -0.010609 -0.018609
-0.119391 0.0751727 -0.015395
0.0228504 -0.0429419 -0.00600368
-0.0311156 0.125317 0.0850668
0.0491296 0.0860097 0.161826
0.0463691 -0.128142 -0.129998
0.0540827 0.00510073 -0.0682512
-0.00518309 -0.0966362 0.0159741
0.0174158 -0.0451367 0.0422852
0.019276 -0.0273568 0.0248355
-0.0242487 0.0260587 -0.0561036
-0.0260839 0.058319 0.00509269
0.0311705 0.0577415 -0.0149206
0.093283 -0.0129852 0.00703346
0.0256373 -0.0260803 0.100478
0.137827 -0.0203027 -0.0469031
0.0677085 -0.102579 0.0212114
-0.0150225 -0.0491316 -0.018267
-0.0114063 0.0519568 0.10435
-0.041382 -0.000695201 0.0197354
-0.0196704 0.00784499 -0.0113121
0.014071 -0.033748 0.0427018
-0.0252209 0.0302418 -0.0241397
0.0243505 -0.0383139 0.00114017
-0.0535349 0.086171 0.032498
0.116417 0.00363324 -0.0161705
-0.024146 -0.0343902 0.0277767
-0.0716778 -0.0100915 -0.136954
-0.0512403 0.0223406 0.0626018
0.145445 -0.0796467 -0.0289216
-0.0176227 -0.0228639 -0.0278277
-0.0395259 -0.0165545 0.0368819
-0.0297043 0.0254204 0.0288273
0.0109399 0.086931 -0.00573188
-0.0374447 -0.00623868 0.0160251
-0.0812919 -0.0640156 0.0695418
0.00418429 0.097071 -0.028983
-0.0791407 0.0581278 -0.0540177
0.0543684 -0.018319 -0.111276
-0.0560624 -0.026842 -0.0222291
-0.0569324 -0.051087 0.04092
0.0512066 -0.0257835 0.00428353
0.0441652 0.117009 -0.00248474
0.0729057 0.0565836 0.0475698
-0.0689779 -0.00803577 0.0669641
0.00643138 -0.0699805 0.0249526
-0.134588 0.0337732 0.0049305
0.016577 -0.0111472 0.00450698
-0.060315 -0.030201 0.0132533
-0.037617 -0.0963866 -0.0320973
-0.0434795 0.0965569 0.0020083
0.00299518 -0.0490836 -0.0545514
0.0404414 -0.108902 -0.136456
-0.0111329 0.0255358 0.0259197
-0.0489534 -0.03609 0.00464795
0.0333848 -0.0522519 0.00221205
-0.0132905 0.0185173 0.0219874
0.0133755 0.0596658 -0.0780075
0.0390329 0.0851243 0.105402
-0.0214934 0.0740209 -0.0371293
0.0512418 -0.113069 -0.014417
-0.0671718 -0.0658628 -0.0179177
-0.0884238 -0.0488996 0.0611989
0.0866251 -0.0492956 -0.0971683
0.0942398 -0.102701 0.0276108
0.0107134 -0.0148217 0.0158825
0.0535451 0.0277964 0.013757
0.0876269 -0.0108104 0.0483972
0.00753958 -0.0349742 0.0650285
0.0422288 -0.0174983 0.0308043
-0.0453113 0.00218798 0.0945006
-0.0147108 -0.0345505 -0.0845259
-0.093886 0.0728358 0.00576722
0.0458131 -0.0706929 -0.0244437
-0.0784501 -0.0212767 -0.00319703
0.150056 -0.0612952 -0.0244977
-0.0191052 0.0308102 0.0344052
-0.115378 -0.0530737 0.042015
0.0437296 -0.0976079 0.0630867
0.0394969 -0.0347844 -0.0431021
0.0347984 0.0183452 -0.0284944
0.0528263 -0.00218709 -0.00209844
-0.0144091 0.0113361 -0.0919454
-0.135128 0.0413614 0.0203914
0.00858628 0.0174012 -0.0213319
0.0236333 -0.0468629 -0.0404991
-0.0595179 -0.0428026 0.0668413
0.0552325 -0.0741611 0.0537131
0.0860839 0.018649 -0.126704
-0.0532806 -0.0733435 0.0383282
-0.0368329 0.00623831 0.0769514
-0.056945 0.0823802 -0.0438087
-0.0100124 -0.0567634 -0.0714035
-0.0598256 0.0368224 -0.0491557
0.0220097 0.116167 -0.041483
-0.00315183 0.036888 0.021201
-0.143039 -0.0423114 -0.00788517
-0.0774176 -0.0623793 -0.0707358
0.00425829 -0.0916076 -0.0438143
0.0570792 0.0669672 0.0939815
-0.185438 0.00907548 0.145224
0.0664047 -0.0176497 -0.0153167
0.034361 -0.0449131 0.0238141
0.0535456 -0.0926842 -0.00993483
-0.0353933 0.0693685 -0.0478135
0.109166 0.113348 -0.109673
0.054124 -0.0891727 0.0642172
-0.0247647 -0.0723506 0.112422
0.0164646 0.133075 0.00736217
-0.0684897 -0.0698846 0.0248753
-0.0374472 0.0383946 0.0596007
-0.0346056 -0.0116629 -0.00974549
0.0318164 -0.000684671 0.0221795
0.0228406 -0.0473122 -0.0321202
0.0359544 0.0457918 0.0154493
0.0253926 0.0297895 -0.0228917
0.0377097 -0.0216479 -0.0234587
-0.0399888 -0.0761899 0.0380412
0.0786425 -0.0154614 -0.0143047
-0.0557907 0.00627936 -0.0918231
-0.0224357 -0.166009 -0.0503289
0.081568 0.0170772 -0.0834277
0.0264424 -0.0293826 0.0564522
-0.0598661 0.115476 -0.0635888
-0.00544082 -0.00110183 0.0532302
0.0837975 -0.0588947 0.0541114
0.0773459 -0.0582511 0.125651
0.0459133 0.0357435 -0.0126451
-0.0591011 -0.0323504 -0.00517649
0.0598608 0.0738209 0.0888843
-0.18074 0.000788545 -0.0872352
-0.0482855 -0.0090118 -0.0774135
-0.0511975 -0.0362113 -0.0395479
-0.0159412 -0.0859098 0.0921029
0.030681 -0.00963689 -0.0418547
0.0444208 -0.0466946 -0.0683703
-0.0233279 0.0594441 -0.00872397
0.0855131 -0.0758758 0.0584019
-0.0310061 0.0168369 -0.0176165
0.076853 -0.0402681 -0.075478
-0.0087446 -0.00367386 0.0313956
0.0480807 0.0768585 -0.00863177
0.0184738 -0.0340309 -0.0930225
0.0956051 -0.0416981 -0.024673
0.0168498 0.119987 0.0151746
-0.01175 -0.0629328 -0.0669373
0.0595346 9.18731e-06 0.0478826
0.0790194 -0.0125448 -0.0581451
-0.0629552 -0.0796167 -0.0514018
-0.0187887 -0.00208664 0.0421
-0.0448737 -0.0422203 -0.0214232
-0.0152342 0.0921934 -0.0415546
0.0300005 -0.058413 -0.038944
0.0839341 -0.0812559 -0.0552617
-0.0810947 0.00843046 -0.0336523
0.0526804 0.00706133 -0.0180435
0.033786 -0.0250758 -0.0527039
-0.0788726 -0.0791852 -0.0197523
0.0791562 -0.00251943 -0.0135823
-0.0636562 0.0475538 0.0476707
0.0730728 -0.068698 -0.0204097
-0.0334168 -0.0163059 0.00523584
-0.0187751 -0.028004 -0.0380254
0.00966745 -0.064088 0.124376
0.0142134 0.0397649 0.0495345
-0.174941 -0.0402073 -0.0456255
0.0429366 0.0396469 0.0247492
0.116716 0.0628996 0.0273118
0.0591488 0.00101653 -0.0367647
0.0835104 0.0735721 -0.00779513
-0.0290275 -0.00590088 -0.00540906
-0.0112269 -0.0396684 -0.0499013
-0.0840005 -0.176213 0.0288002
-0.120164 -0.0475334 0.00169334
-0.0285222 -0.0325787 -0.0152309
0.0881239 -0.152529 -0.122637
0.0544192 -0.0699337 0.0194353
0.0120874 -0.267856 -0.0503999
0.0276887 0.0645675 0.0419807
0.0920052 0.00119939 -0.0206891
0.0417892 -0.0154021 0.0681738
0.0064158 0.0302786 -0.0897508
0.0160764 -0.112332 -0.0501389
0.126645 -0.0332465 -0.0692676
-0.0685269 0.0186448 -0.10068
0.00295439 -0.0318623 -0.00956816
0.0588976 -0.0450963 -0.0207098
0.0299873 -0.0901589 0.120768
0.054245 0.034549 -0.0173599
-0.0457302 0.0487534 -0.0397981
0.0192334 -0.043949 0.0214842
-0.0350298 0.115932 0.0228547
-0.101912 -0.0338531 0.0625453
-0.00290489 -0.0534868 -0.0284918
-0.0645173 0.0242536 -0.0369729
-0.00271418 -0.100675 -0.0428539
0.0405137 0.0440036 -0.0173514
0.0359806 -0.0205413 0.0702702
-0.0601722 0.0106949 0.0256653
-0.108629 0.011959 0.0869499
0.122015 -0.0222062 -0.0143808
0.0316432 0.067754 0.0540199
0.0130499 -0.0216223 0.0439312
0.060261 -0.0263404 0.0798932
0.114286 0.0357344 0.109011
0.000629301 0.124028 0.122419
-0.0117611 -0.00895639 0.0483163
0.0513632 0.0305826 0.00347465
0.0822875 -0.0206002 0.0384859
-0.108943 0.0838362 0.0465617
-0.0569608 -0.0382389 0.0147845
0.0859494 0.0400276 0.0419241
0.0343345 -0.0372312 0.054409
0.0968563 0.0649163 -0.00652732
-0.0231375 -0.0495621 0.103294
0.0451905 -0.0505454 0.0342317
0.00588502 0.0416236 -0.0223014
0.0354263 -0.0426807 -0.0369658
0.0142573 -0.0163176 0.065992
-0.0219143 0.0844349 0.0456775
0.122355 -0.0223676 -0.0830882
0.0399422 0.0979964 0.0930585
-0.149763 -0.0610815 0.0208322
-0.00743049 0.0731504 -0.0686288
-0.0751564 0.0354149 0.0583061
0.00412789 0.053768 0.0019359
-0.00199572 0.000901694 0.0436947
0.00914798 -0.0668876 0.0391352
-0.0906238 0.0962815 0.0728498
0.0811342 0.0268328 0.00143735
-0.0175351 -0.0789677 0.0197772
0.0137689 -0.0205626 0.0729478
-0.0921517 -0.0416714 -0.042505
-0.0666977 -0.0666938 -0.0757727
0.0317288 -0.00949212 0.0449475
-0.0173125 0.0463454 0.0743769
0.063363 -0.0565986 -0.034946
0.0363614 -0.075993 0.0325157
-0.0125556 -0.0174618 -0.0295321
-0.0425953 0.0107688 -0.0229058
0.0398257 0.163757 -0.0437699
-0.133893 0.0434177 0.0291593
0.139595 0.0457134 -0.07119
0.00482695 -0.0124741 -0.0222244
-0.0957262 0.0276291 -0.0507448
0.0876307 0.00740916 0.0129433
-0.0429092 -0.0336728 -0.027807
0.0178247 -0.0956129 0.0612657
0.0244834 0.052483 -0.0356552
0.00991277 0.0231513 0.0193947
-0.0518152 -0.00193044 -0.00582516
0.0302943 -0.140138 -0.0752947
-0.114727 0.0423799 0.0155844
0.0423866 0.0856872 0.00271178
-0.0553595 -0.0937775 0.067348
0.0184987 0.0590312 -0.0349047
-0.020141 0.00290233 -0.0205246
0.00161966 -0.0106851 0.0493747
0.0674466 -0.0346414 -0.0375151
0.00715917 -0.00511007 -0.0713147
-0.0407676 0.111518 0.0411268
-0.037425 -0.0228843 -0.0270799
0.0436658 0.0406844 0.0199872
0.0618947 -0.0202959 -0.0493162
0.042114 -0.0464271 0.0928331
0.0148099 -0.0110685 -0.034901
-0.0237674 -0.0141603 0.0271144
-0.0157094 0.0567559 0.0207782
-0.0195595 0.0684457 0.0520103
0.00945375 -0.033043 -0.00209894
-0.00621902 -0.104311 0.158185
0.0113385 -0.0301377 -0.0351
0.0464737 -0.0618699 -0.000382272
-0.0599102 0.0187109 0.0140751
0.179575 0.0266694 -0.127084
0.0217078 -0.0263513 0.0613387
-0.0334759 0.0161435 -0.0550439
0.0442798 -0.0612504 -0.00467046
0.0746903 0.0617632 -0.00331265
-0.0285548 -0.0321535 0.00262567
0.00668468 -0.0230488 -0.0458964
-0.00145596 -0.0903616 0.0850246
-0.055025 -0.0680347 0.00694562
-0.0816097 -0.0453366 -0.0110882
0.0592948 0.0547705 0.0403026
0.0306157 0.0621261 -0.141607
-0.0614907 -0.0950322 0.0118879
-0.0236705 -0.0724217 -0.054992
0.0959891 0.08122 0.0855605
-0.0581858 -0.0223073 -0.130963
0.0262581 0.0591874 0.0083645
-0.0510874 -0.038775 -0.0586961
-0.0278349 0.0642661 0.182783
0.00271488 -0.0203007 -0.0670797
-0.0655632 -0.039885 -0.00311544
0.0544147 0.0118961 -0.0334434
0.0132238 0.0515097 0.0506598
-0.0711431 0.0180193 -0.0148549
-0.0373416 0.0167127 -0.0125478
-0.0481347 -0.00984131 -0.0229091
-0.0354087 -0.00686118 0.0185989
0.0538411 -0.0684673 0.0143497
0.119329 -0.039701 -0.0462924
0.0786218 -0.052604 0.0209062
0.0220844 0.0754989 0.0607574
-0.00260637 0.0464518 0.108658
-0.00942471 -0.00310443 -0.0351925
0.0614881 -0.0141646 -0.0620813
-0.0654037 -0.0111535 -0.0100174
-0.0267069 0.00852527 0.0396607
-0.123539 -0.0739405 -0.0107712
-0.084439 0.0396071 0.0156932
0.0239203 -0.0157015 0.025587
-0.0180025 0.0331164 0.0171999
-0.00953887 -0.048727 -0.0507677
0.0346123 0.0100595 0.00928759
0.107183 -0.0849924 0.0558398
-0.0740672 -0.0727927 -0.10018
0.100552 -0.0157205 0.0338461
0.123939 -0.0373899 -0.101338
0.00511819 0.0465687 0.066518
-0.0620843 -0.107167 0.0667319
-0.0475989 0.00387627 0.0730283
0.0326247 -0.117772 -0.079611
0.00574807 0.0786053 -0.00412416
0.0107859 0.00994457 -0.135201
-0.00909951 0.0324591 0.0837765
-0.0663521 0.0475453 0.0661625
0.0101125 -0.0368778 -0.0255786
-0.00257481 -0.0365425 0.0757831
0.0573509 0.0278875 0.0224604
0.054756 0.0286095 0.0424691
-0.0754764 -0.0229947 -0.0261959
-0.0973563 0.00873947 0.0503428
-0.0374884 0.00678873 0.0655789
-0.0269393 -0.0443324 0.0672598
-0.0817496 0.0666639 -0.00564535
0.0154435 -0.0496932 -0.029317
-0.0057729 -0.0156821 -0.164652
-0.000444628 0.0301884 0.038522
0.0204711 0.0496738 0.0424942
0.0395867 -0.105346 0.0363563
-0.129176 -0.0626743 -0.0480596
-0.0658777 -0.0817685 -0.0761842
-0.00326849 -0.0195331 0.0963157
0.0566932 0.0275594 -0.0626595
0.00885152 -0.0674276 0.00564621
0.00848858 -0.045911 -0.0125038
0.0391558 0.0154266 -0.0835269
0.00544994 0.025733 -0.056563
0.013204 -0.0541088 0.0684261
0.0411091 0.0723578 -0.0339863
-0.00282936 0.0531948 0.0337683
0.0177172 -0.0621436 -0.0298496
-0.00114967 0.124596 -0.0242894
0.0144466 -0.0214855 0.0286932
-0.0416051 0.0562807 0.00507418
0.0171493 0.0162251 0.0490611
0.054806 -0.0499457 0.0363451
-0.129401 0.0753351 0.0569075
-0.0164083 0.00536883 -0.0322063
-0.0546832 -0.0853716 0.000930712
0.0503838 -0.0574976 0.0260213
0.00739547 -0.0765022 -0.0122473
0.0247216 0.0124717 0.0443574
-0.0259971 -0.118647 0.0495105
0.144485 -0.03967 -0.0355513
0.0446413 -0.0154575 0.0121685
0.0782696 0.108919 -0.0558711
0.111484 -0.059031 -0.0986127
-0.00594931 -0.0277552 0.0469444
-0.0800105 0.0303032 -0.0225779
0.00346844 -0.0123674 0.051363
0.016004 0.0262452 -0.116245
-0.0920682 -0.147458 0.0772086
0.1149 0.0730536 -0.0450102
0.00747241 -0.14145 -0.0417599
0.129363 -0.0604984 -0.0456823
-0.0216805 -0.0711757 -0.0196273
-0.0452164 -0.0457824 -0.035977
0.0673007 0.0413628 -0.0305717
-0.0653611 -0.0200408 -0.120445
0.0477195 0.00849282 -0.0273309
-0.00407668 -0.0290121 -0.0118097
-0.00676528 0.120497 -0.102574
-0.00783253 -0.0401056 0.0707158
0.112819 -0.000974611 -0.0117531
-0.00241124 0.0148935 -0.0621591
-0.0293876 -0.0427166 -0.0560361
-0.0285253 0.0973427 0.0287593
-0.129498 0.122401 -0.0428904
-0.0420124 0.000836962 -0.0247767
-0.0847804 0.00696483 -0.00940219
0.0135135 -0.0479995 0.0948124
-0.0408678 0.0329613 0.000708959
-0.0611806 0.0960122 0.0639112
0.0824946 -0.0578165 -0.0217611
0.0805132 0.0128181 0.0101021
-0.00741342 -0.0365471 -0.0774112
-0.090304 -0.0222179 0.0322644
-0.0466536 -0.0322291 0.0606833
0.0355485 0.0332584 -0.0199855
-0.00615063 -0.101475 -0.0493184
-0.0669425 -0.0394973 0.0104067
0.00811203 0.0298317 0.0177747
-0.000475187 0.115298 0.0180084
-0.123002 -0.00596423 0.0324097
0.0504151 -0.0622104 -0.0284097
0.000986238 0.008293 -0.0955788
-0.0634721 0.0631826 0.0472281
0.0595882 -0.036366 0.0466331
0.143605 0.0365324 -0.00379877
-0.0126353 -0.0741657 -0.0748417
-0.0611747 0.0627909 -0.0620965
0.00273487 0.0365641 0.0463565
0.0629718 0.0250603 -0.04582
-0.0805742 -0.0594202 0.0821979
-0.0471907 0.0372703 0.0166586
-0.0800088 0.114454 0.0562113
0.0679029 -0.010884 -0.0882673
0.0289731 -0.0712416 0.0472705
-0.0278026 0.00931553 -0.0160796
-0.00710142 0.0407957 0.0184488
-0.0285173 0.0627019 0.0762942
-0.000735258 -0.0738031 0.0354921
0.0170138 -0.0198975 -0.0134006
0.0211498 -0.081352 0.00978593
0.0414118 0.055395 -0.00264944
-0.0316435 0.0775857 -0.118831
-0.0240539 -0.0523851 -0.110128
0.0486244 0.0581936 -0.0076505
-0.0595416 0.101213 0.0808626
0.0369601 0.0319765 -0.0405135
0.0387596 -0.0439905 0.0582411
0.0954162 -0.0440823 -0.0398712
-0.114618 0.0869001 -0.11513
-0.0657706 -0.0399532 0.139151
0.0363303 0.0698938 0.0371104
0.049198 0.0330854 0.15303
-0.022195 0.0142236 0.0280454
0.0439999 0.0233931 0.0884933
-0.0741782 0.0739178 0.19227
0.0291766 0.0342185 0.0167085
0.03848 0.0150738 0.0381862
0.0521392 -0.0971076 0.0424893
0.0799764 -0.0275584 -0.0229801
0.0104773 -0.00247004 0.0101093
0.0537584 -0.017561 -0.00528829
-0.0167133 -0.0690563 0.037601
0.0510722 -0.0948018 -0.0329612
-0.0227541 0.00146313 -0.0304313
-0.0332885 0.0738398 -0.0725692
0.0452821 -0.0147823 -0.0126481
-0.0944644 -0.0856653 0.0602834
-0.107316 0.00020648 -0.0219099
-0.0122828 -0.0179838 0.000677993
-0.084244 0.10249 -0.0779213
0.00550854 0.0519113 0.0527261
-0.0545653 0.0569093 0.0491896
0.0160289 -0.0660075 0.0475212
-0.0359542 0.00479983 0.141032
-0.0233031 -0.0576531 0.067549
-0.071362 0.0688666 0.00551235
-0.0387377 0.0210214 0.0278498
-0.0909424 -0.0156074 -0.000957365
-0.0324523 -0.0708228 0.0613774
0.000617776 0.034083 0.0651198
0.0275349 -0.136223 -0.00634838
0.0264515 -0.00720271 0.0360338
-0.014572 -0.0434726 0.00542229
0.0535864 -0.0406036 -0.0860607
0.0463973 0.0362247 -0.0730062
-0.0190625 -0.0317378 0.01644
0.0598501 0.0815858 -0.0857282
0.127542 -0.0343805 0.0611583
0.0678387 0.0424224 0.00524932
-0.0880178 -0.0597584 0.0213345
-0.133613 -0.034133 -0.0155724
-0.0556844 0.0157424 -0.0331604
0.0505235 -0.0750007 -0.037715
0.0456704 0.013796 -0.0298104
0.0370234 -0.0501925 -0.0234485
0.0243421 0.0254435 -0.0174509
-0.022335 0.0839501 -0.00175458
-0.0118376 -0.0285999 -0.0396972
0.102433 -0.0545875 -0.0885607
-0.0258237 -0.028081 -0.0010574
-0.0423135 0.0961336 -0.0451025
0.0196364 -0.0663189 -0.0532749
-0.0239853 -0.0342238 0.0788694
-0.0187846 0.0292258 -0.0298332
-0.0666884 0.0327713 -0.000705027
0.085224 0.047327 -0.0553909
-0.136851 -0.0525704 0.0477564
-0.0240655 0.0751535 -0.0732393
0.0548226 0.0415618 0.0473571
0.0183497 -0.0602248 0.0410992
0.0077519 -0.0498661 -0.00492645
-0.0397836 -0.114225 -0.119837
-0.0253662 -0.0523743 -0.0803573
0.0347008 -0.0203752 -0.00706208
-0.0466363 -0.0472191 0.0514634
0.0002856 0.00111512 0.0240976
0.0162612 0.00651843 -0.0370977
-0.00497152 0.0172067 -0.0704973
0.027355 -0.034589 0.0664702
-0.00128977 0.073234 0.0140423
-0.0116315 -0.110152 -0.0242165
0.0844683 0.10871 -0.0640028
0.00728401 -0.0410467 -0.0446627
-0.0463122 -0.0531035 -0.0343542
0.0233336 -0.0342663 -0.0488383
0.00913494 0.0407103 -0.0395733
0.0105688 -0.0419862 0.0168618
-0.0855946 -0.0361157 -0.103647
-0.0131235 -0.0897348 0.0181177
-0.0186809 0.0314202 0.0060218
-0.0429279 -0.0376035 0.0645852
0.044575 -0.0272662 0.00282673
0.059036 -0.0589694 -0.00862895
-0.0557012 -0.0534372 -0.103835
-0.125333 -0.0834606 0.0351997
-0.0289974 -0.0889959 0.0843856
0.0834941 -0.0230722 -0.00102919
0.0698842 -0.0663918 0.0100708
0.0554072 -0.00617135 -0.0274222
-0.0502751 -0.0789501 -0.0157921
-0.00971959 0.0440355 0.071118
0.0284294 -0.00699656 0.0248239
0.0439883 0.0258731 0.0158491
-0.057126 0.0630852 -0.0148668
0.0665343 -0.0776807 0.055004
0.00785187 0.0111826 0.0225831
-0.0513315 0.00693733 0.0826318
0.00465261 0.0167403 -0.0342627
0.00358095 -0.0842732 -0.001623
0.0994013 0.0104665 0.00367479
0.113655 0.101339 -0.00329639
-0.0352424 0.0530962 0.0301065
-0.0474378 0.0136389 0.0436216
-0.0602884 -0.0514922 0.0412545
-0.0387108 -0.0766504 -0.00146127
-0.0214944 0.00704189 -0.16325
-0.0463617 -0.0223323 0.115044
0.0690131 -0.0246765 -0.00255561
0.0848638 0.0211254 -0.0130176
-0.110026 -0.0202769 0.0472282
0.0364617 -0.0996609 -0.105093
-0.0975285 0.0145939 -0.0367131
-0.0689184 -0.000483503 0.0553209
0.00460641 -0.111916 0.112414
-0.0246628 -0.00330766 0.0339691
0.0805789 -0.0774087 0.0730828
0.0405531 -0.0132282 0.00499032
0.0640033 -0.0764839 -0.0532176
0.0676955 -0.00208804 -0.180286
-0.0285162 0.0439387 -0.0524673
0.0673635 -0.0187207 0.0848828
0.0335179 0.0918949 -0.030305
-0.0470609 0.0872381 -0.0107692
-0.0541779 -0.0206103 -0.0749732
0.084363 -0.0237719 0.0453108
0.00657396 -0.111719 0.0227606
-0.0321414 0.0298992 -0.0202089
-0.0142632 0.0334141 -0.0182344
-0.0151327 0.0224351 0.00527938
0.0770053 0.035239 -0.0499734
-0.0122892 -0.0448905 -0.0224522
-0.0642955 -0.0419643 0.032798
-0.0125804 -0.0338494 -0.0239126
0.0653081 0.0377007 0.0121462
0.102527 0.0238409 0.0630364
-0.0044286 0.0453688 0.0581319
0.0313781 -0.00019304 -0.0537032
-0.0949716 0.0194486 -0.0523788
-0.0227768 -0.0866324 -0.0866143
0.0721907 -0.0798332 0.0348543
-0.0150733 0.0755141 -0.0131713
-0.0280983 0.0387819 0.0300042
-0.00396847 0.0925788 0.103154
-0.0315869 0.085764 0.0150886
0.00918163 -0.0257984 -0.0411446
-0.0424397 -0.000610994 0.0267184
-0.0715749 -0.0877397 0.12645
0.0379389 0.0244926 0.0518394
-0.128635 0.040876 0.153579
-0.0157402 -0.0116908 0.000330788
-0.075711 0.0674832 -0.0196735
-0.0211033 -0.078854 -0.153173
0.0337459 0.0603748 -0.0711222
-0.106062 -0.036865 0.0372137
-0.040527 -0.0463785 -0.015439
0.0362445 0.00705918 0.0964182
-0.0218197 0.0581612 0.0440773
-0.0466221 0.106746 0.0616491
0.0618539 0.124224 0.0418619
-0.0263128 0.0165705 0.10153
0.129259 -0.00416212 -0.023272
0.0201211 0.037787 -0.0667855
-0.0196608 0.00081426 0.0376274
0.0711611 0.067508 0.0084262
0.0469229 -0.0102277 -0.00402443
0.00212174 0.0478873 0.00197898
-0.00695534 0.04728 0.0287134
-0.0664213 -0.0321499 -0.0336711
0.0688406 -0.0397904 -0.0658943
-0.0382655 -0.0723979 -0.0173148
-0.0702404 0.0117278 -0.106512
-0.0691489 0.0905259 0.0444709
0.0895062 0.0876016 0.0683085
-0.047212 0.0912694 0.0252458
0.0209037 0.0638118 -0.0471672
-0.0491133 -0.0786391 -0.00980916
-0.00844336 0.0628945 -0.0170173
0.104822 0.0397813 0.0146457
0.0814429 0.0896635 -0.0273439
0.125112 -0.0223846 0.060465
0.0197511 -0.00113102 0.0401943
-0.0887003 -0.000642382 0.0427654
0.0160899 -0.0478363 0.0484892
-0.00991955 -0.0102553 -0.0229212
0.112829 0.00980468 -0.041289
-0.055746 -0.0818655 0.0593177
-0.0216392 -0.0160505 -0.0892933
-0.0370019 -0.0410493 -0.019948
-0.0308392 -0.0158508 -0.0140927
0.095771 -0.0557896 -0.163047
0.021236 -0.0177334 0.0296309
0.0335413 -0.0296383 0.0587118
0.104333 0.00844722 -0.0221426
-0.0255696 -0.0302901 0.0561932
0.0279692 0.0640387 -0.0490093
0.0737611 -0.0209105 -0.0252172
-0.117148 0.0922868 -0.0172928
-0.0814016 0.0327059 -0.0555632
-0.0657253 0.0287245 0.066104
-0.0747291 0.0211522 -0.0731451
-0.001181 0.0753289 -0.0819736
0.0410544 -0.0901783 0.0735588
-0.00823681 -0.0571366 0.0115376
0.00846005 -0.00388219 -0.0517487
0.130661 -0.00491314 0.0540398
-0.0169696 -0.0415404 0.00984413
0.0469326 0.0406186 0.0333754
0.126326 -0.0114889 0.100318
0.119279 0.105876 -0.0201416
0.0128868 -0.0923244 0.00508005
0.132688 0.0323985 0.130069
0.00740729 0.0940117 -0.0292668
-0.0451112 0.0152045 0.0126727
-0.0301465 0.0470999 -0.105409
-0.111474 0.000641674 -0.102494
-0.0469551 0.0612956 0.0290011
-0.0713649 0.0143373 0.122544
-0.0742475 0.034754 -0.000521579
0.0281514 0.0551107 -0.0118824
-0.10413 -0.0808642 -0.028647
-0.0858749 -0.0588263 0.0578916
-0.0769972 -0.227647 -0.0407396
-0.00627556 -0.0270773 0.0257595
-0.115477 0.00935768 0.0830675
-0.0268501 -0.0886836 -0.0566669
-0.044176 0.000297222 0.00125605
0.0385729 -0.0150543 -0.0597408
0.131469 0.0972685 -0.00614863
-0.101694 0.0100186 -0.0316597
0.027867 -0.00947788 -0.0810558
0.031255 0.0146283 -0.0041435
0.107704 0.0533993 0.0860308
0.122891 0.0567557 0.0464001
5.2088e-05 -0.0684419 -0.0421987
-0.0466738 -0.0637554 0.0409685
-0.035347 0.00620492 -0.0302914
0.0140048 -0.0252816 0.0372203
0.064182 -0.0152293 -0.125652
0.0053309 0.0193371 -0.0912784
-0.0152488 0.00140283 -0.0800581
0.0777437 -0.0889592 0.0351904
0.110044 -0.0677099 -0.0379845
0.0162349 0.0510085 -0.0283712
-0.0167153 0.0010493 -0.0455511
0.0490302 -0.0332917 0.0475979
0.0382668 0.0815588 0.017662
-0.00947799 0.178565 -0.00785719
-0.046406 0.00702855 0.0176399
-0.024298 0.0764851 0.0196091
-0.00492918 -0.0185895 -0.0759967
-0.0615074 0.0332281 -0.0432003
0.0850475 0.067102 -0.00404642
0.0290066 0.0525008 -0.0771917
-0.0233575 -0.0968425 -0.0535127
-0.030067 -0.0749364 0.000581857
-0.170853 0.0197346 0.00686697
0.00554521 0.00871916 -0.0843201
-0.107847 -0.0338178 -0.0541396
-0.0179228 0.0122778 -0.0186836
-0.0206158 0.0178319 0.00792834
-0.0658061 -0.00300996 0.103202
0.00223096 0.0406932 -0.0515659
0.0193508 0.0840222 -0.0241628
-0.00552347 0.0361197 -0.0137192
0.0964128 0.0238689 -0.0233857
0.0703706 -0.0545242 -0.0534309
-0.0695543 -0.129779 0.0751441
-0.00602202 0.0583194 -0.0534538
-0.0434309 -0.0716957 -0.0535054
0.0612004 0.136833 0.0339589
0.0277072 0.00806078 -0.0269273
0.0510345 -0.0706833 0.00924847
-0.0797192 0.0444068 -0.0689219
-0.0261018 0.052043 -0.0209813
0.0659106 -0.0129075 -0.0989468
0.0302139 -0.0202481 0.0704121
-0.0270636 0.0176666 -0.00222696
0.00269896 -0.0155312 0.0111249
-0.0355135 0.0126641 0.0736808
-0.0445903 -0.0540244 0.0718891
-0.0511792 0.0117184 -0.00210562
0.00930065 0.0256455 0.021895
-0.0279688 0.0507039 0.0682015
0.0190209 -0.0789747 -0.0206319
0.0755086 -0.0285817 0.0255832
-0.0311191 0.0860182 0.0511392
0.0386745 0.0412936 0.0846106
0.012886 -0.00729944 0.00572416
0.0580956 -0.000929139 0.142166
-0.0118041 -0.0201517 0.0854596
-0.0594563 -0.0865744 0.0751361
-0.01433 -0.0534663 -0.0140795
-0.070001 -0.0234391 -0.00500372
0.0395232 -0.0605751 0.0095578
0.0220025 0.121213 -0.0234818
0.0749937 -0.124576 0.0676337
0.0722703 0.0858086 -0.0771875
0.0198473 -0.0516474 0.134862
0.0761668 0.0205858 0.0256211
0.0386871 0.153774 -0.0473719
0.0363968 0.000365731 0.0706603
-0.0142495 -0.0114596 -0.0498903
-0.0366187 0.0561603 0.0594031
0.0406604 0.0415733 0.0487065
-0.0464927 0.0336163 -0.0332334
-0.0107711 -0.00266986 -0.029779
0.00681579 0.0113214 -0.044182
0.0405928 0.0381046 0.00571502
0.104941 -0.0801645 -0.0632155
-0.0813645 0.0597224 0.0157491
0.0205335 0.0400862 0.0399657
0.0364655 -0.0443453 9.49725e-06
-0.0132831 0.0781003 0.0350705
0.152283 0.00747164 -0.0261164
0.0447106 -0.0818474 0.0379556
0.026837 -0.0357191 0.0356342
-0.026902 0.0612111 0.0180807
-0.0471406 0.132505 -0.0121883
0.0785867 -0.0811004 0.0229227
0.122727 0.0061227 -0.036488
-0.00306605 -0.040151 -0.0314513
-0.0172401 -0.0353153 -0.0289646
0.00547401 -0.068353 -0.00716691
0.0230446 0.0982168 0.00848151
-0.0208499 -0.0234604 -0.0129646
-0.0185275 0.0167184 0.00642302
-0.0197845 0.0359308 -0.101371
-0.0159581 -0.078664 0.0283013
-0.0119744 0.156694 0.0333117
0.0103877 -0.0465588 -0.00903037
-0.039436 0.0184574 0.0934773
-0.050918 0.0866602 -0.019812
0.0186175 0.036837 0.0236021
0.1033 0.0488427 -0.0682766
0.0693327 -0.0296688 -0.0949786
-0.0609478 0.0210003 0.0526818
0.00682444 0.0586088 -0.0499875
0.121107 -0.051283 -0.00398929
0.0742612 0.022663 -0.0675797
0.0207555 0.0960471 0.0790154
-0.0298692 -0.0822002 -0.00283316
0.0956611 0.0590499 -0.00048901
-0.0119783 -0.0726147 0.105918
0.0249358 0.0054506 0.0111985
-0.0968818 -0.0532682 -0.049981
-0.0274912 0.0251701 0.0792252
0.0222963 -0.0677806 0.0243076
0.0274156 0.076356 0.0807252
0.0634677 0.0993144 -0.042744
0.0325445 0.00868682 -0.112526
-0.00592899 -0.0594979 0.107033
-0.027336 -0.107247 -0.0089449
0.0171181 -0.0111898 0.0342065
0.116783 -0.0173739 0.0261924
-0.0729098 -0.0147987 0.0419372
-0.112273 -0.0200616 -0.0998062
0.0710225 -0.0181719 0.000175694
0.0510223 0.0209821 -0.0159574
0.0707466 -0.0485049 0.0460252
0.0215619 0.134235 0.0523987
-0.0382811 -0.0135767 -0.0203674
-0.0239119 0.0923097 -0.00669951
0.102921 0.087736 -0.061587
0.0636716 -0.0615699 0.0219139
0.0842033 0.0393668 -0.00309304
-0.000822271 -0.0723386 -0.085476
-0.0484467 0.0691505 -0.00115545
-0.0381276 0.0316182 -0.0272925
0.0367365 0.0176574 0.0201223
0.0123862 -0.0598819 -0.0467657
0.0102537 -0.0541623 0.0382819
0.112419 0.064009 0.0454136
0.0272358 0.00594583 0.0306234
0.0147559 -0.1016 -0.113811
0.00175062 -0.0989631 -0.102593
-0.0355911 0.0664325 -0.0284022
-0.00191833 -0.0266603 -0.0069952
0.0613169 -0.0191935 -0.0423407
-0.0155006 0.131615 -0.00902129
0.0962716 -0.00131847 0.0493135
-0.0985708 0.0522523 -0.0391475
0.0100685 -0.00848943 -0.0798286
0.0220322 -0.0330602 0.0838721
-0.0322983 0.0175346 0.0931358
-0.0240174 0.0268644 0.0730826
-0.0324424 0.0207719 -0.0416532
-0.0774097 -0.024069 -0.0333417
-0.0790047 -0.081245 -0.0759364
-0.0339897 0.0215767 0.0529624
-0.125681 0.0336681 -0.0328428
-0.0485523 0.0401985 0.0608344
-0.0480976 -0.0875938 0.053225
0.0838378 0.0351155 0.0594633
-0.0160755 0.0510775 0.0785929
0.126191 -0.0951173 0.148803
0.00290951 0.0306294 -0.00115762
0.0414572 -0.0766457 0.060251
0.0418899 0.0176578 -0.0566782
-0.0137287 0.0474761 -0.0109043
0.0140748 -0.0240533 0.0312279
-0.0506066 0.0286699 0.0890651
0.0211738 -0.0641308 0.0237825
0.0380754 -0.00993587 0.0301392
-0.00567702 -0.0583164 -0.0416505
-0.037727 0.0557871 -0.0983747
0.0415489 0.0958713 0.0571762
0.0668567 0.0148273 -0.0475771
-0.19455 0.0458311 -0.00657072
-0.0151659 0.00875838 -0.0823714
-0.0781274 0.00218147 -0.0417359
-0.000316265 -0.000576784 0.0450369
0.00219624 0.00235118 0.0945901
0.0534588 -0.0645463 0.033048
0.0392774 0.0520074 -0.0418903
-0.062045 -0.024441 -0.0570556
-0.0764281 -0.0124826 0.0400208
0.0062195 0.0427208 -0.0983707
-0.0262701 -0.157547 -0.038485
0.0370922 0.0120565 -0.108413
-0.0556373 -0.0309103 -0.012175
0.105843 0.0335291 -0.0795556
-0.136788 -0.055926 -0.0899586
0.00278664 -0.00350964 0.0591648
-0.0564004 -0.0530112 0.0373084
-0.0109302 -0.00466341 -0.012897
-0.00921289 0.0569761 -0.00606989
0.0683487 0.0256213 0.00828394
0.0114688 -0.0877421 0.039904
-0.0496942 0.105411 0.0600966
0.0111431 -0.0285414 0.0703009
-0.0162472 -0.0774354 -0.0245466
0.0163207 -0.0267418 0.0214719
-0.0445284 -0.0323578 0.0254365
0.0956755 0.0606319 -0.0898345
0.0955069 -0.125482 0.0266885
-0.0322544 0.00241651 0.0324066
-0.104228 -0.097199 0.00702326
0.0625932 -0.0414397 -0.124785
-0.100297 -0.126812 -0.141589
-0.0221072 -0.0795701 0.031265
-0.0275584 0.00286158 -0.065669
-0.0418299 -0.0642801 -0.0905446
0.00127455 -0.103474 0.0108489
0.114283 0.0195029 -0.0165095
-0.00990324 -0.0330742 -0.0456128
0.0417623 -0.0681221 0.0294976
0.0189814 -0.0173536 0.0424754
-0.048715 -0.119104 0.0751589
0.00352114 0.0163734 -0.0109069
0.000672895 -0.076175 0.039719
-0.0494313 0.0357984 -0.0486538
-0.155467 0.00881405 0.0495225
0.119372 0.0628536 0.0561578
0.083533 -0.0251952 -0.128528
0.0457222 -0.0397312 -0.0743367
0.103344 0.0531781 0.057906
-0.0650986 -0.00298653 -0.062255
-0.0384375 0.0400091 -0.0115277
-0.0957808 0.0207867 -0.139993
0.0376267 -0.00161438 0.0097721
0.00855737 0.0504569 -0.0372762
0.0103583 -0.0178952 0.0404975
0.00641447 0.0422584 -0.041198
0.0889372 -0.0632517 0.0174577
-0.0280961 0.0200178 0.0325408
-0.0215111 -0.0865546 -0.114324
-0.00136453 -0.080212 0.0436246
0.0112613 0.116733 0.0562532
0.00778766 0.00502979 0.0333078
0.0717169 -0.103352 -0.0278966
0.00179992 -0.0914715 0.0379017
-0.0447744 -0.12536 0.0452824
-0.00363531 -0.0924973 -0.0212411
0.0384386 -0.0459853 -0.110088
0.0377186 -0.0859913 0.0751987
0.0310179 0.0487352 -0.0263653
-0.036071 -0.0396733 -0.0355577
-0.0262131 0.0123099 -0.0711209
-0.101571 -0.00648157 -0.0586738
0.142403 0.0625005 -0.0814757
-0.0572619 0.0383266 -0.0213483
-0.0653225 -0.0137157 0.00486931
0.0205233 0.0212295 -0.00958472
-0.0934753 -0.0551421 -0.0641188
-0.0576956 -0.0101213 0.0322461
0.0754766 0.03431 -0.0528143
-0.0235449 -0.0877157 -0.0731504
-0.0232454 -0.110095 0.10727
-0.0399194 0.0259214 -0.059278
-0.0156832 -0.070228 0.105325
0.0419291 0.12357 -0.0307562
0.0154557 0.0179437 0.0100799
0.0333424 0.0712731 -0.046855
0.021455 -0.00279322 0.129821
0.038308 -0.0446432 0.0534283
-0.0164625 0.0473575 0.0507286
-0.0218002 -0.07604 0.0546171
-0.0122113 0.12256 0.00741142
0.0703614 -0.0524972 -0.0496655
0.0540442 -0.0147518 0.0550096
0.0365879 -0.00635698 -0.0096746
0.0956847 0.0856316 0.0866229
0.00572629 0.000545223 -0.0366469
-0.114843 -0.011884 0.0581802
0.0783833 0.0622407 0.0290415
-0.0363309 0.0886917 -0.0355437
-0.0607553 0.0827777 0.0398002
-0.052294 0.0418867 0.087519
-0.093878 0.112007 -0.019024
0.0282857 0.0248345 -0.107953
0.0475454 0.0126716 0.0219755
-0.0172476 0.0350599 -0.0813993
0.00524916 -0.00939448 0.0162709
0.064231 -0.0175497 0.00587828
-0.0277264 0.0517954 -0.0860938
0.00294012 -0.0503691 -0.00488552
0.0770073 -0.0534734 -0.0359022
0.00937383 -0.0354192 0.0372672
-0.0923904 -0.0359762 0.00258042
-0.00593217 0.0299702 0.0266018
0.0580266 0.00829404 -0.0631844
-0.13324 -0.0579499 -0.0484544
-0.0954756 0.0121287 0.00471149
-0.0778538 0.0127102 0.0332365
-0.0308924 0.00222618 0.0261188
0.0435703 0.0383807 0.0242112
0.00265127 0.0271693 -0.00584496
0.02608 0.0969379 0.00747937
-0.0247144 0.044304 0.109552
-0.0218137 0.0434376 0.144383
-0.0632575 0.208622 -0.139128
0.00330686 0.00954188 0.0256594
-0.0777161 0.100946 -0.061932
-0.0126547 0.0584489 -0.0235321
0.0281666 -0.085167 -0.0340481
0.0780393 -0.10167 0.000991489
-0.00588745 0.0736668 0.0168802
-0.124028 0.0715931 -0.0164706
-0.106508 0.04119 -0.082624
0.0482182 0.0630691 0.0489474
0.0467803 -0.0600955 0.0332078
-0.0902936 0.0665541 -0.0275012
0.0573311 0.0292011 -0.00212151
-0.018101 -0.021246 -0.0604134
0.016894 -0.0136479 0.0146123
-0.0372423 -0.0352034 -0.130595
0.00927056 0.0312261 0.100028
-0.0301494 0.00905047 0.0324546
0.0332214 -0.0913953 -0.0159811
0.00614823 0.0180585 0.061115
0.121912 -0.0226081 -0.0213613
0.0153188 0.0773556 0.127509
0.00140519 0.028485 -0.0612357
-0.0306992 0.032749 -0.000300183
-0.0582026 -0.052119 -0.0797938
-0.0688503 -0.0043811 -0.0401408
0.0360206 -0.046874 -0.0538555
0.0383888 -0.104622 -0.0675527
-0.0284773 -0.0066742 0.0718775
-0.0404192 0.0043022 0.0311473
0.026417 -0.0408044 0.0267631
-0.0483328 0.00261955 -0.00354132
0.0419682 0.0059086 0.0214087
-0.0755873 0.00702741 0.0594545
-0.0367041 0.0316096 -0.0478852
0.0526657 -0.0737367 -0.000680467
-0.0835668 0.00310127 0.00992811
-0.0472118 -0.123115 0.00553511
-0.0655562 -0.00224402 -0.0846552
0.00705007 0.063154 0.0328889
0.0355735 -0.0358908 -0.010214
0.0281158 0.0394839 -0.0318317
0.0587737 0.00597852 0.0799844
0.0984381 -0.0318067 -0.00805586
-0.0193698 -0.0062402 -0.0297483
0.0542906 -0.0219492 -0.0163156
-0.0146453 -0.0714145 0.0632752
-0.0753685 0.0123522 0.0938857
-0.0347625 0.0171363 0.0713967
0.0734577 -0.0227259 0.00731677
-0.0196373 -0.0240552 0.0698442
0.117819 0.0123066 -0.0230498
0.0377127 -0.0453299 0.155703
0.00225355 -0.0656936 -0.0635416
-0.00095771 0.052759 -0.103376
0.0485925 0.037354 0.0234018
0.0137048 -0.0851559 0.0708555
-0.0687277 -0.00860141 0.0528051
0.0949115 0.00332366 0.0424493
-0.0406135 0.0107442 -0.0353345
0.00637728 0.0199888 -0.00643664
0.0417712 0.0497726 0.0157339
0.0592511 -0.0195042 0.0472852
-0.0806703 -0.0174591 -0.0479815
-0.101284 0.058015 -0.176146
0.0424348 0.0316634 0.0615641
-0.0642017 0.0158616 0.0361774
-0.120026 -0.0797691 -0.00667191
-0.0309582 -0.10342 0.019204
0.0376167 -0.0220988 0.060673
0.0180042 -0.00317356 0.0189535
0.0225487 -0.0178451 -0.00372261
0.0317045 -0.0596392 -0.0592355
-0.0469754 -0.0475733 0.0658449
-0.0456965 0.182718 0.0054251
0.00639708 -0.0247145 -0.0266162
0.0505645 -0.0913668 -0.108744
0.016156 0.0405556 -0.0277537
0.00874207 0.0529445 -0.0230105
-0.0705542 0.0128922 -0.0269061
0.0360803 -0.0162644 -0.0253404
-0.0778304 -0.0336404 -0.0417605
0.11957 0.146864 0.0103393
-0.00220669 0.0325738 -0.0158671
-0.0166797 0.0756647 0.0955369
-0.0150709 -0.0145507 -0.0325114
0.140352 0.0216152 0.0377145
0.0513789 0.054958 -0.0487462
-0.129674 -0.0427347 0.00796601
0.0258867 -0.00669425 0.0362812
0.0437917 0.0649656 -0.0012101
0.0734973 0.0189661 0.0408152
0.0433348 0.0718075 -0.00726829
0.0827594 0.055488 -0.0667955
0.0642272 -0.0636184 -0.0702934
-0.0547386 0.0469447 -0.0308015
-0.0914031 0.0152117 -0.0147448
-0.0129107 0.0256899 -0.0245
-0.0576942 0.0481754 0.0121006
-0.0267508 0.0533741 -0.0745736
0.00077192 -0.113953 0.0299451
0.00181359 0.0250882 0.0203734
0.123737 -0.000698633 0.00757751
-0.0293082 -0.0640956 0.0125511
0.0431596 0.108164 0.0385752
0.116049 -0.0831734 -0.0895861
0.025785 0.10921 0.0391795
0.0400322 -0.024553 -0.0351425
-0.133337 0.034845 -0.066673
0.0147032 0.0288117 0.0942924
0.0403476 0.0163344 -0.0792198
0.0235707 -0.0548503 0.0173097
-0.027854 0.0468161 -0.0105507
0.070629 0.0198744 -0.010309
-0.0953899 0.00252689 0.0223859
0.0144999 -0.018755 0.00488831
0.0665014 -0.00837346 -0.0257698
0.097901 -0.0951214 -0.0157836
