1 512
0.488935
0.45515
-0.0114313
0.230916
-0.892304
-0.42856
0.378645
0.249241
0.466782
-0.0522458
-0.0550042
0.0255818
-0.386934
-0.0603375
0.0790638
0.465942
0.0721122
0.0438435
-0.642287
0.0458041
0.121947
0.465371
-0.461789
-0.123804
0.444285
0.0039916
0.239886
0.132904
0.168139
-0.0461474
-0.034982
0.0039301
-0.179024
0.541241
-0.241233
1.23476
-0.490893
0.338919
-0.844931
0.316416
0.30596
0.140932
-0.617553
0.118305
0.101822
0.312438
0.0647826
-0.297599
-0.0671627
0.195596
-0.225191
-0.110247
-0.276685
-0.301026
-0.0298208
0.295463
0.503706
-0.438675
-1.09044
-0.187897
-0.0679036
-0.351371
-0.298851
-0.222442
-0.208787
0.451248
-0.179471
-0.524045
-0.330729
0.0379298
-0.302714
-0.0164609
0.276629
0.144146
-0.897849
0.378188
0.58298
0.153027
0.0271188
0.727105
0.0468202
0.67445
-0.0824217
-0.382585
-0.230284
0.314301
0.27908
-0.0190841
-0.317292
0.34009
-0.519807
-0.078311
-0.43868
0.443346
0.130461
-0.173949
-0.405189
-0.29677
0.474345
0.461543
-0.150662
0.297684
0.367587
0.0627695
-0.44064
-0.0295242
0.0813083
0.0934211
-0.335812
-0.155861
-0.370648
0.048478
-0.209167
0.0732057
-0.437736
0.303562
0.407587
0.487125
-0.414313
-0.30793
-0.136179
-0.251079
0.485606
0.119382
0.0437995
-0.370206
-0.603526
-0.268255
-0.235921
-0.69675
-0.649496
0.0538093
0.31169
0.258745
-0.171423
-0.0033396
0.307549
-0.316226
-0.316828
0.676761
0.687443
0.365842
0.0789668
0.0344927
-0.103054
-0.464606
-0.579611
-0.346222
0.212838
-0.113992
0.0379561
0.16872
0.58989
-0.2183
-0.0306722
-0.577303
-0.139619
-0.258573
-0.000136549
-0.149082
-0.0268881
0.416862
0.213387
0.183726
0.331148
0.316139
0.406208
0.195644
-0.265779
0.389313
-0.15239
0.459251
0.622124
-0.273014
0.517469
-0.389539
-0.19022
-0.469824
-0.131716
-0.124287
-0.21624
0.390469
0.046685
0.203049
-0.844301
-0.499847
0.192882
-0.273718
0.0652215
-0.234853
0.459515
-0.255806
0.102598
0.231605
0.0868012
0.0954396
-0.36939
-0.199968
-0.358954
0.024553
0.868574
-0.0424961
0.437014
0.232862
-0.496615
-0.322092
0.085966
0.537319
-0.777576
0.112989
-0.19877
-0.446294
0.015947
-0.209226
0.108035
-0.00709042
-0.493828
0.485167
0.345762
0.0570059
-0.233197
-0.072481
-0.0735397
0.289443
0.375674
0.219179
0.0690065
-0.501671
-0.505173
0.0416126
0.00384892
0.311219
0.201845
0.0289001
0.141313
-0.317315
-0.483336
0.131705
0.268207
0.508045
-0.156353
-0.511151
0.733765
0.0964886
0.557282
0.101081
-0.461243
-0.0581134
-0.0783092
-0.228747
0.00785244
-0.272698
0.394135
0.490435
0.160607
0.421422
-0.191849
-0.0199241
0.0971443
0.136078
0.407734
0.261887
-0.0847248
-0.305171
0.336615
0.443814
0.652511
0.298613
0.704524
0.563449
-0.302369
0.604215
0.287506
0.265794
-0.808115
0.866714
0.708203
-0.193371
0.0289399
-0.201358
0.068345
-0.16803
0.332813
0.142237
0.418302
0.946561
-0.145498
-0.397971
0.72478
0.584359
0.641839
-0.330044
0.429713
-0.173094
0.0340196
-0.056025
-0.0766586
-0.0392756
-0.0665939
-0.253645
-0.133106
0.363615
-0.226699
-0.380798
-0.194818
0.368156
-0.155067
0.737295
0.0186018
0.0629236
0.727368
-0.649195
0.369968
-0.604636
0.422358
0.334529
-0.743327
-0.143006
1.10158
-0.167383
-0.147926
-0.0167628
-0.29608
0.220107
0.486846
-0.564989
-0.318078
0.136262
0.641993
0.297549
-0.119896
-1.17042
0.104785
-0.505037
-0.121191
0.16777
0.0838085
-0.337314
0.117289
-0.0676217
-0.0604391
0.10252
0.03888
-0.0605872
-0.267256
0.334011
-0.35102
0.303256
0.00502219
-0.279153
0.588983
-0.0431392
-0.46016
-0.14849
-0.134978
0.10805
0.5235
-0.243038
0.360399
-0.566286
0.523192
0.83747
0.322536
-0.0324808
0.0572798
-0.978071
-0.671042
-0.011232
-0.107025
-0.336175
0.120933
-0.51732
0.978916
0.183413
-0.276103
0.953066
0.566284
-0.0621887
-0.468383
0.226884
-0.765336
0.0204579
0.615487
0.456548
-0.0153033
0.258627
0.00232155
-0.464499
0.187149
-0.0622814
0.251707
-0.0813199
0.0935623
-0.260295
-0.289464
-0.118742
0.352667
-0.0750005
0.389755
-0.308775
-0.207853
-0.116847
0.313658
-0.178751
0.924298
0.127513
0.273904
0.10614
0.218663
-0.154658
0.630347
0.0989689
-0.322467
0.338488
-0.388204
0.0370446
0.0175773
-0.340438
0.657764
-0.803533
0.252497
0.0564171
0.49891
-0.526147
-0.155156
0.0559655
0.0679128
0.267809
-0.749131
0.636451
0.0788429
0.113121
0.230934
0.0268583
-0.245749
-0.503533
-0.418631
-0.279955
-0.123684
0.194834
0.13616
-0.350529
-0.398747
-0.463544
-0.225979
-0.0567205
-0.0779581
-0.89743
0.0485951
0.736783
-0.0421635
0.149093
-0.134789
0.87369
-0.310433
0.579979
-0.359186
0.295616
0.186982
0.491035
0.460641
-0.161831
0.12605
-0.0934869
-0.560233
0.312931
-0.549952
-0.421178
0.00253297
-0.343967
-0.0886382
-0.0177367
-0.0631764
0.365183
0.143751
0.76517
-0.96906
0.0511889
-0.148606
-0.316526
0.18203
0.222496
0.137482
-0.209077
-0.369593
-0.00868463
0.0784625
-0.15915
-0.161068
-0.41483
0.444967
-0.187379
0.512711
0.679965
-0.3258
0.273695
0.223442
-0.374895
-0.12875
-0.411649
1.19442
-0.0590819
0.600821
0.216554
-0.3384
-0.839599
0.234721
-0.0336699
-0.202588
-0.105573
-0.323754
-0.443135