1 2048
0.0492665
-0.229214
0.290247
0.675745
0.164366
-0.0272925
0.0389467
-0.0251514
-0.379517
-0.500938
-0.17495
0.0765473
0.299066
-0.0968948
0.14195
0.161642
-0.00134674
0.25642
0.0487002
0.470093
0.262152
0.106176
-0.0556966
-0.0992323
-0.0546417
0.339639
-0.0641542
0.187646
0.0728964
-0.316505
-0.122551
0.17018
-0.40532
-0.173761
0.27814
0.404271
0.0577816
-0.0282396
0.313802
0.136864
0.0245406
0.343424
-0.170266
0.305335
-0.593577
-0.17083
-0.101632
-0.229933
0.183773
0.028763
-0.158967
-0.0968205
0.287624
0.244164
-0.160935
-0.467559
0.274018
-0.214395
0.0634876
0.0840696
-0.0915069
0.0303366
0.208092
0.487687
0.0115355
-0.00803728
-0.386296
0.398979
0.246301
-0.0138774
0.209789
0.230905
0.278879
0.110635
-0.273431
0.308022
-0.13797
-0.342799
-0.224102
-0.395034
-0.118278
-0.423561
0.659358
-0.250611
0.0309603
0.171776
-0.02413
-0.0390579
-0.0972729
0.443702
-0.0117987
0.0572984
-0.18968
0.304615
-0.24705
-0.163175
0.22826
-0.289671
-0.19
-0.146968
-0.253783
0.292407
-0.0217055
0.144672
-0.469683
0.0482391
-0.00189264
0.178415
-0.278874
0.00442315
0.00278829
0.128542
0.300419
-0.276419
0.203652
-0.136123
-0.0546036
-0.0467836
-0.069394
0.292597
-0.0223479
-0.0656022
-0.349395
0.103409
-0.108097
0.477013
-0.168726
-0.182513
0.0520528
-0.200965
-0.290383
0.0569329
-0.314335
-0.160351
-0.415622
-0.240366
0.061699
-0.262528
0.141662
0.166964
-0.148326
-0.183574
0.00860615
-0.111876
0.0973525
0.16902
0.31786
-0.0450853
0.0934858
0.172772
-0.335797
-0.540468
-0.574928
-0.152789
0.203818
-0.286218
0.0145019
-0.0300642
-0.112902
0.326231
0.392513
-0.17645
-0.180623
0.0243233
-0.640158
-0.261756
-0.303868
-0.0532558
0.0166062
0.0623594
0.225735
0.22823
0.132771
0.160048
-0.129802
0.121917
-0.242267
0.0472643
0.0134748
-0.140487
0.144041
-0.251667
0.179771
-0.234276
-0.2688
0.443026
-0.25644
-0.000136345
-0.0599689
-0.405625
-0.198574
0.433214
-0.206348
0.208303
-0.0602491
-0.440094
-0.378455
0.11696
-0.171975
-0.316701
-0.367723
0.0443199
0.405843
-0.183265
-0.118326
-0.419288
0.367613
-0.0842882
0.32318
0.214532
-0.357927
-0.131937
-0.267699
-0.118875
0.216766
-0.00753525
0.280953
-0.239387
0.0706439
-0.165479
-0.216125
0.373341
0.342279
-0.109265
0.522408
-0.370488
0.184611
0.14823
0.379708
0.258856
0.0254268
0.159445
-0.23647
0.121778
-0.133922
0.245664
0.0650939
-0.205385
0.224034
0.12138
-0.253436
-0.0779731
-0.194051
0.333696
0.429941
-0.120719
0.272502
-0.196366
-0.365758
-0.161615
-0.223481
-0.0197602
0.207787
-0.650583
0.237323
0.0588102
0.184982
0.0293518
-0.315629
-0.0546199
0.0201807
-0.437142
-0.23031
0.698475
0.462854
0.0447443
0.309974
0.0419894
0.163736
0.453314
-0.0187672
0.191673
-0.00112365
0.0194208
0.205213
-0.00849165
0.211945
0.224351
-0.0162017
-0.0457094
0.235717
-0.131394
0.218398
0.177642
0.0398366
0.0181125
-0.0470832
0.080891
-0.440102
-0.102217
0.106599
-0.114568
0.241231
0.207034
0.298057
-0.206962
0.156115
-0.299086
0.0914038
0.0993765
0.228439
-0.042807
0.4115
0.233396
-0.106706
-0.112852
-0.383211
-0.302608
-0.220854
0.404056
0.344619
-0.21736
0.161014
-0.0103083
-0.166973
0.279694
0.132119
-0.256098
0.383418
-0.361796
-0.441769
0.154675
0.311897
0.174331
0.28093
-0.26438
0.106768
-0.153862
-0.0481714
0.315806
-0.447278
0.129865
-0.207429
-0.222541
0.0158112
-0.0109378
0.212331
0.298304
0.0771107
0.133768
-0.117086
0.0248018
0.204922
0.0870094
-0.129883
-0.351992
-0.116957
0.0917044
-0.585613
0.0549168
0.246265
-0.235125
-0.359115
-0.0976909
0.0394823
-0.723777
0.236341
0.248891
0.0543173
-0.375629
0.132221
-0.0874072
-0.235771
-0.0546923
-0.232915
0.429415
0.265027
0.182747
0.0638189
0.374612
-0.0662294
0.182697
0.211638
0.256328
0.847572
-0.199335
-0.031466
0.341927
0.324414
0.0792414
0.355509
-0.0244268
0.096768
-0.376646
-0.498768
-0.248198
-0.361751
-0.159872
0.329579
0.0573539
-0.155404
0.0784629
-0.473114
0.0343812
0.0706424
-0.112013
-0.166117
-0.119556
0.548089
-0.212061
-0.00982646
-0.170699
-0.0293041
0.134765
-0.0501252
0.167184
-0.406277
0.116412
-0.0834115
-0.246995
-0.329315
0.177522
-0.429079
-0.218732
-0.0257651
-0.300627
-0.239103
0.00611485
-0.264366
0.0606352
-0.338606
0.456969
-0.2112
0.418596
0.00205608
0.411501
0.308671
0.0374128
0.196743
-0.0898144
0.105514
0.0637908
0.278559
-0.0185099
-0.180667
-0.0803333
-0.0921005
-0.331174
-0.126019
0.0582783
-0.306764
-0.189379
-0.289473
0.290516
0.63662
-0.0119065
0.244768
-0.0879192
0.488026
0.0659478
-0.0374872
-0.162984
-0.0852253
-0.114759
0.104812
-0.109542
-0.307429
-0.262825
-0.151903
-0.211863
0.089084
0.253148
0.372759
-0.129055
0.225212
-0.0180282
-0.345296
-0.0347298
-0.517162
0.088829
0.444724
0.160618
0.236012
0.029922
0.0258077
0.218407
0.0677201
0.19971
0.168047
0.0745437
-0.0163892
0.200671
0.193512
-0.23785
-0.110455
-0.303703
-0.138742
-0.226062
0.0816729
0.0715257
0.249204
-0.0247876
0.0820449
-0.0580878
-0.307226
-0.144944
0.0402249
-0.164077
0.294614
-0.29078
-0.0649458
-0.0112218
0.290477
-0.0762153
-0.197706
0.423621
0.33043
-0.342174
-0.0371083
0.00433491
-0.369111
-0.237324
0.522482
-0.0473686
0.0994938
-0.254934
0.0483505
0.262051
0.345963
-0.0809312
-0.47992
0.0468282
0.0662901
-0.283485
-0.0588026
0.0599932
0.100159
0.026498
0.0952513
-0.0338823
0.294503
0.230834
-0.346541
-0.0313731
0.0440093
-0.333603
0.646157
-0.13844
0.0414529
0.0151143
0.00913195
0.163348
0.0207971
0.140556
-0.269306
-0.407436
0.147833
0.000407404
-0.0230593
0.31174
0.303027
0.157248
0.330382
0.316618
-0.258114
-0.0596395
-0.0304173
-0.523353
0.201457
0.391677
0.171924
-0.0223368
-0.301086
-0.314541
-0.0900887
-0.141751
0.0938939
0.377875
0.262039
0.277709
0.132512
-0.104102
0.190975
-0.153743
0.0976993
0.0590638
0.201727
-0.112518
-0.235447
-0.174543
-0.605023
-0.176864
-0.777587
0.0619569
0.0824071
0.0987241
0.268456
0.212938
0.634783
-0.113207
-0.138744
-0.254662
-0.231803
-0.435929
-0.176323
-0.203688
0.149245
-0.183427
0.133358
0.152138
0.435367
0.458343
0.356567
0.223251
-0.471167
0.0261416
0.21313
0.137938
-0.183269
-0.201879
-0.430972
0.0862282
-0.144228
0.150366
0.0242863
-0.223553
0.402626
0.0496744
-0.293862
-0.193651
-0.162905
-0.0414622
0.230552
-0.0783456
0.663781
-0.113752
0.114477
0.181627
-0.0720607
0.0458624
0.0332315
-0.0444602
-0.0701739
-0.295445
-0.595662
-0.455338
-0.155213
-0.0918974
0.438363
-0.0793028
0.334404
0.194015
-0.362423
0.201908
-0.0937916
-0.244986
-0.116799
0.0710483
0.291602
0.0646914
-0.756244
-0.0214679
0.185998
-0.0167068
0.339053
0.133427
-0.166913
0.105441
-0.530557
0.0444232
-0.2451
-0.0554169
0.0938185
0.241351
0.0522183
0.274809
-0.0325429
0.184223
0.0451498
0.263912
-0.168408
-0.0233744
0.0875658
0.435096
0.320342
0.207486
0.00683571
-0.289386
-0.155144
0.158225
-0.0890726
-0.0818364
0.508058
-0.407783
-0.0846268
0.428452
-0.124784
-0.27916
0.0612855
0.279016
0.121492
0.0914077
0.218503
-0.226964
0.304518
0.370682
0.318405
0.0838039
0.345261
-0.133121
-0.317618
-0.46462
-0.30022
-0.0338271
-0.350822
-0.0722722
0.425049
0.285943
-0.314209
0.0825026
0.0491909
0.239864
0.0717874
0.0868879
-0.0501821
0.188543
0.410419
0.0439607
0.116623
-0.186271
0.0714657
0.139191
-0.214733
0.124996
0.308865
-0.326204
-0.187335
-0.0622601
0.0557247
0.113018
-0.206332
0.240533
0.3931
-0.114343
0.0966657
-0.0330529
-0.235224
0.0207502
-0.0838004
-0.00699776
0.0823585
0.201319
-0.453815
-0.142265
0.0697954
0.400216
-0.307461
0.19174
0.301151
-0.200064
0.0417446
0.0307488
-0.0628317
0.338808
0.0394972
0.207511
-0.403481
0.081967
0.179429
-0.250975
0.058111
0.17697
-0.0028546
-0.144585
0.0901126
-0.340116
0.294817
0.388385
-0.270842
-0.335011
-0.018903
0.10034
-0.211698
-0.409228
0.458859
0.146726
0.472065
-0.206508
0.322032
-0.147637
-0.291028
0.401589
0.113032
-0.011932
-0.355589
-0.263181
-0.355274
-0.724561
-0.380943
-0.276522
0.116761
0.188548
-0.128864
-0.145851
0.162363
-0.036225
0.287169
-0.0571001
-0.0611951
0.371067
0.274981
0.606689
-0.0588115
0.173374
-0.179321
-0.500385
-0.159104
-0.227313
0.11235
-0.0114559
-0.0601955
-0.00617943
-0.0790677
0.326485
-0.231425
-0.150781
-0.096903
-0.279251
0.15049
-0.169535
0.386714
-0.294403
-0.114124
-0.186492
-0.228178
0.0260153
0.0304567
-0.108375
0.107614
-0.0841189
0.538008
0.00261643
-0.0156337
-0.273598
0.328121
-0.142747
-0.0619993
0.137984
-0.369831
0.105002
0.0396778
-0.127605
0.219453
0.181114
0.0236869
-0.260059
-0.292404
0.168444
-0.243148
0.4168
-0.129293
0.354292
-0.350781
0.0638003
0.581289
-0.0501417
0.127744
-0.0773111
0.162619
-0.198868
-0.0457342
0.289998
-0.0521816
0.155316
0.268643
-0.107825
0.0483113
-0.286423
-0.0827598
0.213378
-0.20202
-0.135165
-0.25789
-0.625604
0.197497
-0.122122
-0.404099
0.327053
0.117535
0.290839
0.312322
0.159881
-0.482314
-0.276788
0.136127
0.301149
-0.13852
0.364375
0.204826
0.4103
0.340451
-0.16473
0.013177
0.105214
-0.00586182
-0.0208175
-0.171276
-0.421968
-0.0757367
0.230055
-0.0437209
0.00589655
0.0429572
-0.165734
-0.0240026
-0.149132
0.019879
-0.145166
-0.152039
-0.0783757
-0.236734
0.00220358
0.0845498
-0.243311
0.0799541
0.283115
-0.117902
0.115206
-0.0395637
-0.0400332
0.00454785
0.103684
0.382997
0.243847
-0.444838
0.172053
0.436625
0.0447381
0.265046
-0.0501986
0.222623
-0.423044
0.115386
-0.122519
0.292969
0.225471
-0.252005
0.215811
-0.180272
-0.226514
0.06849
-0.0663021
0.371655
0.545046
0.212861
0.03152
0.564256
-0.242479
0.321105
0.0709495
0.510734
0.250204
-0.0739277
-0.338855
-0.1373
0.0937046
-0.0765924
-0.236631
-0.030542
-0.110148
-0.41313
-0.364657
0.173908
-0.129243
0.177154
-0.0713721
0.273352
-0.182485
-0.433438
0.0648165
-0.141208
0.0841591
-0.34245
-0.893004
-0.222071
0.175123
0.102568
0.11399
-0.18978
-0.319979
0.02649
-0.404503
0.0728789
-0.28661
0.406811
0.122404
0.418376
-0.0901159
0.163117
-0.0134718
0.00422213
0.0975123
0.209812
-0.077714
0.0702841
0.536564
-0.370516
-0.0596137
-0.274767
-0.382648
-0.232232
-0.176608
0.270102
0.426525
-0.145373
0.290466
0.148811
0.283026
-0.00918869
-0.285542
0.0380021
0.0653669
-0.171727
0.16948
-0.0563464
-0.143268
-0.0915749
0.0247708
0.114232
-0.0153725
-0.295616
0.0846925
0.153521
-0.4438
-0.0970032
0.281449
-0.198011
0.22691
0.267737
0.0895799
-0.0657903
0.0149162
0.085018
-0.0458336
0.0580196
0.159581
0.095424
-0.0188278
-0.000656251
0.0574712
-0.0271865
0.034292
-0.223114
-0.11287
0.190183
-0.0498587
-0.402812
-0.100556
0.0906341
-0.24074
-0.0698769
-0.240039
0.353089
-0.183057
-0.33188
0.125365
-0.136537
-0.200657
0.171062
-0.0979152
0.33273
-0.0782859
0.0565189
0.190413
-0.153576
0.174008
0.0049897
-0.312274
0.00216677
0.00336931
-0.0244837
0.24326
-0.151699
-0.511918
-0.0619797
0.413977
-0.0845762
-0.472746
-0.0768752
0.198394
0.515494
-0.114474
0.460061
-0.5972
0.398637
0.155605
-0.378333
-0.12683
0.143672
0.255987
0.217415
-0.21659
0.116705
0.281616
0.0562363
0.227402
0.097342
-0.127405
0.210787
-0.10213
-0.137781
-0.0580839
0.0553056
-0.179052
0.22423
-0.111674
0.0202178
-0.119579
0.0445576
-0.101562
-0.0217933
0.161516
-0.205898
-0.222449
-0.350279
0.400935
-0.0614452
0.302624
-0.109083
-0.143841
-0.447309
0.108289
-0.00374616
-0.160629
-0.133646
0.0814447
0.184884
0.1819
-0.0535529
-0.0740152
-0.0913232
-0.188669
0.13564
0.440066
-0.425186
0.577679
0.0352129
-0.112443
0.260982
-0.155283
-0.0760719
0.128584
-0.237105
-0.05039
0.522337
-0.380152
0.418499
0.0238098
-0.082214
-0.312152
-0.10851
-0.434404
-0.110127
-0.0267707
0.0475495
0.0977525
-0.176092
0.0468175
0.0509672
0.700066
0.0941484
0.0256926
-0.205294
-0.209765
0.00350739
-0.38724
-0.0276303
-0.299989
-0.183215
0.0533954
-0.0280174
-0.279577
-0.019398
-0.196905
0.10193
0.187819
-0.322728
0.0834287
0.351757
0.131817
-0.109316
-0.00797184
0.0723516
-0.0998176
0.0968101
-0.265986
0.241478
-0.297851
-0.111831
0.20124
-0.248224
-0.376666
0.296212
-0.0917959
-0.0315903
0.172449
-0.301605
-0.229991
0.185797
-0.31097
0.462767
-0.0593968
0.206643
-0.150679
-0.196988
-0.111883
-0.0176345
0.158698
0.118965
0.18365
-0.635628
0.0214502
0.388146
-0.32845
0.416462
-0.224437
0.169753
-0.110929
0.228011
0.197166
-0.0571183
0.198964
0.141106
0.457605
0.129236
-0.296977
0.350946
-0.370485
0.366453
-0.25155
0.0102526
-0.154192
-0.148355
0.291628
-0.320497
-0.265943
-0.236081
0.197875
-0.712628
0.41311
-0.130533
-0.0492458
-0.521229
0.135512
-0.101095
0.0492451
0.522073
-0.182332
0.139534
0.338458
-0.0155705
-0.0786769
0.0901164
-0.047818
0.422621
0.0801326
0.136654
-0.0279616
-0.220518
0.368135
-0.0155749
-0.0127213
0.209844
-0.038218
0.334985
-0.0175875
-0.478134
-0.0803268
0.188783
0.0363363
-0.289048
0.1977
-0.35042
-0.535619
0.129079
0.0400587
0.228927
0.126212
-0.132401
-0.065155
-0.112783
0.0796971
-0.0190273
0.107013
0.216808
-0.218246
0.00507928
0.181579
-0.153468
-0.138011
0.149317
0.180878
-0.233799
-0.0541826
-0.291114
0.321361
-0.446864
-0.0231491
0.147325
0.162703
0.135191
0.307251
0.279776
0.0788636
-0.215306
-0.0124506
-0.115682
-0.0819971
0.371279
-0.21479
-0.0845937
0.139293
0.365202
-0.500245
-0.129502
-0.167708
0.0841822
0.098123
-0.190202
-0.174926
-0.262681
-0.352696
0.258462
-0.0197675
0.254181
-0.0368845
0.698407
-0.0595686
-0.150767
-0.0670192
-0.276811
-0.0647312
-0.013452
0.165558
-0.155086
0.171004
0.0981776
0.437927
-0.0276283
-0.208137
0.362
0.427349
-0.0912353
0.0114137
0.0573154
-0.208263
-0.0118524
0.0581772
0.214783
-0.226952
-0.126256
-0.248647
0.111757
-0.0565557
0.0384042
-0.0500332
-0.308854
0.403648
-0.174915
-0.0817526
0.0688694
-0.250389
-0.421763
0.142518
-0.120067
-0.302271
0.251179
-0.068728
0.141789
-0.500516
-0.153679
0.09247
-0.0450862
-0.185286
0.0586586
0.0644342
-0.275302
0.452046
0.139623
-0.374497
-0.1263
0.230336
0.263029
0.24977
0.103859
-0.118767
-0.410068
-0.105107
-0.251932
-0.0565577
-0.046932
-0.146222
0.287095
0.0739559
0.605214
0.158717
-0.214035
0.188007
-0.0988221
0.056589
-0.171732
-0.429359
-0.124472
-0.125728
0.0672925
0.258181
-0.270522
-0.263323
-0.276362
-0.268589
0.0194004
0.320928
-0.499943
-0.368876
-0.23194
-0.234807
-0.275185
-0.0548765
-0.244216
-0.280614
-0.201544
0.00417901
0.0246091
-0.133166
-0.0896263
0.0527727
0.16217
-0.0515968
0.138013
0.346976
0.147261
0.324877
-0.0654228
0.225634
-0.122129
-0.0381596
0.603324
0.182929
-0.10086
0.316588
0.0128834
-0.652271
0.0244257
-0.770676
-0.38146
0.225497
0.00032999
0.0873319
0.079835
0.350412
0.0815133
0.391135
0.168582
-0.0308314
-0.259623
-0.106513
-0.417459
0.329628
0.0327234
-0.108733
-0.0102948
-0.152048
0.36322
-0.087934
-0.264814
-0.0562224
-0.177463
0.25676
-0.0713355
-0.571672
-0.300299
0.30219
0.0927192
-0.10265
0.496208
0.110013
-0.149235
0.145545
0.0799024
-0.46548
-0.26461
-0.252306
0.222716
0.29134
-0.358843
0.525734
0.255558
-0.10971
-0.0231028
0.399762
-0.0857662
0.0651903
0.156141
-0.263307
0.498655
-0.38653
-0.324817
-0.159367
-0.0968841
0.0498557
-0.777615
0.376342
-0.134609
-0.110928
-0.101893
0.399331
0.646178
-0.073353
0.0409353
-0.162318
0.0919122
0.0233874
0.00608737
-0.124071
0.13415
-0.0112638
-0.292249
-0.254637
-0.126154
0.0974974
-0.436442
0.0792881
0.202173
-0.263038
-0.0585108
0.314101
0.067231
0.0592342
0.0398276
0.331563
0.784385
0.24249
0.259794
-0.0409877
0.221263
0.11104
0.00901408
-0.0647469
-0.358858
0.313879
-0.0225526
0.0579398
-0.305758
-0.298501
0.160613
0.596364
0.249063
0.0973213
0.191878
0.475973
0.0453565
-0.0945417
0.1346
-0.18545
-0.255477
-0.140513
-0.0535595
-0.0761373
-0.393725
0.0271307
-0.259957
-0.0303189
-0.176292
0.211333
-0.0174311
-0.375909
0.140848
-0.184706
0.0941519
0.0758788
0.394342
-0.0135351
0.279127
-0.160868
0.465096
-0.168326
-0.0310635
-0.182053
0.311745
0.274876
0.232793
-0.273918
-0.0042174
0.133418
-0.174365
0.0508018
-0.448428
0.15614
0.255139
0.0938993
0.0409948
-0.261812
-0.383771
-0.159332
-0.0811184
0.19017
0.0252248
-0.436714
-0.0482488
-0.0913808
0.0352952
-0.0412284
0.186147
0.0140348
-0.163469
-0.0243447
-0.00912045
-0.627602
0.186836
-0.255212
0.309812
0.250096
0.156452
-0.100551
0.4439
0.0438987
0.0822213
-0.057164
0.0575766
-0.0484862
0.177017
0.0197839
-0.31708
0.420364
-0.178999
0.049597
0.035914
0.0274306
0.274669
-0.161031
-0.221258
-0.0508173
0.106644
0.00992944
0.0161378
0.0352974
0.363331
0.191283
-0.039972
0.116157
0.268714
0.454713
0.101883
-0.0218969
-0.218808
-0.1961
0.0270626
0.109936
0.139425
-0.54824
-0.317113
0.0386797
0.0388564
-0.114405
-0.26054
-0.123466
0.0051003
-0.0322799
0.461998
0.122999
-0.0523561
0.288838
0.0103749
0.0603655
-0.199489
0.172939
0.196218
0.694636
-0.293321
0.0025391
0.291675
-0.23528
0.434445
0.0991387
0.17528
0.48455
0.282318
0.123431
-0.167666
0.216817
-0.101174
0.0553397
-0.151549
0.469628
0.133009
0.801248
0.120576
-0.0129117
0.271467
0.632788
0.216888
0.0373586
0.468747
-0.357196
0.272282
-0.325395
0.180673
-0.350603
0.0850578
-0.192403
-0.0333372
-0.303521
-0.307812
-0.141782
-0.0513551
0.0365864
0.0985425
-0.118087
0.443845
0.206198
0.161452
0.165838
-0.549496
-0.325497
0.0837373
-0.107484
0.0945143
-0.0874131
-0.0654226
0.579087
0.125814
-0.337725
-0.299996
-0.228985
0.185942
-0.102181
0.121983
0.0843891
0.0900436
-0.0170719
0.110721
-0.144943
0.353787
0.220828
-0.40067
0.180327
0.00692034
0.223376
-0.157921
0.332846
0.14038
-0.577581
0.0186332
-0.215993
-0.150181
0.251641
-0.295303
0.277447
-0.170155
-0.335543
0.185701
0.239401
-0.425215
0.0969678
-0.373508
0.276273
-0.273381
0.0820419
0.0797002
-0.109578
-0.143562
-0.137026
-0.301746
-0.0911964
-0.103179
-0.171594
0.395313
0.0895712
0.138064
-0.193802
0.200619
0.0560109
-0.0628683
0.0914235
0.17481
-0.141476
0.137936
-0.158759
0.27524
-0.0720183
-0.0222415
0.0228169
-0.147603
0.268162
-0.0993559
0.274205
0.395007
-0.290452
0.0362309
0.128614
0.260507
-0.183454
-0.248491
0.0662807
0.00995899
-0.00438985
0.0763354
0.0866256
0.30317
0.200746
0.211805
0.22346
-0.232348
0.517862
-0.0954752
0.117456
-0.050577
-0.042976
-0.160689
-0.252084
-0.0784937
0.11809
0.330031
0.0639238
-0.573645
0.0652757
-0.00951269
-0.0251989
-0.243387
-0.0722343
-0.197742
0.425179
0.199971
0.268602
-0.216164
-0.413451
-0.143411
0.162935
0.159411
0.115384
0.458556
0.233492
0.00581444
-0.0344163
0.254474
-0.0862764
0.153319
-0.159256
-0.0675785
0.76623
-0.0149356
0.0754304
-0.179527
-0.035285
-0.242962
0.0499831
-0.498048
-0.493514
0.220396
-0.26799
-0.347775
0.0784477
-0.00228646
-0.00335432
0.354854
-0.0604133
0.0419635
0.115739
0.567547
-0.169159
0.0172557
0.272146
-0.311102
0.00934345
0.386833
-0.190247
-0.337976
-0.285287
-0.59695
-0.11473
-0.583842
-0.0781568
0.342422
0.104494
-0.0416396
0.179543
-0.716047
-0.107886
-0.0410035
-0.118075
0.0771399
0.015973
-0.00202616
0.0376832
0.055064
-0.361924
0.315862
0.049899
0.252061
-0.177374
-0.429319
0.242416
0.188356
0.176924
0.0187351
0.263647
0.107369
-0.516766
-0.208478
-0.197862
-0.16496
-0.155739
0.284899
-0.456614
-0.558165
0.839203
-0.0277295
0.263618
-0.0833117
-0.275691
0.445724
0.130075
0.0738065
0.242038
-0.347289
0.108059
0.324805
0.216514
-0.0465347
0.149885
0.277968
0.176166
0.414057
0.113655
-0.128882
-0.0341864
0.0121646
-0.0517923
-0.0160817
-0.183846
0.6258
-0.193219
0.000688105
-0.328801
0.104231
-0.108749
-0.134347
-0.0152962
0.0303707
0.565551
0.641564
0.0146446
0.137585
0.129704
0.530049
0.259701
0.0913789
0.143032
0.165359
0.000460224
-0.370171
-0.407162
0.357809
0.170147
0.0924696
0.0488007
0.170341
-0.105274
-0.119635
-0.252375
0.141296
-0.10995
0.136003
0.0285663
-0.314712
0.0284413
-0.0889778
-0.104438
0.192253
0.036094
-0.101309
0.379942
0.265633
0.340335
-0.217355
0.0492758
0.067609
0.260003
-0.291072
-0.231886
-0.202693
-0.274657
0.128257
0.127176
0.186264
0.164452
-0.110241
0.409336
0.101762
-0.0702844
-0.0917809
0.178169
-0.0450333
-0.0152157
0.157935
-0.337425
0.286223
-0.0541118
-0.319083
-0.101577
-0.135799
-0.0736187
-0.30138
0.314861
0.125185
0.334671
-0.318195
-0.359449
-0.323868
0.0540492
-0.0593371
0.0954946
-0.00202868
0.169132
-0.278363
0.126991
-0.0109638
-0.125035
-0.0416766
-0.116336
-0.0381163
-0.833011
-0.0773374
0.0456166
-0.308693
-0.328729
-0.185816
0.161297
0.319002
0.190025
-0.370237
0.218956
-0.197871
0.165089
-0.293344
0.252312
-0.00323885
-0.170923
0.0735074
0.189708
-0.0455428
-0.313075
-0.225146
-0.176963
0.550383
-0.285456
-0.189451
0.39357