3 1536
0.156047 -0.0138811 0.00718683
0.0818793 -0.17326 -0.356748
0.136179 -0.0655579 0.0545343
0.075247 0.137439 0.167128
0.0309092 0.0454709 -0.023395
0.106265 0.071495 -0.132488
0.160338 0.0893982 -0.177374
0.191532 0.28703 0.0222792
0.0373314 -0.257613 0.157505
-0.179802 0.0399704 -0.044708
-0.0593732 0.0996151 0.331441
0.103912 -0.0420065 0.10707
-0.0568674 0.0245817 0.0747378
0.103946 -0.0230108 -0.0894305
0.132118 0.0193784 0.0791143
-0.022093 -0.148565 0.0719414
0.0367414 0.219326 -0.0162173
0.0343497 -0.0704072 0.0271707
0.071894 0.0723253 -0.0315142
0.0137105 0.239743 -0.0341337
0.0874432 -0.104766 0.0645031
-0.157695 0.0493602 0.194718
-0.0243367 -0.0272995 0.0216552
0.0942454 0.00446529 0.0526262
0.128306 0.00732043 0.0482159
0.178529 0.155766 0.0061934
-0.0123784 -0.0523324 0.253651
0.014567 -0.162508 0.106274
0.204197 -0.0612999 0.0335597
0.112658 -0.105568 -0.000537603
0.0439178 0.083949 -0.0675014
0.122803 -0.0276026 0.315474
-0.104483 -0.0267842 -0.154418
0.0254244 0.0772395 0.164511
-0.320155 0.0619555 -0.0158943
-0.282005 0.12799 0.101176
-0.0928782 0.106422 0.0427137
0.0125684 -0.0159316 -0.16801
-0.00322987 0.0826308 0.00171336
0.201713 -0.091318 -0.186168
0.0616906 -0.0992058 0.112668
-0.0140801 0.153372 -0.0208831
-0.0487524 0.0250817 -0.13721
0.240146 -0.146707 -0.184082
0.0181822 -0.0125228 -0.0287679
0.0650382 0.0424927 -0.151928
0.24352 -0.033871 0.0662184
-0.200179 -0.103077 -0.0670297
-0.00537532 -0.134506 0.0707755
-0.0586308 -0.0115368 0.157609
0.00843755 -0.0168776 0.0507542
0.0981121 -0.0104973 0.105198
0.165945 -0.0224051 0.116301
-0.0954773 -0.0983034 -0.0201971
0.0771644 0.0350821 -0.00576161
0.0426321 -0.0575511 0.0264097
-0.0711466 -0.18835 -0.260807
0.00501848 0.0402556 -0.0946312
-0.0586636 0.045788 -0.0858249
0.185072 -0.059284 -0.11486
0.0759188 0.193996 -0.0536922
0.178105 0.00505234 -0.0279259
0.0374416 0.121622 -0.108826
-0.102755 -0.2246 0.0166892
0.136324 0.089051 0.127248
0.00998746 0.190461 0.251301
0.0797813 -0.0698364 0.13969
-0.0135714 0.0455888 -0.117277
-0.181894 -0.0667179 -0.195615
-0.127785 0.0168897 -0.0928411
-0.123366 0.134884 -0.0627312
0.119695 0.193313 -0.0139159
0.00447343 0.0500398 0.0270016
-0.029717 -0.125155 -0.127826
0.0108013 -0.0583682 0.19917
-0.0853721 0.0665884 -0.107332
0.0968234 0.242686 0.0145622
0.119808 0.14289 -0.0681102
0.146465 -0.212522 0.101857
0.0111939 -0.00482242 0.0103812
-0.0405913 -0.080212 -0.122793
-0.106095 0.0386891 0.0734065
-0.0189953 -0.0483894 -0.00387653
-0.1384 0.169864 0.0429448
0.00961423 -0.0269799 -0.0351187
-0.0438164 0.108187 -0.0815218
0.220683 0.193794 0.0674256
0.00685709 -0.0545763 0.0338513
-0.164724 0.104386 -0.196281
-0.186087 -0.0178868 0.140199
0.00807104 0.137679 0.0917738
-0.183379 -0.0647212 -0.134921
0.137992 -0.248568 0.0918524
0.116456 0.00173582 0.170069
-0.143677 -0.105178 0.01958
0.0154421 -0.0364784 0.222366
-0.0560318 0.257686 -0.0515011
0.219065 -0.100371 -0.253884
0.0719106 0.181708 0.235464
0.0547645 0.0139526 0.056031
-0.216233 0.0571465 -0.00505289
-0.0403045 -0.196455 0.091179
-0.21799 0.176129 0.057855
0.0201609 0.136031 0.0311051
0.101044 -0.159949 0.0534775
-0.140196 -0.110328 0.329789
-0.0136758 -0.32218 -0.103179
0.0130326 -0.0836233 -0.0855515
0.0675383 -0.0574947 0.054194
0.140712 0.0427104 -0.00441766
-0.0445362 -0.0125443 -0.137043
-0.0423203 -0.084923 0.00741492
0.137225 0.0740728 0.0676912
-0.129533 -0.126317 -0.193408
-0.16539 0.0516888 -0.211592
-0.0722388 0.0599667 -0.0941575
0.0520285 -0.212627 -0.0189518
0.0432015 -0.104587 -0.146006
0.025157 0.0695445 -0.104228
-0.0125702 -0.00625252 -0.257835
-0.0185887 -0.0244948 0.126498
-0.0402887 -0.160726 0.084579
0.106516 0.142814 0.254675
-0.116583 -0.109465 0.00112106
0.171566 -0.0085327 0.0744455
-0.112411 -0.17621 0.0184905
0.000137916 0.124271 0.0458967
-0.171252 -0.191394 0.0613383
0.0460059 0.0703626 0.155172
0.140582 -0.0351446 0.0516034
-0.143077 -0.0752999 -0.100355
0.140138 -0.0389047 -0.233331
-0.00435716 0.0435446 -0.100431
-0.0397838 0.0831386 -0.0385398
-0.0617582 0.130435 0.229749
-0.0373423 0.0643861 -0.169997
0.205833 -0.095186 0.209469
0.137964 -0.0186434 0.0943381
-0.137674 -0.0590956 0.0142468
-0.136409 0.0144883 -0.122869
-0.114746 -0.044323 0.0701039
0.0568264 0.0164854 0.0126315
0.000766059 -0.00775858 0.220274
0.065658 0.0219829 -0.102095
0.322697 -0.0241248 0.14181
-0.0456337 -0.0396793 -0.0801451
-0.138171 0.112743 -0.168888
-0.0033099 0.100837 -0.196356
0.162794 -0.00960096 -0.0534959
-0.0506073 0.133901 0.10765
-0.0800174 -0.0141642 -0.196204
0.120313 -0.0945355 -0.317461
-0.257327 -0.0306336 0.0892488
-0.0433226 0.0873163 -0.0655477
-0.11338 -0.0601971 0.0367942
0.00951754 0.00256048 -0.167909
-0.00890801 0.336647 0.0396483
0.102542 0.410781 -0.0305976
-0.00235412 6.86107e-05 -0.126618
-0.00397525 0.0431978 -0.0379838
-0.0857922 0.00122342 0.200556
0.0128143 -0.00686641 0.107096
-0.0548983 -0.117099 0.15898
0.0338799 0.191736 0.00701941
-0.0400465 -0.244062 -0.120131
-0.114886 -0.00782021 -0.0271198
-0.0133741 0.0852444 0.0858791
0.155227 -0.0923708 0.251149
-0.00300226 0.0600021 0.0658543
0.0478832 0.227314 -0.144136
0.0217818 0.0460608 -0.054363
-0.0373045 -0.15244 0.00444531
-0.112423 0.128664 0.0477583
-0.0639883 0.0196287 -0.156112
0.0925079 0.0332529 0.0872448
-0.0428092 -0.00342634 0.013886
-0.0167934 0.0206291 0.0262455
0.137296 0.29443 -0.00153576
0.0675302 0.0963116 0.0664875
-0.0848922 0.252099 -0.108595
-0.0246345 0.100887 -0.196663
0.0483431 0.230187 0.0847195
-0.0929402 -0.0644351 -0.251748
0.135486 -0.00389358 0.191088
-0.103478 0.0425921 0.0969433
-0.168226 0.114453 -0.029795
0.0413102 -0.0896665 -0.0946433
0.314948 -0.069205 0.115871
-0.121481 0.178213 0.0237164
0.18297 0.0407353 0.0591332
0.0491291 0.0913066 0.00825378
0.0578856 -0.0393458 0.0209937
0.158297 -0.0976254 0.0830953
0.047631 0.129626 0.0420216
-0.0714093 -0.115692 0.0170379
0.00220606 -0.00727544 -0.0204921
0.0752822 -0.167499 -0.0135013
-0.188035 0.0966382 0.109386
-0.116398 -0.00386929 0.0582992
0.0158559 0.039249 -0.215684
0.0710705 -0.0149002 -0.134009
-0.0493806 0.00687449 0.152919
0.0819202 -0.00538153 0.0123993
0.182312 -0.126974 -0.143657
-0.152069 0.142908 -0.0789307
-0.00407093 -0.118271 0.00704179
0.0423451 0.117151 -0.136283
-0.0706042 -0.0492998 0.153336
0.007525 0.0417589 -0.00138875
-0.197888 0.0236705 0.12493
0.00427185 0.0712209 -0.122145
0.0129981 0.0633257 0.0385529
0.131717 -0.0863313 0.101966
0.0548189 0.141587 -0.0867047
-0.023437 0.038135 0.0135365
-0.171915 0.03589 -0.0721488
0.094007 -0.0327232 -0.14646
-0.0321173 -0.059244 0.217803
-0.256065 -0.140223 -0.0749141
0.355515 0.0120838 0.0666738
0.213634 0.0137902 -0.00847957
0.15222 0.0441148 0.0821619
-0.280266 0.0723698 -0.164016
0.161451 -0.075209 0.0723477
-0.0420142 -0.100305 0.0479171
-0.150211 -0.046526 0.0697997
-0.25292 -0.188686 0.110395
0.103881 -0.110591 -0.0119684
0.0308431 -0.00124869 0.0611576
0.0405472 0.0505543 0.149725
0.0473074 0.0901043 0.117219
-0.120092 0.050143 -0.0429105
0.107141 0.11065 -0.0731306
-0.174816 -0.110815 0.040989
0.0192164 0.0186094 -0.0216007
-0.107841 -0.19784 0.18286
-0.122094 0.128131 0.00902115
0.197714 -0.170354 0.0257726
0.00895024 -0.00290463 0.0529697
0.140192 0.0873123 0.0373891
0.151602 -0.213954 -0.000636883
0.102676 0.139673 -0.00998931
-0.0835533 -0.0276123 0.0313955
-0.084397 -0.116294 -0.174729
-0.245667 0.046021 0.0945375
0.146941 -0.1319 0.0534564
-0.0527259 0.016659 -0.136062
-0.0133767 0.0314556 -0.282316
0.0250219 -0.032428 0.151113
-0.0984449 -0.13222 0.0295901
0.136803 0.0439352 0.186193
0.0446873 -0.0179154 0.0625313
0.089786 -0.181514 -0.0920418
0.000354443 0.0706127 0.0368123
-0.0226602 0.048794 -0.0357483
-0.111505 0.165775 -0.0270083
-0.109609 0.0920294 0.069323
-0.244907 -0.0900894 -0.184848
0.0516462 -0.0511588 0.185632
-0.0134671 -0.056183 0.00583171
-0.153224 0.0719575 0.0972711
0.071315 0.0171304 -0.115587
0.0126286 -0.0878813 0.194228
-0.0290025 0.15369 -0.115152
0.102774 -0.0337511 -0.121654
-0.0348506 -0.0301836 0.00533784
0.071254 -0.183904 0.0227906
-0.0596073 0.246438 -0.0272504
-0.134099 -0.228036 -0.0105591
0.0729588 -0.154303 0.129924
-0.133207 0.115896 -0.0576088
-0.0604873 -0.134216 0.188407
0.0605148 -0.278629 -0.289446
-0.144277 -0.0847335 0.00605562
0.0277547 -0.0257822 0.0965495
-0.198065 -0.0578559 0.0235126
0.164983 0.0024726 0.12691
0.126009 -0.0764198 0.0124063
0.0875839 -0.218213 -0.185777
-0.0420079 -0.000997068 0.0666202
0.00245877 0.154704 -0.026162
-0.0879753 -0.0329477 -0.00528779
0.00520005 -0.0482156 -0.115033
-0.180915 0.0410699 -0.0817918
0.220211 -0.00208451 0.0374596
0.0404866 0.112282 -0.110454
-0.200409 -0.0868622 0.0060669
0.0152856 0.033834 0.11661
-0.17055 -0.0416881 -0.0267384
-0.0423114 0.000692978 -0.0729511
-0.00375831 0.0846685 0.0692398
0.141487 -0.023947 0.0371934
-0.190084 0.0323474 0.236222
-0.0253633 0.0363306 0.00689609
-0.000443201 -0.00109092 -0.0114449
-0.167182 0.134035 -0.167379
-0.156975 0.0396904 -0.0276881
0.0917777 0.0186052 -0.0184717
0.242472 0.11837 0.0423297
-0.124813 0.133786 0.0628709
-0.115238 -0.0195241 -0.106193
0.0696068 -0.0383346 -0.000263358
-0.0614841 -0.0434223 -0.0515806
-0.148049 0.00799858 -0.272757
-0.146536 0.113548 0.26792
0.0691145 -0.0481993 -0.241734
-0.0451308 -0.0264407 0.0475506
0.0535109 -0.0818607 -0.11325
-0.0454177 -0.016847 -0.17775
0.203961 -0.263789 0.0135485
0.0918356 -0.0519166 0.181087
0.258448 0.0268659 0.159445
-0.0269556 0.157477 0.00101015
0.0406299 -0.13612 -0.101621
0.0859993 -0.11379 -0.12194
0.0617656 0.0124028 -0.0886523
0.0325682 -0.00431786 0.253956
0.0362953 0.0596157 -0.0933492
-0.0891764 -0.21349 0.0852893
-0.0421666 0.0654201 -0.0422882
0.100251 -0.0830515 -0.032459
0.293709 0.221525 -0.092336
0.0178828 -0.146838 0.174795
0.0601568 0.0465598 -0.0506564
-0.0256218 0.0996016 -0.0425275
0.101333 0.090195 -0.138456
0.125307 0.0682751 0.0360887
0.0573988 -0.0493209 0.121618
0.234364 0.0888172 -0.0482934
0.266316 0.0402907 0.0768523
0.09996 -0.0412451 -0.167385
0.026366 -0.00638 -0.0246686
-0.103761 -0.12564 0.328612
-0.0117449 0.115226 0.119028
0.0119778 0.101444 -0.0541464
-0.0940618 -0.0353899 0.110167
0.0477973 0.143746 0.103841
-0.0456208 -0.0207691 0.00236514
0.0106451 0.00640056 0.113878
0.0727952 -0.0946051 0.0160115
0.0123165 0.0556047 -0.0154572
0.151161 -0.0831386 -0.149769
0.0295417 -0.0516381 0.184182
-0.038419 0.0877678 0.017349
0.247119 0.109434 0.10395
-0.0389296 -0.0175441 0.00751526
0.0803725 0.117215 0.0266581
-0.0596595 -0.113639 0.00154722
-0.0477953 0.042319 -0.16914
-0.154876 0.0760968 0.0485717
0.221571 -0.0798743 -0.02426
-0.137038 -0.0542979 0.0304168
-0.177093 -0.0129121 -0.0123362
-0.118248 -0.103586 -0.231469
-0.0530147 0.0199009 -0.0298516
0.139434 0.0678028 0.128553
0.106552 0.112518 -0.133737
0.11393 -0.290963 0.124886
-0.0493042 -0.0272647 -0.0176991
0.077861 -0.220514 -0.0271505
0.206039 -0.00099639 0.0714406
-0.160381 -0.21832 0.0183752
-0.0975943 -0.129742 -0.0623189
-0.119448 -0.0975804 -0.103127
-0.185663 -0.103877 0.213431
0.101241 -0.0978568 -0.115865
-0.066818 0.0956654 0.249432
0.0638428 0.087796 -0.000988916
0.00347353 0.0879371 -0.015358
0.0803326 -0.0466377 -0.0850087
-0.0723124 0.176764 -0.00712484
0.040968 -0.108397 -0.0943602
-0.043709 -0.142097 -0.00581064
-0.0487617 0.0822458 -0.0316373
0.0424299 -0.0971215 -0.0126499
-0.0404838 0.129616 0.0130056
0.107918 -0.0143833 0.0128068
-0.0925015 0.183991 0.230174
0.0549569 -0.0237868 0.0194344
-0.0745211 -0.061696 0.0817408
-0.00435032 0.0205187 0.0538531
0.0897709 0.0949777 0.118245
0.115384 -0.0503662 0.125863
-0.000849929 -0.25157 -0.24994
0.0299951 0.00332551 -0.173603
-0.116996 -0.312039 0.177964
-0.181216 0.032739 -0.0463463
0.0926408 0.0575778 -0.132051
0.140792 -0.00935234 0.0648629
-0.00820049 0.104797 -0.05522
-0.08994 -0.177661 -0.270373
-0.115438 -0.101282 0.0736122
0.0798343 0.12986 -0.302353
0.371005 -0.25158 0.0422341
-0.0999599 -0.0246344 -0.257526
0.0625443 -0.0156123 0.0134613
0.0359071 -0.172873 -0.0165866
0.191505 0.0584792 -0.103865
0.0730256 0.0785852 0.00757048
0.0135888 -0.0625437 -0.110886
-0.0894895 -0.0875774 0.0731001
-0.0803158 -0.0147339 -0.00357393
-0.138778 0.106342 -0.172716
0.112099 0.147458 0.0132296
0.250917 0.128012 0.0676819
0.134887 -0.0708594 0.0275973
0.102488 0.350697 0.108287
0.166953 -0.037153 -0.164534
0.256098 0.115335 -0.0262474
0.140741 0.0272216 0.151222
-0.0678527 -0.0697439 -0.0418873
-0.011011 0.163094 0.16695
-0.0671882 -0.0206993 0.121505
-0.0472121 0.0477011 0.0493553
-0.195709 -0.0204474 -0.142381
-0.112431 -0.128809 0.0731624
0.135823 -0.0347352 0.130487
-0.0105539 0.0199775 -0.0586693
-0.0608646 -0.0204198 0.15752
0.123349 -0.0990377 0.0207538
-0.122464 0.148047 0.0153797
-0.0873358 0.0532982 -0.0639954
0.0542475 0.0101175 -0.00539321
0.00643199 0.0170876 0.105561
-0.164899 0.0931797 0.112503
-0.0531296 -0.0469063 -0.188462
-0.0589344 0.00930921 0.00919192
-0.0199716 0.126672 -0.0316635
-0.158842 0.128063 -0.00856509
-0.0523766 0.0976582 0.0445922
-0.016981 -0.032009 0.00388174
0.14345 0.106002 0.00496084
-0.285826 -0.0426128 -0.039916
-0.0684482 -0.00423865 -0.0856327
0.00231021 0.188907 -0.0753249
-0.00486891 0.0856734 -0.216235
0.0671332 0.0426607 0.0986449
-0.119644 -0.187914 -0.0190731
0.183153 0.11799 0.0626579
0.145683 0.0671815 0.150381
-0.0934543 -0.111649 -0.0773756
-0.0674199 -0.246928 -0.0389502
-0.00211543 -0.062731 0.050828
-0.00374732 -0.0225736 -0.0408697
-0.00246667 -0.0244787 -0.00805574
-0.0748792 0.0413649 -0.077801
-0.0688179 0.0190545 0.109194
-0.0392117 0.010388 0.128905
0.0359747 -0.0937533 0.00961674
0.0677235 0.0419074 -0.0576327
0.128947 0.175586 0.00253234
-0.115243 0.160246 -0.0126822
0.0568817 0.000450828 -0.186988
-0.066045 -0.0812536 -0.0528505
0.0453057 -0.141046 0.0887473
0.0290327 0.0717318 0.22728
0.0296481 0.0812151 0.0150351
0.18986 -0.0769442 -0.182576
-0.114619 -0.0520447 -0.0499738
-0.144056 -0.187561 -0.0341665
-0.0257127 -0.0559087 -0.0295377
-0.0339164 -0.0989464 0.0873539
0.0596625 -0.0504573 -0.196592
0.135365 -0.123524 0.105911
0.071875 -0.230736 0.114665
-0.116084 -0.00948447 0.109882
0.0681797 -0.108829 0.113129
0.179858 0.134581 0.246236
-0.156458 -0.0537456 0.0623528
0.0170187 -0.0316296 -0.128416
0.195824 0.016601 0.263313
0.116878 0.193675 0.0111356
-0.231306 0.270758 0.0669023
-0.00168142 -0.124557 -0.23196
0.0525711 -0.0847132 0.263526
-0.103483 0.105016 0.114369
0.0903036 -0.162313 -0.109996
0.108939 -0.109929 0.0425305
0.129054 -0.15079 -0.00310918
0.0774955 0.165239 0.0360477
-0.0559754 0.0047413 -0.00475291
0.0983172 0.0941129 0.174304
-0.0047452 -0.077242 -0.0446855
-0.0272819 0.187261 -0.0764066
0.175547 0.0593515 0.129993
0.22818 0.230667 0.14716
0.00583381 0.161044 0.113229
-0.031177 0.0225395 -0.0860832
0.231476 0.0501576 0.36898
0.080739 0.204201 -0.214345
0.0715511 -0.00973643 0.0551634
-0.0390693 -0.00695889 -0.0366365
-0.0632026 0.0248366 0.0171318
0.0942063 0.0627514 -0.095984
0.206851 -0.260878 0.0716683
0.143996 -0.112077 -0.145623
-0.201678 0.0667636 0.0766059
0.0109077 0.023967 -0.0904229
0.260141 0.0610212 0.0538879
0.0979094 0.0318638 0.0168345
-0.0280961 0.00245628 0.106403
0.0645194 -0.267555 0.0858691
0.168313 -0.090036 -0.110186
-0.00853514 -0.0349128 0.24679
0.111677 -0.155925 0.03695
0.0238505 0.00560223 0.0948983
-0.162505 -0.142587 0.0466846
-0.0260717 0.0815252 0.0264354
-0.12242 0.0353886 -0.00857427
-0.0906629 -0.038976 0.00130553
0.0624594 0.12489 0.12213
0.203654 0.013681 0.103502
-0.0183734 -0.0354073 0.0375825
0.0631692 -0.0247554 -0.105185
-0.0294922 -0.0732236 0.130279
-0.134465 -0.0572851 -0.202162
0.0282552 -0.0592972 -0.0483577
-0.0784322 -0.176461 0.0138012
-0.245976 -0.117822 -0.0185217
-0.058 -0.0284254 -0.171433
0.193771 -0.0960983 -0.073094
-0.105415 0.0611544 0.0580489
-0.0185255 0.130671 -0.128936
-0.00399385 -0.0544088 0.0596977
-0.152361 -0.136275 0.0364866
0.0429855 -0.071952 0.0898135
-0.0079697 0.0942149 0.203888
0.0177901 -0.0429668 -0.240144
0.178638 -0.00197874 0.236832
0.144283 -0.158457 -0.122392
-0.187464 -0.188638 -0.0256292
-0.0082578 0.0101275 0.0316531
0.0691202 -0.0855462 -0.128336
-0.0501327 -0.0536919 -0.0315707
-0.110219 0.00972842 0.00666353
0.162507 -0.123552 -0.0484874
0.00803683 0.210641 -0.0489986
-0.0395594 0.0936948 0.0728261
-0.204346 0.0122724 -0.19392
-0.0544428 0.128031 -0.0738648
0.0769714 -0.0433612 -0.00629472
-0.0977595 -0.00284005 0.083968
0.0571475 0.171044 -0.0273784
-0.106396 0.0448817 -0.043993
0.131916 0.0628268 -0.119908
0.0126755 -0.203384 -0.0704717
-0.115515 -0.0935912 -0.0638173
0.0395133 0.0995835 0.00823458
-0.131053 -0.175769 -0.0387444
-0.0599397 -0.00539587 -0.234868
0.145966 -0.173991 0.0649216
0.0860684 -0.0769514 0.0721397
-0.0152069 -0.000552664 0.0322255
0.0129135 -0.0294624 -0.0115068
-0.0807806 -0.0202828 0.0292776
0.015286 0.00693196 -0.128199
0.235642 0.0362361 0.251338
0.113845 -0.217993 -0.130976
-0.123362 0.185335 -0.0617412
-0.0167493 -0.069784 0.0293647
-0.0615135 0.167442 0.0742469
-0.147471 -0.049972 0.0757438
0.0270293 -0.0256633 0.0379966
0.186651 0.159338 -0.117436
-0.236709 -0.00452345 -0.210356
0.261952 0.0258865 0.218274
0.0363136 0.235221 -0.0972679
-0.0805813 -0.128383 0.0720941
-0.166188 -0.0835906 -0.0258709
0.0708639 0.0389346 -0.12126
-0.103953 0.0923739 -0.0112783
0.221381 -0.222323 0.0934429
-0.0294039 -0.0596456 -0.091533
-0.0350732 -0.096452 -0.0408469
-0.09164 -0.214572 -0.0405335
-0.0693777 0.0506951 0.12084
0.0581054 0.24228 0.165936
-0.14116 -0.185518 -0.107761
0.0362999 0.00511327 0.265361
-0.042537 -0.054874 -0.108422
0.00651482 0.0721467 0.111584
0.138216 -0.0986584 0.0695541
-0.175198 0.163855 -0.0251521
0.16772 0.0655535 0.155795
0.0237725 0.0399228 -0.229919
-0.102932 0.0197029 0.147479
-0.0404645 0.414536 0.153151
-0.0912498 -0.3027 -0.0272436
-0.094061 -0.0692279 0.19415
-0.149585 0.127579 0.15608
-0.13085 0.0915809 -0.107856
-0.0751275 -0.211015 -0.0786619
-0.133038 -0.13705 0.246443
0.0878765 -0.0477749 0.0672346
-0.0746108 0.0963806 -0.0193069
-0.127848 0.0741232 -0.108525
-0.0666091 0.0433496 -0.075702
0.0794791 0.0447683 0.114561
-0.0503434 0.163716 -0.0102595
0.089435 0.066739 0.141756
0.141221 0.102617 0.243321
-0.103614 0.228853 -0.0960982
0.0238255 -0.009327 -0.132735
-0.132371 0.0688713 0.152097
-0.0255447 0.108951 0.115072
0.123531 -0.239156 0.119644
-0.01502 -0.00413152 0.0561236
-0.158811 0.0348202 -0.0666546
0.0532958 -0.0350052 0.0922754
0.256698 -0.00136637 0.0405503
-0.0909383 -0.12813 0.00786094
0.254621 -0.0411442 0.00814858
-0.0202031 0.0388349 0.160656
0.00987474 0.0622559 0.0368324
-0.0532046 0.138855 0.0222064
0.0363728 -0.197759 0.101559
0.111359 0.125655 0.0484255
0.115258 -0.141754 0.013931
0.070149 -0.0607162 -0.0245709
-0.0553646 -0.0225763 0.0245632
0.07784 -0.00323327 -0.124787
-0.22754 0.105948 0.129961
0.106527 0.0457048 -0.159312
0.0731402 0.0579112 -0.0170619
0.0800049 0.207237 -0.0657986
-0.0230804 0.119003 0.0568733
0.105173 -0.0949048 0.0612792
-0.0113243 -0.0450318 -0.0331995
-0.0968023 0.0697357 0.0298656
-0.162401 0.00800527 -0.0645491
-0.131898 0.0292099 0.066608
0.0117533 0.162417 -0.0282241
-0.0457435 0.0704577 -0.0616309
0.0919362 -0.0470375 0.000392841
-0.0689662 -0.0742964 0.1052
0.162538 -0.0579384 -0.205641
0.00526546 -0.0267368 -0.0433324
-0.0251549 -0.10439 0.0281537
-0.134116 0.269702 0.0213845
0.0855195 -0.249247 0.191722
-0.00908656 0.0471312 -0.15288
-0.029871 0.0598663 0.177126
0.0533348 -0.0492433 0.0494794
0.0800974 0.132056 0.0158535
0.158836 -0.0827873 0.0321342
0.109068 0.15758 -0.0856877
0.122274 -0.112741 -0.159856
0.0506717 0.0493543 -0.0035294
0.201962 -0.08306 0.114937
-0.0778546 0.0422924 0.0719812
0.0676701 0.22645 0.109691
0.146979 0.0376852 0.0927494
6.35341e-05 -0.00660713 -0.0434506
0.0641555 0.058755 0.106165
0.298153 -0.205375 -0.0241221
-0.0526951 -0.242669 0.0545522
-0.115935 0.0184449 0.102627
0.0606382 -0.0226139 0.0201744
-0.245015 -0.0401849 -0.193067
0.0986404 0.21461 -0.304666
-0.223908 0.0569338 -0.0817782
-0.0861776 -0.170446 -0.046938
-0.0681892 0.0340709 -0.00946327
-0.105104 -0.0850603 -0.288742
-0.0125712 0.0282236 0.00374667
-0.123054 0.0360625 -0.0513514
0.1489 0.0667667 0.00678794
-0.178776 -0.00954095 -0.137867
0.0806432 0.0526859 -0.0378625
0.0235231 -0.0698038 0.123854
-0.203854 -0.0979922 -0.0632318
-0.0783745 0.0247049 -0.100093
-0.00562242 -0.214263 0.0512655
-0.275922 0.024122 0.0211987
0.0439738 -0.0118711 0.0873259
0.24518 0.0722313 -0.0441326
-0.129334 0.0200005 0.0227099
-0.0441935 0.0970627 -0.0689303
0.0188383 -0.10813 -0.0720638
0.155952 0.0464354 -0.0675189
0.0663272 0.165588 0.0682909
-0.0300972 0.190578 -0.130562
0.0863955 0.114229 -0.113931
0.00967126 -0.184813 -0.00928086
0.00392004 0.00949459 -0.0874957
0.094489 0.0767592 -0.0428651
0.256618 0.0291039 0.0583343
-0.177114 -0.00269239 -0.0369399
-0.228941 0.0325312 -0.0335862
-0.122872 0.10273 0.278746
-0.0312045 0.011732 0.0297787
-0.120118 -0.248714 -0.0549955
0.0788021 -0.0448971 0.00500354
-0.108938 0.240947 0.149417
-0.013685 0.169433 -0.0698857
-0.118636 0.0436346 -0.0205986
-0.0784175 -0.0962052 -0.300439
0.0141567 0.0600179 -0.0595317
0.0495857 -0.124745 -0.0999102
0.0979007 -0.00121669 -0.124678
0.113757 -0.103869 -0.103489
0.0434099 -0.094993 0.0992076
0.0554006 -0.00102251 -0.146124
0.0116467 -0.23627 0.0525962
0.152963 0.10932 0.0885137
-0.0482988 0.13349 0.0689989
0.0480721 0.00290275 0.058596
-0.0864524 0.059385 0.156266
-0.0926449 0.125049 -0.27508
-0.0227914 0.0566318 0.0445758
-0.0146681 0.10825 -0.172646
-0.142573 0.0587269 -0.0507056
0.116301 0.12147 -0.121782
0.110286 0.0718418 0.0717346
-0.0742022 0.0785588 0.0339382
-0.0905736 0.0629648 0.403256
-0.148287 0.152983 0.101807
0.0380156 -0.240343 0.187772
-0.0145872 -0.0856606 -0.0612302
0.153663 0.00586177 -0.0126947
0.104666 -0.0333322 0.0734824
-0.00936201 0.00824146 -0.0338136
0.213035 -0.108499 0.055213
-0.086167 0.216007 0.174326
-0.193911 0.248211 0.0890068
-0.141518 -0.196632 -0.11692
0.0276365 0.0228315 -0.107975
-0.215552 0.158131 -0.147772
0.0990027 0.318593 -0.141581
-0.0842784 -0.16135 -0.0716092
0.00404678 -0.0980822 -0.208989
0.0720943 0.10074 -0.0482682
0.102374 -0.0464279 -0.0533607
0.00641282 -0.0589737 0.145207
-0.1247 -0.0559686 0.0757841
0.0802864 -0.060946 0.19714
-0.0245399 0.0037235 0.101041
-0.268173 0.00113354 0.119433
0.164036 -0.137298 -0.00574776
0.0154764 -0.0771501 0.0494954
-0.0976709 0.119196 -0.0405356
0.00541251 0.0911037 0.0591041
-0.187796 -0.0484212 -0.0902176
-0.0975884 0.0558302 0.0432981
-0.0263385 0.0982444 -0.0593664
0.0175894 0.0591839 -0.0453909
-0.148047 0.0300006 -0.0321432
-0.00966942 -0.0699557 0.123247
-0.106549 -0.131737 -0.253985
-0.0719958 -0.00782857 0.019912
0.173762 0.0699286 0.0965696
-0.0909144 -0.0278122 -0.053546
-0.0604038 0.173335 -0.0622876
0.0052694 0.275357 0.165496
-0.217402 -0.110826 0.0248161
-0.0171103 -0.0862177 0.0197934
-0.148446 0.124478 0.119323
-0.087332 0.0698382 -0.0123776
0.149005 0.108981 0.241417
-0.00399486 -0.162576 0.0118917
0.231676 -0.18837 0.167277
-0.0308507 0.0829847 -0.228795
0.067731 0.259379 0.107362
0.0218681 0.0819897 0.191395
0.143414 0.267576 0.134468
0.0571844 0.0904149 0.134528
-0.0986402 0.0997361 0.109287
-0.126514 0.0844228 -0.108034
-0.246483 0.0325201 -0.00444743
0.173367 0.0787831 -0.123555
0.090035 0.102723 0.0433341
0.0302814 0.00151282 -0.00351668
0.0348781 -0.0335903 0.0447883
-0.128413 -0.0272861 0.0936511
0.084215 -0.000710648 -0.173281
0.0615171 -0.0816991 -0.0184171
0.0483624 0.0698952 0.00652745
-0.154105 0.0510214 0.142544
0.175542 -0.0351965 0.132035
0.0364229 -0.0368513 0.0332726
0.0558319 -0.243342 0.0192999
0.010896 0.207112 0.119252
0.120093 -0.150329 -0.0223485
0.0661022 -0.0334567 -0.0106878
-0.136002 -0.0834275 0.112199
-0.140353 -0.136706 -0.135737
-0.110352 -0.0489088 -0.0283109
-0.0370418 -0.0656494 -0.0451987
0.0106507 -0.0463259 -0.0567693
0.0483731 0.0205661 -0.0784814
0.0880273 0.0071873 0.00675207
-0.0244914 -0.133965 0.00980942
0.150078 0.0169657 -0.123162
0.11381 -0.0790666 0.0329108
0.168521 0.110285 0.2147
0.142038 -0.0651942 0.152474
0.0491651 -0.00842935 -0.0183181
-0.0408041 0.095575 0.0768963
0.0176716 -0.111416 0.0228207
0.0643675 0.0842903 -0.218142
-0.0513692 0.0524242 0.169131
-0.123915 -0.237886 0.134444
0.27895 -0.0715859 0.0247461
-0.0887704 0.149534 -0.237278
-0.0346655 -0.163706 -0.0451023
-0.0398778 -0.00360857 -0.181089
-0.121858 -0.245505 -0.0232423
0.025333 0.0222503 0.045437
0.301262 -0.0553457 -0.274892
-0.143823 0.0809516 -0.0296457
0.043311 -0.0767673 0.124111
-0.010693 -0.223434 -0.0880191
-0.206333 -0.0492527 0.0202557
0.210746 -0.153145 -0.0200537
0.00350942 -0.0525445 0.066025
-0.0554999 0.00143542 -0.0406206
0.0913185 0.0515042 0.18907
0.0563635 -0.218926 0.124331
0.0212964 0.0286491 0.171405
0.0547487 -0.112773 -0.259921
0.105427 0.245452 0.132002
-0.115346 -0.088033 0.239454
-0.0497071 -0.0844823 -0.105151
0.138319 0.123134 -0.0625472
-0.166145 0.117442 0.198336
-0.0400271 -0.0713907 -0.0761003
-0.000853671 0.106028 -0.00625009
-0.126515 0.0154854 0.0235902
-0.0165025 0.112636 0.325956
-0.182473 -0.188507 -0.0958949
0.0421429 -0.056786 -0.00575544
-0.0671581 -0.14726 -0.124645
-0.0271304 -0.00146456 -0.189116
0.0185456 -0.113713 0.00314864
0.0721706 0.0744507 0.029606
-0.117586 -0.0562772 -0.171279
-0.00533997 -0.108475 0.127005
-0.130018 0.127736 -0.132641
-0.149205 0.0160508 -0.130233
0.0204686 -0.170299 0.0403368
-0.0864311 0.0757527 -0.0964742
0.023412 0.217324 0.0866606
-0.0843192 0.0307145 -0.0321413
-0.070755 -0.0537387 0.0247823
0.117162 -0.11299 0.272014
-0.0464973 0.0878061 -0.0653298
0.132361 -0.0403614 -0.0683033
-0.0344928 0.115576 0.0724436
0.106023 -0.0673162 -0.0327835
0.128608 0.0620879 -0.0326491
0.130615 -0.08811 0.0333283
-0.0287894 -0.0317921 0.116967
-0.20412 -0.0127962 -0.0929167
0.0854995 -0.133876 0.023608
-0.0476855 0.0210491 0.0652886
-0.147307 -0.0439179 0.0550713
0.0293384 -0.0261902 0.264083
-0.17357 -0.0599697 0.117265
-0.202551 -0.0660695 -0.137247
-0.110234 0.00370487 0.0244913
0.00686759 0.126467 0.0216989
-0.158768 0.1175 -0.0385965
-0.0992624 0.0822964 -0.115661
0.0183177 -0.178633 0.0717456
-0.0240292 -0.11665 -0.133065
-0.0619829 0.0270504 -0.0952226
-0.102396 0.0762795 0.0959943
0.0477262 0.178957 0.141776
0.0884958 0.0476209 0.00469008
-0.0832024 0.262315 0.211833
0.0910452 -0.112728 -0.091489
-0.0446184 0.125321 0.0928469
-0.0159307 -0.202662 0.0665122
0.113263 0.16569 -0.134266
-0.0123021 -0.128073 -0.129445
0.0860408 0.227957 0.187963
0.00452191 0.157835 0.0257987
-0.086496 0.0124288 -0.0815969
0.0412348 -0.0407749 0.149297
-0.00427308 -0.0181511 -0.00552813
0.344066 -0.16833 0.162548
0.113736 -0.0493055 0.169263
0.0396588 0.0170374 0.10007
0.0408614 -0.0132627 -0.289001
-0.099077 -0.0602806 0.0190042
-0.369811 -0.0979821 -0.0948767
0.100711 -0.277626 -0.129594
0.0981661 -0.0721441 -0.0726941
-0.0805457 0.171491 -0.0844301
0.129307 -0.0297513 0.00275854
-0.09893 0.110609 -0.168929
0.0191087 -0.218565 -0.110595
0.101521 0.107098 -0.142839
0.101113 0.0520412 -0.166022
-0.0738096 0.00205488 0.163499
0.065688 0.0363288 0.102115
-0.261014 -0.0217127 0.0136953
0.144162 0.00268738 -0.0970282
-0.0714542 -0.090868 -0.0737033
-0.0370223 0.123282 0.142642
0.0267239 0.143423 0.0211314
0.0168661 0.044205 0.117612
-0.0141332 0.0787132 -0.114768
0.110288 0.303157 0.0725739
-0.0565845 0.042111 0.0773117
0.0875698 -0.0611892 0.179101
-0.131169 -0.0959429 0.0123374
-0.0190784 0.0559327 -0.0224917
0.220977 -0.0988587 0.0692313
0.109455 0.0182797 -0.0465805
-0.0385286 -0.00781623 -0.141562
0.0296987 0.00134213 -0.171235
-0.018223 0.0421901 -0.0203858
0.15727 -0.227809 -0.171101
0.0587261 -0.12062 -0.0407669
0.0184688 -0.202904 0.106493
0.110128 0.0230195 -0.00976422
-0.125422 0.134871 0.127695
0.0440637 0.0376146 -0.0243846
0.0216913 0.109204 0.0371559
-0.0032625 -0.0804953 0.202366
-0.0790417 -0.116136 -0.0421021
-0.208848 0.0754276 0.168103
-0.156922 0.0883459 -0.0273554
-0.0809316 0.350322 0.144992
-0.0478392 -0.0269228 -0.000329416
0.161869 -0.0213533 -0.0474621
-0.0475655 -0.181815 -0.0277985
0.0738821 0.293191 0.0494463
-0.0693761 0.00537616 -0.062081
0.271056 -0.0995589 0.0705317
0.00839842 -0.0141321 -0.114902
-0.149702 -0.102198 0.105282
-0.149974 0.054877 -0.128069
-0.100762 0.0891454 0.197912
0.0824414 0.0879256 -0.134427
-0.0196595 0.117102 -0.0542517
0.114327 0.0563287 0.0380761
0.0214726 0.0362906 0.0913501
0.0798778 0.229043 -0.0860355
0.113998 0.0920348 -0.0431068
-0.164499 0.00540164 0.0649437
0.056252 0.0417606 -0.00861259
-0.0288455 -0.0327145 0.00377325
0.165906 -0.0765774 0.00799623
-0.105599 -0.0265526 -0.00160303
0.0175987 0.111698 -0.0996441
-0.0389074 -0.15378 -0.24939
0.108496 -0.0501468 0.0358749
-0.0284864 0.0813527 -0.152371
-0.0596527 -0.0879556 0.000928093
-0.117256 -0.0731752 -0.0305336
-0.113668 0.207007 -0.266987
0.00371616 -0.122439 -0.217566
0.106024 -0.0363145 -0.216591
-0.0645327 0.0312719 0.141639
-0.0244295 0.113793 -0.091001
-0.0774862 0.0832799 -0.192808
-0.0169408 0.0411943 0.0256819
-0.0224738 -0.0253134 -0.114338
0.0935975 0.0657018 -0.0204299
0.00298681 0.0443496 -0.0266753
-0.0440274 -0.022529 -0.116908
-0.15069 0.0372635 0.176769
0.0301355 -0.0663105 0.0678777
0.0244447 0.0888478 -0.188436
-0.0240044 -0.0440923 -0.136136
-0.00307997 -0.0843908 -0.0965019
0.265178 -0.00334472 -0.0739136
0.0618484 0.00302293 0.203472
0.0778432 0.121802 -0.118551
0.124907 -0.149872 -0.23466
0.0195776 -0.144123 0.149017
0.266929 -0.0128587 0.273162
-0.264557 0.105059 0.0368848
0.115061 -0.0240264 -0.181735
0.0499177 -0.00970398 -0.196863
0.156322 -0.185368 0.0244599
-0.0452601 -0.0300358 0.0554265
-0.0902844 0.0275279 -0.00158407
0.208315 -0.154953 0.280544
-0.0676784 0.0065661 -0.0834659
-0.156512 -0.0163128 -0.148082
-0.0908244 -0.086875 0.0207389
-0.0316797 -0.147212 -0.053383
0.234063 -0.01657 -0.0729113
-0.057959 0.0792593 0.0611413
-0.105489 0.0197648 0.137577
-0.168804 -0.230234 -0.0070186
-0.123758 -0.127518 0.123226
0.107027 0.0654519 -0.0998104
0.073766 0.13057 0.0161611
-0.0241506 -0.0321634 -0.097081
-0.104558 -0.0163777 -0.106029
-0.0255766 0.0606655 -0.106251
-0.0413421 0.0326208 -0.0322639
0.0089011 0.0343183 0.0679193
0.0733584 -0.0416359 -0.0931743
0.0969683 -0.298315 0.124831
-0.0728807 -0.108564 -0.0228565
0.0344347 0.0332509 0.186836
-0.32759 0.14468 -0.0119717
-0.017292 -0.178529 0.0464714
-0.261494 0.0909679 0.125625
-0.164272 -0.083963 -0.145102
-0.22583 -0.212611 -0.129826
-0.0716119 0.175467 -0.0376635
0.107043 -0.15532 0.0454075
0.0805395 0.1579 0.0872145
0.156417 0.0413469 0.108011
0.0375996 0.0691399 -0.0334352
-0.136316 -0.089624 0.00390365
0.0980166 -0.0880046 0.112945
-0.12436 0.042337 0.0625377
0.104942 0.0316454 -0.0281512
0.0169469 0.0478131 0.0677285
0.0645147 0.0088449 0.0498988
0.0314105 -0.0989609 0.00752045
-0.0839974 0.205139 0.0834622
0.0130688 -0.0686037 0.227449
0.12749 -0.0988426 -0.0808958
-0.22914 -0.190247 0.124725
0.0328541 0.136251 0.0415862
0.205499 -0.0294565 0.00517934
-0.0503685 0.0329023 0.0481406
0.0406095 -0.0708263 -0.183301
-0.0228072 -0.0796928 0.123452
0.0512798 -0.0556154 0.0386733
-0.0732932 -0.0989054 -0.207911
0.0745051 0.168409 0.108134
0.036419 -0.0394888 -0.208239
0.0606064 -0.28047 0.0105659
-0.119064 -0.139218 -0.169143
0.0347097 0.0030285 0.212857
0.0516564 0.0923368 0.0694564
0.12022 0.0689392 -0.118108
0.015479 -0.141407 -0.0804731
0.0947869 0.0120898 -0.102691
0.0706735 0.114595 0.162149
-0.0764846 0.029177 -0.0541997
-0.113165 0.0904507 0.0750016
0.060935 0.103677 0.194234
0.0492131 0.173607 -0.1481
-0.0676474 -0.185968 -0.0671021
0.052684 -0.0202313 0.0650045
0.174882 -0.0715967 -0.154241
-0.045385 0.234081 -0.0440647
0.0666473 0.221123 -0.231603
0.0179622 -0.0703504 -0.0828908
-0.191402 -0.052689 -0.104092
-0.0765429 -0.115263 -0.112713
0.110849 -0.0188285 0.117087
-0.0749755 0.172897 -0.211863
-0.132563 0.069076 -0.0107171
-0.111188 0.0956398 -0.131539
0.125392 0.0457046 0.195556
-0.144538 0.052573 0.117815
-0.0137531 0.187176 -0.057394
-0.109839 0.0682766 -0.0397268
0.281118 0.0189251 -0.0253543
-0.332683 -0.124904 0.0645066
0.169126 0.0585428 -0.120864
-0.0796285 0.204448 0.0271365
-0.038381 0.0194253 -0.00473592
0.0482251 0.0610674 0.0659512
-0.12567 0.323545 0.134796
0.23783 0.040347 0.054132
0.0653624 0.194163 0.133389
-0.16492 -0.111921 -0.207402
0.254524 -0.0278925 -0.00436502
0.0190455 0.0497198 0.00515247
-0.00545234 -0.0397945 0.19975
-0.0572674 -0.144772 -0.226059
0.0111289 -0.0187123 0.217296
0.0265777 0.100189 0.010511
-0.187036 0.253727 0.0510669
0.0625256 0.151734 -0.171935
-0.173253 0.00999865 -0.0132819
-0.131854 0.0392606 -0.180706
-0.1679 -0.095345 0.113316
-0.116153 0.0265235 -0.0647848
0.139941 0.1853 0.249504
0.0781629 -0.182222 -0.148376
-0.122055 0.0550409 0.211538
-0.104087 0.151604 0.104223
-0.0855758 -0.187398 -0.0339318
-0.129055 0.128299 -0.0217899
0.135872 0.0933561 0.027161
0.147119 -0.211386 -0.0710255
0.096107 0.0658569 -0.0902489
0.1102 0.0824951 0.0677609
-0.0597657 0.0275999 -0.103587
-0.100756 0.110746 0.0660263
-0.0946719 0.115947 0.0676825
-0.0886122 -0.0494279 0.0896054
0.184967 0.302197 -0.106563
-0.142673 -0.287111 0.0020887
-0.0816372 0.0356218 -0.0520245
0.199216 0.139037 0.107513
-0.0336143 0.0430682 -0.177589
0.207891 -0.0025025 -0.0219675
-0.0925858 -0.106103 0.0596103
0.0348917 -0.101961 0.0054391
0.151282 0.106585 0.0289309
0.218955 0.200506 -0.150956
-0.00526864 0.178177 -0.118623
0.041968 0.0263871 -0.0517734
0.11154 0.201424 0.0307339
-0.0135757 -0.296179 0.0785602
-0.168467 0.0275792 0.17126
0.0210572 -0.111844 -0.119082
0.0808358 0.142736 -0.0403212
0.0490789 -0.0159599 0.0373929
-0.0603473 0.0446888 0.0564704
0.058753 0.191377 0.141639
0.020162 0.0785717 0.140046
-0.0122544 0.113623 0.129177
-0.101985 0.285705 -0.097284
-0.405298 0.0130812 0.139253
-0.017245 -0.0823976 -0.141728
0.0289928 -0.19524 -0.0785294
-0.101581 0.0527211 -0.183272
-0.123099 0.0541508 -0.10827
0.274224 0.00462546 0.0638395
-0.00207098 0.107166 -0.122801
-0.25216 0.0274331 -0.0385266
-0.135138 -0.191187 0.2817
0.0238226 -0.0272788 -0.0686055
0.0867414 0.0388204 -0.0967639
-0.250901 0.0790157 0.0479364
0.0336281 -0.0379983 0.0390433
0.159328 -0.0394662 0.00950356
-0.0212282 -0.0091321 0.148965
-0.2778 -0.0879885 0.138601
-0.0494682 0.199716 -0.0471071
0.128151 0.123441 0.0894144
0.119974 0.120964 0.0191004
0.205996 -0.0784289 0.0121335
0.192407 0.0300607 -0.103073
0.22568 -0.121943 -0.0687656
0.201358 -0.19748 0.0220347
-0.0312771 0.206321 0.0396837
0.174665 -0.0913677 0.0122533
-0.00414293 0.136359 0.0705776
-0.0181214 -0.102962 0.0373563
-0.125078 0.284253 0.0406674
0.0783176 0.0390486 -0.116321
-0.0829246 0.220584 0.0053419
-0.19201 0.189712 -0.138924
-0.00709231 0.258395 0.0604944
0.106945 -0.0504627 -0.0200054
0.0889164 0.13498 0.317745
-0.0226916 -0.0133655 0.0471129
-0.187234 0.0626751 -0.143011
0.0967812 0.0539336 0.0106
0.00225366 0.0851813 0.251361
-0.0931268 0.0640136 -0.0211201
-0.121489 -0.0140824 -0.0996322
-0.121325 0.117884 0.0613547
0.165292 -0.0781469 -0.0272018
0.00991132 -0.0164971 0.0384744
0.130845 0.00938361 -0.000763255
0.124897 0.0050175 -0.282142
-0.0565837 -0.115055 -0.0134512
0.26879 0.149674 -0.00115812
-0.208024 -0.0360805 0.123571
-0.0884976 -0.00756948 0.0201699
-0.0416741 0.193299 -0.240181
-0.0612074 0.00384382 0.0529174
0.0162577 0.0722303 -0.0157744
-0.180516 -0.0313082 0.234318
-0.0843775 0.0275793 -0.0232462
0.00603625 -0.285196 -0.0137386
-0.103169 0.0165331 -0.145155
0.170385 -0.0802123 -0.0208851
-0.0158143 0.0557268 -0.0370834
0.0582742 0.0226576 0.0827006
-0.0014947 0.0756639 0.0813058
-0.107913 -0.00326872 0.0613357
-0.0639775 0.0527632 -0.064379
0.0803783 0.0313041 0.0172164
0.280272 -0.000926619 0.170227
-0.00624352 0.154416 0.0651674
0.00509384 -0.0804797 0.207915
-0.0630359 0.0584958 0.13704
0.0547734 -0.0245692 -0.260951
-0.410384 -0.0259352 -0.0886495
0.0528327 -0.20173 0.177654
-0.167239 0.297044 -0.0446965
0.00749565 -0.0155448 -0.130034
-0.141137 0.0868762 0.120775
-0.0382499 -0.00461716 0.0512693
0.016879 0.0145771 0.0345907
-0.172492 -0.235186 -0.22896
-0.215959 0.101684 0.0740309
0.166536 -0.26993 0.0558874
-0.109568 -0.160284 0.0958004
0.215574 -0.0424974 -0.336148
0.100792 -0.0465678 0.0318162
-0.0421714 -0.0476789 0.10254
0.0111405 0.214945 0.050975
0.0586861 -0.0194497 -0.0693045
0.0457753 0.116431 -0.0485899
-0.00872225 -0.122267 0.0146613
0.10003 -0.190936 0.0904998
0.122262 0.286715 0.0444148
0.155935 0.121834 0.0752855
0.000476315 -0.0151616 -0.150845
0.213785 -0.00743992 -0.213981
0.0373301 0.0679504 0.0897371
0.0235862 0.0355583 -0.00494608
0.106488 0.0557149 0.115407
0.039907 -0.0112031 0.0364261
0.0448102 0.0221268 -0.0879327
0.048937 0.0528859 -0.0184664
-0.0233081 -0.0856953 -0.211039
-0.0553661 0.0469469 -0.0631513
-0.224519 -0.0656063 0.16087
0.082043 -0.112851 -0.0482724
-0.0503646 -0.0230675 0.0661816
0.182335 0.00236498 0.0807923
0.0783774 0.0212712 0.00114136
-0.0292321 0.157101 0.130012
0.0929193 0.0398328 -0.107039
0.000953447 -0.134 -0.263858
0.0274703 -0.0347033 -0.0817594
0.142627 0.060224 -0.0919273
0.0656459 -0.0999539 -0.233251
-0.197741 0.1572 -0.139004
0.0598446 -0.0882055 0.0094222
-0.00993004 -0.0555332 0.0698346
0.123656 -0.13756 0.139389
0.0606255 0.0319068 -0.056243
-0.156806 -0.0498832 0.0808761
-0.180865 -0.0675623 -0.0239135
-0.115394 0.0327216 -0.00489763
0.00854839 -0.135922 -0.0767412
0.153676 -0.00409781 -0.0615528
0.0905972 0.180363 0.037491
-0.0686073 0.15808 -0.0973201
-0.0433169 0.0802788 0.048898
-0.138897 -0.0543327 0.0269224
0.100654 -0.000364739 0.126844
-0.144873 0.161453 0.0178787
0.0345622 -0.0701343 -0.0170042
0.190437 -0.161675 0.010439
-0.0254276 0.229401 0.0249177
0.0360557 -0.223377 -0.18659
0.1683 0.0656585 -0.139723
-0.0199586 0.233812 -0.121139
-0.0289982 -0.249008 0.173988
-0.206558 0.0796767 -0.00412344
-0.117486 0.066977 -0.031435
-0.0109753 0.0800497 -0.0379935
-0.046326 -0.0285704 0.131536
0.162259 -0.0772927 -0.171221
-0.00906265 -0.132243 -0.224527
-0.0382277 -0.0251774 -0.0385261
-0.122397 0.192294 -0.0575645
0.113137 0.112548 0.0396371
-0.0793442 0.0128685 -0.144359
-0.0531657 -0.106854 0.12807
0.0360058 0.0380295 -0.100029
-0.173053 -0.0369205 -0.131944
0.0427799 0.0473372 -0.0768296
0.0167316 -0.104718 -0.135929
-0.111414 0.31702 -0.0558176
-0.124235 -0.169556 -0.145198
-0.0447806 -0.0669446 -0.176748
-0.175283 -0.0928032 -0.0612112
0.101259 -0.0754215 0.0411867
0.161813 0.1803 0.177985
0.297201 -0.0551451 0.037437
-0.138764 -0.0154881 0.00273794
-0.211095 -0.0104572 0.0140923
0.223547 -0.0148867 -0.074654
-0.0557931 -0.059566 0.0854681
-0.0385049 0.15456 0.0316243
0.0585597 0.0219179 -0.105009
0.0137978 0.124107 0.050275
-0.236307 -0.0974495 -0.0197717
0.0362603 -0.340956 -0.0179951
-0.0585295 0.0851239 0.118682
-0.1346 0.0601377 -0.267251
-0.0112093 -0.152583 0.295016
-0.0658232 -0.198173 -0.145104
0.0433076 -0.00801366 -0.0378301
-0.0550963 0.0582047 -0.200368
0.271082 0.107353 -0.219629
0.144411 0.0678872 -0.0586982
0.011799 0.161186 -0.0152179
0.144017 0.0912711 -0.0206143
0.0737393 -0.0775507 0.092899
0.0270577 -0.0240723 -0.0446907
0.00676808 -0.0141907 0.187535
-0.0404306 -0.0323011 -0.1004
0.0173171 -0.0527896 -0.210221
0.0260519 -0.225145 0.196622
0.012058 0.0270505 0.0779075
-0.0571157 0.164359 -0.0613424
-0.131515 -0.07959 0.0347893
-0.0195864 0.00983059 -0.17027
-0.170566 -0.209179 0.210024
0.11422 -0.00674053 -0.236111
-0.128245 -0.00544238 -0.104004
-0.0149268 0.0276321 0.0649642
-0.103053 -0.0155504 -0.132793
-0.0332996 -0.0167348 0.0203317
0.115408 0.0874806 0.143372
-0.173618 -0.324898 -0.10671
0.000604594 -0.159796 -0.144347
0.0397061 0.0495949 -0.000593017
0.0380132 0.153394 -0.114157
-0.134243 0.0133989 -0.0391645
0.0640896 0.0589341 -0.0203431
0.175712 0.0158899 -0.0930399
-0.119832 -0.0898561 -0.0478514
0.176442 -0.0482582 0.0512854
-0.203736 -0.183986 -0.032319
0.108347 0.0291719 0.144462
-0.101587 -0.0929507 0.144813
0.0396116 0.0475896 0.158652
0.0739872 -0.0381039 0.00616408
-0.0757309 -0.0646715 0.167014
0.0176801 -0.0989807 0.0600437
0.0302359 0.252058 0.0666571
-0.204029 0.150894 0.0962373
0.0620204 0.259175 -0.421414
0.0824328 -0.00888722 0.0599405
0.161334 0.0160823 -0.0926069
0.0887422 0.0212131 0.174459
-0.0600656 -0.00137187 -0.147233
-0.0737854 -0.209815 0.108985
0.0221122 0.00687318 -0.204811
-0.204394 0.0854458 -0.0189176
0.0584982 -0.156788 -0.21964
0.242853 0.0486557 -0.0565919
0.0473257 -0.0286145 -0.0203946
-0.0947129 0.204513 -0.00452645
-0.0735132 -0.0203155 0.0111646
0.084428 0.169063 -0.188171
-0.0291942 0.0462188 -0.0236403
-0.19223 -0.00484358 0.087947
-0.0136408 -0.00290729 -0.0596236
0.00772835 0.0504159 0.0450253
-0.192465 -0.205768 0.0437625
0.0899583 0.0261514 -0.0535729
-0.061099 0.0434991 -0.0676458
0.0158444 -0.0543794 -0.160741
0.100177 -0.0387739 -0.190131
0.0798528 -0.014084 0.308419
-0.0153118 0.135635 0.0187131
0.156592 0.211715 -0.148375
-0.189785 -0.103305 -0.0353527
-0.107859 -0.0689812 -0.0258679
0.0178124 -0.113872 0.0556213
-0.0775026 0.0271393 -0.0178388
-0.0406019 -0.0735832 0.0679897
0.183713 0.0566837 -0.245166
0.250746 0.0572719 0.0183465
0.0796157 -0.146504 -0.252625
0.00941944 0.0445911 -0.023074
-0.100012 0.032803 -0.0238593
0.0443063 0.0400622 0.196752
-0.0715054 0.362076 0.137456
0.035927 0.0415315 0.166156
0.0550207 0.0851138 -0.0576371
0.0836064 -0.0868936 -0.0201755
0.163987 -0.0860803 0.200257
0.187911 -0.0506212 0.0327711
0.0702714 0.157181 0.0493116
-0.0906 -0.0835192 -0.208694
-0.0203328 -0.0430129 0.128654
-0.0310682 0.198521 0.107734
0.0526339 -0.017912 0.267314
-0.0386039 0.196263 -0.178019
-0.110077 0.0147312 0.0175451
0.0221008 -0.0595416 0.0873541
-0.170227 -0.0691103 0.101986
0.125946 -0.135638 -0.236329
-0.0749013 -0.166104 -0.0164273
0.220717 0.030308 0.0917261
-0.0100234 -0.088626 0.158524
-0.0882692 0.0692985 0.177424
0.131105 -0.0667837 -0.000933728
-0.0192607 -0.021911 -0.0125002
0.0976868 0.0206076 -0.0487279
0.0397074 -0.107926 0.0630607
-0.279924 -0.0381056 -0.0248178
0.0340634 0.09191 0.139333
-0.0338612 0.00526712 -0.116421
0.107491 -0.0746177 0.130922
-0.0386615 0.0500966 -0.0736603
0.252281 -0.0262302 -0.121806
0.0250294 0.226774 -0.149841
0.00932684 0.06068 -0.0692354
0.106466 -0.025016 -0.129434
-0.0289034 0.0376813 0.0506074
0.267585 0.116784 0.18038
-0.0794291 -0.0743177 0.0663086
-0.0282431 0.190598 -0.137757
0.178232 0.0400178 -0.245794
-0.0449468 -0.0276695 0.131121
0.0934549 0.0744302 -0.209372
-0.0501403 -0.0550028 0.248619
0.0482096 -0.0304485 0.244322
0.0929724 0.138972 0.0950952
0.162216 -0.055272 -0.0383988
-0.163319 0.168718 -0.0975327
-0.0298324 0.175655 -0.0362552
0.119533 0.140388 0.0480422
0.145905 0.0454672 -0.0648231
0.00191948 -0.0626045 -0.0143629
-0.266583 0.0828747 0.220705
0.0272064 -0.0253289 -0.165032
0.0785117 -0.0767156 -0.176816
-0.118837 -0.0585516 0.0900079
0.146654 0.0278055 0.114792
-0.128816 0.123815 0.370107
-0.0167055 -0.0757805 -0.145887
-0.0404088 -0.0580306 0.0771545
0.000777178 -0.0712321 -0.130612
0.137085 0.0232425 0.0968506
-0.020773 -0.0814901 -0.0763322
0.0496206 -0.020458 0.00677052
-0.0234129 -0.0598804 -0.11793
0.0986662 -0.0229178 -0.0254588
0.0174801 0.0462847 -0.0284577
-0.0523401 0.101885 0.0192007
0.250688 0.085266 -0.113665
-0.209009 0.0510172 0.225878
-0.0928813 -0.102706 -0.142993
0.0877734 0.0612854 -0.0434415
0.117955 -0.100202 0.241676
0.0119901 -0.0930903 -0.139011
-0.190505 -0.00319082 0.0386662
-0.152088 -0.030699 0.057024
0.0165199 0.0954148 0.0770696
-0.221183 0.17483 0.120855
-0.011284 -0.025359 0.171253
-0.0535514 0.0500549 0.015273
0.129305 -0.201743 -0.129264
0.084825 -0.106467 -0.0719825
0.161389 0.065217 -0.0351225
0.127945 0.0799056 0.0795869
-0.06868 0.176818 0.24012
-0.223421 0.0649616 0.0525664
-0.107911 -0.0909884 0.0318279
-0.0897409 -0.0114926 0.0307359
0.170871 0.1054 0.0196266
0.00152428 0.00870217 0.107005
0.139285 0.0523324 -0.0925575
0.156495 -0.0216888 0.137027
0.0893435 0.0676413 -0.104339
0.0259498 -0.158819 0.0462063
-0.0706054 0.160539 -0.12621
0.000655403 0.156115 -0.225825
0.230152 0.0780416 -0.0807095
0.0284308 -0.114471 -0.161616
-0.0275057 -0.0849898 -0.0332721
-0.0911639 -0.126552 0.152696
-0.0556362 -0.0562629 0.096446
-0.0201222 0.207227 0.0578295
0.0425516 0.0584539 0.0933601
0.219348 -0.0305055 0.0876866
-0.106776 -0.0210542 0.00944649
-0.00370335 -0.068869 -0.000299157
0.0282469 0.00186282 0.0297517
0.0200267 -0.0528465 0.0568538
-0.0302222 0.0552894 -0.0284427
-0.127145 -0.0922393 0.0396434
-0.138968 -0.0922395 -0.052468
0.163824 -0.178495 -0.145907
-0.0420053 0.041677 -0.0929345
-0.169819 0.0898927 -0.00949283
0.138647 -0.103659 -0.0144153
-0.0144871 0.0796507 0.00161173
0.118049 -0.0196943 -0.0929206
0.00433812 -0.0874674 -0.0190642
0.0829461 -0.04697 0.00789642
0.0438181 -0.110944 -0.235119
0.0564995 0.106337 -0.232862
-0.0380899 -0.000746951 0.0386089
-0.178862 -0.0410174 0.141854
0.199478 -0.0229993 -0.140382
0.0488617 -0.00246444 0.072989
0.0117489 0.0899884 -0.024282
0.0726193 -0.0102824 0.0432405
0.0478048 -0.0914023 -0.168759
0.0220073 -0.00798201 0.090888
-0.11211 0.0735055 0.00945338
-0.0698842 0.158948 -0.138004
-0.0710373 -0.00875629 0.0308194
0.0297723 -0.00871264 -0.0959759
-0.0760072 0.103267 0.0465566
0.177149 -0.04675 0.112488
0.173576 0.175674 -0.0974982
-0.0761243 -0.21183 -0.0549829
0.127192 0.0442129 0.00552979
0.0403222 0.176771 0.164774
-0.254303 -0.0250195 0.00655869
-0.141255 -0.120358 -0.21925
0.0394444 0.0272005 -0.0474731
0.109248 0.0340124 -0.107713
-0.232144 -0.107597 0.0816432
0.149168 -0.125969 0.0466652
0.103783 0.2522 0.116555
-0.0479472 0.000341573 -0.143956
-0.141188 -0.025299 0.221887
-0.102614 -0.0197441 0.174175
-0.134394 0.0526637 0.0896098
-0.0767078 -0.132952 -0.056364
0.0362716 -0.169531 -0.0875003
0.0592958 -0.067835 0.0950363
-0.0450533 -0.193277 0.0926549
-0.0347391 -0.14694 -0.0531657
-0.328843 0.164533 -0.0494905
0.00965097 -0.137895 0.134608
-0.095613 0.0740303 0.0315493
-0.0462127 -0.0502193 0.0744995
0.132785 -0.0786313 -0.0226055
-0.0742155 -0.0702396 0.0121809
0.105532 0.00846907 0.112401
-0.0310708 -0.0452765 0.0651183
0.0398785 -0.0862275 0.0633658
-0.0190665 0.0901364 -0.192286
0.0424051 -0.0558288 -0.0141041
0.10424 -0.288367 0.0860068
-0.0637516 -0.125444 -0.0437526
-0.0513948 0.180445 0.0946115
0.0196126 -0.180503 0.0162172
0.077756 -0.160778 0.0715193
0.116742 0.122642 -0.122877
0.141033 -0.00087041 -0.134804
-0.16609 -0.0791526 -0.170596
-0.132053 -0.0317345 -0.156849