3 6144
0.055337 -0.120367 -0.0985625
-0.106965 0.028077 -0.0869987
-0.0256507 -0.0544824 0.0485501
0.0494742 -0.078848 0.0938839
0.12657 0.0751665 -0.0544777
0.00210074 0.0928241 -0.0763804
-0.0900407 0.101455 0.0587615
-0.0999226 0.114295 0.0360198
-0.121481 0.00917696 0.0181259
0.00525818 0.0221183 0.0179205
-0.0799202 0.109169 0.0804008
-0.022485 0.075908 -0.0378215
0.0208956 -0.0768966 -0.0354548
-0.0118443 -0.0852658 -0.0419953
-0.170518 0.00758734 -0.117704
-0.155125 0.0800188 -0.18477
-0.117971 -0.0422438 0.0366191
0.00298274 -0.111169 0.0703274
0.023125 0.136822 0.100177
0.00792547 0.086097 0.00933616
-0.00708227 0.00419345 0.00776648
-0.0198431 -0.076011 0.0732581
-0.0793325 -0.055132 0.0645367
-0.0174887 -0.0836357 0.0132561
-0.000649563 -0.118101 0.0853277
0.035224 -0.032184 -0.140422
0.0787313 -0.0467186 0.0574392
-0.03122 -0.0787472 -0.0886086
0.113119 -0.0849023 -0.0945439
-0.0501919 0.0187999 0.0507553
-0.0718898 0.0438695 0.115473
0.12052 0.146241 0.047605
0.00361244 0.0575151 -0.0619245
0.147764 0.0582089 0.0787556
0.0385059 0.0651365 0.0857318
0.0163753 0.0195711 -0.00663247
0.0847243 -0.135716 0.0694439
0.059071 0.0393852 0.0531094
-0.0932414 0.111706 0.0138119
-0.0165779 0.0360153 -0.111772
-0.0202358 0.0604741 0.0691305
0.122713 0.132049 -0.0271479
0.0552993 -0.0212797 0.0471684
-0.0616391 -0.125718 -0.033907
0.00603712 0.0185193 -0.0971303
0.0703658 0.00780284 -0.104409
-0.0982383 -0.0245546 -0.0615966
-0.0540229 -0.00877546 0.0825968
0.03398 -0.0621013 0.0621432
-0.0702422 0.240097 0.0855042
0.092763 -0.0179511 -0.0617165
0.056234 0.0391076 -0.000476944
-0.0733479 0.0355696 -0.056292
-0.101015 0.0813777 0.0255166
-0.0705569 -0.0383767 0.0669034
-0.0773337 -0.0765312 -0.0186204
-0.0965704 -0.124528 0.0563717
0.0716049 0.0391464 -0.0711513
0.0454 -0.048431 -0.0721402
0.128186 -0.11086 0.035338
0.23827 -0.000668724 -0.1472
0.0235971 0.0924135 -0.0120913
-0.0573089 -0.0616081 -0.0313548
-0.00896669 0.0229364 0.11512
-0.10843 -0.0270121 -0.0829884
0.182756 -0.0674678 0.0574083
-0.022251 -0.00975037 -0.0130733
0.0213608 -0.131083 0.117429
-0.20528 0.0631097 -0.0163902
-0.0434276 0.032057 0.205556
-0.0291363 -0.0849249 -0.00275285
-0.00630195 0.040758 0.0529469
-0.00679312 -0.00877115 0.148689
0.215933 0.0553424 -0.151147
0.198686 0.0239607 0.0849894
-0.0716687 0.220997 -0.0915283
-0.0661623 0.0513638 -0.203983
0.0669761 -0.00678332 0.0478405
0.0491299 0.0838122 -0.025336
0.0880018 -0.0233513 0.0423367
-0.0383651 0.0614493 0.0752603
0.0276122 0.0562389 0.119173
-0.0304327 -0.0778113 0.0619638
-0.00769972 -0.0494681 -0.0102941
-0.112155 -0.0433071 0.278969
-0.00277294 -0.0932481 -0.0381274
0.030971 0.0112168 -0.0234949
-0.0432748 -0.0927918 -0.0776355
-0.0206031 0.0760303 -0.0443406
0.0383995 0.0373195 -0.0191307
-0.0201041 -0.0672367 -0.0664286
0.00264027 -0.0325357 0.117714
-0.0142533 0.0626455 -0.00417955
0.0142278 0.0221065 -0.0239436
0.12914 0.0372753 -0.0503223
0.0041168 0.0547015 0.0406777
-0.0881288 0.140497 0.0298611
0.0354606 0.0104392 0.104882
0.0959796 0.0423745 0.0197848
-0.0510585 -0.00179734 0.0601668
-0.0787406 -0.09151 -0.0428093
0.0259363 -0.157317 -0.0619967
-0.0415468 -0.111623 -0.0167309
0.0393121 0.161555 0.0190331
0.00352087 -0.108434 -0.0921258
0.0157328 -0.0761396 0.0301672
-0.0358918 0.0197315 -0.0467901
-0.0908348 0.023706 -0.0381358
-0.0378955 0.00985027 0.221936
0.126794 0.0910891 -0.058583
-0.161017 -0.00391081 -0.181155
0.0569919 0.0327971 0.0279232
-0.145555 0.00694869 0.0244423
0.141074 0.025125 -0.107963
-0.152852 0.0281593 0.0890617
-0.172058 0.103164 -0.0484788
-0.057957 -0.0735172 -0.00747172
-0.177884 -0.011243 -0.00627989
0.100544 0.00901351 0.0677568
-0.112942 0.0381062 0.0384419
-0.0870971 -0.117207 -0.0380396
0.181179 0.0247195 -0.0947909
0.0379094 -0.025076 -0.00422369
-0.0874533 0.00963193 -0.0201295
0.0148451 0.0721107 0.0174988
0.0415715 0.0516709 0.130414
-0.0854978 0.00181677 0.0366557
0.219777 0.0358414 0.0205932
-0.0564712 -0.0186849 -0.130708
0.0869938 -0.0241632 -0.030596
0.0214666 -0.0196093 -0.0889439
-0.11032 -0.143252 0.0134796
0.073585 -0.0956123 0.190691
0.11318 0.0161204 -0.0627695
-0.00424403 0.0352847 0.109263
-0.0213273 -0.000863355 -0.0729053
0.000280163 -0.0142796 -0.0730339
-0.0136792 -0.11073 0.107112
0.0568161 0.112841 -0.0354397
0.118192 -0.0420445 -0.0444674
0.194717 -0.0882275 0.139068
-0.00493329 -0.00899621 -0.0938123
0.0247672 0.00309824 0.00371948
0.108742 0.0159835 -0.155391
0.034927 0.131233 -0.044993
0.0173146 0.0627846 0.0136226
-0.0671251 0.0354248 -0.0495927
-0.129895 0.03603 0.118018
0.00119654 0.00237315 0.0777482
0.0343163 0.0110389 -0.200525
-0.00815357 -0.118854 0.096947
0.017911 0.0205606 -0.175063
-0.164251 1.37129e-05 0.0949025
0.129085 -0.0402459 0.142783
0.0430458 -0.0299306 -0.090961
-0.0883417 0.0954111 0.0999411
-0.0244242 -0.0736786 -0.0542308
-0.064837 -4.67247e-05 -0.0645644
0.0923125 0.00959491 0.0210531
0.0628907 -0.0554195 -0.0536131
0.0623752 -0.0245046 0.0413302
-0.0250348 -0.209469 0.0329719
-0.0344866 0.146369 0.0781252
-0.0444523 -0.0643707 0.103417
-0.0392892 0.00974786 0.0161644
-0.0845551 -0.00568009 -0.0357569
0.0835572 0.0189336 0.0229288
-0.00202323 0.10414 0.00150751
-0.0630911 -0.0755921 0.00711084
-0.0953816 0.161167 0.0697406
-0.0712519 0.126043 0.0573944
-0.104192 -0.0224968 0.055764
0.00591004 0.0696265 0.043479
0.000120131 -0.0752667 0.0616091
0.0718247 -0.0132259 -0.0968011
-0.119364 -0.11242 -0.0222066
-0.00788837 -0.000355328 -0.0190045
-0.000603881 -0.0535775 -0.0788792
0.0254719 0.0737939 -0.0247229
0.102168 0.0734313 0.0668652
-0.0396131 0.0790162 -0.0751359
0.18087 -0.0651671 -0.118166
-0.0375927 0.143389 -0.115655
-0.00794071 0.0124167 0.022856
0.0135053 0.0195173 0.144914
0.0144207 -0.0335249 -0.0437599
0.146009 0.0544908 0.0377192
-0.00433526 0.058346 -0.0648773
0.0253831 -0.117958 -0.0716908
0.154085 0.0451889 0.121741
-0.0137646 0.0586263 -0.0549428
0.0273051 0.0328047 0.0687358
0.0136404 0.108577 -0.0334428
-0.162048 0.109499 0.0773967
-0.0940472 0.109248 0.0100652
0.0298858 -0.0255495 0.0322466
-0.023665 -0.0650541 -0.0104816
-0.0898232 0.0105147 0.0632007
-0.0569381 0.123348 -0.0112024
-0.101043 -0.0390394 0.15049
0.00166089 -0.104565 0.178676
0.0774304 0.0740934 -0.00779654
0.128404 -0.0964003 -0.0598489
0.0044945 -0.014751 -0.0441787
0.0473896 0.0568657 0.144536
-0.0737634 0.00760307 0.0166266
0.0485692 -0.126752 0.0914436
-0.157682 0.0964736 0.0271496
0.0491872 0.00906539 -0.0479134
-0.115855 -0.0159471 0.0310116
-0.0337799 0.207677 -0.125347
-0.0421392 0.0754328 -0.105445
-0.0780799 -0.0838642 -0.0565191
-0.151257 0.050175 -0.0189216
0.0461985 0.0692157 -0.055941
-0.00697024 0.083677 -0.00625696
0.0346337 -0.0281666 0.00451776
-0.167933 -0.0394313 0.0054439
-0.0141731 0.0744585 0.0159268
0.0450814 0.0624808 -0.160554
-0.0511178 -0.00330959 0.0515705
0.105997 0.0147271 -0.0698504
0.0118955 0.0255914 -0.0829595
0.0933938 -0.0412138 0.0173271
-0.0658976 -0.0634387 -0.141496
0.0565389 -0.00512795 -0.0842722
-0.00850888 0.140148 0.0250235
-0.117896 -0.0502819 -0.149107
0.107771 -0.034054 -0.00561908
0.11557 0.0217809 -0.0689046
0.0276803 -0.0478235 0.00174098
0.0173955 -0.141836 -0.0766809
0.00266243 -0.0349223 0.0272136
-0.0869149 -0.0889677 -0.106608
0.00300595 -0.0746314 -0.000680284
0.0444243 0.118047 0.0874814
-0.0529089 0.0639289 0.163836
-0.0160196 -0.0563145 0.0211169
0.0471107 -0.0685054 0.0944862
-0.0373408 -0.0887059 0.0036974
0.0956148 0.136731 -0.0202953
0.0317146 0.0931476 -0.0315669
-0.0558537 0.0682345 0.0156661
-0.0356172 0.151252 0.112185
0.00575336 0.11146 -0.136944
-0.0997802 -0.0379868 -0.0260359
0.00484691 0.0527394 -0.215949
-0.11908 -0.00745455 0.126268
0.053179 0.00957546 0.0245129
-0.0821496 0.0314447 -0.0998012
0.0159764 0.0371251 -0.0150749
0.10546 0.0180506 0.023368
-0.111731 0.014465 0.063394
-0.0115302 -0.0900408 0.0446946
-0.041225 -0.0522186 0.163332
-0.0177683 0.158929 -0.0845941
-0.0125228 0.124719 -0.101168
0.0520595 0.0667323 0.0703252
0.00196935 0.00795035 0.0334834
-0.0243102 0.0388427 -0.199386
0.0360787 -0.110377 0.00282792
0.0397493 0.0934104 -0.000596169
-0.0670992 0.0546428 -0.0895276
-0.0253028 0.0270485 -0.0874484
0.0438867 -0.137445 -0.00299934
-0.0434606 0.0779971 0.0845817
-0.0781743 0.15771 -0.0158867
-0.086052 0.0481087 0.0851059
0.0869229 -0.0351792 -0.0226857
-0.0239741 -0.17001 -0.0651614
0.0220883 0.030124 0.00768871
-0.00985094 0.0630678 0.0101264
-0.0442557 -0.101477 0.128046
0.00539702 -0.0991624 -0.0394385
0.0458398 -0.11844 0.0101134
0.0749251 0.0424165 -0.0973461
0.0127081 0.0757374 -0.00253815
0.0776313 0.120288 0.0164193
-0.0183074 -0.0204614 -0.0191507
0.102226 -0.050918 0.0504857
0.12635 -0.0832216 -0.0341722
-0.0967224 -0.065191 0.0639371
-0.0191064 0.177447 -0.0166519
-0.0901267 0.155526 0.0691121
-0.0595923 0.119265 -0.0718727
0.0246504 0.0328285 0.0519541
-0.0263723 0.0594493 -0.208289
-0.0225092 0.122747 -0.0493468
-0.025008 -0.00629514 0.0448068
-0.0802949 0.0808599 0.172204
0.104711 -0.0603139 -0.0800809
0.13439 -0.0357839 0.0659659
0.0772883 0.0355877 0.0422876
-0.00815998 -0.0243926 0.0098326
0.0442118 0.00594291 -0.0752097
0.0524344 -0.0158007 -0.0116121
0.125587 0.0693 -0.0020405
-0.0518053 -0.081328 -0.0135539
0.0746264 0.14275 -0.0311721
-0.0589742 -0.0399497 0.0663268
0.0248255 0.161446 0.0168131
0.014439 -0.0661302 -0.0851556
-0.0979707 0.0706446 0.000312058
-0.0775867 -0.00503621 -0.00520282
-0.0874672 -0.0912029 0.103583
-0.141633 0.0872774 0.067481
0.0566734 -0.0205745 0.00500165
-0.0543413 0.00558648 -0.0712783
0.011022 -0.0379771 0.017104
-0.0282838 0.0416043 0.191516
0.00654401 -0.10271 0.112216
-0.00945474 -0.049161 -0.11884
-0.0553616 0.0657937 -0.182545
-0.0275103 0.138259 0.0747026
-0.0798553 -0.0797484 -0.072663
0.0968649 0.00839935 -0.053831
-0.0662685 0.0457778 0.0485853
0.132595 0.0507931 0.131694
-0.0855909 0.0364297 -0.152677
-0.0214605 -0.0175356 -0.0933674
0.0762435 0.115544 -0.00966898
-0.0207701 0.0883308 -0.0756346
-0.172666 -0.0171266 -0.14742
0.0404334 -0.190898 0.0307678
0.156412 -0.0745044 0.0302695
-0.00512401 0.156914 0.0578726
-0.0726145 0.0417578 -0.0293746
0.0125377 0.117169 0.121708
-0.0274417 -0.146976 -0.123337
0.00337057 -0.000424473 0.128852
-0.112129 0.0759096 0.0054568
0.0100248 -0.0667736 -0.0754718
-0.0753692 -0.0714246 0.0877891
0.0264403 -0.0681533 0.0160658
-0.0271356 -0.0329533 0.0223293
-0.0233487 0.0170628 0.064296
-0.00612643 -0.103096 0.0862245
0.0567935 -0.0809721 -0.0921452
-0.0482049 -0.0741284 -0.0265738
-0.116907 -0.0218224 -0.0270169
0.115392 -0.129798 -0.0603926
0.0117333 -0.274192 -0.0776452
0.0284681 0.0840901 -0.0213549
0.0636387 -0.0661435 0.0640569
0.00664578 0.0515728 -0.0951018
0.157192 -0.210182 -0.166888
0.030348 0.0389735 -0.107805
-0.106068 -0.0185452 0.105795
-0.0105357 -0.00245249 0.0701531
-0.0657439 -0.032129 0.0839159
-0.0215717 0.0716539 0.0643485
-0.00370623 0.0589833 -0.0284699
0.0463367 -0.0344114 0.0313781
-0.0533936 -0.0513487 0.097286
0.0432719 0.0475794 0.0902545
0.0612056 -0.065482 0.081478
0.00613604 0.0137759 0.0607759
0.0146144 0.0887699 -0.0469444
-0.0643645 0.100161 -0.10902
-0.0690166 -0.09585 0.0096476
-0.0594438 0.079575 0.120952
-0.058269 0.111535 0.0192093
0.00283157 0.0606294 0.118413
-0.0150745 -0.0307066 0.00108389
-0.0224506 0.000917781 -0.0763178
0.0362974 0.07 0.0594136
-0.0473696 -0.0264056 0.0848344
0.13208 0.0438486 -0.085544
0.020494 0.0738145 -0.0235795
-0.0280161 0.05106 0.140582
0.0456688 0.0514223 -0.140371
0.0782419 0.00113193 -0.0503182
-0.180349 -0.0377307 0.0199842
-0.101008 -0.0178566 0.0132847
0.0220103 -0.0580381 -0.0964602
-0.172102 0.0121815 -0.121448
-0.0493783 0.174247 -0.143443
0.135075 0.043219 0.0419079
0.00697268 0.0350465 0.00690845
0.110342 -0.145109 -0.00617497
0.0147545 0.0234506 0.0440388
-0.222087 -0.0475069 0.0490396
-0.0187466 -0.0600401 -0.0193662
0.062461 -0.134982 -0.0282418
-0.0884376 0.0336245 -0.0857397
0.0393361 -0.047483 -0.094903
0.0291294 -0.0780694 -0.0398282
0.0795437 0.0815412 0.145067
-0.133265 -0.0410733 -0.0859784
0.116982 -0.0469723 -0.0209173
0.1028 -0.0660177 -0.0167861
-0.084794 0.0658444 -0.0557963
-0.0844841 -0.113942 -0.0348435
0.0870691 0.0406428 0.100063
-0.101054 0.128189 0.0172326
-0.0616654 -0.0329398 0.0534623
0.0605105 0.0337927 -0.259414
-0.0253688 0.090299 -0.0657592
0.12931 -0.0856539 0.0470018
-0.0660758 -0.0857058 0.0651088
-0.133477 0.0139152 0.0227246
-0.123325 0.0498091 -0.0480702
-0.0295936 0.075224 0.0284008
-0.102559 -0.0702318 -0.0394227
-0.0798774 -0.0108767 0.0133974
-0.0200328 0.0131484 0.0744058
0.0633341 0.119981 -0.0671361
0.100855 -0.14292 0.0439781
0.0867871 0.212178 0.194854
0.016602 0.0017983 0.113567
0.0753117 -0.0488506 -0.117578
-0.0113978 -0.123439 -0.0304495
-0.0244192 -0.0251003 0.0357915
-0.0851037 -0.10611 -0.0448053
-0.0648948 -0.0143608 0.0370639
0.108013 -0.0615332 0.0200808
0.0303702 0.0552989 0.0262472
-0.19995 0.0775593 0.0275532
0.0192328 0.0655638 0.166499
0.0644365 -0.116116 -0.0206626
-0.0616957 -0.00425852 -0.0229719
0.0819252 -0.00523988 -0.0204847
0.087574 -0.0940746 0.0175186
-0.0129021 0.132051 0.166556
-0.0969148 0.0913202 0.0504116
-0.0574667 0.0213856 -0.0416855
-0.0583098 -0.0491757 -0.14065
0.173247 0.0354765 -0.125926
0.0947951 -0.132788 0.0250765
-0.0358656 -0.0171099 -0.107604
-0.0399998 0.186904 -0.0825713
0.178615 -0.0197823 0.0416008
-0.185389 -0.00528791 0.0839176
-0.0567814 -0.085404 -0.0282711
-0.0414312 0.0429827 -0.0277115
0.152851 0.0914105 -0.0238548
0.0871554 0.0685367 0.0289942
-0.0818271 -0.146396 0.105967
-0.0591953 0.0439343 0.207265
0.045916 0.180181 0.0542014
0.0283124 0.0650371 -0.158169
0.0611771 0.00493477 0.0223309
0.044211 0.147564 -0.0864065
-0.0484685 0.035707 0.0190044
0.15158 -0.0827262 0.0335788
-0.0494043 0.0237841 0.0419762
0.0287253 -0.154593 -0.101854
-0.101357 -0.104541 0.161474
0.0502003 -0.112245 -0.0909041
0.0402791 -0.148286 -0.00129515
0.0790596 -0.0265495 0.0865352
-0.0325717 0.0393358 0.079904
-0.0482754 -0.0598482 -0.0624815
0.033075 -0.00560442 -0.0868802
0.017776 0.100409 -0.0336887
0.00788237 -0.0610136 0.104788
0.0673626 0.126799 0.037771
-0.054142 0.078518 0.0759255
-0.0515302 0.0256965 0.117835
-0.0458369 -0.142909 0.115206
0.148643 0.0152183 -0.0602457
0.00629866 0.0384538 0.0523807
0.0821934 0.114842 0.0867016
-2.34985e-05 -0.127697 0.0485682
0.0639231 -0.0383633 -0.16682
-0.0555575 -0.193933 0.0115356
0.0865283 -0.0312289 -0.0232804
0.0511979 -0.0765112 0.00442089
0.00885949 -0.0914486 0.0157581
-0.0271616 0.0213858 0.0237906
-0.0392674 -0.0568411 0.00965671
-0.0884761 -0.11125 -0.0541859
0.0293349 0.0242999 0.124175
0.0573191 0.0881807 -0.0313909
0.0187824 -0.0725241 0.036974
0.0844004 -0.088983 0.00650712
-0.135231 -0.146922 -0.0624406
0.0997703 -0.0749565 0.0322812
-0.111553 0.0111859 0.0690473
-0.0081069 -0.0395954 -0.146938
-0.0954001 0.0438034 0.092902
-0.120939 0.0100116 0.0762474
-0.0617132 0.049735 0.0836432
-0.0828294 -0.0287171 0.0772122
-0.170067 -0.0256926 0.00373947
0.0414256 0.176933 0.0595184
-0.0672803 -0.0748899 -0.00315632
0.0436072 0.0949623 0.0705956
0.0221864 -0.00757428 0.0493586
-0.051931 0.015905 0.00901483
-0.146688 0.0518095 0.137427
0.0846627 -0.0847903 -0.0126811
0.0877674 0.013569 -0.0393693
-0.0127472 -0.0997862 -0.00151088
0.0123775 0.0417573 0.0493477
-0.00245908 -0.0308303 -0.0509534
-0.0941832 -0.0124073 0.0249044
0.145602 -0.0968014 0.0122986
-0.0987621 -0.00133089 0.0557733
-0.0386669 0.118358 -0.0666808
-0.0469204 -0.0420495 -0.0222776
0.0347838 0.206803 -0.128499
0.0551734 0.0251851 -0.0265024
0.0490617 0.0908431 0.0779332
-0.181173 0.0601927 0.0180684
0.00210449 -0.144464 -0.0304879
-0.012263 -0.0890475 0.0436811
-0.0438143 -0.00687276 -0.0856318
-0.0340943 0.0622934 0.0468825
-0.0292896 -0.0374551 0.0720102
0.00416982 0.0447107 -0.0012238
0.159928 -0.131264 -0.0782932
-0.0426172 0.139564 -0.00408563
0.0248201 0.0437084 -0.0288076
-0.00177851 -0.0135248 0.0721627
-0.014552 -0.0158264 0.0216506
-0.0307962 0.0181441 -0.0243954
0.0382956 -0.0188907 -0.105274
-0.00825981 -0.158626 0.100646
0.0869309 0.232725 0.070147
0.0262722 -0.0984018 0.0248654
0.0757427 -0.0352896 -0.116642
-0.0700032 0.110888 0.244667
0.0511428 -0.00538268 -0.0815412
-0.0613812 0.114044 0.0494305
-0.070727 -0.0588494 -0.0937087
-0.0769568 0.076798 -0.0614272
-0.0891287 0.021672 0.0441969
-0.0201335 0.0337455 -0.0854315
-0.102157 0.0726238 -0.00638573
0.0638749 -0.0438735 0.171847
-0.0530892 -0.0965288 -0.121012
-0.0879009 -0.183803 -0.0597811
0.0404908 0.116561 0.106925
0.0607556 -0.00734096 -0.148798
0.0377371 -0.0656501 -0.0563497
-0.0372296 0.107632 0.142256
-0.0121885 0.0381376 0.0890799
0.0168447 0.170281 0.0607736
-0.0562408 0.016163 0.0386996
-0.0105761 -0.0146997 0.132419
-0.0825185 0.101063 0.000781976
0.144134 -0.0431685 0.0301638
0.0745241 -0.0985713 -0.0195111
-0.0295216 0.0227653 0.0529933
-0.0398208 -0.0555061 -0.026579
0.0247654 -0.0702777 -0.123699
0.103165 -0.053554 0.171055
0.0618455 -0.0398251 -0.0531991
0.0507535 0.107375 -0.0637488
-0.0955302 -0.00526327 0.126667
0.0977206 0.0719766 0.131954
-0.0097364 -0.0538893 0.0369895
0.00290553 0.0501794 0.143873
0.0526427 0.0443156 0.0222769
-0.0107824 0.0339361 -0.142698
-0.17134 -0.0178742 0.0460979
0.0675329 -0.0981801 -0.0476758
-0.121957 -0.0600384 0.0427458
0.0766028 0.0616334 -0.027825
-0.0663002 0.115296 -0.0628953
0.112916 0.117597 0.102454
-0.00294255 0.0184341 0.0214103
-0.0702397 0.0396128 -0.00700399
-0.0518843 0.0340622 0.0612349
-0.105533 -0.109476 0.0411645
0.0296808 0.0524316 -0.00860455
0.0717625 0.00671961 0.022686
-0.0492995 -0.159758 0.035074
0.0204242 0.0742332 0.109232
-0.0447017 -0.0554872 0.0669839
-0.0677481 -0.153147 0.0287082
0.105578 0.0584769 -0.182922
0.0806346 -0.121583 0.0277543
0.0361353 0.110128 -0.0688868
0.0731468 0.0150491 0.0488816
-0.0566613 0.00893794 -0.0469321
-0.0881409 -0.022294 -0.00356211
-0.000725258 -0.00316824 0.0130091
-0.00856216 -0.104993 0.0392993
0.053887 0.00971274 0.0940723
0.00985365 -0.166865 0.0591663
0.00467521 -0.135021 0.0749263
-0.141667 -0.0174956 -0.00321379
-0.0522426 -0.00595883 0.0814753
0.0283418 0.0360111 -0.0295828
0.0373911 -0.0621468 0.0105499
0.0102473 0.0788257 0.0911884
-0.0249843 0.0316381 0.0745553
-0.0351738 0.0810234 -0.0194411
0.0135997 -0.0807109 -0.0615391
-0.118128 0.096452 -0.00243366
0.00978558 0.0290964 -0.1553
-0.146633 0.108465 0.0341467
-0.000583315 -0.0447308 0.0328888
-0.0773041 0.0708338 -0.133087
0.0487351 0.0164125 0.0333
0.0636537 -0.0367526 -0.00907283
0.00875969 -0.0370578 -0.0308743
0.0304973 0.028644 0.150082
0.0533637 0.0184037 -0.0701791
-0.0373464 0.0605064 -0.0291482
0.0339769 0.128782 0.0192986
-0.0514502 0.0672357 -0.00735368
0.0153817 0.0957035 0.0625471
0.0656433 0.100251 -6.01818e-05
-0.0365058 0.140039 0.0260333
0.0438739 -0.155781 -0.059508
-0.0921609 0.0134986 -0.0741664
0.125566 0.0101903 0.133178
-0.116963 -0.0451536 -0.0751929
0.0774182 -0.120727 0.0128384
0.00724948 0.00200304 -0.039653
-0.0220417 0.105209 -0.116201
0.0582262 -0.0399988 -0.128718
-0.0372231 -0.0357832 -0.00858692
0.117964 0.0481207 0.0711161
-0.0914747 0.00181591 -0.157837
0.149903 -0.101095 -0.0663156
0.101973 0.0370361 0.0352087
0.0374765 0.00599938 0.0288494
0.0527575 0.0105921 -0.0716549
-0.0999347 -0.0708278 0.0927481
-0.026156 0.0844216 -0.00586649
-0.0349041 0.0026786 -0.116266
0.0314948 0.0748191 0.14281
0.0822678 0.0802798 0.0699658
0.0165893 0.167628 -0.0850287
0.0320734 -0.0394558 0.0323771
-0.0945243 0.035542 0.0666765
0.164473 0.0164514 -0.0596339
-0.0555533 -0.0235769 -0.0932338
-0.0769663 -0.143016 -0.00782949
0.0366924 -0.042071 -0.00290256
-0.0379361 0.102967 -0.0626302
-0.217195 -0.0589885 -0.0489064
-0.15056 -0.0515277 0.0310548
-0.0228091 -0.0183271 0.0002585
-0.0662979 -0.0853085 -0.106892
0.133815 0.0775003 -0.177812
0.129722 0.0585345 0.232588
-0.0325095 -0.0380635 -0.0804319
0.0578323 0.0785369 -0.0988951
-0.216777 0.118086 -0.0546424
0.0351953 -0.0180634 0.0262985
-0.135731 -0.00226823 -0.00824925
-0.0496974 -0.0450734 0.0347642
-0.0474302 0.0501452 0.0518018
0.0320667 0.0565291 0.0939282
-0.103622 -0.0600309 0.0409215
0.0859127 -0.0587408 0.122396
-0.0231854 0.0415157 0.0709134
0.0177171 0.0669166 -0.174521
-0.0913008 0.0329006 0.156044
-0.111638 0.126946 -0.0659437
0.056754 0.0313643 -0.142004
0.128069 0.00474688 -0.0186534
-0.0187849 0.125069 0.183474
0.0640255 0.000997429 -0.0142278
0.0885132 0.0900628 -0.0261318
-0.00271783 -0.147666 0.0097417
-0.0717958 0.12318 -0.0583882
0.00681499 0.0236041 0.102374
-0.137101 0.00965122 -0.0271614
-0.101556 0.0264908 0.0788707
0.0246924 -0.0486749 -0.0878789
0.0786763 0.053618 0.0472144
-0.0355239 0.0538121 -0.013557
0.00253003 0.0327363 0.0238336
0.128982 -0.0982853 -0.0721745
0.0591402 0.17843 -0.0900446
-0.0480496 0.0514042 -0.0718818
-0.220493 0.0479336 -0.0784001
0.0150658 0.0388046 0.0529629
0.0465509 -0.0799714 0.0945207
-0.0294641 -0.170137 0.0486165
0.0572064 -0.010182 0.0428894
-0.0704398 -0.0645054 0.167252
-0.040034 -0.0784559 0.0366017
-0.0760925 0.0319971 0.0242961
0.0566564 0.192588 0.0869303
0.0891685 0.0864757 0.046223
-0.127601 -0.173062 0.00546469
-0.106361 0.0657327 -0.131462
-0.0778922 -0.0829599 -0.173833
-0.151453 -0.0314991 0.00630365
0.122791 -0.055917 0.00348528
0.0590822 0.0438719 -0.00746195
0.117794 -0.0262305 -0.0752779
-0.0234777 -0.146924 -0.047629
0.0917462 0.0172074 -0.118908
0.0538249 -0.0232494 -0.0499577
0.151218 -0.168913 0.0092564
0.0623132 -0.00153462 0.114912
-0.092859 -0.0681549 0.0307295
-0.0204271 -0.130195 0.0677986
-0.0182271 0.0741157 -0.0827022
0.0145807 0.140764 -0.112114
-0.0473025 0.0690117 -0.0353846
0.00302565 -0.0703514 -0.0601361
0.0806511 -0.0258324 0.000206697
0.0678792 0.180491 -0.157293
-0.0425928 0.187402 -0.0145633
-0.0728307 -0.039144 -0.0326058
0.0939106 -0.0962884 -0.077239
-0.10641 0.0622577 0.0335795
0.0924142 -0.0343001 -0.0559859
-0.155491 -0.00120436 -0.0483792
0.0266032 0.0312431 -0.0718837
-0.0169101 0.173633 -0.06634
-0.0556959 -0.101958 0.0592575
-0.148221 -0.118222 -0.00433004
-0.162699 0.0481687 -0.0184418
-0.217322 -0.0804622 -0.00401542
0.0537726 0.0315591 -0.0148743
-0.000999512 0.0674237 -0.00463926
0.0267411 0.0639181 -0.0139051
0.192237 0.062281 0.0570158
-0.109269 -0.160323 -0.0534337
-0.0192936 0.0774207 -0.0423555
0.0969846 0.00484443 0.0473731
-0.11818 -0.0428709 -0.0836893
-0.0747159 0.110942 -0.0248014
-0.136127 0.0615379 -0.121405
-0.0412873 -0.09472 -0.0834805
0.010555 0.0522749 -0.0562168
0.0260472 0.120306 0.139569
-0.117196 -0.1107 0.0672641
0.0958864 -0.00599332 0.109822
-0.0293137 0.152426 0.0641517
-0.0354432 0.0781034 0.115755
0.0493543 0.0505873 0.0115876
-0.0849007 -0.0815299 -0.0438032
-0.0412456 0.0231542 -0.00111309
-0.0162679 -0.0072956 -0.083903
0.0117651 -0.0488967 0.0902248
0.00723158 -0.0627258 -0.0202412
0.0947044 -0.17162 0.107655
0.0303499 0.0258284 0.0374786
-0.193425 0.0476151 0.0452179
-0.0835599 -0.0185647 -0.094334
0.0885458 -0.0470226 0.11993
0.0502088 -0.0744329 -0.0331061
0.103559 -0.087362 0.0487924
-0.0673033 0.0242635 0.13063
0.0130644 -0.0821155 -0.0121761
-0.133888 0.030225 -0.0213445
-0.0883777 -0.220197 -0.0552604
-0.0291202 -0.0366785 0.0158807
0.107914 -0.111276 0.0302367
0.0151818 0.0127898 0.0395477
-0.168106 -0.0606971 -0.0772368
0.0800031 -0.0193012 0.0460793
-0.0592527 0.0183437 0.0404556
-0.255547 -0.146013 -0.00321031
-0.0347208 0.0508489 -0.0864564
-0.0587004 0.101241 0.05392
0.0391298 -0.0303939 0.0600964
-0.0169829 0.0853695 -0.0382573
-0.0573295 -0.0280168 -0.00563088
0.19085 0.0160995 -0.00327
0.0214827 -0.00157884 -0.00685143
0.0491436 0.0104171 -0.0611682
0.00736633 -0.0593972 -0.0983536
-0.113966 0.0940101 -0.0150862
0.0637158 -0.0883626 0.071418
-0.0315608 0.0874869 -0.0995166
-0.148555 0.111513 0.110617
-0.0216234 0.0265519 -0.00838085
-0.0288407 0.107168 0.0583495
0.0442823 -0.189349 0.17274
-0.0235553 -0.0628886 0.0116012
0.135625 0.115784 0.0969644
-0.0616954 -0.0493265 0.0371166
-0.098613 0.116934 -0.209237
-0.0621877 -0.207058 0.0308301
-0.0359544 -0.0104921 0.104418
0.104027 -0.00704565 0.0944848
-0.0497085 0.0276466 0.0559195
-0.0512616 0.0478368 -0.0602912
0.0318816 0.0704303 -0.0563264
-0.00265776 -0.00014607 -0.0255722
-0.0779424 0.110556 -0.0849509
-0.0301843 0.056056 0.114163
0.0141492 0.13745 -0.00171153
-0.0445176 -0.125618 -0.203288
-0.0722946 -0.159073 0.0145956
-0.056233 0.0473225 0.0805052
-0.0334235 -0.0102653 -0.0187887
-0.107215 0.0119879 -0.100544
0.17414 -0.107109 -0.0794555
0.0309396 0.0863844 -0.00762705
-0.0925294 0.0202656 -0.100642
0.0976051 0.0625743 -0.0785887
-0.0300257 -0.138109 -0.0712808
0.107055 -0.0389367 0.106328
-0.0578931 0.167432 -0.11551
-0.220366 0.0601847 -0.017891
-0.0650895 0.0101738 -0.0227234
-0.00937183 -0.131806 -0.121953
0.0504424 -0.0494585 -0.0938828
0.0288537 0.178597 0.209433
0.0307019 -0.197553 -0.0824433
0.0384927 -0.0949278 0.0433551
0.0142342 0.0964196 0.0400472
-0.0510681 0.128177 -0.0213239
0.031173 -0.122376 -0.0481788
0.105299 -0.0817458 -0.0489318
-0.0344265 -0.14751 0.0921438
-0.0367116 -0.0313156 0.0479876
0.0813207 -0.0613303 0.0260726
0.121082 0.0420628 0.0311435
-0.131625 0.00956137 0.014239
0.0115319 -0.0547937 0.137391
-0.0796506 -0.177698 -0.00270822
-0.105023 0.155952 -0.0321045
0.0986785 -0.00354767 -0.0549506
-0.120806 0.0143626 0.04431
-0.0702147 -0.00815222 -0.139374
0.0115217 0.0767231 0.0144787
0.0447453 -0.0491518 -0.121314
-0.0591203 0.0505138 -0.010794
-0.0440355 0.0851628 -0.0722816
-0.0334002 0.0805829 -0.0239619
0.0580255 0.00162043 -0.0430654
0.0897911 -0.0874194 -0.0801226
0.0185708 0.00796251 -0.0326598
0.107746 0.0110141 -0.0786316
0.0108541 0.11352 -0.0670116
-0.0919053 0.059781 -0.00370977
-0.00546353 0.021484 0.00514345
0.0118468 0.0170506 -0.0555855
-0.0850023 0.0140894 0.0101989
0.0632616 0.0287131 -0.0404416
0.0698768 0.0923215 -0.0316013
-0.0291343 -0.00817826 -0.0244498
0.053189 -0.127104 -0.0749636
-0.0424899 0.007271 0.0528033
-0.0115672 -0.0171619 0.0823867
0.0326449 0.0444434 0.0993919
-0.00437143 0.0418603 -0.0966066
-0.0100236 -0.134707 -0.042701
-0.085744 0.0210837 0.0749676
-0.106092 -0.155592 -0.0208595
0.0427056 -0.0300869 -0.016901
-0.00251089 0.0850422 0.00384933
0.0212065 0.0875986 0.0196106
-0.211526 -0.096575 -0.134385
0.0290007 -0.0909198 0.0185178
0.0227424 -0.122238 0.11901
0.134827 0.184944 0.101985
0.121204 0.144081 -0.154726
0.0681523 -0.0470166 -0.0577789
0.0810765 -0.0876242 -0.0358286
0.034952 0.0837699 -0.122007
0.0832186 -0.0532966 0.0628404
-0.0888009 0.134556 -0.146165
0.0386785 0.142812 0.113813
-0.165521 0.0923007 0.0258069
0.032225 -0.0309035 0.0901559
0.0398662 0.0458528 0.000841251
-0.152835 -0.19309 -0.180606
-0.203462 -0.00638056 0.0333024
0.165007 -0.0436765 0.0629887
0.0134678 -0.0598955 -0.0273492
0.0501132 0.061403 0.12839
-0.0910636 0.119205 0.157308
0.0215292 -0.0746351 0.0348942
0.070955 0.0450148 0.0364621
-0.100828 0.0166638 0.052338
-0.00190026 -0.120526 -0.0158904
0.0271491 -0.136596 0.0374337
0.0492743 -0.0139389 0.127666
0.0170119 -0.0310358 -0.00149576
0.0687955 -7.96225e-05 0.169171
0.141857 0.0117862 0.0797926
-0.113946 -0.0511116 -0.0771194
0.0644772 -0.093933 0.0607805
0.0879053 0.0689961 -0.0611936
-0.0755544 0.0911077 -0.0253416
-0.0346934 -0.0591265 0.0642317
0.0780228 0.129494 0.105521
-0.0997147 0.100724 -0.104101
0.00535854 0.0701528 0.00419468
-0.0363598 0.0445313 -0.0126646
0.0665956 0.0637873 0.0631819
0.0058309 -0.0462965 0.101784
0.0731875 0.00709471 0.0344538
-0.00423858 -0.138399 -0.100311
-0.0899192 0.0565764 -0.113448
0.138878 -0.0490219 0.0909746
0.0406847 -0.0681386 0.0514867
-0.00124385 0.16448 -0.101605
-0.0746319 0.0833395 0.207662
-0.0728546 -0.136601 -0.118094
-0.0224876 -0.108096 -0.0318639
-0.0275777 -0.0789154 0.086309
-0.0519785 -0.0165772 0.0539544
0.140875 0.00611042 -0.0783415
0.0690164 0.163406 0.165788
-0.00462291 -0.100554 -0.00341836
0.0565655 0.0451929 0.0800172
0.0465977 -0.0319639 -0.0274776
0.104893 -0.0505406 0.0735931
0.0207035 0.0949504 0.142463
-0.0352861 0.0267067 -0.0881832
-0.0908995 0.104023 0.0391277
0.0182629 -0.0942894 -0.0824206
0.0502128 0.00287034 -0.107354
0.0178278 0.146605 -0.138857
0.061398 0.0772898 -0.0374198
0.0117236 -0.0782451 -0.218163
0.0377492 0.238452 -0.0845631
0.0524579 0.0600849 -0.00344003
-0.0235473 0.109077 -0.057988
0.187053 -0.0973503 -0.00323707
-0.137618 0.0378006 -0.0794056
0.0774171 -0.0263494 0.0475625
-0.046933 0.111411 -0.00185848
0.0259818 0.101256 -0.0201742
0.130201 -0.0963364 0.0563607
-0.274729 0.0147135 -0.10622
-0.0414748 -0.0760741 0.108782
0.0197908 0.0492241 -0.00939466
0.242533 0.0492388 0.0295118
-0.123971 -0.0489636 -0.0357167
-0.0168846 0.074636 -0.0489828
0.149175 0.0514716 -0.0120868
-0.0140167 -0.217141 0.088558
-0.0346026 -0.124753 0.0190009
0.0697193 -0.0851813 0.0721594
0.0727924 -0.0785265 -0.0659109
-0.19109 -0.0499928 -0.186314
0.0294669 0.144818 -0.0118618
0.014202 -0.0153213 0.0835606
0.0293693 0.0946511 -0.0831629
-0.150259 -0.0587557 0.0790602
0.137439 -0.0275388 0.0384761
0.0599648 -0.0453787 -0.0565613
0.0154955 0.10625 -0.0207386
0.154191 -0.131078 0.127779
0.0242372 -0.0260756 -0.0185783
0.071398 0.0478921 -0.0573078
0.115805 -0.0897701 0.10597
-0.0326456 0.113749 0.0171825
0.0204469 0.0605082 -0.0681831
-0.0053034 -0.0242919 0.0130783
0.0567397 0.0491587 0.153008
0.0652884 -0.0207014 -0.162427
-0.0404689 0.0476687 -0.0162477
0.0681156 0.0215675 0.0349341
0.0127662 0.151898 0.141423
0.055638 -0.0270359 0.0246745
0.157822 -0.0117286 0.0792118
-0.00288129 -0.0207621 0.043493
-0.12798 -0.0273831 0.0612247
0.00917769 -0.055842 0.0583418
0.106881 0.108259 0.038225
-0.0563455 0.135001 0.0957249
0.0677178 -0.0501933 -0.0160347
0.0586938 0.118322 -0.303246
0.0869136 0.104116 0.0311167
0.125211 0.179284 0.0595613
0.0914627 -0.0211851 -0.101468
0.0776086 0.0821551 0.0393855
-0.0251796 -0.123972 0.0104419
-0.0759645 0.007002 -0.0180557
-0.0693076 -0.124918 -0.153338
0.0523093 0.00903779 0.0421647
0.184569 0.0643553 -0.13192
0.0905387 0.0417532 0.208403
-0.0459795 -0.143553 -0.0785811
-0.0640905 -0.105071 0.040204
-0.0596218 0.0489592 0.1161
0.0557741 0.0221583 -0.0186271
0.0218791 -0.0656038 0.00161436
0.0427151 0.163683 0.0576956
-0.0213086 0.1693 -0.013331
0.0590487 -0.0609404 0.0465754
0.127506 0.101745 0.0943974
-0.00524885 0.0191919 -0.0957855
-0.11278 0.00208456 -0.0187224
0.0352337 0.0328872 -0.0914103
-0.0396448 -0.0194773 0.0885989
0.106004 -0.209073 0.0836489
-0.0650315 0.0456023 0.0686694
-0.0198682 0.142255 0.125435
-0.0352943 -0.0461564 -0.0276677
0.0744044 0.0819359 0.0270008
-0.0266727 0.110326 -0.0325291
0.123595 -0.00727038 -0.0870107
-0.0456931 0.0453172 0.0763128
0.0151942 0.217613 -0.0493209
0.0143945 0.00508318 -0.00708378
0.0829425 0.096086 0.180556
0.0920437 -0.123072 0.0569916
-0.0507379 0.174539 0.119
-0.0615607 0.00830599 -0.0154296
0.0146411 0.0774471 -0.124732
0.112719 -0.0421058 -0.0291394
0.0758766 0.103395 -0.117085
-0.157144 -0.0262213 0.159054
0.0112963 -0.0842111 -0.119827
0.0797993 -0.0424618 0.025998
-0.0108688 0.134909 0.0567934
-0.0337802 0.115258 0.0406298
-0.132606 -0.11138 0.0382086
-0.0535143 0.0757096 0.05491
0.0634884 -0.0576236 0.159391
-0.143664 0.0629692 0.0199144
0.024464 -0.0180316 0.0228147
0.0197275 0.114801 -0.0455999
-0.075409 0.154302 -0.165526
-0.128942 0.0422746 -0.0321154
0.0171315 0.101406 -0.13036
0.199714 -0.116147 0.109157
-0.0418103 -0.175291 -0.0922238
-0.0215997 -0.0794839 -0.10761
-0.0274043 -0.0649325 -0.0247064
-0.0556915 0.160978 -0.0514105
0.00217701 0.154076 0.0124287
-0.0139814 -0.0473927 0.0802038
0.0423909 0.123456 -0.125818
0.0110331 -0.117352 0.0300477
-0.0571815 -0.0788485 -0.103714
-0.0688593 0.0181182 -0.114084
-0.0167784 -0.0239965 0.00633804
-0.0136423 -0.0284812 -0.115987
0.0419981 0.0767223 -0.10178
0.181954 0.0171773 -0.0256128
0.0437724 -0.0670302 0.178926
0.0862551 -0.0763048 0.0804393
-0.011908 -0.00616148 0.0427802
-0.0707094 -0.0168344 0.0500388
0.0146553 -0.019934 -0.0596875
0.0399879 0.0687786 0.13139
-0.114798 -0.0201466 0.0206336
0.0177767 0.0556443 0.102478
-0.0386283 -0.0146859 0.0618706
0.0897329 0.143236 -0.11184
0.0147462 0.043231 0.110411
-0.057918 0.0861595 -0.0825054
-0.023346 -0.0689691 0.0431784
-0.119246 -0.0798717 -0.0652193
0.0783947 -0.00177867 0.163315
0.0290953 -0.112848 -0.0341636
-0.118003 0.0594961 -0.0415362
0.0399608 0.0870844 0.034548
0.176327 -0.0927787 0.0340458
0.0285193 -0.0374039 -0.0870159
0.0684355 -0.0870895 0.0934152
0.0162623 -0.232465 0.0443554
-0.0599395 -0.104589 0.0480728
0.0268951 -0.0888649 -0.0180245
0.0150962 -0.0411675 0.0690003
-0.100065 0.039465 -0.147713
0.0926275 0.0908031 0.149753
-0.0114692 0.0825653 -0.120033
0.0899993 0.0259289 -0.139828
-0.0442731 0.105403 0.0767117
-0.0164153 -0.0526451 -0.0788161
-0.0179885 -0.0428914 0.105322
0.111554 0.117863 -0.0405501
0.0200998 0.117568 -0.0932205
-0.0131841 -0.179616 -0.0606715
-0.00806382 0.0139442 -0.0833667
-0.091782 0.0618867 -0.138241
-0.0714622 0.0170592 -0.135201
-0.0639117 0.0212361 0.0757222
-0.07536 -0.00618571 -0.0469071
0.0951822 0.130315 -0.0692254
0.072707 -0.0169602 0.0837752
-0.0421872 0.139956 -0.00192611
0.14257 0.103571 0.0161753
0.168623 -0.0162993 -0.0433602
-0.112445 -0.0551304 -0.0952136
0.0354247 0.0331612 -0.0182691
0.0450286 -0.0970822 0.00482093
0.0582155 -0.0845413 -0.0766713
-0.0271518 0.0434546 0.0665156
-0.0138665 0.190298 -0.0655091
0.0451203 -0.0372741 0.0258504
0.00754625 0.00241375 -0.0543464
-0.036636 -0.0759458 0.0181605
0.124945 -0.00720743 -0.143937
-0.0384578 -0.231677 -0.00836045
0.06655 -0.116967 0.0465159
-0.00744711 0.0170397 -0.0662762
-0.0908525 0.0553811 0.0585815
0.041085 0.123572 -0.011223
-0.0203513 0.0667131 0.00623707
0.106742 -0.0939816 0.0174958
-0.0779565 0.0647628 -0.0195206
-0.0415954 -0.174178 0.0314831
0.0349745 -0.095136 -0.0318226
0.0250757 0.0435012 -0.02826
-0.02805 -0.0661745 0.00364805
-0.0221668 -0.0430479 0.0547484
-0.0343704 0.0568555 -0.0216596
-0.0627842 0.143513 -0.115598
0.10483 0.110609 0.0759317
-0.0410769 0.128351 0.0434529
0.00207403 -0.0391932 0.0546971
-0.0747351 -0.032914 -0.10043
-0.0140629 -0.099621 0.207493
0.0928166 -0.112165 -0.146152
0.0195624 -0.0916578 0.12293
0.0088627 0.00259857 0.035813
0.0888217 -0.0244509 0.119532
-0.15479 -0.0394197 -0.0289883
-0.0285638 0.0806928 0.00738711
0.173996 0.0952972 -0.0829206
0.145034 0.0950305 -0.0950379
0.0769683 0.0829793 -0.0406557
-0.112057 -0.0583062 -0.0515409
0.225396 0.158995 0.0523432
-0.102002 0.115744 -0.0585204
-0.0280239 0.0521727 -0.136973
0.0411368 -0.0726013 0.023302
-0.03552 0.0703075 0.179571
0.0381114 -0.00235832 -0.0215358
0.00709605 0.0432613 -0.0279042
-0.0035475 -0.0145142 -0.0497581
-0.0756001 0.0667233 0.0806331
0.0168215 -0.0727279 -0.0357181
-0.099993 -0.013936 0.093517
0.0412941 0.0220594 0.0269046
-0.0635397 0.0575445 -0.101729
-0.0886335 0.0178095 0.00118389
-0.0458729 0.0910444 0.0127848
0.0119302 -0.105516 0.0379208
-0.107054 -0.101393 -0.0340446
-0.0277643 0.0623742 0.198578
0.0690743 -0.0665796 -0.00641889
0.147376 -0.0439123 -0.00913629
-0.0334855 -0.0151171 -0.0341275
-0.0952206 -0.101632 0.0797337
0.161813 0.0314059 0.0674983
0.00168596 -0.172492 -0.0989345
-0.0442876 0.0732431 0.0021839
0.00373709 0.0500996 0.0280486
0.099444 0.0997 0.0175289
0.0633676 -0.106621 -0.0986894
-0.101123 -0.0156012 0.099148
-0.00633314 0.162624 -0.0254993
0.0620751 0.103641 0.0399325
0.077788 -0.0446751 0.00470093
0.0342361 -0.0548661 -0.116496
-0.0420665 0.0744489 0.076181
0.0295754 -0.0175212 -0.0775968
-0.0840274 -0.00345054 -0.0262923
-0.116538 0.0565812 -0.0722093
0.0825475 0.0782238 -0.028288
-0.0347728 -0.0626562 0.0209113
-0.0451188 0.00946195 0.0112133
0.0772855 0.0286231 -0.00422955
0.00111307 -0.0496485 -0.120162
0.0762668 -0.0425493 0.0115801
-0.142273 -0.0923775 0.0490908
0.217254 0.086435 0.0349953
-0.0731462 0.055053 0.0846845
-0.0692073 -0.119669 0.0774383
0.0528959 0.260588 -0.0315741
-0.0712975 -0.0283632 0.0372842
-0.0960026 -0.187067 -0.0261532
-0.070387 -0.0796892 -0.0282262
-0.0800894 0.0866395 0.0124637
-0.0376274 0.0863637 0.107583
-0.105596 0.0776833 0.0358887
0.0216499 -0.0177634 0.00670296
-0.0193811 -0.0408637 -0.0746698
0.0868357 -0.0771367 0.00550061
0.0972442 0.127157 -0.00215574
0.14432 -0.139836 -0.0149277
0.133518 -0.0247934 -0.105722
-0.0253694 0.11113 -0.0445172
0.103929 -0.00609559 0.191881
-0.0771647 0.049661 -0.0848953
0.0485369 -0.0294555 -0.00959153
0.182515 0.0511963 -0.0458143
0.0586171 0.0212601 -0.0797822
-0.00564287 0.0632809 -0.0870788
0.15877 -0.0247443 0.0484119
-0.117067 0.0392591 0.0612753
-0.130485 -0.150528 0.209021
0.179581 -0.0988754 -0.0460126
0.0666438 -0.0162571 -0.042832
-0.161317 -0.0447024 0.0433076
-0.0200885 0.064135 0.0929047
-0.156104 0.0251423 0.0491862
0.0668584 0.00355009 -0.0412188
-0.0239607 -0.0174014 0.10326
0.0336313 -0.0385739 0.147901
0.00563892 0.116635 0.11616
0.139172 0.104923 0.0157286
0.0626153 -0.00874875 0.0647663
-0.0576003 -0.0563216 -0.0089514
0.0962504 -0.0809687 -0.0940833
0.0079189 -0.0288899 -0.0374223
0.00278987 0.184975 0.0273164
-0.045453 0.0505174 -0.0572725
0.132534 0.0597849 0.00624966
-0.0875457 0.0121107 0.0125682
0.0274077 0.129866 0.00481316
0.11619 -0.0164211 0.0180983
0.0541961 0.0312286 0.00927756
-0.120834 0.135613 -0.0378561
-0.0425046 -0.00477022 0.134813
-0.00575532 -0.108115 -0.0377296
0.00902254 -0.0615415 -0.0129729
0.178204 -0.0220078 0.0712362
-0.261966 -0.151806 0.022002
-0.0810847 0.0372336 0.0392065
0.129826 -0.0351889 0.0346325
-0.0401383 0.133155 -0.0297155
0.106371 -0.108999 0.00528484
-0.0156621 -0.045817 -0.135299
-0.0906075 -0.0128261 -0.00680285
-0.126887 0.0600795 0.0633037
0.0497023 -0.068489 0.0582342
0.11707 -0.0335901 -0.0543343
-0.100867 -0.0255107 0.0638804
-0.0783851 0.0325846 0.0314129
-0.116685 -0.128899 -0.0794014
0.112919 -0.0666878 -0.079971
-0.0101476 0.0460788 -0.00681052
-0.202932 0.0627675 0.118554
-0.00267786 0.0421414 -0.00758478
0.0333852 0.000657552 0.0267097
-0.0240376 -0.0670924 0.044624
0.00671255 -0.0182528 0.0182482
0.0636763 0.0471379 0.151401
0.0541654 0.131274 0.136011
0.116901 -0.0305468 -0.155282
0.112634 0.0268529 0.00893916
-0.00640053 -0.0622373 -0.051138
0.100063 0.0176129 -0.00980624
-0.132883 -0.269914 0.0278965
-0.0718225 0.0329317 -0.07188
-0.0256161 0.0789093 -0.117781
-0.017205 -0.10228 -0.0461289
-0.0811732 0.183284 0.0244686
0.0849699 0.0451955 0.109159
-0.137459 -0.098351 -0.0464497
-0.0588784 0.0477269 -0.121623
0.0899403 -0.0537886 -0.0415168
-0.00580112 -0.103065 0.13164
-0.0437819 0.109883 0.0051359
0.0594368 -0.0175331 0.0130842
0.0492488 -0.0695586 0.117831
0.0850556 0.214892 0.0333634
-0.0153457 0.142264 -0.0495396
0.0942604 0.135499 0.0392813
-0.209635 0.144974 0.135405
0.0763922 -0.0344457 -0.0211033
0.052017 0.0348534 -0.00389199
0.0887074 -0.0232223 -0.0852263
0.02914 0.118127 -0.0312224
0.143304 0.070481 -0.0588373
0.0664212 -0.155802 -0.0166492
-0.00588132 -0.0261664 0.171739
-0.00321912 0.0334646 0.042023
-0.119558 0.1418 -0.0146946
0.00853642 0.201188 0.0216901
-0.0514422 0.110022 0.00676692
-0.0383502 0.165165 0.107755
0.0368984 -0.132991 0.226038
-0.0148917 0.0231561 0.101115
0.0656344 0.0752061 0.0286072
-0.0784313 0.146889 -0.263272
0.0209049 0.0841373 -0.0808938
-0.0687372 -0.00706757 -0.0966858
-0.0139922 0.0205546 0.00287982
-0.0717384 -0.0901431 -0.160004
-0.00389076 -0.0917396 -0.0897531
0.112564 -0.0779673 -0.0298334
-0.027795 0.0905496 0.0182038
0.0708303 -0.0645579 -0.0234704
-0.0622289 0.0035724 0.0769482
0.068135 -0.00553307 0.109667
-0.070815 -0.0298109 0.0700405
-0.0620849 -0.0357957 -0.0432906
0.0398164 -0.132665 0.0801631
-0.0534657 -0.0180506 -0.234372
-0.214283 -0.0505413 0.0631505
-0.016628 -0.0207234 0.0551197
-0.0130486 -0.0498276 0.0387988
0.0043065 -0.0471076 -0.012047
0.0226856 0.00963528 -0.0414707
0.124656 0.106403 -0.00537578
-0.0537818 -0.0194089 0.147534
-0.167614 0.110388 0.0195839
-0.0892022 0.190312 0.119766
-0.0106995 0.00486163 0.0100356
-0.0758815 -0.0506216 -0.0784636
0.0791926 0.0530706 0.0489077
-0.0211159 -0.0499776 0.060696
-0.085139 -0.0311408 0.00818502
0.0333389 -0.050733 -0.0362207
-0.10752 0.0413203 0.0804677
0.0635886 0.0973503 -0.132188
-0.0131332 0.0351261 0.158925
0.0186112 0.222325 -0.128955
-0.103875 -0.0875464 -0.167084
-0.0691637 0.0484447 0.107344
0.0285104 -0.0295509 -0.115982
0.133171 0.00504515 0.00922358
-0.0317052 0.00973258 0.0271474
0.047607 -0.21219 -0.0924706
-0.0287596 -0.144665 -0.00538461
-0.102721 0.00845116 -0.0294861
0.0499462 0.0573385 -0.032294
0.0588495 0.0411643 0.0561287
-0.136415 0.0388474 -0.0619642
-0.0209336 -0.0140511 0.0122146
-0.0254891 -0.0421553 0.046403
0.187495 0.0930176 0.00301435
0.190853 -0.024607 0.0490573
0.0952782 0.0895304 0.00477318
-0.10531 0.161498 0.0955816
0.0357376 -0.00599801 -0.027464
-0.00171174 -0.132712 0.0275013
-0.0371188 0.00995783 -0.202903
0.00338915 -0.155474 0.0444975
0.0507659 -0.0731603 0.112416
0.103537 0.0591216 -0.144711
0.0517322 -0.00562697 -0.106037
0.0537691 0.110027 -0.203015
0.134165 -0.00911567 0.0531505
0.0246682 0.0637201 -0.0504348
-0.0975827 -0.104355 0.0521284
-0.227485 0.073509 0.0227304
-0.173026 -0.0156357 0.0555885
-0.0727861 -0.0486682 0.0938659
-0.0299997 0.103366 0.0420735
-0.0245526 0.111625 -0.0240075
0.018546 -0.0122391 0.166913
-0.0615649 -0.0868757 -0.0849636
-0.071831 -0.0144597 -0.0651956
0.130763 -0.110162 -0.0322214
0.0387318 0.0578983 0.0418025
0.00498329 0.0519738 0.0137122
0.0614785 -0.108343 0.0513957
0.0811831 -0.034176 -0.129526
0.114662 -0.116681 -0.144248
0.106856 0.00396796 0.0445373
-0.0174571 0.0788126 0.0568687
-0.000277121 -0.0273966 0.0542881
-0.0251288 -0.0429183 0.0472764
-0.0363162 0.0340122 0.112268
-0.0296363 -0.0477694 -0.0152331
0.0790019 -0.157014 -0.134066
0.0092138 -0.0130153 0.00476151
0.0638397 -0.0976958 0.0755474
-0.0128902 0.055073 0.0915547
0.0989536 0.0467513 0.0842853
-0.0523459 -0.222412 -0.0302401
0.00515342 -0.0455248 -0.135293
-0.11086 0.0508868 0.15423
0.111223 0.0239294 0.21477
-0.0619363 -0.0592848 -0.00410773
-0.0847814 0.0913813 -0.0471507
-0.0800817 0.0938908 -0.0907276
-0.11476 0.0182464 -0.0421058
0.0163819 -0.0352044 0.0236684
0.19252 0.0778491 -0.244313
0.06649 0.0452832 0.0969674
0.143703 -0.0955364 -0.124141
0.00997706 -0.0255817 0.0617707
-0.0249026 -0.0294221 0.0673389
-0.0891699 -0.0376407 -0.0456887
0.0268776 -0.101525 -0.00162832
-0.0604892 -0.00617496 0.138081
-0.0944769 0.019758 0.0497321
0.0657902 0.0227107 -0.0685158
-0.0257705 -0.145938 0.0897514
-0.000723067 0.0294086 0.0632289
0.0533288 0.0154387 -0.0913879
0.0158937 -0.0279637 0.0168145
-0.185689 -0.165496 -0.0605505
0.147325 -0.059065 -0.175066
-0.00748809 -0.0790548 -0.149004
-0.0780057 -0.0565233 -0.0602952
0.0104049 -0.134471 0.0227666
0.120639 0.0245361 0.112461
0.0225253 0.0378508 -0.119432
0.0199826 0.00804726 -0.0104504
-0.112437 -0.0320154 -0.0255674
0.0380865 0.053221 0.0879471
-0.0109885 -0.0652447 0.0866128
0.0576825 0.0459912 0.127251
-0.00868155 -0.172554 -0.121332
-0.0324683 0.0881229 0.00999714
-0.0370651 0.0120696 -0.0899473
-0.102181 0.0603001 -0.00522943
0.057356 -0.158223 -0.0633543
0.0274552 -0.0514067 0.00703141
0.0021289 -0.122962 0.0340798
0.0688328 -0.00679728 0.0199851
0.123915 0.079989 0.0127787
0.0264257 -0.0532526 -0.0102847
0.0537361 -0.092018 -0.138879
0.0293295 0.037177 0.0279772
-0.0274896 -0.0253301 0.0817128
0.0558909 0.0262796 0.0229812
-0.0843914 0.0108193 -0.0348408
0.082119 -0.073079 0.00652813
0.0270628 0.0632594 -0.0849833
0.0688734 -0.0541776 -0.114796
0.00167163 0.167674 -0.128602
-0.11224 0.0272581 -0.165942
0.0120003 -0.0460638 -0.0219868
0.00340561 -0.0610431 -0.190053
-0.0557379 0.0627756 0.0199138
0.0156251 -0.0393048 -0.0032244
-0.0746545 -0.00185223 0.0222844
-0.0169773 0.00402852 0.0316703
-0.0879514 -0.112391 -0.0328506
-0.0435986 0.0248904 -0.0448637
-0.0899101 0.037415 0.0218885
-0.017845 0.030557 -0.0627938
-0.0522536 -0.0125418 0.00235042
0.0633675 -0.0461585 0.0140352
0.0550682 0.0540241 -0.0484186
-0.113204 -0.0227373 -0.00130151
0.127717 -0.100489 0.092322
0.0221734 0.0909188 -0.111546
0.0237755 -0.0503106 -0.00670673
0.124546 -0.0147421 -0.0678297
0.0266611 -0.0404256 -0.00835557
-0.103568 -0.10393 0.0158826
0.040736 -0.103369 0.111658
0.0180808 -0.0583064 0.0252817
0.0429525 -0.0613839 -0.00634384
-0.0480379 0.0340133 0.0134875
-0.129062 -0.115237 -0.0353834
-0.128535 -0.184658 0.0295462
0.0390264 0.0222068 -0.101386
-0.0471595 -0.0706258 0.0800513
-0.0487911 -0.0965486 -0.00787191
0.0292926 0.0744235 0.232012
0.00814366 -0.0722703 -0.00316492
-0.0337013 0.135046 0.119216
0.0487232 0.119116 -0.0357342
0.0551324 0.0994948 -0.0272026
0.0376112 0.0130051 -0.214328
0.05414 -0.00623238 0.0846846
0.00557325 0.105393 0.00886666
-0.0329466 0.0654825 0.02769
-0.0441666 -0.115434 -0.00293842
0.0292568 0.095706 -0.0594916
0.0440656 -0.0524502 -0.0260456
0.117745 -0.0643221 -0.00285734
-0.172005 -0.0471903 0.0816685
0.0645788 0.0271198 -0.0321505
0.00880598 0.171489 -0.139762
-0.117553 0.00237601 -0.00587477
-0.0212345 -0.0517186 -0.0681771
-0.0384122 0.0735752 0.116702
-0.0327956 -0.190164 -0.10181
0.0231042 -0.0119436 0.0250943
-0.0635666 0.0855113 0.0825839
0.0094852 -0.0760146 0.0295318
-0.0410682 -0.0860776 0.0815587
0.010318 0.0241308 -0.145526
0.0311769 0.000678758 0.0168734
0.025798 -0.0500104 -0.0987902
-0.0233746 0.0398523 -0.0486377
0.113957 -0.0587574 0.0425939
0.0294293 -0.0287881 -0.0221746
0.112171 0.00586982 -0.0141507
-0.120322 -0.0388348 0.0858319
-0.0779417 -0.145746 0.00746443
-0.0345881 0.0251148 -0.0144247
-0.143378 0.120878 -0.0818186
-0.0720351 0.013442 0.0644174
-0.0380538 -0.0744247 -0.109403
0.096013 -0.0129861 0.206053
-0.0196172 0.129383 0.0698144
-0.0950446 -0.0107783 -0.0416411
-0.024213 0.122524 -0.0218226
0.139656 -0.00333461 -0.111602
-0.00792691 0.0480014 0.0105678
0.15334 0.100912 0.046425
0.0675322 -0.0102957 -0.0189509
0.00332064 -0.0386519 -0.017139
0.117516 0.0210965 -0.000422491
-0.0343289 0.246105 -0.0491428
0.0189983 -0.104323 0.00899236
-0.0430307 -0.148311 0.146527
-0.00926126 -0.0384799 0.164996
0.0667406 -0.0856639 -0.103652
0.00455568 0.0402739 -0.0584819
0.0454732 0.0605208 -0.188753
-0.0480921 -0.151977 0.0412268
-0.0249336 -0.117693 -0.137238
-0.0542615 -0.000557308 -9.06138e-05
0.105262 0.108158 -0.00181785
0.0591019 0.0654306 -0.126316
-0.123156 -0.00793187 -0.0377069
0.203919 -0.0247926 -0.0444939
-0.00457156 0.0854948 0.114138
-0.0678629 0.107527 0.00741601
0.100757 -0.0314024 0.0180096
0.0966465 0.129934 -0.0804168
0.141946 0.0764341 -0.0266945
-0.0823652 -0.0822062 -0.0714015
-0.0295772 -0.0595062 -0.12034
-0.0163089 -0.0414989 0.0281385
0.113412 0.0893194 -0.00982982
0.0946091 -0.0234565 0.157126
0.0283253 0.0470569 0.133687
-0.179444 0.15767 -0.034763
-0.124639 0.138528 0.0325674
0.0948217 0.0400678 0.000757738
-0.114363 -0.0947891 -0.0140108
-0.121954 0.00123068 -0.021024
-0.0189366 0.0413622 -0.0586196
-0.018697 -0.0277586 0.0886751
-0.0621222 -0.00813895 -0.0480875
-0.0783662 0.0461349 0.213908
-0.0641258 0.0383738 -0.102462
-0.0704146 0.0191653 -0.115022
0.0740781 0.112291 -0.0284074
0.0123272 0.0266025 0.0654287
-0.0700204 -0.0250245 -0.169181
-0.0263278 0.105404 0.0338177
0.125774 -0.037841 0.0667822
0.00651114 -0.121194 -0.0764929
-0.116513 0.0833578 0.0889861
-0.0380598 -0.0646869 -0.0455189
-0.0655249 0.0336371 0.0635269
-0.0524144 -0.0209215 -0.0409355
0.00716645 -0.0253591 -0.101813
0.0237402 -0.0345693 0.0364769
-0.0871826 0.00206748 -0.0564394
0.08556 0.0669249 -0.118018
0.0716703 0.0523973 0.0096952
0.11852 -0.0724578 0.124659
-0.182844 -0.0200283 -0.064961
0.0658477 0.00381107 -0.128505
-0.161596 0.152031 0.0675567
0.0344849 -0.0334371 0.05034
-0.047891 -0.052907 -0.0577143
-0.129553 -0.0203441 -0.00313302
0.0322395 -0.0519646 -0.0924675
0.0270917 0.140874 0.205686
0.0030223 0.0389477 -0.0212895
-0.0273954 -0.0994322 -0.103794
-0.0410454 -0.0754791 -0.0255917
-0.0979682 0.000577862 -0.0723729
-0.00313884 0.0116244 0.0530557
0.0157686 -0.0247384 -0.0412983
-0.0597295 0.0171728 -0.0554087
-0.0186763 0.0330888 -0.00451066
-0.0360712 -0.0886116 -0.178482
0.0144999 0.103424 -0.07667
-0.094844 -0.0993766 0.0549821
-0.0546781 0.00734989 0.125857
-0.0832795 0.123499 0.0641634
0.0555315 -0.0226823 0.00497475
-0.135272 -0.0398776 -0.119189
0.0449574 -0.0741792 0.00558705
0.00861148 -0.0893156 0.0845696
-0.029199 0.0122696 -0.0159238
0.0237764 -0.0742531 -0.0558272
0.0498689 0.0183906 0.0107737
-0.00463986 0.0558565 0.00207095
0.098102 0.00824421 -0.044358
0.0939531 0.0346115 0.018341
0.00708914 -0.0302299 -0.0897152
-0.0791318 -0.0892577 -0.100436
0.0166328 -0.0288505 -0.0768345
-0.074721 0.0522849 -0.0731439
0.057921 0.0156184 0.090546
0.0278415 0.0799448 0.0915187
0.0106108 -0.073702 0.0383918
-0.0287507 0.00117446 0.0226899
0.04007 0.0433279 0.0241356
0.0699922 0.0102704 -0.0295865
-0.0212338 0.0383037 0.0511162
0.0654942 -0.0815184 -0.136296
-0.0651148 -0.102674 0.0851076
0.0504257 -0.0269461 -0.111833
0.138848 0.0773712 -0.0618321
-0.000494029 0.049364 -0.0291777
-0.0588722 0.022038 -0.0291232
-0.0690741 0.00685398 -0.0998848
0.0616832 -0.111807 -0.00996049
-0.100185 -0.0737444 -0.105436
0.03325 0.0961907 -0.00896119
-0.0873279 0.208226 0.0497114
-0.085734 0.000473825 -0.0219348
0.00111427 0.0198634 -0.0740233
0.102486 0.0392295 0.0673843
-0.10055 -0.00696894 -0.115925
-0.0604749 -0.118048 -0.0211244
-0.0875701 0.102294 -0.0526227
-0.0561485 -0.0199208 0.0228327
0.0364399 -0.0642138 0.111611
0.0766154 0.0967397 0.128749
-0.0742078 0.0439816 -0.0881023
0.130853 0.0218282 -0.0282248
0.0825855 -0.030875 0.0719621
0.0072228 0.126557 -0.107865
-0.0272902 -0.136074 0.139248
-0.0432974 -0.0303968 -0.0168683
-0.0480763 -0.059117 -0.112805
-0.0929464 0.0301747 -0.071874
0.0784352 -0.086497 0.0311089
-0.0923692 -0.0124842 -0.068439
-0.0515797 -0.0928275 -0.113609
-0.105759 -0.0455308 -0.143298
-0.0747263 0.019582 0.0272102
-0.0332683 -0.0839073 -0.00906895
0.0162286 0.0405372 0.00463434
-0.0827133 0.0406658 -0.0609638
-0.0305291 -0.0226393 -0.0578656
0.0107508 0.0165726 0.14433
0.0771011 0.036848 -0.0316771
-0.134652 0.0460446 -0.111778
0.022645 -0.00546623 0.0790237
-0.0504505 -0.0709289 0.0573576
0.0107573 0.0173935 0.0730976
0.0298273 -0.127064 -0.168351
-0.0115587 0.13962 0.0406209
0.130778 -0.0504777 0.0147279
-0.059085 0.0043882 -0.121308
0.00891474 -0.0366339 -0.0600478
0.03317 -0.0575084 -0.0650368
-0.167908 -0.0686341 -0.000803421
0.17652 0.0389818 0.0231008
-0.00606398 0.0946002 0.0467177
0.0183631 -0.0447127 -0.13197
-0.00509656 -0.0158898 -0.0354159
0.0398809 0.0961647 0.112472
-0.0529303 0.00709856 0.0225538
0.0306156 0.165972 -0.038255
-0.0422998 0.00702858 -0.0118451
-0.0213879 -0.0484071 -0.0077993
0.0157333 -0.00701412 -0.0154937
-0.107172 0.0323697 0.190591
0.031754 0.0747201 0.00833681
0.00272013 -0.19022 -0.0922197
0.0142906 0.0555858 0.0647496
-0.03846 -0.130111 -0.0931923
-0.162489 -0.0346059 0.10684
-0.043193 0.232895 -0.00922554
-0.0178971 0.0380158 -0.0534678
-0.093173 0.0961378 0.106359
0.0333775 0.0281423 0.0617994
0.00977895 0.0505752 0.156037
-0.168439 0.102811 0.0317635
0.0139931 -0.128718 -0.0861588
-0.00778432 0.026813 0.125405
0.0460522 -0.0528845 0.112545
-0.145938 0.0756202 -0.0225107
0.0457485 0.102406 -0.0449687
-0.109875 0.0393531 0.149921
0.0979078 0.0433844 -0.0805864
-0.00984617 0.0110127 0.0540418
0.134625 -0.0748874 -0.00571612
0.0815451 0.075932 -0.0135482
-0.045618 -0.166371 0.204392
0.0614662 -0.0786892 -0.0629964
0.158872 -0.0855244 0.0054321
-0.102065 -0.0571637 0.0935785
0.0451354 0.103169 0.0272647
-0.0272726 -0.0463538 -0.0423679
0.0643526 0.110339 0.0847021
0.075519 0.118639 0.0342439
-0.0776621 -0.118816 0.174554
-0.139964 -0.125672 -0.183552
0.10027 0.100149 0.0865744
0.0800761 0.139757 -0.0925053
0.0897386 0.0498252 0.220522
0.0434049 -0.0989922 0.0793248
0.0987137 0.0433406 -0.0105939
-0.0767501 0.0304196 -0.165987
0.020799 0.0473794 0.0487074
-0.232013 0.00381205 -0.040083
0.0931326 0.0814602 0.149518
-0.213119 0.0969153 0.121051
0.0213245 0.125896 0.163095
0.00338638 0.0122351 0.122434
-0.0692624 -0.2309 0.0398224
-0.0559949 -0.0079857 -0.177312
0.0299319 0.101993 0.00238765
0.0125944 -0.0891546 0.0715769
-0.0371373 0.0753627 0.101261
0.172922 -0.071909 -0.0470242
-0.0587435 0.139182 -0.0765367
-0.0273644 -0.0215825 -0.0392192
0.00133324 0.114364 0.184458
0.0264379 0.0308644 0.155143
0.225783 0.0664526 -0.00313239
-0.0686569 0.180584 0.0640877
-0.0668153 0.0724849 0.115348
-0.00920328 0.0205597 -0.0541916
0.0153578 -0.0508179 0.0108378
0.0268628 -0.0205654 0.0921672
-0.0462412 -0.0605767 0.0128886
0.0977842 -0.0217128 0.0353437
-0.0863497 0.0637404 0.0675239
-0.0697923 -0.157632 0.0181969
-0.017309 -0.0908661 0.0522725
-0.101521 -0.0973183 -0.03724
-0.0282871 0.163993 0.125415
0.0183194 0.0593151 -0.0603216
-0.145037 0.0386719 -0.164505
0.143561 0.00740568 0.0258489
-0.00708402 0.0398699 -0.0239684
-0.0444892 0.0238772 0.0806347
-0.0526163 -0.0333936 0.0250985
-0.0454164 -0.034632 -0.0611451
0.0938385 0.03615 0.015972
-0.0512374 0.0296314 0.0557509
0.000591846 0.0238124 0.0371321
0.266717 -0.0239099 0.0895422
-0.0989851 -0.109711 0.146333
-0.0179249 -0.075223 0.105486
-0.0416069 -0.0114013 0.11981
0.00710569 0.0725739 -0.0572153
-0.0398241 0.0351341 0.0725963
0.0968626 -0.144794 0.0477523
-0.0351352 -0.00656486 -0.180787
-0.105677 0.00890381 -0.110395
0.0577305 0.0741316 -0.155789
-0.0393363 0.0228543 0.00869899
0.131422 0.0799638 0.212539
-0.000792182 -0.0353758 0.0334933
-0.0159256 0.0254492 0.0764313
0.116203 0.0669551 0.0644796
-0.213555 -0.0855604 0.0754324
-0.0560539 0.156663 0.0155812
0.054649 -0.0620739 0.0874386
0.0354271 0.0885625 0.0101637
0.0117566 -0.066684 0.0217952
0.00353726 -0.199915 -0.0195457
0.110142 -0.122059 0.0198252
-0.0493166 0.0157962 0.0194399
-0.033048 -0.0501614 0.0694132
-0.19309 0.150599 0.0326432
-0.12215 0.0232081 0.0680172
0.0161334 0.122833 0.0941536
0.0568021 -0.0484657 0.0322426
0.0491089 0.0893438 -0.128769
0.20757 -0.210945 0.0968418
-0.0574069 0.0326358 -4.11407e-05
0.0238383 -0.102233 0.0944341
0.0385749 0.000857615 0.09604
0.032941 0.0552663 -0.0396664
-0.00226132 -0.0160819 0.0142292
0.0387953 0.032153 0.00756122
-0.0658885 -0.142504 -0.0137665
-0.142243 -0.0192822 -0.0347578
-0.0441847 -0.0311921 -0.101153
-0.0421841 -0.071494 0.0181031
0.0983647 0.0199639 -0.0188087
-0.0448691 -0.0407633 -0.117555
-0.102663 0.15848 -0.0128066
-0.00352759 -0.0527539 0.00755314
-0.0734281 0.0802871 -0.0131125
0.0243893 -0.0429281 -0.0292955
0.103999 0.0667482 -0.012193
0.0120065 0.0605708 0.119055
0.00873664 -0.0924813 -0.0322312
-0.0103633 -0.0200795 -0.0294388
0.128027 -0.21174 0.00246134
-0.080427 -0.186541 0.0752592
-0.00447907 -0.0901187 -0.0233894
0.0761687 -0.100809 0.0825353
0.0464737 0.0417742 0.0499117
-0.157119 -0.0456064 -0.105842
-0.0350705 0.0134862 -0.18013
0.0360379 -0.0808622 0.123643
-0.0707472 0.0597715 0.0421662
0.146262 0.0697556 -0.0991851
0.0110187 0.124938 0.240071
-0.0176457 0.0179773 -0.0036162
0.0454037 -0.0419747 0.0347306
0.102253 -0.0319906 0.0747927
0.0856484 -0.0831868 0.0101895
-0.0316158 0.0950104 0.102782
0.101186 -0.0400713 -0.168466
-0.0273504 0.00356988 -0.0531651
-0.117164 -0.110298 0.00871709
0.094092 -0.154628 -0.137869
-0.084606 -0.0721305 0.0553087
0.0615751 0.0573236 0.00279903
0.0221246 0.0964367 -0.116772
0.122542 0.0780947 -0.00483326
0.00608982 0.129805 -0.149187
-0.114459 -0.0379806 -0.0704791
-0.10793 0.0866021 -0.182129
0.0811629 -0.107128 -0.0354752
0.140214 0.0515288 -0.168528
-0.00499711 -0.0832277 0.0390123
-0.0575682 -0.0323069 0.239709
0.0463449 0.0753888 0.0440141
0.0321133 0.0529621 0.114298
0.0270715 -0.0390999 0.0937784
-0.0930325 0.0433534 0.0462152
0.146251 0.0593988 0.0753779
-0.0093108 -0.0308267 -0.105403
0.0319849 -0.01593 -0.00960721
0.00934603 0.0129687 0.106338
0.0238174 -0.0122432 -0.0387386
-0.0497806 -0.156441 0.110302
0.00155899 0.0519463 0.0103258
-0.214031 0.0557969 0.118705
0.170112 0.150672 0.0536408
-0.124098 -0.0947964 -0.191241
0.0685132 0.0305947 -0.0528326
-0.139474 -0.128566 0.0483357
0.212342 -0.0709752 -0.0688944
-0.0520636 0.0766087 -0.0306899
0.00183885 -0.0324845 -0.0891694
0.0626612 0.026245 -0.0605935
-0.0263184 0.00989972 -0.146783
0.10065 -0.118663 -0.0208505
-0.0331917 0.0267616 -0.00428431
0.210024 -0.115596 -0.0978632
0.126109 -0.0833547 -0.0178346
0.0796867 -0.192398 -0.204039
-0.0691949 0.0970992 -0.0508807
-0.15655 -0.0291226 0.0404461
0.0595552 0.00721843 0.012473
-0.0132058 0.000671449 0.133691
-0.0883972 -0.116067 0.167697
0.0647811 0.0621926 -0.0988514
-0.0793274 -0.152502 0.0488422
0.0552629 -0.0126605 -0.0983909
0.0452152 0.0582724 0.0101018
-0.0847378 -0.0928598 -0.0158303
0.0567626 -0.0654675 -0.09293
0.108542 0.0538649 0.00435015
0.0755754 -0.0115244 0.0382096
-0.0347481 0.005165 -0.171094
-0.0368972 0.0592004 -0.0621516
0.0202257 0.0333697 0.0981985
0.0747861 -0.0566856 -0.000451148
-0.103324 0.0762816 0.0856958
0.101471 -0.0802856 -0.0339295
-0.0562606 0.165579 0.0407587
0.0987657 -0.119703 0.0794621
0.0130847 0.184671 0.0137594
-0.0535472 -0.0442197 -0.0342577
-0.0707192 0.0771421 -0.0493494
0.0126679 0.0489232 -0.130315
-0.00232332 -0.00506943 0.0381461
-0.0406185 0.0543471 -0.0366827
0.0519423 0.0266314 -0.0230887
0.0477359 -0.1022 -0.0977516
0.0658939 -0.0328601 0.0314093
0.00265401 -0.0343776 -0.166198
-0.0485514 -0.0829663 0.020287
-0.0339164 0.0850309 0.0106147
0.072305 -0.09908 -0.0509015
0.0149042 0.0817693 0.0667127
0.0756408 0.118975 -0.0611489
0.173757 -0.0989178 -0.0484955
-0.0958519 0.0453026 0.0241675
-0.0857936 -0.0697758 0.0150914
-0.0152028 -0.0528895 0.18698
-0.0244771 -0.00542308 -0.114432
-0.0849085 -0.10796 -0.0183554
0.105238 0.178139 0.0605515
0.0277176 0.0340047 0.00404878
0.0500991 0.0743097 -0.0510901
0.143132 0.0272752 -0.0929128
0.0298333 0.0282175 0.0232919
0.0952437 -0.00574073 0.0816404
0.00834538 -0.181422 -0.0161823
0.0240541 0.0853617 0.00966792
0.0254712 0.0910805 0.0767152
0.159327 0.0550581 -0.0545977
-0.0783312 0.0185333 0.0220603
-0.0481198 0.0110565 0.10218
-0.0358031 0.115271 0.0235308
0.012178 -0.0768573 0.000431651
-0.0212118 0.0594188 -0.104499
0.0838346 0.163583 0.0969905
-0.138559 0.144267 0.130351
-0.0316516 0.0788198 0.0365075
-0.047824 -0.0779805 0.0129503
-0.0483909 -0.0670807 0.0450315
0.239192 -0.115248 0.0774422
0.0677662 -0.01568 0.0320904
-0.23287 0.0368691 -0.0170413
0.0137887 0.0682815 -0.00714356
0.200422 -0.128787 -0.0482997
0.00401105 0.0989589 0.0696296
0.199846 0.0979379 0.0458359
0.0195927 -0.136077 0.094738
-0.346255 0.0656914 -0.156955
-0.0600399 -0.00652708 -0.0232852
0.139956 -0.0359778 0.0462702
0.0405519 -0.00542438 -0.0498638
0.00589866 0.0886554 -0.0407721
-0.101429 -0.038948 -0.0508403
-0.0012734 0.0117554 0.160355
0.0290429 -0.0336573 -0.0335176
0.037665 -0.165814 -0.0480567
-0.0576744 -0.00785955 0.0161343
0.0197296 0.00228022 0.061102
0.0232938 0.0497135 -0.119988
0.0121366 0.202441 -0.0836584
-0.138714 0.0990657 -0.0215452
-0.0740386 0.0266407 0.00938243
0.0506613 0.0355289 0.093766
-0.0297295 -0.00395523 0.127611
-0.00662256 -0.0264437 0.0116774
-0.00773589 -0.0506982 0.0697833
0.0107205 0.211951 0.142685
0.0522048 0.139952 -0.0368112
0.109553 0.150949 -0.00532131
-0.0134996 0.0564688 -0.13844
-0.160569 0.060238 0.1153
-0.0100032 0.00182834 -0.0320957
0.0297002 0.074891 0.0344261
0.0744381 0.0128092 0.0178861
0.053933 -0.0925136 -0.100173
-0.0300218 0.0208304 0.0299027
-0.0233678 0.0369576 0.0119191
0.0167555 -0.143797 0.124487
-0.169407 -0.0573226 -0.0140108
0.110361 -0.105385 -0.0389685
0.00030292 -0.112278 -0.0805146
-0.0250737 0.000652517 -0.140614
0.039375 -0.153266 0.0180793
0.0100362 -0.0245594 0.109385
-0.136183 0.0309592 0.0253338
0.0564599 -0.0451879 0.162992
-0.119543 -0.000165888 -0.029152
0.045551 -0.076885 0.0296655
0.0254522 -0.0290889 -0.0321969
-0.0428014 0.088196 -0.0208177
0.0220716 -0.0498572 0.00746599
0.0588895 -0.0324145 -0.110161
0.022754 -0.061793 -0.0390025
-0.102535 0.146348 0.096809
-0.0280977 -0.0741696 0.106728
0.100822 -0.157462 0.0900799
-0.0558892 0.0291555 -0.0835592
-0.140281 -0.0411903 -0.126826
-0.0681693 -0.0935494 -0.120765
-0.0322873 0.0353294 0.123207
0.0482271 -0.058479 -0.11542
0.0328454 -0.11879 0.0694579
0.0312211 -0.00747417 -0.183002
-0.169307 -0.0349775 0.0716748
0.0629121 -0.00336965 0.0298728
0.0502243 0.0123916 -0.0753789
-0.0309772 -0.0509101 0.0231187
0.0889005 -0.0950188 0.0230449
0.138346 -0.0226136 -0.00411681
0.125199 -0.0771754 -0.159298
-0.183746 -0.0661547 0.0484799
0.063628 0.000520433 -0.0768574
0.212593 -0.0763042 0.0371991
0.0197171 0.0500577 0.0706843
-0.0629373 -0.00728336 0.0335696
0.0650992 -0.0620865 0.0079975
-0.0819876 -0.0853846 0.0646021
-0.135155 -0.0438149 0.0128103
-0.112142 -0.0311954 0.0637817
0.169271 0.086018 0.120559
0.0583858 0.00196484 -0.113645
-0.177674 0.0336378 -0.0137545
0.0533585 0.0695996 -0.0189499
-0.0764259 0.0190251 0.0862497
0.0271835 -0.149289 -0.0956368
0.0381065 0.00201237 -0.16891
0.0502713 0.0607665 0.0181452
-0.0221519 0.0255376 -0.11299
-0.083242 0.0447379 -0.0960912
0.135119 -0.137062 0.0699919
0.0209651 0.00775346 0.0454561
-0.0657879 -0.0122041 -0.000201545
-0.0426348 -0.00279759 -0.00969788
0.155735 -0.0060681 0.126808
0.0512879 0.095927 0.164612
-0.0628878 0.0128237 -0.105171
-0.053063 0.0194864 0.144769
-0.0497084 0.0234428 -0.0480359
-0.106834 -0.0951112 -0.00263884
0.0325899 0.0405511 0.0441562
0.114323 -0.0628989 0.0861415
-0.0491243 -0.050813 -0.0502482
-0.0910919 -0.0608771 -0.11788
0.0665695 0.156392 -0.136371
-0.0998813 0.0217608 0.0831776
0.0361836 -0.08345 -0.0149396
-0.124145 0.153679 0.0759636
0.0970102 0.0927304 0.0497584
0.0703831 0.1091 0.100594
-0.0131764 0.0509887 -0.0907299
-0.054606 -0.0620364 0.00632753
0.0126997 -0.0252005 -0.0321399
0.00920554 0.0575879 -0.0119785
0.174461 -0.0102343 0.0197549
0.0950424 0.110279 -0.127355
0.10764 0.0472738 0.0903404
0.0992369 0.0953103 0.0688312
0.0433202 -0.0760502 0.0225181
0.0357808 0.0589907 -0.0958805
0.0068878 -0.125991 -0.0192216
-0.0109397 -0.00294484 -0.0823018
0.10948 -0.0458569 -0.0984447
-0.178563 -0.0578115 0.000790266
-0.069714 0.0189848 -0.062012
0.114811 0.133272 0.0550652
0.131355 -0.0814405 0.055215
-0.0267098 -0.122319 0.0121681
0.123214 -0.0192747 -0.0433668
-0.000711998 0.0374849 -0.0527504
-0.00903767 0.049567 0.0338005
0.0197504 -0.0186238 0.0749969
-0.109216 -0.0840959 0.0397214
-0.104835 0.0316735 -0.0324627
-0.122813 0.0369663 0.0893267
0.0522836 -0.0542593 0.00216892
-0.0565146 0.058892 0.0117193
-0.00650261 -0.0423532 -0.112879
0.0254787 -0.222664 -0.0774527
-0.183479 -0.13055 0.0406752
-0.0875185 -0.0246182 0.117696
-0.132814 0.115038 -0.0338106
-0.126545 0.0805318 -0.173019
-0.0515439 -0.211944 -0.104186
-0.17446 0.200688 0.0414824
-0.0625479 0.0141962 0.130354
-0.206482 0.0785896 0.101702
-0.135377 0.0337216 0.0743227
0.0205755 0.00228498 -0.136944
-0.112776 0.063332 0.0308829
-0.0509642 -0.033936 0.0785181
-0.0744885 -0.0453683 0.0196576
0.0425714 0.0241736 0.00905764
-0.0565245 0.0250517 -0.0296304
0.0717812 -0.0244683 0.00457839
-0.0751755 0.0113038 -0.0655225
0.0350177 -0.0334534 -0.0471427
0.0262809 0.0754512 -0.0781358
-0.0458968 -0.00579484 -0.0166415
0.000836845 -0.025277 -0.141971
0.0272116 0.0630202 0.0851528
0.114777 0.166097 -0.0509755
-0.0916043 -0.0617722 -0.0132485
-0.0229657 -0.151988 -0.0855822
0.0447869 0.0237384 0.0424437
-0.138763 -0.0315686 0.115662
0.126843 0.0614826 0.06497
-0.158952 0.0982923 0.0392832
0.0491606 -0.0112224 0.14958
0.0462743 -0.0246823 -0.0512084
-0.0549358 0.0404882 0.0762348
-0.0838268 0.0533787 0.104256
0.190366 0.0149647 -0.012819
-0.0997817 0.129042 0.11362
0.0138714 -0.00300513 -0.0392613
0.104779 -0.0700274 -0.088526
-0.0805231 -0.161622 0.0209397
0.220929 0.0812198 -0.161831
0.0241187 -0.0335002 0.124518
0.0721032 -0.00721026 0.00276885
0.00967848 -0.00148354 -0.00362553
0.167928 -0.148336 -0.162494
-0.15226 -0.00373075 -0.00858665
-0.00189932 -0.114542 -0.0241983
0.0499871 0.0151439 0.0130654
-0.1138 0.033048 -0.00586383
0.0108518 0.0854373 0.15067
0.0403608 -0.057138 0.14789
-0.0267189 0.0102769 0.0218553
-0.100142 -0.0979002 -0.122014
0.00369844 0.0728708 -0.00219215
0.0968167 -0.0908411 -0.14292
0.0567222 0.138046 0.0465028
-0.112546 -0.0984524 -0.107228
0.0652383 -0.122171 -0.0721664
0.107155 0.0207041 -0.00108337
0.121018 0.0307812 0.0192947
0.0822595 -0.134842 -0.0754808
-0.0668624 -0.00436281 0.000639688
-0.041434 0.163509 0.105497
0.0429208 -0.118717 0.12605
0.0477532 -0.0323191 0.0253436
0.0598453 -0.0256907 0.0181514
-0.00887566 -0.0638659 -0.0249431
-0.0948802 -0.0788331 0.136222
-0.138914 0.0281479 -0.0878464
-0.0902526 0.0184741 -0.0406397
0.0115339 -0.0697413 -0.0415363
0.0296576 0.148936 -0.110084
-0.236295 0.0156556 0.028034
-0.0477759 -0.0508108 0.0536478
-0.0388159 -0.0289135 0.126972
0.112977 -0.0515379 -0.048808
0.0775994 0.00347714 0.00818845
-0.0383025 0.0931365 0.0580397
-0.140431 -0.0145008 0.0271577
0.0230549 -0.0963948 0.000444334
0.0525307 -0.0858741 -0.0795424
-0.0869463 -0.0238907 -0.000140093
-0.0161856 -0.0330576 0.0184756
0.0284872 0.10586 -0.158285
0.00131672 -0.0168968 -0.0365141
0.108868 -0.132126 -0.0401924
0.0832943 0.0134875 0.0161504
-0.0313107 -0.204285 -0.189974
0.147443 0.113268 0.139129
-0.11015 0.0120903 0.0876912
0.0262011 0.0737721 -0.0664933
-0.030552 -0.0555607 -0.0383767
0.0374234 0.12322 0.0230869
0.0858394 0.066928 0.0482322
-0.0479647 -0.0602302 0.126844
-0.0284487 0.000359853 0.0669168
-0.0488927 0.111092 -0.097792
0.0933162 -0.0515657 -0.00119733
0.0450745 0.0498842 -0.121529
0.0805426 0.14528 0.0218105
-0.0923068 0.0364586 -0.0288613
-0.00348823 -0.0746603 -0.1867
0.0526273 0.0804297 -0.0270395
-0.0994199 0.0531153 -0.0249178
-0.0504498 -0.0612733 -0.0915914
-0.135404 0.0116007 -0.223161
0.0198329 0.0326129 0.0478671
-0.0877635 -0.0823927 -0.124984
-0.0162444 -0.0608441 0.0142598
-0.0743439 0.0291919 0.123519
0.0682919 0.0411588 0.0433077
-0.170178 -0.036359 -0.116657
-0.0330759 -0.0924903 -0.0550957
0.116175 -0.0304058 0.089959
-0.0349166 -0.0969145 -0.0374485
-0.122449 -0.007855 -0.0366214
-0.0118074 -0.156551 0.0735245
0.0290114 -0.0711512 -0.0226194
-0.0677226 0.0461856 -0.0612119
0.0929053 0.0772586 -0.0392426
0.120684 -0.14437 0.0219743
-0.193568 -0.125816 -0.0180975
-0.0148393 0.00518432 -0.0485568
-0.0241719 -0.019677 -0.104766
0.106566 0.152155 0.120648
0.0607933 0.0208544 0.0283262
0.126424 -0.0723145 -0.0180811
0.0174788 -0.0664663 0.0840156
-0.00712905 0.16245 0.0995734
-0.0109986 -0.134211 0.0638322
-0.0722025 0.0359324 0.227274
-0.0371704 -0.0585103 -0.0352591
-0.0614717 0.070635 0.00105157
-0.0644324 -0.0578814 0.0586115
0.175512 0.0932975 0.10321
0.0145699 -0.0537082 -0.0771793
0.118659 0.00465615 0.2045
-0.133916 0.130963 -0.00790661
-0.122435 -0.07359 0.0308926
-0.0674201 -0.00358474 -0.0719102
0.0137791 -0.0374387 -0.0610302
-0.043288 0.020775 0.0552863
0.086783 -0.039243 0.0373952
0.0061761 -0.0849253 0.127152
-0.0935042 -0.0160279 -0.074682
0.0187856 0.0877961 0.0495731
-0.0289074 0.0478163 0.043262
-0.0457562 -0.0730632 -0.0652696
0.00217124 -0.0247908 -0.0481976
-0.0408388 0.037058 0.121793
-0.0847628 0.0388217 0.0494675
0.089092 0.00656004 -0.121721
0.0772288 -0.0644369 0.102882
-0.0900077 -0.110325 -0.0265035
0.104825 -0.00835768 -0.0078508
0.107389 -0.10394 0.0152513
-0.145718 -0.093568 -0.0962397
0.00373369 0.202675 -0.121695
0.0288882 0.0601601 0.120415
0.0161902 -0.0244585 -0.00209808
0.0810313 0.050093 0.050283
-0.168912 -0.0327972 -0.0318411
0.0567214 -0.138721 0.042837
-0.00922195 -0.0793701 0.0401175
-0.0399221 -0.0938436 -0.0194048
0.0513656 0.10809 -0.0450863
-0.103997 0.0703376 -0.0894963
-0.0547675 -0.0929006 -0.0254815
0.107813 0.00645687 -0.1312
0.089229 0.0504335 0.114195
-0.0423665 -0.00831353 -0.0118213
-0.0124475 -0.107208 -0.0886392
-0.127486 -0.156032 -0.079262
-0.115958 -0.0745142 0.0841064
0.137103 0.0775182 -0.0500123
0.0576858 0.111406 -0.0661926
-0.00859785 -0.0448008 -0.098136
0.182119 -0.223959 0.00368298
-0.0211903 -0.0827954 -0.158834
0.0113201 0.0857492 0.142464
0.108684 -0.0161081 -0.055367
-0.0214997 0.0220268 -0.05593
-0.00335328 -0.00758991 0.020183
0.0281939 -0.0712494 0.0427373
0.0684541 0.10608 0.131721
-0.0767733 0.146623 0.0112505
-0.101527 -0.0889179 -0.136015
0.0126239 0.0368948 0.0371918
0.131324 0.0992044 0.0596035
0.0329466 0.0544176 0.00370955
-0.0454039 0.140343 0.0151108
-0.0685965 -0.00243375 -0.241081
-0.0386999 -0.121114 0.0608031
-0.0335699 0.00848082 -0.0520576
-0.0992047 -0.0211508 0.086101
-0.0398066 0.0761502 -0.0370047
0.0477228 -0.121664 0.0671351
0.0592023 0.0884819 -0.096151
0.0408793 -0.178282 0.0865734
0.0723552 0.0319888 0.015859
0.0677845 0.0165927 0.0362052
-0.0116588 0.105759 -0.152062
-0.139696 0.179248 -0.0152485
0.0790602 0.020043 0.0186134
0.0812356 -0.084803 0.0849859
-0.0266581 -0.0335801 0.0166083
0.102956 0.0505002 -0.0589811
0.12135 -0.118945 -0.013647
-0.102892 -0.000798155 -0.0602326
-0.0300894 -0.0455619 0.0371835
0.0736164 -0.0247101 -0.0881226
0.043221 -0.0575513 -0.0203909
-0.168742 -0.117918 -0.160851
0.0899092 -0.124568 0.0312796
0.0042964 0.0893973 -0.066813
0.121982 0.0109926 -0.0481564
0.109785 0.0689175 -0.00591465
0.0463292 0.0948573 -8.94203e-05
-0.0169962 0.168149 -0.046298
-0.0344969 0.0193195 -0.0397313
0.0593447 0.0473764 -0.146058
0.0842526 -0.00586877 0.0144468
0.0914916 -0.0352393 -0.15462
-0.03775 0.0650001 -0.0883798
-0.0284681 0.0464854 -0.0308588
-0.107988 -0.074368 0.0511369
-0.110575 -0.03738 -0.147335
-0.125804 -0.0398725 0.0180582
0.0928623 -0.0107454 0.0312954
0.00738153 -0.100293 0.00770284
-0.0322751 -0.0366787 -0.104656
0.119354 -0.0115232 -0.0358086
-0.0209646 -0.011028 0.0881997
-0.0614294 -0.0725571 -0.00198696
0.0919865 0.0290837 -0.053152
0.039281 -0.0414809 -0.122231
0.0662624 -0.0334582 -0.0818186
0.153171 0.00711792 -0.00176065
0.0511457 0.144935 0.111596
0.0919502 -0.0616704 -0.0266465
0.00587167 -0.0455637 0.0454659
-0.0294164 0.0274822 -0.0936034
0.0748432 -0.112869 -0.139213
-0.0124638 0.0411668 0.0254541
0.0783781 -0.0220464 -0.0887506
0.064119 0.054257 -0.0104861
0.0901558 0.109599 -0.00389838
-0.0987042 0.0809227 0.13232
-0.0228909 -0.0418279 -0.117475
0.106124 -0.00198334 0.0396917
0.0447762 -0.0785241 -0.0109585
0.103901 -0.0393768 -0.013039
-0.0135886 0.0241118 0.109011
-0.131297 0.0387843 -0.0579867
-0.0122546 0.107604 0.0213674
0.153214 -0.0279963 0.00944059
-0.00454329 -0.152992 -0.0286591
0.0203157 0.0204702 -0.0979186
0.0890563 -0.188678 0.0765951
0.0338787 0.0479892 -0.0432251
0.124317 0.12072 0.054008
-0.0055245 0.0336076 0.0762965
-0.0291321 0.0368303 0.0676778
0.0915321 0.0831573 0.0185779
0.010276 0.129542 -0.0235623
-0.0313876 -0.0318745 0.131904
0.0405783 -0.0409166 -0.0433086
-0.0277524 -0.0415036 -0.126088
0.0926961 0.119926 -0.155872
0.128308 0.00355796 0.0297975
0.0967049 -0.0263027 0.106506
-0.0184845 -0.0589708 -0.0442551
0.052388 -0.00560511 0.00584206
-0.0666986 -0.0110055 0.0195126
0.0272625 0.0402533 -0.0475464
-0.0119974 0.00338102 0.102318
0.0257562 0.0384234 -0.234863
0.0974662 -0.0897046 -0.0247978
-0.00191299 0.0378523 0.102279
-0.0116991 0.0479943 -0.0223931
0.148589 0.0580428 -0.0248211
-0.15175 -0.0637293 -0.000579298
-0.0324486 0.0221129 0.0235601
-0.00857895 -0.0320552 0.0335707
-0.0803058 0.0901433 0.129674
0.12514 -0.0237012 0.0668199
-0.0752955 -0.0952596 -0.0244471
-0.0293359 0.114866 -0.0059184
-0.0612028 -0.0597478 0.0172932
0.0129297 -0.0913663 0.0120651
-0.045217 0.0745431 0.0214087
0.0499621 -0.135161 0.00567585
-0.154021 -0.0116072 -0.0111014
0.00520681 0.0777191 -0.0987451
-0.00900355 -0.0229183 -0.0466821
-0.0622944 -0.115626 -0.093727
0.0302627 -0.0654041 0.106336
-0.0532836 -0.0354202 -0.128773
-0.0443434 -0.0463228 0.0743386
0.0697364 0.124576 0.138418
0.00192946 0.0526466 0.0617335
0.0121904 0.0465831 -0.0504626
-0.0715273 -0.0636361 -0.0430103
-0.0423997 0.128344 -0.104202
0.00808039 -0.0491868 0.133723
-0.109234 -0.0651793 -0.00109515
-0.0774498 0.0873247 -0.0340385
0.142448 -0.0345877 -0.0230405
-0.0182834 -0.0916188 0.145707
0.0697741 -0.0529401 -0.0329761
-0.0242983 -0.0598936 -0.0723796
-0.0553789 0.0544683 0.0486099
0.12332 -0.0856782 0.00690058
0.0163755 -0.142206 -0.00240892
-0.00209907 -0.0520591 0.12323
-0.00638973 -0.0135194 0.0150459
-0.176174 -0.121783 0.107728
-0.0718443 -0.0118654 0.0879856
-0.0360371 -0.0286118 -0.103454
-0.082654 0.00237561 -0.0684809
-0.0133476 0.128041 0.0789992
0.0279611 -0.0176446 0.0379871
0.00388714 -0.0176944 0.101369
0.176431 0.0646694 -0.026565
-0.013119 -0.0525612 0.110296
-0.111501 -0.131465 -0.0646178
0.0336173 0.0756224 0.158384
-0.154734 -0.12937 -0.142378
-0.00719452 -0.0469364 -0.0617909
0.0797928 -0.19257 0.0501622
0.0282062 0.0245472 -0.151453
-0.026302 0.157234 0.121885
0.0543581 0.0337347 0.0301503
0.230372 -0.160126 -0.11434
-0.015789 0.104937 -0.0138008
0.0692479 -0.0250841 0.0193928
0.157837 -0.00486821 0.012861
-0.181185 0.233886 0.0332724
-0.0968304 -0.14682 -0.0471544
0.0893495 -0.0951751 0.0807977
-0.00270151 -0.0694275 0.0157809
0.0213963 -0.0367729 -0.032447
0.021438 -0.021105 0.100483
0.0270442 0.0362928 -0.0948234
-0.0251681 0.00915338 -0.0964048
0.00967865 0.0244741 0.0285794
0.0494434 -0.0245813 -0.00584955
0.0608202 -0.153056 0.019148
0.00992429 -0.028108 -0.328338
0.120795 -0.0962293 -0.00086353
0.073199 -0.071959 0.100815
-0.0761951 -0.0669874 0.0405062
0.0316495 0.00291382 0.081348
0.0739121 -0.00235925 -0.13511
0.0147609 0.0790592 0.0347406
0.0941179 -0.00497805 -0.0223271
0.0534174 0.0375363 0.17452
-0.0955959 0.0170775 0.00189182
0.0347345 0.00965313 -0.126275
0.0540454 -0.0549765 -0.037547
-0.0277609 -0.078921 0.0678449
-0.0568993 -0.0326514 0.00276943
0.0838679 -0.111853 -0.00103416
-0.0650216 -0.0734507 0.0709894
0.114334 -0.0640314 -0.0825138
-0.0902712 -0.0203192 -0.0614222
0.00437217 0.0774437 0.00214755
-0.00665525 0.136515 0.0712416
-0.13336 0.0208221 0.0217969
-0.0503708 -0.0254898 -0.0177368
0.00584714 -0.0261316 -0.126512
0.180286 0.0457062 -0.0749178
-0.106774 0.00829704 0.0333573
0.025565 0.0638125 -0.0350464
0.0440615 -0.188326 -0.0288096
0.174736 -0.143752 0.114496
-0.169207 0.0104142 -0.0768278
0.0348604 0.0741066 -0.00323547
-0.0304095 0.0122554 -0.0889826
0.0622757 -0.121382 0.0880297
-0.0709527 -0.159265 -0.125355
0.0684641 -0.177714 0.0575891
0.0687534 -0.0334864 -0.0959611
-0.00389448 0.0710742 -0.0869526
-0.0589929 0.0598708 0.0606001
-0.137803 0.0908278 0.0339684
-0.00544572 0.125544 0.014697
-0.017835 -0.0695105 0.143806
-0.00278969 -0.0185564 0.00366006
0.0629881 -0.0419829 -0.161601
0.0308405 -0.137341 -0.0243009
0.117471 -0.00200654 0.0316976
0.00747937 -0.00783766 0.186873
-0.100365 0.16733 0.107018
0.00782611 -0.0521294 0.144187
0.196924 0.0655993 -0.0725153
0.0592858 0.124417 0.0416164
0.0272991 -0.128128 -0.0122863
-0.0432847 0.071955 0.0137615
0.022967 0.0290171 0.0907065
-0.0393462 0.001934 -0.0482583
0.0733351 -0.0452645 -0.165777
-0.0256681 0.0163964 -0.0190546
0.0419576 -0.158403 -0.216904
0.0348839 -0.0776684 0.123051
-0.131159 -0.068725 0.00516678
0.0541788 -0.00105465 -0.0755115
-0.0346216 0.0900638 -0.110174
-0.021262 0.0921984 0.0649314
0.0781913 -0.0927399 0.125876
0.0629171 0.00852492 -0.0673365
0.103322 0.0779524 0.112437
-0.164514 0.0983746 -0.0892442
0.147719 -0.0295719 0.114665
0.115893 0.0285633 0.156725
0.0208291 0.032418 0.0236749
0.117338 0.132432 -0.0125022
0.046332 -0.15074 0.0749611
-0.020289 -0.0309565 -0.0627741
0.0143427 0.088523 -0.154897
-0.0242242 -0.0485196 0.000342498
0.0660006 0.0299837 0.081506
0.00953472 -0.00664601 0.0448904
0.0837409 0.0995342 0.0439015
0.0248269 0.00600398 -0.0324316
0.0537709 0.030395 -0.0895364
0.212271 0.0381699 0.00735571
-0.0421374 0.0763781 0.174053
-0.0163424 -0.0656301 0.0237358
-0.070517 -0.0371999 0.175005
0.0685271 0.0138621 0.117211
-0.0306523 -3.53182e-05 -0.1008
0.0603446 0.0918183 0.0279189
-0.0509158 0.000662972 0.0579959
-0.0479345 -0.0812365 -0.0791572
0.188296 0.0300742 0.0472704
0.0591915 -0.0439477 -0.0168212
0.137653 0.0977176 -0.0818923
0.0313242 -0.105011 0.0919357
-0.0713075 0.0571909 0.110537
0.0179138 0.0440558 0.0690773
0.16427 0.00875142 0.0144777
-0.114215 0.163482 0.0725856
0.0342358 0.0324297 0.173094
-0.00197058 -0.00038615 0.254217
-0.030135 -0.0282162 0.0102419
0.00414856 0.0325713 -0.039891
-0.0336704 0.0255536 0.0497762
0.0112443 -0.048614 -0.00504731
-0.000583552 -0.0302277 -0.00500801
-0.116169 -0.0232489 -0.0271032
-0.0110911 -0.00263015 -0.0371937
-0.0853427 -0.124852 0.173468
-0.0380087 -0.0704953 0.00221264
-0.0410071 0.0630052 -0.106036
-0.0475982 0.0922373 0.000424162
0.128145 0.0164742 0.0679976
-0.0401218 0.034333 0.00600818
-0.052728 -0.0580241 0.115771
0.0520019 -0.205823 -0.117823
-0.0488291 0.0150952 -0.11395
0.00804363 -0.122283 0.0532163
0.0635634 -0.0859431 -0.0662851
-0.0946762 -0.0383831 -0.0188414
0.0142381 0.20388 0.00468568
-0.0539645 -0.0632099 0.0426391
0.0533425 0.0321613 -0.00145851
-0.0254792 -0.138008 0.0727601
-0.105621 -0.0306586 -0.0477494
-0.0201843 0.086321 0.0043275
-0.113667 0.0483179 -0.0414997
-0.0474346 -0.0322873 -0.161638
-0.0210169 0.0957394 0.133865
0.209993 0.121857 -0.030186
-0.0306168 0.0849173 0.00407765
-0.0991136 0.0309501 0.163314
-0.0433671 0.121849 -0.0813715
0.0398107 0.0498474 -0.00176884
0.133216 0.0693236 0.00364687
0.00156046 -0.037178 0.184964
0.00101646 -0.0559597 0.0216674
0.143697 0.00617745 0.0308545
0.150675 -0.00642138 -0.0526493
0.0834298 0.0181896 -0.099108
0.0163449 0.0321369 -0.0213395
0.0151921 0.0482139 -0.0345661
0.0532592 -0.0606519 -0.0208291
-0.0479713 -0.0118082 -0.0215558
0.070474 0.0575272 0.0376813
0.0464827 -0.07389 0.0143228
0.0624147 -0.00724916 -0.078414
-0.025769 -0.0577758 0.0119303
-0.0283488 -0.104817 -0.0355764
-0.0253397 0.00896775 -0.0722461
0.109571 -0.0770011 -0.0389842
-0.0745211 -0.152131 -0.0276455
-0.0297949 -0.00901189 -0.0373811
-0.0191255 -0.00998687 0.00521922
0.0335604 -0.0632519 0.0154899
-0.0373779 -0.0105043 0.017815
0.0565591 0.0743692 -0.0875731
-0.0650529 -0.019078 -0.0579054
-0.178888 -0.0984393 0.0953632
0.0604307 0.194579 0.331127
-0.162609 0.0436807 0.0232303
0.00716437 -0.180438 0.0472789
-0.105508 0.157959 -0.065754
-0.0138981 -0.0555386 -0.0534911
-0.050579 -0.0653099 0.0701371
-0.0659281 0.11012 0.00615374
-0.000752934 0.0108978 0.0390519
0.120932 -0.105849 -0.0455065
-0.0268571 0.204055 -0.11509
-0.0371522 0.106479 0.203686
-0.026427 0.0732484 0.00637776
0.133928 0.0216487 0.129516
0.058033 -0.103582 -0.0861158
0.0449571 -0.0446886 0.200579
-0.0766204 0.0577784 -0.0321583
-0.0736735 -0.0784817 -0.186954
-0.0388948 -0.0232577 0.0140379
0.0216006 0.0994629 0.0173058
-0.0204486 0.0464215 0.149392
-0.0619566 -0.211487 -0.131314
0.0840831 -0.0570212 0.0164117
-0.173021 -0.00884079 -0.018312
0.117035 -0.0371726 -0.0341705
-0.0672018 0.0799727 0.0574431
-0.081554 -0.0254941 0.0912465
0.0292271 0.0632876 -0.0137346
0.0397806 0.141296 -0.0138712
-0.063338 -0.054937 0.0202089
0.0404423 -0.0810111 0.102756
-0.0196903 0.0229937 0.0956377
-0.12564 0.0699471 0.0630446
-0.0881622 -0.0247431 -0.123625
0.0795065 0.0914994 -0.0182323
-0.042724 0.0962805 -0.17004
-0.0473651 -0.168168 0.0362847
0.0314125 -0.00884072 0.0174213
0.0552882 0.0618418 0.0358688
-0.141761 -0.126048 -0.0300428
0.0762141 0.149985 0.0640696
-0.0455562 0.0528773 -0.081832
-0.0719075 0.0913504 0.00630343
-0.0301188 -0.110121 0.041173
0.169606 -0.108256 -0.019569
-0.0721171 0.0619299 -0.00876284
0.000515592 0.0225708 -0.00800104
-0.0835972 0.101299 -0.125725
0.0142441 -0.0404723 0.0314364
-0.1555 0.0169689 -0.0923421
-0.0263493 0.012981 0.0646887
0.016378 -0.139759 -0.0286466
0.0947991 0.0373311 -0.087887
0.0268093 0.0987379 0.022249
0.0157869 -0.0977118 -0.0163496
0.0931818 -0.0420477 0.0683288
-0.113578 0.0738372 -0.0680234
-0.0925598 0.00617271 -0.0781376
0.0151577 0.128831 -0.0904604
0.0599091 0.0677612 0.100672
0.056301 -0.0886892 0.0864569
0.206365 -0.0508624 0.0239191
-0.156937 -0.0582892 -0.123275
0.140521 -0.0726231 -0.0217076
0.0936565 -0.0576802 -0.0424101
0.137072 0.0328739 -0.0859396
-0.00557835 -0.0169183 -0.023541
0.101369 -0.0646989 0.0529982
-0.02811 0.00142588 -0.0504638
-0.0658553 -0.0134015 0.0566369
-0.0887183 0.0458437 0.0462608
0.103853 -0.0560253 -0.154745
0.015754 -0.0657057 -0.0566814
-0.130601 0.0595708 -0.0992933
-0.0795697 -0.044293 -0.0442782
-0.063435 0.0636517 -0.00278211
0.0888277 -0.0423516 -0.0231823
0.094587 0.0201453 -0.0492123
0.085927 0.0669382 -0.0169149
0.0415021 0.126654 -0.0549632
0.0936251 -0.0103851 -0.0432373
0.114302 -0.28595 0.0606731
0.0968905 -0.0228747 -0.0878029
0.0473315 0.026953 0.149053
0.0434492 0.0275825 0.000272965
-0.134282 -0.0793755 -0.0073325
0.00879886 0.164792 0.0394789
0.00903271 0.0986673 0.0465401
-0.0650726 -0.0879398 0.089039
-0.157974 -0.255246 -0.180158
0.048981 -0.200881 -0.156289
-0.0552274 0.0814632 0.0370468
-0.0215265 0.016466 0.0390293
0.0528301 -0.0131648 -0.117299
0.0228179 0.103941 -0.0453361
0.025903 0.0355826 -0.138795
-0.12058 0.070484 0.0119377
0.0548776 0.113384 0.0548515
-0.054738 -0.10662 -0.108077
0.0475001 -0.0395452 -0.181914
-0.0220338 -0.115223 0.0175112
-0.164627 -0.00508883 -0.0766807
-0.174352 0.0166841 -0.154118
-0.113886 -0.127883 0.0905811
-0.123646 -0.0338788 0.0897179
-0.00738684 0.0156495 -0.0877413
-0.0402145 -0.108322 0.153863
-0.147475 0.014947 0.0357169
0.203706 -0.18026 0.0194609
0.0280226 -0.0556888 -0.0870551
-0.00872036 0.109075 0.0759191
0.231479 0.00282107 -0.100023
0.0042516 0.0533409 0.0117327
-0.0888721 0.0411226 0.0478537
-0.173995 0.130212 0.109519
-0.0333892 -0.0708336 -0.0253986
-0.118948 -0.00314531 0.0211669
-0.0372435 -0.104043 -0.165616
-0.0864228 0.0708574 0.000274288
-0.0266357 0.0904036 0.120578
-0.0960211 -0.0353046 -0.191564
0.171072 0.0871861 0.0241382
-0.0226207 -0.168706 0.0614554
-0.025735 0.0515567 -0.0452274
0.00552209 0.0773457 -0.0208196
0.0930356 -0.0342758 0.0424794
-0.0594477 -0.10772 -0.10921
0.12327 0.0483693 -0.0172219
-0.00923455 0.111999 0.120714
0.0239429 -0.0979999 0.0986054
-0.01635 -0.0920404 -0.024353
-0.0244258 0.0816701 -0.0153169
-0.0153916 0.00903779 -0.117744
-0.289413 0.151322 -0.0829718
0.0581427 -0.0348239 -0.0164516
-0.126464 -0.0533978 -0.0911452
-0.105739 -0.0279423 -0.114376
0.0542023 -0.0969644 -0.179018
0.144249 0.0367081 -0.0389468
-0.00433917 -0.0442304 0.0171959
0.0589302 0.0830453 0.0659324
0.0258026 0.0530368 -0.0250414
0.0411581 -0.153948 0.0576189
0.0253976 0.130098 0.0754053
-0.0053918 0.0652609 0.0598514
-0.0845337 0.0713873 0.00281437
0.0622761 0.0613329 0.0614795
-0.00953769 0.116072 -0.0370251
-0.0419207 0.0390488 -0.100208
0.0317974 -0.100487 0.0352866
-0.0459977 -0.0566488 0.00716718
-0.0224576 -0.0110239 -0.0984413
-0.0707155 -0.0286944 0.0333541
0.0238079 -0.14958 0.0331302
-0.0695211 -0.030541 0.0190481
-0.0911406 0.0283778 -0.0424814
-0.0370174 -0.0279557 -0.00640216
-0.0043804 -0.0151036 0.094916
-0.0443675 0.0846888 0.0669775
-0.00413305 -0.0356844 0.174379
-0.13114 0.0302194 -0.110053
-0.139093 0.0410986 0.117612
-0.109239 -0.024448 -0.0834072
0.0499888 0.0137433 0.0248587
0.0425061 -0.00116165 -0.0378451
0.0135297 0.0561644 0.0905014
0.0690828 0.0281394 0.0709327
0.110199 -0.0134592 0.066101
-0.00941373 -0.05041 0.0265326
0.109384 0.12357 -0.0751797
-0.0135462 -0.155367 0.075562
0.18455 0.0377648 0.0597277
-0.0949382 0.0865648 -0.106287
-0.00032598 -0.205893 0.0219892
-0.134618 0.0382034 0.0489101
-0.00450319 0.0500342 0.167528
-0.0204153 -0.0978256 0.0523429
0.0362154 -0.0615996 0.0414599
0.0236455 -0.133661 -0.028038
-0.0990214 -0.0393084 0.098571
0.020591 -0.013939 0.039478
0.0720692 0.0173492 0.00050577
-0.131269 0.0170078 0.107919
0.0504012 -0.0161918 0.03046
0.125709 0.105117 0.0225964
-0.0171815 0.20206 -0.0291367
-0.0352402 -0.0367728 -0.0597968
-0.00753802 0.0779837 0.0200916
0.0264366 -0.0038581 0.0938809
-0.0601113 -0.17279 -0.0447173
0.0434547 0.00142384 -0.0999491
0.0773181 -0.012648 -0.0496909
0.0393298 0.0450312 0.0699149
-0.025913 -0.160473 -0.0815383
-0.123675 -0.0368707 -0.0498147
-0.022734 0.0850983 -0.00840613
-0.164289 0.0194831 0.0504094
-0.104498 -0.0281935 0.0737908
-0.109179 0.0914434 -0.0548867
-0.114461 -0.109452 -0.060155
0.0135212 -0.0038764 0.0821715
0.0340145 0.0847248 -0.0576125
0.0866946 0.062839 0.0627095
0.109177 -0.0305788 0.0584922
0.118823 -0.019719 -0.0503485
-0.0567603 -0.0507037 0.0952456
-0.0378853 0.0453626 -0.0265995
-0.0517085 0.0417338 -0.0341283
-0.1188 -0.0140386 -0.0212247
-0.112421 0.00753877 0.0473902
0.0294367 -0.0309024 -0.0620582
-0.0199069 -0.12325 -0.103492
0.0339609 -0.137551 0.0288467
0.0581047 -0.01084 -0.0929952
-0.0756644 -0.0801331 -0.0844575
0.00132601 0.0149218 0.176225
0.166166 0.122012 -0.129248
-0.0195087 -0.0746939 0.0548929
-0.0457413 0.0977846 0.101366
0.0507121 -0.0476495 -0.0451206
0.0692443 0.194211 0.0797982
-0.0147246 0.0546903 0.03316
0.0750638 0.0601742 0.0314434
0.126123 0.0782243 -0.1547
-0.0584744 0.0805839 -0.0406774
-0.00331824 -0.0112529 -0.139596
-0.125547 0.0013343 0.0307941
0.042641 0.0104725 0.113599
-0.0776705 -0.033522 -0.000186228
-0.132733 0.0661329 -0.0673845
-0.140171 -0.0506138 -0.0494949
0.0460255 0.08918 -0.14264
0.0523798 0.0667333 -0.126314
-0.109805 -0.0257808 0.159554
0.0573122 -0.0588577 -0.00512573
0.00732105 0.206807 -0.215167
-0.00790215 -0.0977571 0.0818026
0.0964149 0.096277 0.128258
0.0500984 -0.0402702 -0.0341783
-0.0248439 0.126612 0.157238
0.0246457 0.0468548 0.187434
0.00629215 0.0452831 0.0611789
0.0158265 -0.0081504 0.227702
-0.0724081 0.0885148 -0.0981684
0.0299579 0.0313781 0.0664817
0.0404622 0.049118 0.0502223
-0.0599707 0.110396 -0.0448561
0.0915526 -0.0157763 0.0960932
-0.0516539 0.0540485 -0.0275992
-0.0186369 0.0575703 -0.121876
-0.0836891 -0.0626922 0.0169276
-0.0420225 -0.0146294 0.000838012
-0.115375 -0.0325076 -0.0853137
-0.104519 -0.0539823 -0.0423596
0.03354 0.144017 0.1184
0.00316753 0.1017 0.0269516
-0.033968 0.128165 0.00715962
0.00295634 0.00743393 0.143356
0.0110522 -0.0925265 -0.13376
-0.223263 0.119717 0.0693947
0.0511201 0.0773793 0.172578
0.0309482 0.0409602 -0.036281
-0.0355492 0.131203 0.0625242
0.00385038 0.0354513 0.00731452
-0.106049 -0.0120026 -0.0865901
-0.182594 -0.124353 0.0145147
-0.0571553 -0.0234193 -0.0888759
0.111877 -0.0616432 -0.106259
0.0674184 -0.0537056 -0.134507
-0.0325522 -0.0299635 0.168854
0.172888 0.0884519 0.120139
0.0135915 0.162378 0.101947
-0.144963 0.0189143 0.106949
-0.0916205 -0.0605104 0.136882
-0.0361765 -0.0675216 -0.0750998
-0.153877 -0.0105414 0.111247
-0.105403 -0.121515 0.0692006
-0.073093 0.00291433 0.0927241
-0.161671 -0.0253164 0.0296526
-0.0243047 -0.0337333 0.0630415
0.0109236 0.0757073 -0.0603889
0.0597364 0.0267891 -0.196172
-0.0274101 -0.0266843 -0.0816743
0.0212487 0.0362942 -0.0931405
-0.00793208 0.0403905 -0.0465771
0.0762878 0.0223689 -0.0872232
-0.0878419 0.00313075 0.0951754
0.0173804 -0.00891615 0.0786926
0.139214 -0.0561635 -0.0302958
0.0313051 0.0464572 -0.039725
0.134824 -0.0873158 -0.0379558
0.132346 0.17606 -0.0233103
-0.0202865 -0.0245472 0.0462113
0.0188696 -0.0250666 -0.0430839
-0.0666465 -0.126342 0.0169119
-0.313476 0.0256173 -0.0838088
-0.251881 0.0205987 0.0991652
-0.0321212 0.0701188 -0.00548699
0.00686695 -0.146567 0.0468871
0.0357207 0.0557031 -0.100072
0.168165 -0.0533124 -0.0052671
0.0635582 -0.0479138 0.0368962
-0.0455582 -0.0683908 0.0320382
0.0309645 0.0409063 0.13464
-0.0543275 0.0581424 0.14855
-0.0169187 0.212452 -0.035962
0.151627 0.0402662 -0.0258563
0.0386352 0.068075 0.060849
0.0750354 0.0673222 0.0871232
0.0580259 0.131993 0.231036
-0.000796715 -0.0955919 0.345214
-0.0160367 0.111893 -0.16596
0.126022 -0.00872715 0.0280456
0.0593774 -0.126916 -0.0483735
0.00591415 0.148359 -0.00322268
-0.100501 0.0435118 -0.0278937
0.0378161 0.123565 0.0420146
-0.156318 0.0689045 -0.110285
-0.024555 -0.0848883 0.0197471
0.0503129 -0.0229077 -0.0436604
-0.0693032 0.0748157 -0.066543
-0.0121728 0.0514183 -0.0259226
-0.0977483 -0.223756 -0.00755676
0.0188005 0.0184118 0.136022
0.0263369 -0.170865 0.0560786
0.215065 0.160617 -0.0194899
-0.0392127 -0.0816075 0.0103478
0.0334641 -0.0106868 -0.0881313
-0.0950215 -0.149221 0.037183
-0.0521378 -0.0904318 -0.0773672
-0.0463677 -0.0152955 -0.117608
0.073622 0.0634554 0.126329
-0.180626 -0.0588378 -0.21875
0.0625303 0.0439972 0.123635
0.0869116 -0.00840061 -0.00411375
0.0690579 -0.047803 -0.0827578
-0.0284956 -0.0417905 0.000252163
-0.0653367 -0.0340961 0.273408
0.0274201 -0.0553102 -0.0111462
-0.0315343 -0.0810965 0.128662
-0.0137088 -0.00380086 0.037961
-0.0031734 -0.0392443 -0.051582
-0.0165965 -0.237548 -0.104672
-0.207703 0.13945 0.00683748
-0.0402551 0.0235965 -0.00758332
-0.136304 -0.0116517 -0.0672291
-0.0113778 -0.0137669 -0.0520414
0.0551922 0.0352399 0.0106163
-0.045719 -0.0602251 -0.0432292
-0.0735937 0.0693644 -0.10829
0.000806767 0.0630118 -0.041284
-0.0887973 -0.0101202 -0.0146156
0.134443 0.0214145 -0.0793308
-0.0466252 0.0549927 -0.127204
0.0851725 0.0238544 0.0493492
0.0546829 0.0827252 -0.00577955
-0.0333387 0.0300341 0.000378581
-0.163646 0.00443671 0.0434326
0.0382914 0.0145256 0.051102
-0.204413 -0.0660085 0.0489899
-0.0740626 0.0639181 -0.036119
-0.00256221 0.118631 -0.119016
0.107922 0.0183532 0.0103447
-0.0537527 0.0706039 0.0381528
0.0126256 -0.0995036 -0.00115209
0.0614255 -0.060323 0.195101
-0.0160583 0.117858 0.0354591
-0.0580144 0.0690866 0.0766921
0.0957772 0.083208 0.0147544
0.0570159 -0.166517 -0.197888
0.0585559 -0.0450464 0.103577
-0.135624 0.0931533 -0.000870188
0.0348931 0.0547139 -0.0502195
0.0426245 -0.00767977 -0.0714655
-0.139012 -0.0114631 0.0830067
0.010435 0.102212 0.028563
0.119634 -0.0175976 0.0326427
-0.123143 -0.0246083 -0.000510425
0.000359061 -0.0443474 0.0452349
-0.00996801 -0.100735 0.0707974
-0.0334379 -0.0886656 0.0703272
-0.0144339 0.0113363 0.0946922
-0.10938 0.028643 -0.0687694
-0.00027554 -0.0422921 -0.0458136
0.0265225 0.0353359 0.0761101
-0.106009 -0.0973394 -0.0275828
0.221912 -0.0324651 -0.0445233
0.047637 -0.0346595 -0.0403428
-0.00936518 0.0786324 0.102981
0.0635927 0.0993558 0.188144
0.0186675 -0.077207 -0.00845352
-0.100546 0.114906 -0.0951938
-0.0246955 0.0635897 0.0842067
-0.108815 -0.0787921 -0.00759564
-0.0339326 -0.0520298 -0.128748
0.0291899 0.021019 -0.0908471
-0.0946734 0.0441814 0.0721909
0.112672 0.0281885 0.0870984
-0.0318046 0.0619162 -0.027069
-0.0972733 -0.000539094 0.0403843
-0.0401693 0.0664306 0.0481506
0.0440249 0.0274947 -0.0677919
-0.162299 0.0449165 0.0644968
0.000630388 -0.0734262 0.0302131
0.0499551 -0.11775 -0.0575153
0.0479044 0.119105 0.0026838
0.0426122 0.0483052 0.0658282
0.0234871 0.0214139 0.0677473
0.124885 -0.0632045 -0.0527553
-0.2271 -0.246153 -0.0384228
0.0945903 -0.0592681 0.110367
0.117443 -0.0113907 0.109338
0.0214154 -0.00973773 0.127605
-0.0504626 -0.0134302 0.0694753
0.0142886 -0.0650533 -0.063398
-0.0571025 0.124039 0.0684546
0.00411701 0.0464056 0.0753271
-0.146434 0.0110052 0.1816
0.184221 0.0845723 0.0728514
-0.0046084 0.000186415 -0.122182
0.0154704 -0.0612711 0.0199757
0.0783792 -0.0508963 0.0465214
0.045228 0.00295787 -0.00982913
-0.0381483 -0.119292 -0.0228706
0.14259 -0.0574563 0.161217
0.0700339 -0.020421 0.159069
-0.0493989 -0.023345 -0.0215583
0.101081 0.0707434 -0.0938221
-0.0909792 -0.00490046 -0.0788602
0.0345639 0.0164169 0.00191785
0.00387868 0.0233148 0.0430312
0.0704775 -0.142308 -0.0651601
0.117418 -0.0406586 0.0584917
-0.0689616 -0.00310086 0.0152373
-0.00089637 0.0131507 -0.103956
0.0899902 0.00788579 0.000686887
0.0616203 0.0687658 0.129671
0.0524365 -0.0804846 0.10272
0.026473 -0.0191611 -0.0594273
0.0374305 -0.00774609 0.0241694
0.0592063 0.0574368 -0.0295093
-0.131895 -0.0358022 -0.167676
0.0580142 -0.0320383 -0.034391
-0.00530757 -0.163651 -0.0543774
-0.0462749 0.0779559 0.0656478
-0.0663297 0.09755 0.145372
-0.0454645 -0.0347203 0.0243107
-0.000597629 -0.0357988 0.0810289
-0.0776136 0.120993 -0.0144333
-0.150856 -0.0215773 -0.00152623
-0.0636887 0.0263856 0.0933342
-0.113205 0.0305961 0.0226053
-0.0795846 0.0334049 -0.0117807
-0.041502 -0.204344 -0.0403871
0.0504615 0.00919984 -0.0383105
0.0323581 0.0211092 -0.0234705
0.0668112 -0.0695155 0.0845664
0.0186183 -0.000864135 0.00494812
-0.0142296 -0.200652 0.230389
-0.140764 0.0534134 0.0439507
0.00872399 -0.0334838 -0.0680428
-0.0371609 0.0575725 0.0289645
0.00646094 0.0663212 -0.128072
-0.00156466 0.0434543 -0.140417
0.0305383 0.02111 0.0354888
0.0653121 -0.0654988 0.0920429
0.0352681 -0.119265 0.0541867
-0.157883 0.0152449 0.0965728
0.0335499 -0.0295332 0.00719334
0.0483696 -0.0999424 0.0198653
-0.0880941 -0.0830223 0.119726
-0.0325269 -0.0671193 0.100227
0.102848 7.17518e-05 0.0243537
0.0926105 -0.135612 0.0937365
0.0850021 0.0468918 0.0746871
0.0374068 -0.117118 0.000915915
0.113565 0.0211815 -0.0245318
0.138269 -0.0803618 0.00539856
-0.162652 -0.0297072 0.131851
-0.0865662 0.00565704 -0.142003
0.0936318 0.0244583 -0.00804165
-0.0329159 0.077696 -0.0337197
0.015416 -0.0804297 -0.0632658
0.197973 -0.0544524 -0.077356
0.092062 -0.0073745 0.000203366
-0.0509155 -0.0419262 0.0884982
-0.12309 0.048115 0.0314424
0.0270526 0.0153218 -0.0170395
0.0479655 0.0541836 0.0736962
-0.0643218 0.0617589 0.00295019
-0.0748988 -0.0162372 0.129386
-0.0888086 0.0166249 -0.0236223
-0.12447 0.1109 -0.120196
-0.0328523 -0.137258 -0.0247828
-0.173378 -0.0278241 0.0459658
0.00438939 0.0211081 0.0869936
-0.0221549 -0.0545901 -0.00776972
-0.00809813 -0.056701 -0.064964
0.0551744 -0.117554 0.0744744
0.0497235 0.0216715 -0.0766392
0.0395782 0.158991 -0.116274
-0.0956012 -0.0399021 -0.0675973
0.00821659 -0.058182 -0.0485037
0.108002 0.070904 -0.144761
-0.0336206 0.103021 -0.139911
-0.0161239 -0.0491991 -0.00723683
0.0824666 -0.0587979 0.13579
-0.0922752 -0.0595732 0.0216617
-0.0281759 -0.0623691 0.0563325
-0.107411 -0.038569 -0.175546
0.0637031 -0.0499296 -0.203308
-0.0624996 0.0681266 0.0491812
0.10052 -0.177847 0.0333516
0.0467414 0.121987 -0.0499543
0.0827242 -0.00679712 0.0741294
-0.111616 -0.0277324 0.0483305
0.0514436 0.0299559 -0.160738
0.00733226 -0.0728583 0.0544486
0.0734796 -0.0606273 -0.193814
-0.0076442 0.164838 -0.09937
0.0426471 0.0333733 0.176529
0.173066 0.00683508 -0.0625693
0.00737627 -0.0753076 -0.197558
0.114742 0.111689 -0.0496691
-0.00515271 0.0837533 0.071512
0.171879 -0.0963126 -0.0161951
0.0233507 0.0866231 -0.103464
-0.0027404 -0.0177462 -0.0928031
-0.0574812 -0.0322027 -0.0794264
-0.0253677 0.02642 0.0725487
0.0222206 -0.0253322 -0.076374
0.116335 0.0358033 0.0649955
-0.0990786 0.0190737 0.00858358
0.00740851 0.0341047 -0.0307031
0.116553 -0.0608096 -0.0298367
-0.0545946 0.0659129 0.0710893
0.0600048 -0.000508558 -0.0195467
-0.0318639 0.123373 0.110271
0.0175904 -0.127606 -0.111692
0.164822 -0.117006 0.0786969
-0.0835497 0.108069 0.0569929
-0.0810166 -0.0908607 0.0110011
-0.0613272 0.0107952 0.0523096
-0.0875473 0.00503008 0.108229
0.119789 0.0939183 -0.139616
-0.058208 -0.0328776 0.0671653
-0.0545452 0.126384 0.227684
-0.145621 -0.132938 -0.126932
-0.0545305 -0.0435555 0.0518694
0.0816216 -0.00110283 -0.130894
-0.00421256 0.0546796 0.17072
-0.045213 -0.0888504 -0.0568196
-0.111161 -0.0028205 0.169027
0.0944924 -0.0793272 -0.0890548
-0.0239275 -0.113365 -0.20499
-0.00754319 0.0177191 -0.111746
-0.028823 -0.0425221 -0.00258574
-0.233641 -0.115392 0.017053
0.0899376 -0.0136975 -0.00349932
-0.0605037 -0.158048 0.195686
-0.138707 0.0373332 0.0719563
-0.0510238 -0.0875995 -0.0294771
-0.0963466 -0.0539434 0.00743272
-0.11262 -0.0788233 -0.0530339
-0.0217852 0.0226196 -0.0556487
-0.0453206 0.0142893 0.108973
0.204166 -0.120585 -0.044948
0.0512839 -0.00953835 0.0360652
0.0488621 0.0643884 0.0703676
-0.076734 0.0249491 -0.0138379
0.0918734 -0.0284104 0.0243594
-0.0542173 -0.0937482 0.151106
-0.0560201 -0.0347369 -0.10428
0.0213847 -0.0999842 -0.0659306
0.0094103 0.085338 0.0431719
0.0469366 -0.0610558 0.117095
0.0818372 0.119015 0.0419858
-0.177718 0.0213418 0.0691718
-0.0855278 0.0614174 0.0374177
-0.0229474 -0.0567759 0.0927645
0.105287 0.00394392 -0.0239912
0.164765 0.0487503 0.0733649
-0.0415816 -0.1082 -0.0821137
-0.0628205 0.100003 -0.182025
-0.0518713 0.129996 -0.067747
-0.0762714 0.0582921 -0.034145
-0.0887471 -0.148305 0.054728
0.0179589 0.0893602 -0.258135
0.00570925 0.0309782 0.0497458
0.0720973 -0.0258533 0.0267179
0.00749653 0.0544324 0.0316075
0.107329 0.073173 -0.00785424
0.0040464 -0.00693072 -0.0715417
0.000454043 0.0186967 0.0374229
-0.0976509 -0.027101 -0.0652079
-0.178044 -0.026305 0.0371973
-0.0295662 0.0381334 -0.0435665
0.0695245 -0.0269205 0.0910126
-0.168592 0.0115475 -0.0975473
0.103328 -0.0798897 0.0309643
0.156181 -0.0635418 -0.0365284
0.122062 0.0724732 -0.00515363
-0.0263138 -0.0575132 -0.127302
0.0985457 -0.0178957 0.00895513
-0.0164194 0.0950023 0.057789
0.0199956 -0.00973273 -0.0465245
0.0128282 0.0601838 -0.0355884
0.0949297 0.0197281 0.0779313
-0.0456724 0.0839157 -0.024154
-0.0853856 -0.0389639 -0.107692
-0.0934055 0.0476823 0.0794099
-0.0580733 0.142202 -0.0460999
-0.00308047 0.0198482 -0.0195261
-0.0223508 -0.0169976 -0.0584153
-0.0272128 0.052241 -0.0428577
-0.0257735 -0.0486001 0.143992
-0.0891937 0.0403754 -0.105315
0.0361427 0.0561784 -0.0204585
0.085341 0.00210233 -0.0219342
