-0.000142314 -0.000162111 -0.000383012 -1.89043e-05 -0.000461118 0.00111217 -0.000347058 0.000138556 -0.00132243 -0.00107438
-0.000207592 0.000866754 0.000853838 0.000241698 -0.000224631 0.000214121 0.000199238 -0.000570544 0.000236731 -0.000123314
0.000175648 0.000803006 -0.000569208 0.000345497 0.000350888 -0.000176372 0.000144363 9.4528e-05 -0.00109859 -0.000410933
0.000630638 0.000289385 0.000507775 -0.000650084 -7.77464e-05 -0.000418594 -0.001475 0.000615299 3.61792e-05 -6.4243e-05
-0.000788613 -0.000358007 -0.000534692 1.90379e-05 0.000135079 0.000963959 -0.000843268 -0.000189282 0.00021213 -0.000534491
-0.000595557 0.000801618 -9.17341e-06 0.000553847 0.000258732 9.10755e-05 -0.00010962 1.30235e-05 9.54351e-05 5.05822e-07
-0.000150101 -0.00029236 0.000559573 0.00020128 0.000393076 2.89914e-05 -0.000381547 -0.00135529 -0.000931799 -0.000691985
0.000567089 0.000326507 0.00059038 0.000752227 0.000359195 0.000697312 0.000587694 -0.000776517 0.000569046 0.000480254
0.000523808 -0.00053604 -0.000559928 -0.000807011 -0.0001595 1.24057e-05 -0.000129801 0.000332844 0.000432164 -0.000554491
-0.000359413 0.000117058 -0.00079432 -0.000478461 -0.00130867 -0.000407563 0.00103391 -0.000526391 0.000768804 -0.00083434
-5.17767e-05 0.000566858 -0.000297685 -0.000421327 -2.86653e-05 0.000285479 -0.000372318 0.000803216 0.00107642 0.00071479
4.9419e-05 -5.42351e-05 0.000137697 0.000358674 0.000760736 -0.000193909 0.00105177 0.000749672 0.000620401 8.76046e-05
0.000972331 -0.000954194 7.15502e-05 -0.00080122 0.000389752 -0.000262324 0.000774929 0.000696386 0.000359181 0.00088687
-0.00023513 -0.000335977 0.000334324 -0.000153736 0.00061158 0.000949632 -0.000507144 -5.41733e-05 0.000706061 0.000451196
-2.88647e-05 0.000643003 0.000705689 0.000859192 -0.000144268 -1.42213e-05 0.000569289 0.000163737 -0.000313775 -0.000563536
-0.000388798 -0.000288474 0.000802062 -0.000207239 0.000706078 -9.57471e-06 -0.000441746 0.00031859 -0.000191313 -0.000114206
-0.000400176 9.27641e-05 -0.000176006 0.000389765 0.000365945 3.28084e-05 -0.000430025 0.000102077 0.00029305 0.000355831
-0.000485517 -0.000461692 0.000698413 0.000295787 0.000188258 -0.000253333 -0.000719178 -0.000366172 -0.000701251 0.000752338
-0.000325152 -0.000382664 -5.57287e-05 0.000137636 0.00027244 -0.000371991 -0.000605951 0.000247028 -0.000258454 -0.000385461
0.000215321 -4.08181e-05 -0.0011597 0.000143208 -0.000416847 0.000742878 -1.00579e-05 0.000969639 5.38376e-05 -0.0003423
7.60934e-05 -8.35788e-05 -0.00010174 -0.000667454 -0.000727196 -0.00125832 0.00117143 -1.65603e-05 0.000436617 -8.51867e-05
-0.000863798 0.000487869 -0.000497712 0.000597173 0.000414642 -0.000294008 0.000154575 -0.000694025 -0.000346765 -0.000738859
-0.00102636 -0.000442479 0.000221407 -0.000783722 -0.000187019 0.000528664 -0.000432542 -0.000753923 0.00128002 -0.000613282
-0.00123985 -0.000306168 0.000348828 0.000339851 0.000205122 0.00054574 0.000729729 -0.00135312 5.71125e-05 0.000765527
-0.000245844 -0.000206323 -0.000730622 -0.000571618 0.000578976 0.000524475 -0.000149425 0.000122867 0.000696649 -9.70905e-05
-0.000530191 0.000305957 0.000983994 -1.71415e-05 0.000363389 -0.000355938 -0.000729668 0.000885229 0.000173976 0.000586336
-8.47142e-05 -0.000370907 -0.000887628 0.00142604 -0.00176073 -0.000595273 -5.26661e-05 0.000293417 0.000298839 0.000282474
0.000336612 -0.000801327 0.000517826 -0.000875392 0.000442486 0.000751614 0.00144564 -6.79902e-05 0.00059637 -0.00147894
-0.0001858 -0.000857873 1.66919e-05 -0.000272338 0.000727399 -6.67474e-05 -0.00135169 2.48367e-05 0.000112167 -0.000496231
0.000505388 0.000123336 -0.000322545 -0.000877372 -0.000692335 -0.000231384 0.000277683 -8.10241e-05 -0.000564849 -0.000595836
-0.000149174 0.000443531 0.000785086 0.000378937 -0.00140398 0.000692595 -0.000403191 -0.000390367 -0.000522059 -0.00079003
0.000617356 0.000653457 -0.000110673 0.00106812 -7.40833e-05 -0.000660147 -8.06559e-05 -0.000446923 -0.000472071 0.000459974
-0.000768473 -0.00061494 0.000458113 -0.00102072 0.00129057 0.00017149 -0.00114672 -0.000966322 0.000360084 0.00070031
-0.000349401 -0.001721 0.00119947 0.000340611 -0.000388093 0.000758828 -0.000522469 0.000602536 -5.32445e-05 0.000632925
0.000447313 0.000386093 0.000363292 -0.000281604 0.000362763 -0.000100597 0.000728051 0.000304674 -0.00114805 0.00023985
-0.000501496 0.00104274 0.000781606 0.00024476 0.00157266 -0.000327708 0.00100941 0.000459245 -0.000371352 0.000127712
-0.00109565 -0.000526292 -0.000685929 -0.000295349 0.000805539 -0.000118138 -0.000405177 0.000424136 -6.83106e-05 0.0003927
1.76895e-05 0.00081765 0.00041735 0.000426954 -0.000587796 0.00147143 0.000412381 0.000657155 -0.000951059 0.000529553
0.000102057 -0.000398524 0.000371689 9.39456e-05 -9.62662e-06 -0.000456612 0.000609447 -0.000719554 -0.000406328 0.000540967
0.00064916 -0.00124228 -0.000778716 0.0002525 0.000169598 6.14901e-05 -0.000203263 0.000459676 -0.000368387 0.00035371
0.00149167 -0.00101911 0.000214274 0.000523972 -0.000219729 0.000339899 0.00112189 -0.000632039 0.000152537 0.000237578
0.000722457 0.000605983 -0.000663592 0.000918648 -0.000374045 -0.000868872 -0.00107378 -0.000340301 0.000280311 0.000261264
-0.00178653 -0.000219258 -0.0004166 0.000747564 0.000317529 0.000841174 -1.31955e-05 0.0012697 0.00127757 -0.000144708
-0.000479436 0.000888691 -0.000291359 0.000556072 4.17912e-05 -5.21235e-05 0.000417321 0.000128159 0.00064401 -0.000468161
-0.000326208 -7.6483e-05 -0.00135294 -9.15621e-05 0.000469328 -0.000187112 -0.000306103 0.000215062 -0.000809483 0.00110902
-6.66683e-05 -0.00060747 0.000205271 0.000345682 0.00031638 0.000293826 -0.00107893 0.000744126 -0.000946006 -0.00058391
0.00149494 -4.60949e-05 0.000222673 2.63617e-05 0.00122236 0.000850513 0.0007383 -0.000451765 -0.000121809 0.00116321
0.000351863 0.000517626 0.000489523 -0.000320534 -0.000406233 -0.000161086 -0.00119617 0.000971668 7.41825e-05 0.000243837
0.000438673 0.00170003 0.000796627 -0.000530204 0.000577713 -0.000236958 0.000895297 -0.000723371 -0.000517998 -0.000362526
-0.00019483 -0.000663549 -0.000336776 -0.000531949 -5.84383e-05 -0.000440641 0.000483283 -5.49807e-05 0.000156139 0.000244721
0.000408854 -0.00066468 -0.000313132 -0.000405753 0.000335866 -1.67427e-05 -0.000520111 0.00061829 8.01246e-05 0.00118883
0.000747237 -0.00046753 0.000209979 0.000588639 -0.000145138 0.000202518 0.000521931 -0.000469903 -0.000259256 -0.000173864
0.000119615 -8.43977e-05 -0.000432658 -0.00046457 0.000720541 0.000563665 -0.000485394 0.000314846 0.00143088 -0.000320259
-0.00105265 0.000419417 0.000316788 1.92727e-05 -0.00153442 0.000617035 -0.000244511 -0.00022962 -0.000553527 -0.00103465
0.000108901 -0.000426906 0.000364086 0.000881467 0.000277462 0.000266107 -0.00114029 0.001035 0.000558091 0.00138109
0.000950658 -0.000419886 0.00152044 -0.000910277 0.000574514 -0.000470334 -0.000312512 0.000111707 -0.000159287 1.55559e-05
-0.000610779 -0.000563509 0.000280532 -0.000242452 -0.000264451 -0.000918366 0.000378004 0.000928513 0.000215627 0.000132359
-0.00143208 0.000904787 -0.000481413 -0.000402197 -0.000637682 0.000125542 0.000200014 0.00068653 0.00106722 -0.000544356
0.000419799 0.00038271 0.00064782 0.000258024 5.23108e-05 0.000134661 0.000727512 -0.000633833 -0.000860285 -0.000421854
-5.81491e-05 -0.000802974 -0.000511374 0.000465412 -0.000199711 -0.000276689 -0.000417607 -0.000190495 0.000552591 -0.00019795
-0.000415606 0.000308355 0.000614487 8.19819e-05 -0.000646847 0.00135861 -0.000639373 -0.000420273 0.000104256 0.000717076
7.20809e-06 -0.000161437 -0.00093204 -8.15342e-05 -0.0001285 -0.000359588 -7.65549e-05 -0.000117375 -0.000832487 -0.000611354
-3.04134e-05 0.000614865 0.000277886 0.000189868 -0.000471563 -0.000681182 -3.02945e-05 -0.000203663 0.000522914 0.000872999
-7.4583e-05 0.000569141 0.000663299 -0.000399373 -0.000565425 -0.000367905 0.000589457 0.000405004 0.000419161 3.35499e-05
-0.00110178 0.000129351 -0.00076886 -7.31919e-05 0.00108013 -0.000770274 8.2758e-05 0.000818634 -0.000727602 -0.000264409
-0.000157843 0.000277023 1.70026e-05 0.000224037 -0.000966412 0.000624637 -0.00153204 0.000256843 0.000156175 -0.000389032
-0.00104395 -0.000252808 0.00041026 0.000203178 -0.000862518 0.00081928 -0.000568165 0.000164202 0.000441998 0.000118833
0.00112993 0.000727513 0.000536028 0.000258485 0.000787943 -0.000244696 -0.000889615 0.000442954 -0.000153188 -0.000443256
0.0010233 0.000431368 -0.000634352 0.000498169 -0.000222215 0.000937876 -0.000441389 0.000908251 0.000574392 -0.000810663
0.000395458 -0.000824218 0.00127567 -0.000165189 -0.000312964 -0.000361847 0.000105378 0.000794446 -0.000136651 -8.87342e-05
0.000441518 0.000649813 0.00136151 -0.000655996 -0.000796709 0.000753337 -0.000293712 -0.000249764 0.000365816 0.000963959
-0.000153623 -0.000844931 -4.78217e-05 -8.19371e-05 0.000335412 0.00036615 0.000473519 -0.000200058 0.000787883 -0.00177921
-0.00019959 -0.000428548 0.000646399 -0.00105274 0.000479918 -0.00013353 -0.000860541 0.000167091 -0.000816571 -0.000178762
0.00102161 0.000368398 -0.000440539 0.00123883 -8.66228e-05 -0.00069328 -0.000139927 0.000118345 -0.000162883 -0.000289315
-0.000482642 -5.80045e-05 0.00014221 0.000755636 0.000418867 -0.00105786 7.39679e-06 0.000368362 -0.000498233 0.00105163
-0.00142431 -0.000620055 -4.2125e-05 -9.56207e-05 -0.000531182 -5.60784e-06 -0.000412591 0.000385539 -0.000335482 0.000355294
0.000899829 0.00024838 0.000386089 -0.00036715 -0.000202098 -5.40408e-05 0.000558146 -0.000392507 -0.000264917 -0.00033157
-0.000228952 0.00011869 0.000740692 -0.000471316 -0.000722597 0.00105662 -0.000343984 0.0011884 -0.00117415 0.000110528
-0.000659217 0.000240683 -0.000197635 -0.000394584 0.000761463 -4.72542e-05 0.000113182 0.000880707 -8.54381e-05 -0.000615007
-0.000295132 0.000506003 -0.00015841 0.000327217 0.00127872 -0.000509972 -0.000414517 0.000848685 -0.0015945 -0.000371672
-0.00014282 -0.000268646 -0.000414631 0.00019202 -0.000108381 -0.000112295 0.000273593 0.000667998 -0.000165539 0.000230412
0.000582108 0.000298578 0.00035782 -0.00119412 0.000746626 0.00111859 -0.00131529 0.00047543 0.000207218 -0.000168175
0.000201662 0.000440084 0.000383807 0.000597251 5.29868e-05 0.000123688 0.000643901 -0.000185654 -0.000652242 -0.000808669
-0.000763996 -0.000615955 -0.000183363 0.00106839 4.48744e-05 -0.000597338 -0.000188034 0.000255808 -0.000697819 -0.000477439
0.000100959 -0.000702993 0.000397928 -0.000861382 -0.000341233 -0.00117451 -0.00114931 0.000665014 -0.000503224 -0.000538116
-0.000422493 0.000213906 0.00097271 -0.000143576 -0.00049681 -0.000638889 0.000822241 0.000355675 0.000213306 0.000653178
0.000107516 -0.000123749 -0.000688351 5.48062e-05 -0.000405113 0.000373797 0.000725302 0.000151643 -0.000320926 0.000590127
0.00066582 -7.09734e-05 0.000631468 0.0007262 0.000242097 -0.000562223 -0.000626253 0.000476311 -0.000632846 0.000225404
0.000150673 1.31258e-05 -0.000549162 0.00027676 -0.000722622 -0.000355312 -0.000955052 -0.000328451 0.00129368 0.000609739
0.000929484 0.000278785 0.00111496 -0.000632451 -0.000343223 -0.000930324 0.000291577 0.00106955 0.00018035 -3.19386e-05
0.000461663 -0.000467063 0.0018856 0.000477208 0.000425529 -0.000425699 -0.000365676 0.000117682 0.000161048 -0.000405518
7.68782e-05 0.000177669 -0.00101748 -0.000815498 0.00100096 0.000410989 6.6407e-05 0.000897298 0.00088615 -0.000329138
-0.00113993 0.000848282 -0.00075233 0.000335608 -0.000101819 -0.000339696 -0.000889894 0.00103571 0.000402246 -0.00055255
-0.00069447 0.000170733 -0.000329757 0.000625772 0.000258279 -0.000612449 0.000471332 -0.000468304 -0.000955294 0.000180279
-0.000125879 0.000344411 0.000396852 -0.000739269 -0.000535971 0.000254021 -0.000157173 0.000328482 0.00160748 -0.000259136
0.000192828 0.000820746 0.000138677 -0.000320607 -0.000289027 0.000483519 0.000755556 0.00117105 0.00114706 0.000380486
-0.000626407 0.000824416 -0.000697598 0.000773194 -0.000156468 -0.000334532 -0.000199117 4.89542e-05 -2.57733e-05 0.000438369
0.000610213 0.000318081 0.000450018 -0.000291192 0.000166369 -0.000215123 -0.000184367 -0.000221087 0.000690238 0.0009362
-0.000268056 0.00124817 0.000521558 0.000390934 -0.000661898 0.00132721 -0.000143083 0.000489847 0.000663323 0.00045868
-0.000798797 0.000206195 -0.000753823 0.000445651 0.000558667 0.000517852 0.000406209 -0.000150658 0.000629069 -0.00012416
0.000889333 -0.000796956 -0.000101346 -0.00040021 0.000603276 0.000270465 -0.000199136 -9.12207e-05 0.000896322 -0.000378817
0.000259692 0.000512741 0.000244507 -0.000209731 0.000602458 -6.08091e-05 0.000261957 0.000885462 0.000849486 0.00107656
-0.000377481 0.000149172 -0.00106133 0.00012256 0.000307878 -0.000349765 0.000712623 0.000985504 0.000481525 0.000329758
-0.000522993 -0.000140862 0.000356665 0.000666886 0.000364024 -0.000514046 -0.000240111 0.00068852 0.000361524 -3.62133e-05
-0.000847705 0.000164377 -0.000270821 0.000381866 -0.000868597 -2.44548e-05 0.000742403 0.000327855 -0.000893437 -0.000569833
-0.000433224 -0.00157581 0.00120395 0.000740364 -0.000277453 5.71444e-05 0.000243378 0.000955117 0.000552837 0.000375729
-0.000259211 -0.000723574 -0.000794487 0.00169135 5.92035e-05 0.00019109 0.000174068 0.000647008 -0.000218403 -0.00118293
0.000611749 0.00105895 -0.000335472 0.00141201 -1.07607e-05 -0.00102659 0.00053549 -0.000647192 -0.000882142 -0.00117795
9.15486e-06 0.000514849 0.000185948 -0.000146132 0.000144074 0.000151081 0.000754581 0.000624467 -0.00113755 -0.00148893
0.000365778 -0.000404294 0.000716173 0.0006764 0.000704421 -0.000499554 -0.000170513 -0.000862457 0.00145504 -0.000394113
-0.000321973 0.000159392 -0.000487161 -0.000189101 0.000574347 0.000245946 0.000561227 3.37983e-05 -0.000481853 -0.000726911
0.000681051 0.000628022 -0.000321076 -0.000306706 -0.00045556 1.13452e-05 6.1283e-05 0.000316352 0.000523755 0.000890806
0.00140651 -0.00010056 0.000556322 -0.000747883 0.000470069 0.000660974 -0.000538206 -0.000366958 0.00100846 -0.000959172
-0.000748163 -4.47875e-05 -0.000328413 -9.25981e-05 -0.00046746 -0.000340501 0.000722738 -0.000932241 0.000812763 0.000725896
-0.000289481 0.000565596 0.00121787 -0.00065304 4.2074e-05 -0.000251961 0.00104794 0.000835844 0.000750277 0.000116876
-0.000479831 -0.000388338 0.00171209 0.000355096 0.00058172 -0.000531845 0.000220598 -0.000813179 8.03652e-05 0.000565445
-0.00093778 -4.11827e-05 -0.000840984 0.000182576 0.000328864 -0.000743791 -0.000315693 0.0006384 0.000702864 -5.44039e-05
0.000321653 0.000571764 0.000466347 0.000606065 0.000273327 0.000147535 0.000294189 0.00021628 -0.000222468 0.00118187
-0.000273901 -0.000960798 -0.000453361 4.30655e-05 -0.000345176 0.00125664 4.38038e-05 -0.000627766 -9.89055e-05 -0.000960769
-0.000771866 -0.000187261 -0.000636666 0.000103199 -0.000449434 -0.00134835 1.94644e-05 -0.000497413 -0.000124396 8.55053e-05
-0.00189717 -0.000285782 -0.000149611 -0.000977192 -0.00019199 -0.000370169 0.00120384 0.000762277 -0.000912926 -0.000183817
-0.000722271 -0.000466972 0.000116088 -0.000120059 0.000121149 -0.000238636 0.000596908 3.9987e-05 0.000277753 0.000684466
0.000152445 0.00039538 -0.000558218 0.000197175 -0.000255876 0.000523952 -0.000154518 0.000941743 0.000227607 0.000124558
0.00114905 0.000635958 -0.000476174 0.000560265 0.000207905 0.000281685 -0.000777519 -0.000608143 -0.000803482 0.000315228
-3.92154e-05 -0.000159684 -8.0057e-05 -0.000708444 -0.000975596 -0.000551462 -0.000485326 0.000662242 -0.00135578 -0.00100786
0.000267756 -0.00068118 -0.000344077 0.000601827 -0.000847667 -4.94065e-05 0.000646636 -0.000128565 -0.00032763 -0.000298656
-0.000980898 -0.000212791 0.000282762 -0.000149553 0.000846774 0.000554942 -0.0010049 0.000743274 -0.000372507 -0.000586218
0.00108545 -0.000520994 -0.000345974 -0.000114985 -0.00114771 -0.000754724 0.000886827 -0.000398768 -0.00032172 -0.00109421
0.00120054 -9.82606e-05 -0.000619715 -0.00010911 2.51382e-05 1.74643e-06 0.000534759 -0.000101029 -0.000845881 -0.000896915
-0.000110776 -0.000192437 0.000330286 -1.41279e-05 0.00012572 -0.000484067 0.000913762 0.000220865 -0.000139418 -0.000631491
0.000268474 0.000826179 0.000291957 0.00138595 6.52011e-05 -0.000354975 -0.000540565 -0.000187608 -0.000228119 0.000567401
-0.000677648 -0.000242279 0.000594578 0.000369323 0.00104438 0.000640137 0.000195308 0.00102962 0.000233857 -0.00104861
6.00768e-05 0.000404905 -0.000104565 0.000145602 0.000126126 9.51099e-05 0.000385049 0.000289792 0.000646534 -0.000231359
-0.000177481 0.000400447 -0.000327693 -0.00103412 -0.00097653 -0.000680235 -0.000583716 0.00109684 -0.000181621 0.000443218
-0.000475769 0.000218469 -0.000807707 -0.000312877 0.000387423 0.000492366 -0.000507116 0.000242909 -0.000934084 -3.57176e-05
3.07457e-05 0.00112332 0.000479931 0.000703057 -0.000239088 0.000494742 0.000104043 0.000777069 0.000382096 -0.000354695
4.89907e-05 -0.000597506 -0.00120952 0.000230714 0.000823023 -0.00154412 0.000333899 -0.000626062 -0.000150781 0.000887028
0.000286127 -9.24574e-05 -0.000720282 -0.000447075 -0.000285534 0.000513423 0.00033918 -0.000455205 0.000171371 0.0011384
-0.000173443 -0.000862783 1.351e-05 -0.00122157 0.00104031 -0.00130124 -0.00034825 0.000425575 -0.000239796 -3.48812e-05
0.000599025 -6.9775e-06 -0.00106429 0.000320023 -0.00113265 0.000864986 0.000754191 0.000422425 -0.000468069 0.000495999
0.000860485 -0.000784245 0.000479724 -0.000375487 0.000545891 -0.000200097 -0.00050126 -6.77606e-05 -0.000863546 0.000377049
-0.000331887 0.00114844 -0.000108184 0.000283417 0.0002316 0.000580555 0.000278735 0.000671738 -0.00107739 0.000877487
0.000340712 5.68443e-05 0.000771842 0.000368105 -0.000345926 -0.000349304 -0.000234121 -0.00116684 0.000273939 0.000296852
7.06423e-05 0.00023774 0.00159819 -0.00019558 -0.000700428 -0.000659369 0.000139844 -0.000395785 -8.10726e-05 6.11672e-06
0.000564711 8.4221e-05 -0.000110108 5.26295e-05 -0.000145423 -0.000494248 0.000278116 0.000146123 -0.000314794 0.00065147
-0.00032808 0.000139499 -0.000915909 0.00067638 -0.000521539 -0.000700882 -8.85367e-06 2.61251e-05 0.00167704 -0.000758991
0.00055893 -0.0014275 0.000667768 -0.000340084 -0.000403591 0.00108306 4.38634e-05 -0.000749036 -0.000211926 2.44685e-05
0.000293628 -0.000553402 -3.33357e-05 -9.59521e-05 0.000163128 0.000270158 -2.01377e-05 -0.000566332 -0.000403852 0.000691034
-0.000220825 -0.000708085 -0.000280943 -0.000421531 -0.000486822 -4.36115e-06 -4.34907e-05 -0.000250694 -0.00108027 0.000111796
-0.000501223 -0.000820169 -0.000393453 -0.000222458 -9.33638e-05 -0.000617714 -0.00085441 -0.000158601 0.000598452 0.000204294
0.000224984 0.000594935 -2.13329e-05 -0.000446417 -0.000492716 0.000398025 0.000559875 -0.000396275 -0.000564368 0.0003007
-6.33636e-05 -8.20057e-05 -0.00013104 0.000502881 0.000211284 0.000188117 0.000446435 0.000447246 -4.64835e-06 0.000250424
1.54808e-06 -0.000247026 -0.000866803 0.000348654 0.000420845 0.00091761 -0.000433816 0.000474685 0.000530718 0.000475292
-0.00146397 2.48718e-06 -0.000464397 0.000261711 0.00111982 -0.000125853 0.000221861 0.000387654 0.000819844 -2.55576e-05
0.000147934 -0.000826714 -0.000607087 0.000630621 0.00026969 -0.000388973 -0.000979145 -0.000537703 -0.000340199 0.000578685
-0.000400694 0.000406821 6.01565e-05 -0.000502295 -9.12823e-05 0.000681287 4.36119e-06 -0.00052121 -0.000182278 0.000786637
0.000639499 0.00117992 0.000104634 -1.14762e-06 0.000705116 -0.00220732 -0.00133574 -0.00141255 0.000352885 -0.00029297
-0.000579433 0.000657009 2.42542e-05 0.00104342 0.000345317 -0.000586349 -0.000326412 0.00115379 -0.00114687 -0.000325234
0.000335209 6.25463e-05 0.000408283 0.000610306 0.000692601 1.69988e-05 -0.000273291 -0.000465058 0.00038632 0.000470542
0.000881992 -0.000115654 0.000535685 -0.000281564 0.000591836 -0.000915667 0.000563024 0.00114941 -0.000622764 -0.0012034
-0.000289277 0.000244669 -0.000132235 0.000106286 -0.00010758 0.00114071 0.000375669 -0.000275699 0.000774481 -0.000880621
-0.00139252 0.000477884 6.89213e-05 -0.000345769 -0.000108333 0.000375488 -0.00114472 0.000284227 0.000707753 0.000613688
-0.000223914 2.46412e-05 0.000487907 3.12976e-06 0.000696381 5.39967e-05 0.000618726 7.00327e-05 -0.000485564 2.57971e-05
-0.000672619 3.35783e-05 0.000631515 -0.000194933 -0.000697492 0.000627571 1.60768e-05 8.95356e-05 -4.58548e-05 0.000678916
9.63827e-05 -0.000438622 0.000367397 -0.000905821 0.00110181 -0.000562499 0.00015003 -2.10278e-05 -0.000123255 0.000647523
-0.000863709 0.000705837 -0.000210823 0.000231236 0.00080653 0.00170055 -0.000666421 0.000662825 -0.00071907 -3.99797e-05
-0.000633399 -0.000380404 0.00088743 -2.6703e-05 -0.000122637 -5.84746e-06 0.000380935 0.000322194 -0.000972693 -0.000587487
-0.000227148 0.000235246 6.08777e-05 -0.00061114 -0.000191613 -0.000520791 -0.00017781 0.000282158 0.00049486 0.000190411
0.000342514 0.0012957 -0.000702449 0.000200209 6.69644e-05 0.000738746 -0.000615309 -0.00040907 -0.000648895 -0.000467802
0.0011327 0.000458799 -0.000550818 -0.000811289 0.000306671 -5.50895e-05 0.000914647 -0.00182014 0.000145044 -0.000268186
0.000274652 -0.000101642 7.56823e-05 0.00111041 -0.000609999 0.000321718 -3.52409e-05 0.000925598 0.000326933 -0.000177765
-0.00108465 0.00107381 -0.000157203 -0.000235509 -0.00100756 -0.000721082 -0.000354001 7.82297e-05 -0.000725414 0.000945562
-0.000486139 0.000480517 2.37377e-05 0.000648194 0.0008824 -0.000137105 -0.000249591 -0.000581072 -0.000532225 0.000290593
0.000541995 0.00103716 -0.000175417 -0.000146698 -0.0009508 0.000217324 0.000701955 0.000534407 -0.000192823 0.00086655
-0.000835447 -0.000115121 -0.00051153 0.000956304 0.000150264 -0.00110712 0.000952362 -0.000863844 -0.00114346 -0.000207022
0.000527247 -0.000174635 -0.000131352 0.0015869 -0.000837578 0.000258688 -4.78297e-05 0.000405773 0.000496304 -0.000243875
-0.000516453 -6.19214e-05 0.000382006 -0.000247656 -0.000339611 0.000151679 -3.14e-05 -0.000468111 9.62849e-05 -0.000258937
0.000370905 -8.15631e-05 0.000543017 0.000512496 -2.63425e-06 -0.000178651 0.000342325 -0.000968136 0.00049332 0.000648771
0.000308145 -0.000265883 -0.000322798 0.000844369 -0.00021015 0.000953772 0.000501085 -0.000234535 0.000475362 0.00121995
-0.000268809 -9.60204e-05 -0.000499963 0.000197558 1.46921e-06 -0.000283569 0.000357279 0.000262271 0.000331236 0.000567818
-0.000917587 -0.000276031 -0.000381696 -1.08501e-05 0.000533705 -0.000265038 0.000221987 -0.000521264 0.00103277 0.000366623
-2.84302e-05 0.00162592 0.000382951 -0.000521749 -5.12485e-06 0.00055505 -0.00106143 0.000349433 -0.000387198 0.000548943
0.000366622 0.000302737 -0.000654055 0.000924409 -0.000366795 -0.000140141 -0.000705377 -0.000765465 0.00021865 -0.000184738
0.000786193 -0.000913971 -0.000536859 -0.000342178 1.97737e-05 -0.000348319 -0.000193368 -0.000482665 0.000572185 0.000390323
1.03278e-05 -0.000624442 -0.000758024 -0.000492465 0.000165788 0.000205026 -0.000877896 -1.04112e-06 -3.46295e-05 0.00106233
-0.000731932 1.98301e-05 0.000293357 -0.000550598 0.000566864 0.0002843 -0.000522571 -0.00138433 0.000661042 9.15876e-05
-0.000535161 -0.000217722 0.000541813 0.000900998 0.000126913 -0.00130688 0.00124673 -0.00116882 0.000867637 -0.000340465
-0.000417311 0.000449877 -0.000757972 0.000440222 0.000548986 0.000225496 0.000174681 -0.000526905 -0.000647961 0.000131526
0.000572275 0.000816883 -8.17567e-05 0.000785398 -0.000186343 -0.000482079 0.000899044 -0.000445134 0.000552885 0.000270803
0.000864978 -0.000167372 0.00061216 -0.000476016 -0.00128413 0.000764248 0.000619163 0.000558557 0.00036582 -0.000530664
-0.000409851 -0.000530164 -0.000868666 5.16342e-05 -0.00119446 -0.000852995 0.000392625 -0.00033971 -0.000254385 -0.000587297
0.000325804 0.000279685 0.000531603 0.000298834 -0.000345985 -0.00098682 0.000292741 0.00129068 6.3039e-05 0.000694188
-0.0011554 -0.000456325 -0.00111379 0.00133941 -0.000883834 0.000392609 0.00057976 0.000406235 0.000200246 -0.000355926
-0.00123343 -0.00088064 0.000372795 -0.000970067 0.000131853 -0.000327776 -0.000237383 -0.00135145 -0.000750543 0.000460829
-0.000624057 -0.000454554 -5.29407e-05 -6.99064e-05 0.000426654 0.000258153 0.000259384 0.000997307 -8.18915e-05 0.000348597
0.000761569 0.000366321 -0.000502355 0.000118923 -5.74364e-05 0.000306402 0.000223785 -0.000861551 0.000540624 -0.000681902
-0.000400244 -0.000981943 0.00106765 -0.000365447 -0.00104323 0.00118837 -0.000680801 -0.000523687 -6.74403e-05 -0.000375011
-0.00152479 -0.000286351 0.000264802 -0.000564413 0.00034567 0.000249317 7.68921e-05 0.000820439 -0.000425136 -0.000292499
0.000882582 0.000247069 0.000104866 0.000519923 -0.000334115 0.00112347 0.000201549 0.0002563 -0.000251455 -0.000783803
-5.82083e-05 -0.000262813 -0.000318526 0.000138362 0.000313009 -7.5745e-05 0.000215241 0.000581782 -0.000338269 7.10547e-05
2.80538e-05 -0.000134745 -0.000457952 -0.000107409 -1.77428e-05 -0.00019093 0.000581524 0.000142998 4.72514e-05 -0.00032833
0.000220892 0.00020209 -0.000486177 -0.00199982 0.000378235 8.91334e-05 -0.000332474 -0.000337665 -0.000380927 -0.000353701
0.000683819 -0.00109504 0.000155616 -0.00151184 -0.000709318 -0.000402783 0.000117992 0.000236747 -0.00028065 0.000225932
-0.000786698 0.000706916 -0.000901323 0.00067721 -0.000737367 -0.000319498 -0.000156342 0.000165653 0.000469006 0.000343547
0.00025645 -0.000539033 5.96794e-05 -2.44308e-05 -0.00110103 0.000682624 0.000262706 0.000956699 -0.000470142 0.000240593
-4.60273e-06 -0.000463083 -0.000698645 0.00055674 0.000467636 -0.000114839 -0.000180734 0.00100938 0.00044251 0.0018635
-0.000394695 6.39048e-06 -0.000266322 0.000377627 -0.00021286 -0.000538257 -5.88606e-05 -0.000203986 0.000103117 0.000401893
0.0002242 0.000656205 -0.000230218 0.000364945 -0.000834178 7.40371e-05 -0.000456014 -0.000367961 -0.000670709 -0.000473781
0.000372039 0.0011182 0.0004422 0.00102879 0.00107181 0.000443114 -0.000480545 0.000391618 -0.000219557 0.00048788
-0.00132869 0.00020757 -0.000358674 -0.000533269 -0.000917814 -0.0015834 1.98833e-05 -0.0011281 0.000711379 4.43649e-05
-0.00147828 -0.000719564 0.000158635 -0.000584914 -0.000486086 0.000512015 0.00102293 0.000292457 0.000919997 -9.24109e-05
-0.000714559 -0.000395227 -8.40619e-05 -0.000674557 -0.0012232 0.00042436 0.000454681 0.000132815 0.00121187 -0.00082927
0.000406132 -0.000176463 8.42195e-05 0.00077403 -0.000765387 -0.000421858 -0.000922669 -0.00122372 -0.000232401 -0.000282637
-0.000130829 0.000430835 0.000654076 -0.000539433 -4.12802e-05 -0.000329637 -0.000537219 -0.000236264 -0.000781774 0.000304955
0.00183506 1.27488e-05 -0.000174094 0.000121247 0.000447502 -0.000784849 0.000390902 -0.000511772 0.00193758 -0.00074608
0.000173095 0.000365692 -5.25714e-05 0.00071517 0.000972846 0.00081822 -0.000566157 -0.000348101 0.000711895 0.000456617
-0.000158169 -0.000990411 8.03804e-05 8.62957e-05 -0.00037679 5.5518e-05 0.00017411 9.96839e-05 0.000264132 0.000455331
-0.00115632 -0.000226919 0.000386431 -3.4687e-05 -0.000901778 -0.000274081 0.000610345 0.000392787 0.000316194 -0.000389131
-0.000846617 -0.00126313 -0.000290626 -0.000339127 -0.000344759 -0.000688073 0.00057079 0.000832425 -0.00044616 0.00104148
-0.000480542 0.000411585 -0.000189097 -0.000226231 -0.000341474 -0.000989393 0.000847821 -0.00102635 -0.000461477 0.00010259
0.000426152 -0.000974451 0.00050196 -0.000468366 -0.00027433 -0.000171227 -0.00139414 0.00101274 -0.000243421 9.28378e-05
0.000558183 -0.000933874 -3.19309e-05 0.0015058 0.00114212 0.000371849 -0.000525762 0.000953536 0.000466957 -0.000183677
-0.000124382 0.00137661 0.000166492 0.000752191 0.00110179 -0.00108683 -0.000128042 0.000246849 0.000609691 0.000517387
-7.71178e-05 -0.000480395 -2.70235e-05 -0.000176906 -0.000396019 -0.000212177 0.000412521 0.00106045 -0.000338522 0.00042596
0.000803719 0.000337822 -0.000756592 0.000111305 6.26945e-05 0.00125103 0.000894471 -0.000395773 -0.000907795 0.00145796
-0.00062106 0.000133391 0.00030591 0.00059439 -0.000564276 -0.000751547 0.000405212 3.26154e-05 0.000275953 0.000272014
-9.78257e-05 0.00065204 0.000576834 0.000420733 -0.000497248 5.52041e-05 0.000810615 -0.000397896 -0.000216947 -0.000122826
0.000172509 0.000505351 -0.00019442 8.82576e-05 -0.000898977 0.00128563 0.000488377 -0.0004273 -0.000614708 -0.000773841
0.000188211 0.000161465 -0.000371309 0.00103634 -3.76337e-05 -4.53544e-05 0.000724948 0.000414034 0.000176703 -0.000189118
0.000237292 -0.000630374 0.000168169 -0.000346014 -4.94626e-06 -0.000161714 -0.00140975 3.74607e-05 2.8128e-05 -0.000104992
0.000622043 -0.000408532 -0.00117494 0.00108706 -0.00055285 0.000408604 0.000210143 -0.000746763 0.00132406 -0.000431139
-0.00012537 -0.000534361 0.000298748 0.000207978 0.000211937 0.000340942 -0.000890743 -4.38087e-05 0.000315362 0.00112559
6.40813e-05 0.000169046 -4.82118e-06 -0.0014238 -6.0955e-05 0.000535508 -0.00125696 0.000784373 0.0012579 -7.63784e-05
-0.00078915 -0.000359365 0.000119362 -0.000917444 -0.00114469 -0.00111907 0.000472423 0.000317968 0.000348341 -0.000839321
-0.000102598 -8.12198e-05 -0.000569415 0.000581302 0.000267646 3.02214e-05 -0.000746367 -0.000898761 0.000518893 -0.000502689
-0.000266006 0.00134532 0.000935473 0.000790391 0.000199325 0.00015827 0.00153172 0.000153616 -0.000586743 -4.91005e-06
0.000359171 -0.000604795 0.00032168 7.16624e-05 -0.000197452 0.00112342 -0.000331386 -0.000340583 0.000749935 2.52707e-05
5.17989e-05 -0.000201493 -0.00116789 0.00042399 -0.000419676 0.000965411 0.000135782 -0.000811115 0.000727418 -0.00043754
0.000378082 -0.000719781 -0.000144149 -0.000243654 -0.000195833 -0.00122804 0.000202277 0.000397311 -0.000705685 -0.000232044
-0.000399882 -0.00047518 -0.000557551 -0.000355339 -0.000128417 6.55317e-05 0.000754477 0.000221244 0.000728395 0.000507326
-0.000113324 -0.000159363 -0.000168069 -0.000356999 0.000573653 6.447e-05 -0.000639047 -8.25327e-05 0.000768893 0.000475639
-0.000155576 -0.000714314 -5.2876e-05 0.000148034 0.000400601 -5.99364e-05 4.95743e-05 -0.000998174 0.000223076 -0.0002337
-0.000247534 0.00151797 -0.000429936 -0.000843241 0.00061134 0.000122822 -0.000390377 0.000869339 -0.000543571 -0.000213144
-0.000237686 0.000891239 0.000504801 0.000387315 -4.25519e-05 0.000287205 -0.000110739 0.000650347 4.20946e-05 0.000516997
0.000601733 -0.000111891 -0.000268206 -4.3864e-06 -0.000372801 0.000282649 0.000904913 -0.000801313 0.000822724 -8.07218e-05
-0.000304016 -0.000720199 0.000662349 -0.000360835 0.000493751 0.000563237 0.000900661 -0.000902531 -0.000807685 9.14736e-05
0.000103236 0.000293604 -0.000856115 0.000185635 -0.000859032 -0.000130659 -0.00112517 -0.000542998 -0.000712537 0.000840414
0.000579805 0.000170053 0.000790109 0.000655873 -0.000238833 -0.000631702 0.00135025 0.000237833 -0.00083569 -0.000625552
-0.000358299 -0.000591399 -5.35469e-05 -0.000552644 -0.000685673 -0.000890313 -0.000641779 -3.6792e-05 0.000865412 -0.000284183
-0.00147657 -0.00036076 0.00034259 0.000289508 -0.00100538 0.000377615 -0.000207911 -0.000928896 -0.000685305 0.000462367
-6.0847e-06 -0.000770497 0.000440693 -0.000400005 -0.000333094 -0.00134488 0.000189667 -0.000499586 0.000478172 0.000610804
0.000215999 0.000446765 0.00113749 -0.00119278 -0.000847706 0.000254821 0.00105626 -3.61866e-05 1.81484e-05 -0.000787651
-0.000951874 -0.000510018 -8.80045e-05 -0.000266652 0.00061092 7.99376e-05 0.000545799 -0.000210447 0.000126306 -0.000492178
0.000327547 -0.00054806 -0.00046639 -0.000443682 -0.00106653 -6.40367e-05 -5.1455e-05 -0.000240962 0.000333671 0.00103201
-3.11231e-05 -0.000774916 -0.000628641 -0.000470004 3.67256e-05 -0.00089359 0.000983423 -5.97538e-05 0.000281534 0.000503232
-0.000539227 -0.00115049 8.56953e-05 0.000773027 -0.00142443 -0.00112776 0.00025335 -0.00044911 -0.00113723 -5.42905e-05
-0.000696547 0.000414999 0.000592027 0.000598246 0.000561075 0.000570698 0.00118963 0.000887883 0.000462626 0.000577722
-4.24751e-05 -0.000264929 -0.000421556 -0.00047729 0.000283491 0.00102329 -0.000721833 0.00107165 -1.64254e-05 0.000267809
-0.000458724 -0.000486848 -0.000579881 -0.000533658 4.73236e-05 -0.000599308 -0.000218381 0.000674533 0.0010008 -0.00173942
-0.00068809 0.000545754 0.00110682 -0.000719432 -0.000910275 0.000804106 -0.00148022 -0.000629686 0.00020615 -0.00052242
-0.000208897 0.000376241 -0.000514763 -0.000370872 -0.000327049 -0.00119569 -0.000603951 0.00147495 -0.000575955 -0.000268024
-0.000827001 -0.000676462 -0.000180259 4.19322e-05 -0.00147844 -8.20041e-05 -0.000124751 0.000323475 0.000554836 -0.00138573
0.00023912 -0.00139257 -0.000339975 0.000597066 0.00022702 -0.000294912 -0.000958425 0.000324793 0.000926083 -7.9476e-05
9.21794e-05 0.000625742 -0.000538315 0.00014946 -0.000390299 -9.66283e-05 0.0010952 0.000716953 -0.00153998 0.00022623
-0.000180458 0.000960665 0.000133177 0.000665051 0.000737988 -0.00104791 -0.000232545 0.000718335 -0.00081743 0.000303986
-0.000792754 -0.00032667 0.000188529 0.000484213 0.000495073 -0.000473233 0.000164949 -0.000340387 -0.000645631 0.00109447
1.4506e-06 0.000547257 0.000148618 0.000554775 0.000162043 -0.000175957 3.74755e-05 0.000156959 0.00067193 0.00133002
-6.41944e-05 4.3152e-05 0.000951938 -0.000172016 0.00069992 0.000379535 0.000600633 -2.50888e-05 -0.000562466 -6.76054e-05
2.43553e-06 -0.00129594 0.000263725 -2.31394e-05 0.000369864 -0.000241404 0.00030379 0.000883264 0.000668599 -0.000328845
-0.000249293 -0.00058291 0.00041417 0.00194433 -0.000483567 -0.000436211 0.000389616 0.000597478 0.000290931 -0.000948705
-0.000510378 0.000169978 -0.000834985 0.000563655 0.000573211 0.000409964 -0.000281442 0.000571522 -0.000109412 0.000159527
0.000602445 -0.000250343 0.000197113 -0.000810944 -0.000211473 3.32988e-05 -7.20286e-05 -0.000131612 -0.000744465 -0.000573455
0.000381351 0.000562769 -0.000647752 0.000299969 0.000983695 0.000440466 -0.000238468 -0.000350311 0.000674091 0.000259085
-4.18549e-06 0.0014036 0.000609678 -0.000245138 0.000225297 0.000146556 0.000575843 0.000336704 0.000592887 -0.000570192
2.4373e-05 -0.000742157 -0.000810535 0.000295785 0.000537698 -0.000834421 -0.000558897 0.000123403 1.47409e-05 -0.00133262
-0.000698488 0.000498701 -0.000695236 0.000171144 0.000102527 -4.91144e-05 -0.000904371 0.000364637 -6.5262e-06 0.000900115
-0.000307741 5.7753e-05 -0.000287079 -0.00025541 -0.00133025 -0.000136923 -0.00120196 7.84459e-05 -0.000734008 -5.29779e-05
-3.28811e-05 -0.000759833 0.000335364 -2.78185e-05 -0.000930571 0.000162157 0.00139436 3.66322e-05 -0.000542096 0.000393018
0.000403889 0.000212457 -0.00118939 0.000661314 6.47855e-05 0.000828736 0.000471128 -0.000406259 -0.000130617 0.000956953
0.000564346 -2.52066e-05 0.000465679 0.000604479 -0.00169887 0.000292656 0.000261714 -0.000656245 -0.000932402 -0.000558132
0.00133319 -8.84447e-06 -0.001309 0.00089271 0.000542313 -0.00010712 -0.000122452 0.000201315 0.0011943 -0.000903307
-0.000472616 -0.000387382 -0.000244772 -0.000508531 0.000349611 -0.000288499 -0.000267086 -0.000150766 -0.000403749 -0.000688228
0.000204824 -0.00114546 0.000273228 0.000140638 -0.000656842 -0.00057968 0.000314336 0.00119294 0.000184684 -0.000480406
2.40596e-05 8.85861e-05 0.000331336 0.000469365 -3.07607e-05 0.000236783 0.00025128 -0.000376804 -0.000124816 -0.000320515
-0.000214184 0.000484632 0.000516359 -0.00102279 -0.00057452 -0.000763339 -0.000772386 -0.000525044 -0.000472853 -0.00043569
-0.000743209 0.000414362 -0.00030958 0.000317256 -0.000166557 0.000740928 0.00123861 0.000374876 -0.000448107 -0.000160054
-0.00108526 -9.04091e-05 0.000704115 -0.000574929 0.000738568 -0.000112946 0.00086364 -0.00140432 -8.67026e-05 0.000352079
0.000397913 -0.000908888 -0.000106291 -0.00064406 -0.000498418 0.000238505 0.000534244 -0.000357854 -0.000194917 4.60199e-05
9.52986e-05 0.00114663 -0.000753659 0.000673416 0.000847508 0.00190875 0.000687863 -0.000176451 0.000151377 -0.00035034
0.000161556 -0.000615955 -0.000324623 -2.05105e-05 -0.0011077 0.000362239 1.60005e-05 -8.73299e-06 -0.000609812 -0.000117267
0.00015397 0.000146433 0.000791661 -0.000162155 0.000902186 0.000649723 0.000174545 -0.000786291 0.000176071 -0.0009501
-0.000619558 0.000811019 8.87833e-05 -0.000497487 0.00113126 -0.000220358 2.53695e-06 -0.000217331 0.000330506 5.03979e-05
0.000179656 -0.00103733 0.00107096 0.00053452 -0.000157965 -6.68702e-05 0.000850301 0.000339471 -0.000895236 7.26235e-06
0.000974756 0.000974507 0.000466422 -7.91916e-05 0.000947942 9.89491e-05 0.000946004 0.000200643 0.00039676 0.000334334
0.000263414 -0.000734872 -0.000717214 0.000492126 0.000944459 0.00152237 0.000174404 0.00024637 3.41366e-05 -0.000370899
0.000173347 -0.000571687 0.000654281 -0.000297026 0.000115193 -0.000168133 -0.00103891 -0.000172668 -0.000680855 -8.35658e-05
0.000338527 0.000364398 -0.000231035 2.48367e-05 0.000315058 0.000920243 -0.000943294 -0.000727075 -0.000421022 -0.000604073
0.000473038 -9.13427e-05 -0.000130748 -0.000725448 0.00011867 -0.000109633 0.000592264 7.52484e-05 0.000624958 0.00113071
0.000251542 0.000130884 -0.000572303 4.30294e-05 -0.000796003 -6.56437e-05 0.000895835 -0.00180984 -0.000867675 0.000931005
0.000426408 0.0013338 -0.000153967 -0.000838007 -8.83262e-05 -0.000141005 0.00119891 -0.000145454 -0.00126315 -0.000683854
0.000145658 -0.00106452 0.000173412 0.0002005 0.000686669 -0.000935105 1.32706e-05 -0.000579934 -0.000334908 -0.000328475
-0.000767888 0.000738355 -7.8688e-05 0.000416657 0.000878354 -0.000561711 -0.000341555 -0.00134034 0.00119516 0.000940036
2.22978e-05 -0.000798968 -0.00069953 -0.000350918 0.00027536 0.000261587 -0.000470086 -0.00100962 0.00023513 -0.000203111
-0.000311136 0.000304073 0.000932539 0.000338916 -0.00140593 0.000618875 -0.000612926 0.000137955 -4.24794e-05 0.000288014
0.00023897 0.000154618 0.000608407 0.000120413 -0.000843093 -0.00048283 0.000693499 -8.3177e-05 0.000910153 0.000224641
-0.000673723 -0.00154661 -0.000283014 0.00034591 0.000203297 0.000123803 0.000436393 0.000326985 -0.00031824 -0.000403548
-5.54881e-05 -5.18451e-05 0.00110115 -0.000737196 0.000262869 -0.000314782 0.000558819 0.000211566 -0.000268692 0.000370577
0.000768168 0.000747842 0.0003019 -0.000582956 0.00109299 -0.00181586 -0.000344708 0.000523261 0.00145016 0.000571068
-0.00058511 0.00063164 -0.000157127 0.000226361 0.000883405 0.00026885 -0.000965528 -0.000952105 -0.000622584 0.000166783
0.00102976 0.000191845 0.000365983 -0.000691192 -0.000307318 -0.000876024 -0.0008633 0.000353584 -0.00133141 0.00043692
-0.000413667 0.000394177 -0.000917841 6.93672e-05 0.000672533 0.000343207 -0.000500998 -0.000862017 -0.000700103 0.000481434
-0.00140813 0.000461527 0.000913217 -0.000546778 0.000859663 0.00218926 0.000848095 -0.000516334 1.61251e-05 -0.000499265
-0.000595291 -0.000557511 -0.00129111 0.000413269 -0.000281355 0.00012285 0.000594351 0.000486216 0.00021569 3.02001e-05
-0.000420152 0.000248924 0.000669485 0.00165271 6.17973e-05 0.000432937 -0.000535474 -8.39853e-05 6.02854e-05 -0.000568344
0.000204119 0.00063182 -0.000272318 -0.000432713 -0.000323511 -0.000383697 0.00036037 0.000486879 0.000536983 0.00085795
0.00045864 -0.000466531 0.000102114 -0.000488334 -0.000862139 3.49312e-05 -0.000692606 -0.000564351 -0.000426543 -0.000429567
-0.000132217 0.000267231 0.000419844 -8.59669e-05 -0.000975593 0.00064671 -0.000940506 -0.000645844 -0.000258198 0.001603
0.000770124 -7.72725e-05 0.00105997 0.00013756 -0.00057802 -0.000574964 -6.56293e-05 6.46467e-05 0.0011819 -0.000546272
-0.00015984 -0.0009229 0.00064986 -7.96284e-05 -0.000552313 -0.000205884 0.000665025 0.000782893 0.000843029 -0.00121538
1.76228e-05 -0.000530324 -0.000575366 0.000346379 0.000541606 0.000415521 7.65791e-05 -0.000778869 0.000313898 -0.000107324
0.000447813 -0.000322496 -0.00116648 -0.000793516 0.000360084 -0.00075186 5.96365e-05 0.000516917 -4.40506e-05 0.000734123
0.0010325 -0.000735492 -0.000267684 -0.000348382 -0.000726954 -0.000315994 0.000405974 0.000736683 0.000221811 0.000211911
0.000158998 -0.000762835 -0.000460636 0.00124438 -0.000227532 -0.000609532 0.000173126 0.000191166 -0.000431678 -0.00021071
0.00050789 -0.000801554 -0.00107216 0.000126278 -0.00017254 -0.000578893 -9.19265e-05 -2.51621e-05 0.000378768 -0.000412287
-0.000380516 -0.00107472 0.00059906 -0.000741073 0.000917536 0.000686744 0.00035405 0.000548825 0.000634838 -0.00046508
0.000667813 -0.000596157 0.000838694 -0.000995992 0.000399814 -0.000340001 0.000452103 -0.000184894 -0.000260084 -0.000512858
-4.56123e-05 0.000288879 0.000636805 0.000263121 -5.12474e-05 -0.000263526 0.000398303 -4.83048e-05 -0.000871595 0.000795665
-0.000639688 -0.000332612 0.000331075 -0.000464878 0.000569413 -6.38975e-05 -1.56648e-05 -0.000750157 0.000149081 -0.00120731
-0.000504078 0.00067708 -0.000501384 0.000135368 -0.000465244 -0.000840861 0.000997775 0.000140709 0.000541302 -0.00131326
-0.000120854 0.000205707 0.000217455 -0.000877301 -0.000935865 -0.000243788 -0.000471187 4.85805e-05 0.000878703 -0.000958162
0.00025527 -0.000161057 -0.000480091 0.000155271 0.000870423 0.000228474 -0.000388296 -0.000500677 -0.000297064 -1.02444e-05
0.000945196 -0.000634026 -0.000550525 -0.000571673 -0.000588899 3.25642e-05 -0.000296972 -0.000548998 0.0013547 -0.000823363
0.00146189 -0.000615489 0.000106154 -0.000727068 -0.00211884 0.00159916 0.00147861 0.000982141 -6.1519e-05 -0.000200923
0.00128181 0.00169616 -8.99977e-05 0.000513537 0.000795756 0.000731493 4.41022e-05 -0.00103484 0.000625276 -0.00158641
0.000238651 -0.000995793 -0.000833432 -0.000506772 -7.33337e-05 0.000572846 0.000559953 -0.0006145 -0.000636205 -0.000696409
0.000359087 0.000348619 0.000312922 -0.000498275 -0.000133879 -0.000628047 -0.000420536 -0.000470687 0.000259599 -6.10166e-05
2.59554e-05 -0.000990315 0.000325846 0.00101252 -0.00040041 -0.00116864 0.000771365 7.24336e-05 0.00090984 -0.000149197
3.92546e-05 0.000248625 -0.000764455 -0.000299433 0.00123144 0.000349639 0.000200897 -0.000233083 -0.000231862 0.00145723
0.00117547 -0.000606355 0.00016094 0.00147392 -0.00111174 0.00019275 0.000830749 4.62994e-05 -0.000205259 9.21084e-05
-0.00061032 0.000420731 0.000480373 -0.000560334 9.93149e-05 -0.000206644 -0.000361143 -9.30487e-05 9.12161e-05 0.000866932
8.38874e-05 -0.000498665 0.00045723 0.0014107 7.65994e-05 -0.000420045 -0.000123937 -0.00122645 -0.000100164 0.000251816
0.000971381 -0.000901161 -0.000157125 -0.0013269 3.23169e-05 -0.000256586 -0.000942479 3.39557e-05 0.000337833 0.000560918
-6.29129e-05 -0.000903684 -0.00018985 -0.000355151 0.00102526 0.000598684 0.000385384 -0.000141995 0.000751232 0.000137857
1.72677e-05 -0.000486656 -0.00120498 0.00108614 -0.000438322 -0.00135024 0.000192093 -0.000294694 0.000188006 -0.000827749
-0.000393819 0.000711895 0.000643538 -0.000618072 -0.00136773 0.000443822 -0.000716671 -0.0012821 0.000937396 0.00105175
-0.000108937 -0.000670505 -0.000279368 0.00134202 -0.000527145 -0.000966776 -9.22657e-05 0.000433252 0.000610182 0.000431123
0.00101716 0.000634748 -0.000968727 -0.000326943 0.000389599 0.000480733 0.000529464 -0.000535063 5.73039e-05 -0.000239023
0.000685351 -0.000321006 -0.000176869 -0.000445812 -0.000574284 0.00146669 0.000363875 7.41466e-05 0.00078874 -0.000660852
-5.76989e-05 0.000368124 -0.00032532 0.000549237 0.000285617 -0.000602058 0.000342665 -0.000188938 0.000919917 0.000186609
0.000472905 0.000181987 8.63311e-05 0.000302207 -0.0012946 -0.000767727 0.000527614 0.000150155 0.000231717 0.000135633
-0.000716987 4.09027e-05 -1.85793e-05 0.00028871 -0.000330209 -0.000725968 0.000473577 0.00087238 1.69133e-05 -0.000581817
0.000362081 0.000167253 6.25717e-05 -0.000897308 0.000425836 0.000395033 0.000226602 0.000848743 0.00129448 0.000376346
0.00116532 -0.000447314 0.000111573 -0.000228989 0.000299492 -0.000594017 -0.000572117 0.000210076 -0.000105492 -0.000748106
-0.00102869 0.000385367 -0.00049181 -0.00041703 8.61439e-05 -0.000969562 2.75064e-05 -0.000728857 0.00107892 -0.000187921
-0.000999044 -0.000531217 0.000699111 0.000724586 0.000584508 -4.53148e-05 -0.00047495 0.000497085 0.000886079 -0.000492282
0.000287955 -0.000406511 -0.000764228 -0.0004908 0.00124264 0.000389959 0.000144758 -0.000635759 -6.97002e-05 0.000137
-0.000247261 0.000251723 -0.00017053 0.000854639 0.000563401 2.80529e-06 -0.000786946 -0.000546912 -0.000897722 -9.2508e-05
-0.00105678 0.000772376 -0.000391077 -0.000449667 0.00135829 -0.000556055 0.000230038 -7.99126e-05 0.000423296 -0.000542005
-0.000810894 -0.000605677 0.000241893 -1.74527e-05 0.000387429 -4.15452e-05 0.000118093 0.000535548 0.000615365 -0.000680362
0.000759811 9.39429e-05 0.000735269 -0.000357052 3.55151e-05 0.000414862 0.000446245 0.000627222 0.000988674 1.65863e-05
0.000690192 -0.0011984 -0.000214768 0.000138941 0.000825615 -7.81685e-05 0.00028207 0.00147996 -0.000819131 0.00106266
-0.000272093 -1.56062e-05 0.00033712 0.00053578 0.000382413 -0.000771398 -0.000212734 0.000808756 -6.79995e-05 -0.000144771
0.000294273 0.000240757 7.67427e-05 0.000833677 0.000593598 6.71773e-05 -0.00150966 -2.29658e-05 -0.000258004 0.00153454
-0.000213014 -0.00130617 0.000870682 0.000364051 0.00080189 0.00071245 -0.000113173 -0.00129917 -0.000142951 -0.000823733
0.000805823 -3.16416e-05 0.000714298 -0.000258175 -2.53644e-05 -0.000462364 -0.00106158 -0.00131705 -0.000517311 -4.4893e-05
-0.000971406 -0.000830628 0.000593968 0.000519123 0.000419341 -7.68754e-05 -0.000413636 -0.00029392 0.000254618 0.00105063
4.42523e-05 -0.000176199 -0.000293185 -0.00047613 -0.000502113 -0.000398467 -0.000387302 0.00134295 0.000278096 0.000689326
-0.000557218 -0.000875254 0.000755386 0.000237252 0.000103898 -9.97829e-05 -0.000163013 -0.000126747 -0.000321363 1.80957e-05
7.7867e-06 0.000449003 -0.000458442 0.000272605 -0.000294162 -0.000831306 -0.000102534 7.86327e-05 4.69538e-05 -0.000260902
-6.90717e-05 -0.00103592 -0.000593311 0.000810502 0.000568087 -0.000567007 0.000251816 -0.000123234 -0.000316229 -0.000174984
-0.00034308 0.000623639 0.000642767 0.000650288 0.000249647 -0.00121813 -6.1742e-05 -0.000974394 -5.2878e-05 -0.000348198
9.97031e-05 -0.000388517 0.000527532 0.000170172 0.000304206 0.000999811 0.000157359 0.000138367 -0.000265804 -6.72664e-05
-0.000733089 -0.000398635 0.00142623 -0.000729734 -0.000658102 0.00034045 -0.00138402 0.000759468 -0.00119998 0.00103037
0.00081957 4.76759e-05 -0.000344363 -0.000370153 2.80595e-05 -0.00016255 -3.43804e-06 0.000562008 0.000348865 -0.000491702
-0.000176103 -0.00129664 0.000225052 1.86815e-05 -0.000258747 0.000855845 -0.00103766 -4.39416e-05 -0.000692329 -0.000547637
4.62913e-05 -8.35853e-05 0.000685618 -0.000253754 -0.000156631 0.000178174 0.000212375 9.91981e-05 -4.50687e-05 0.000402952
0.00011162 -3.73195e-05 0.000268082 0.00064265 -0.00071524 0.000314333 0.000133617 0.000817636 0.00120157 0.000345969
0.00101473 8.523e-05 0.00014617 -0.000382201 0.000792464 -0.00122734 0.000689013 0.000865887 -0.000371515 0.000315392
0.00128761 0.000720876 0.000372233 0.00046841 -0.00139728 9.57992e-05 -0.000573357 0.000189694 0.0012628 -0.000764151
-0.000294385 -0.000212568 0.000293366 0.000828192 -0.000219854 -0.000926583 0.000605224 -0.000428755 -4.3405e-05 -0.000575928
0.00070841 -0.000290362 -0.000232332 -0.00066963 0.000255035 6.81115e-05 0.000163688 0.000464062 -0.000414667 -5.71541e-05
0.000896446 -0.000930682 -0.000981917 0.000644324 0.00024061 -0.000683349 -9.48228e-05 0.000148826 -3.23528e-06 4.4316e-05
-8.0069e-05 0.000767476 9.43925e-05 -0.000553624 -0.0002963 5.39834e-06 0.00116168 0.000355295 0.000384537 -0.00101742
-5.8871e-05 -0.00125654 -0.00082771 0.00178584 -0.000387052 -0.000121755 0.000273055 -0.00040804 0.00101214 0.00131904
-0.000470517 -0.000606529 -0.00116749 3.09843e-05 -0.000176256 -0.00019093 8.89177e-05 -0.000569767 -0.000695457 -0.00033526
9.13368e-05 -0.000901939 0.000513415 -0.000442547 -3.64999e-05 -0.0010117 0.000239699 0.000435486 0.000519114 -0.000213728
0.000259974 0.000347042 0.000144823 -0.000489741 7.18072e-05 -0.000705842 0.000113758 0.000312085 0.000851582 -0.000195142
-0.000279673 0.000950653 -0.000109685 -0.000940154 -0.000430654 -0.000467717 -0.000214148 0.00115521 -0.000689993 0.000675781
-0.000432219 0.000115128 -0.00107898 -6.60608e-05 0.00112632 0.000197134 -0.000233256 0.00114538 0.00048593 -0.000751433
-0.000920863 0.000371041 -0.000347204 0.000524653 2.76569e-05 0.000538731 -0.00125969 5.10961e-05 0.000187062 -7.28697e-05
0.00026349 -0.000645826 -0.000130385 0.000107001 -9.94938e-05 -0.000657399 0.00073014 0.00049789 0.000406802 -0.00034637
0.000647871 -0.000316304 2.97771e-05 0.00128199 -0.000476854 0.000393714 -0.000482687 -0.00029368 -0.000324444 -0.000375771
0.00065361 0.000416716 -0.00100214 0.000401346 -0.000134775 0.000552475 -0.000896133 -0.000297758 0.000396501 0.000460019
0.00047194 0.000103469 0.000294041 -0.000774952 0.00156329 0.000264841 -0.000716498 -0.000584444 -0.000217659 0.000273618
-0.000990181 -0.000192417 2.13132e-05 2.9251e-06 -0.000833887 -3.15595e-05 0.000408281 0.000473853 -0.00107759 0.000453891
-0.00105201 0.000334131 0.000461043 -0.00105745 0.00111759 0.000932256 -0.000947845 -0.000650445 -0.000446967 0.00115135
-0.00112793 -0.000868938 0.000776909 0.000558336 -4.85666e-05 -0.000203039 0.000601192 -0.000561689 0.000873069 0.000131305
-0.000312239 -0.000409599 0.000418992 0.000738523 -0.00031908 -4.6663e-05 0.000179229 -0.000598516 -0.000844193 0.000773676
0.00108232 -6.98532e-05 -0.000857855 -0.000378593 -0.000896601 -0.000880885 0.000100937 2.35765e-05 0.000435687 -0.000236715
0.000407026 7.85049e-05 -0.000244746 0.0010537 -0.000310605 0.000239941 -0.000144115 -0.000750657 0.000249238 -0.000873048
-0.000605389 0.000220199 0.000491929 0.000174476 -0.000445791 -0.000120437 0.000355398 0.000248479 -0.0017154 0.000676398
5.44193e-05 -0.000461947 0.00113913 -0.000804265 0.000670824 -0.000500274 0.000332221 0.00106284 0.000125714 -0.000365062
-0.000910139 0.000461176 0.00061859 -0.000195902 0.000351131 -0.000441612 0.000552659 0.000817476 -0.000406329 -0.00104671
-0.000122406 0.000747393 0.000135366 3.07638e-05 0.000893151 -0.000527808 0.000158789 5.06723e-05 0.000751212 0.0013472
9.93845e-05 -0.000554179 -0.00111891 -0.000775181 0.000399286 0.000378892 0.000979056 -6.29788e-05 -0.000809943 0.000400351
0.00164766 -0.00102882 -0.000106563 -0.000647974 -0.000345647 0.000903813 0.00028423 0.00022244 -0.000262654 0.000608558
-0.000316737 -0.000801452 0.000259883 0.000890473 -0.000198372 0.000121496 0.000471199 0.000879648 2.32292e-05 -0.000840067
3.54313e-05 -0.000658813 -0.000141566 -7.14903e-06 0.000644173 0.000419585 -0.000126586 0.00116043 0.000531195 -0.000400934
0.00102299 -0.000414208 0.000389895 0.00115061 0.000166024 -0.00123874 -0.000368718 0.000328301 0.000777381 -0.000197557
-0.000180597 -0.000403229 -0.00123096 4.48215e-05 -0.000621994 -0.000173796 0.000225161 -0.000423549 0.000945285 -0.0012752
0.000658779 -0.000408287 8.05547e-05 -0.000506936 -0.000780406 -1.82538e-05 -0.000104928 -0.00128595 -5.80558e-05 0.000556918
-0.000773367 9.15148e-05 0.000547947 0.000349377 0.000541722 0.000621083 0.000689761 2.34207e-05 -0.00103648 0.000243059
-0.000168842 -0.000179406 -0.000399959 0.000604239 -0.000371367 0.00036713 0.000224492 0.000663307 -4.10939e-05 -0.0012869
-0.000576945 -0.000198054 0.00058823 0.000341893 -0.00081325 -0.00107163 0.000212866 -9.84304e-05 -0.000446311 0.000875952
4.9294e-05 -0.000803739 0.000889563 -0.000857521 -4.61523e-05 -0.000511691 -0.000101768 -0.000775631 0.000627682 -0.000249887
-0.000364648 0.000201943 6.01632e-05 0.000602111 0.000814595 -0.000361128 3.30956e-05 -0.00047484 -0.000124876 -0.000203981
0.000696788 0.000143805 0.000533285 2.89023e-06 4.4699e-05 0.000157865 -3.46787e-05 0.000196997 -0.000465565 0.000296899
-9.34367e-05 -0.000423097 0.000229691 0.000659153 0.000581901 -9.59578e-05 0.00026447 0.000151846 0.000591835 2.7077e-05
0.000184374 0.000494654 0.000340503 -0.000499205 0.000629307 0.000444164 -1.85257e-05 -0.000936516 -0.000144448 -0.000605102
0.00063199 0.000810423 0.000117587 0.000261269 0.000284116 0.000907221 -0.000844277 -0.000260181 -0.000697584 0.00116357
-0.000565316 -0.000454078 0.000999096 -0.00159426 9.87861e-06 -0.00113152 -0.000283655 5.77498e-05 -0.000903735 -9.24982e-06
9.21839e-05 0.000465878 0.000512636 -0.0010654 -0.000381381 0.000303319 -0.00145427 0.000199482 0.000538635 -0.000312494
0.000232652 0.00137748 -0.000569441 -0.000181475 0.00083063 0.000569946 -0.000620713 0.000211378 0.000700662 -0.000591575
-0.000207437 -0.000812204 -0.000931876 -0.000591076 2.5968e-05 -0.000130769 -0.0012655 -1.26286e-05 0.00080527 -0.000237029
-0.000268255 0.000428708 0.000393529 0.000422935 -0.000437431 0.000196467 0.00027472 0.000122873 -0.000599626 0.000275849
-0.000805422 -0.00077916 -2.5881e-05 0.000763068 0.000165984 -0.000928262 4.25024e-05 0.000704786 0.000325303 -0.000313679
-0.000894563 -0.000473909 0.000677301 -0.00141093 0.00012236 0.000133232 0.00101887 -0.00109192 -2.72755e-05 0.000248776
0.000711021 -0.00015839 -0.000893844 0.000705022 0.00110946 0.00044757 -0.000461788 -0.000116854 -0.000900258 0.000410143
-0.000751605 -0.00030076 0.000363032 0.000183201 0.000241116 -4.94521e-07 -0.000749328 0.000413173 -0.000690932 -0.000756018
0.000440778 -0.000699686 5.00233e-05 2.12634e-05 0.000120945 0.000458473 2.72422e-05 -3.41294e-05 -0.000519942 0.000212811
0.000463862 -0.00101659 -0.000135537 -0.000480723 7.77855e-05 -0.000163036 0.000372231 -0.00135777 0.000351907 -0.001081
-0.000385199 -0.000371185 0.000282128 2.69803e-05 -0.00155244 -0.00076347 0.000657886 0.000526868 -0.00016355 -0.00114102
-0.000934876 -0.000473841 8.67514e-05 0.000243904 -0.000142842 0.000109714 -0.000362575 0.000447136 -0.000412441 -0.000680651
0.000699372 0.0022734 0.000533901 0.000295098 0.00029883 -7.16714e-05 0.000334328 0.000553314 -3.05725e-05 -0.000631575
-0.00130262 -1.59857e-05 0.000401874 -0.000333078 -0.000585287 -0.000438145 2.95535e-05 -0.000405255 -0.000429451 -0.000281321
0.000901444 8.10206e-05 0.000900436 -0.000310354 -0.0006439 -0.000859978 0.000577538 0.000621762 0.000461746 -0.00133379
-0.000209895 0.000866978 -0.000404974 9.76697e-05 0.000128108 0.00142207 0.000196636 -0.000232025 0.000353453 -0.000387947
0.000210545 -0.000452078 9.31386e-05 0.000573993 -0.000438753 -0.000197725 -0.000194228 -0.000302149 -0.000328957 -0.00115942
-0.00043595 -0.000515895 0.00064817 4.54508e-05 -0.000379103 0.000608255 0.00104584 0.00018552 0.00010717 -0.000470369
-0.000801823 0.000460948 0.000759548 8.43415e-05 0.00051789 -0.000176861 6.39943e-06 -0.000441717 -0.000804162 -0.000130836
0.000247318 -0.000876958 0.000672192 0.000902436 -0.000744645 0.000615862 0.00082016 -0.000615247 -0.000310279 1.95371e-06
0.000717115 0.000514344 -0.000624857 0.000705483 -9.89923e-05 6.2059e-06 0.000471994 -0.000636785 -0.000204083 0.00117027
-0.000706987 -2.8865e-05 -0.000198224 0.000626404 0.000262985 -9.99347e-05 7.21965e-05 -0.000150552 -0.000231689 -0.000155064
6.78304e-05 0.00135286 -0.000136959 -0.000142748 0.000410225 -0.00020853 -0.00140976 0.000640928 -0.000206501 1.25e-05
0.000308194 -0.000395838 0.000220111 -0.000850006 0.00061267 -0.000232041 -0.000381345 -0.00124432 -0.000487813 0.00047841
2.85908e-05 -1.57663e-05 0.000266589 -0.000682371 -0.000110565 0.00021573 0.000947584 -0.000382469 0.000619449 0.000434046
0.000359845 -0.000301629 -0.00028397 -0.000408786 -0.000306762 0.000455773 -0.0002677 0.000762172 -0.000491734 0.000339387
0.000831172 -0.000554313 -0.000133591 6.21642e-05 -0.000430777 -0.000138744 -0.000985684 0.00130617 -0.000111173 -6.67506e-05
-0.000516533 0.000177123 0.000215861 -0.000545896 0.000432952 0.000441968 0.00050748 0.000501721 0.00129323 -7.66584e-05
0.000406013 0.000341711 0.000894704 -0.00030732 -0.000715165 0.000291407 -0.000741933 0.000279869 0.00135848 -0.000173686
-0.000284806 -2.95966e-05 -1.76079e-05 0.000171478 0.000383244 -0.000963142 -0.000130797 0.00109094 0.000698883 0.000612936
-0.000238974 0.000101625 -0.000341285 -0.000479476 -0.000868418 -0.000403705 0.00109716 0.000185324 0.00118561 0.000627676
2.76115e-05 -0.000172082 -0.000614557 0.000268917 0.000540473 -0.001377 0.000447171 -0.000110935 -0.000163411 0.0002895
-0.000360872 4.13416e-05 0.000271596 0.00016919 0.000600769 -0.000303456 -0.000852991 0.000171477 -0.000488844 0.000854221
-0.000167572 -0.000707238 0.000325695 -0.000187502 0.000201668 -0.00017164 0.00025402 0.000907415 0.000338386 -0.000466133
-7.41409e-05 5.79295e-05 -0.00054515 0.00094379 -0.000206783 -0.000679086 0.000341603 5.14665e-06 -0.000110014 -0.000845283
-0.000456305 -0.000689721 -0.000395423 -0.000648508 0.00093511 0.000327274 -8.46531e-06 0.000142085 -0.000732833 -0.000608664
-7.34783e-05 -0.00118104 9.04298e-05 0.000141979 -0.000653946 -5.906e-05 -0.000697425 0.000314615 -0.000678155 -0.00104618
0.000492892 -0.000950611 0.000628502 5.26105e-05 -0.000978986 0.000487823 0.00115532 0.000127806 0.00022708 -0.00137334
0.000433921 0.000541203 0.000163663 0.0010722 -0.00026027 6.65624e-05 -0.000181255 -0.000867467 0.000417127 -0.000392449
0.000538724 -0.000443827 -0.00114628 0.000340631 -0.000285178 0.00045695 0.000459246 0.000370454 -0.000844636 -0.00032785
-0.00137172 0.000447279 0.000197065 -0.000112812 0.000700414 -8.72887e-05 0.000708411 0.000119524 9.92988e-05 -2.06641e-05
0.000629907 -0.000377316 -0.000205446 0.000301187 -6.54715e-05 -0.00072507 -0.000318614 0.000894288 -0.000608852 0.000848253
-0.000949512 -8.93086e-05 0.000259447 2.17757e-05 0.000623496 -0.00168042 0.00016326 -0.000378732 -0.000936419 0.000441083
0.000132315 0.000266758 0.000534963 -0.00025147 -0.000617866 -0.000880194 -0.000661566 -0.0013188 -0.000162323 -0.00154008
-8.51633e-05 -0.000860741 -0.000960948 -0.000992616 -0.000175293 -0.000112445 -0.000701326 -0.000373645 -3.24201e-05 -0.000418366
3.7392e-05 -0.00127775 0.000383685 0.000254936 0.000508313 0.000278515 -0.000166898 2.0465e-05 0.0006478 -0.000298667
-0.0013742 0.00135988 0.000343901 -6.17195e-05 -0.000596741 -0.000947998 9.86673e-05 -0.000945304 0.000718225 -0.00055317
0.000590381 0.000637968 -0.000378712 0.000244493 0.000173449 -0.000214714 -0.00137789 7.32525e-05 0.000253759 0.000303347
-0.000329946 -2.67469e-05 -0.000837682 -0.000680655 0.000591292 -0.00012535 -0.000105657 -0.000607402 0.000309702 0.000145231
-0.000390428 -0.00083026 0.000417327 0.000926931 4.70879e-05 -0.000480029 0.000631009 -0.000500586 -0.000277814 0.000659871
-0.000842977 0.000718542 -0.000280166 0.000457591 0.000445097 -0.000140676 -0.000541788 4.40945e-05 0.000260578 0.000492805
0.000144565 0.000488607 0.000258774 0.00148595 -0.000582318 -0.000861968 0.000356832 -0.000757672 0.000964077 0.00011972
0.000321665 -0.000401235 -0.000166142 -1.10188e-05 -0.000398181 -0.000354788 0.000435605 -0.000706279 0.000683659 -0.00071627
0.000354965 -0.001461 -0.000827829 0.000185924 -0.000309981 0.00114866 0.000348886 -0.000168343 0.000218908 -0.000919487
0.000513733 0.000371982 0.000682555 0.000160605 -0.000898613 0.00058452 -0.000193778 0.000170288 0.000777838 0.000195268
-0.00052583 0.00017572 7.27574e-05 -0.000229355 -1.96114e-05 -0.000237399 -0.000608309 0.00050663 -0.000698704 -0.000525853
-0.000420139 -0.000502872 0.000575802 0.00105535 0.000574275 0.00060697 -0.00102335 -0.000312076 -0.00065687 0.00112629
0.00115626 -0.000104962 0.000303159 -0.000600835 0.00105164 0.000274076 0.00021041 -0.00066554 -0.000510325 3.3358e-05
0.000744428 0.000509822 -0.000395518 2.04808e-05 0.000623383 -0.000697798 -0.000392767 0.000475323 -0.000721179 0.000638506
-0.000566884 -0.00132116 -0.000597091 -0.0016301 0.000312705 -0.000689118 -0.000497983 -0.000573627 -0.000692616 0.00106729
0.000178989 0.000116872 0.000394896 -0.00100725 -0.00104955 8.64294e-05 0.000548819 -0.000273676 0.00072439 -4.45957e-05
-0.000855727 -0.000266255 -0.000384525 -0.000945625 0.000108861 -0.000754526 0.000294275 0.000150828 0.00016131 -6.85647e-05
0.000402872 -0.00024327 -0.000158377 0.00139432 -0.000602545 0.000923125 7.46663e-05 0.000158243 0.000641202 0.000321215
4.84823e-05 0.000121415 0.000438531 0.000188171 0.000740117 0.000576253 0.00155052 -0.000685188 -0.000474946 0.000112197
0.0006007 0.000954066 0.00055019 0.000474386 -0.000457459 -1.84822e-05 0.000455165 -0.00024811 -2.6357e-05 -0.000475639
-0.00172774 -0.000348245 0.000133849 0.000721247 -0.000636527 0.000505423 -0.000135056 -0.00038499 0.0003299 -0.000359588
0.000117205 0.000227917 -0.000888964 0.00112645 0.00133709 -0.000465207 0.000596473 0.000416783 -0.000401144 -0.000171831
-0.000112711 0.00053203 0.000205242 0.000628575 0.000276215 0.000637043 0.000750391 -0.000304882 -4.43315e-06 0.000281942
-0.000319922 0.000623431 -0.000119337 0.00088305 0.000115165 -0.000727956 -0.00028199 0.000345978 0.00109901 -0.000420136
0.000831039 0.000841881 0.000344542 9.63256e-05 0.000351075 0.000636169 0.000651984 0.000291034 0.000702111 0.000403536
-0.000391339 0.000675196 -0.000100529 0.000179713 -0.000111921 0.000555732 0.000805826 -0.000345518 -0.000349336 -0.000398722
-0.000717095 1.76224e-05 -0.000284076 -0.000581994 -0.000482453 0.000122423 0.000505357 -0.000232947 0.000321107 -0.00074848
-0.000646652 0.000116259 0.00147616 1.99959e-05 0.000502757 -9.2847e-05 0.00064196 -0.000487661 0.000314708 -0.000288599
0.000226386 -0.000631759 -0.000505812 -0.000111873 0.000151138 0.000195335 0.00161776 -0.000643455 -0.000821596 -6.90433e-05
-0.00015954 -0.000543533 -0.0013389 -0.000158955 0.000750458 0.000655287 9.12759e-05 -0.000292153 0.00031024 -0.00092131
0.000333191 0.000423058 0.00057962 5.01949e-05 -0.000808381 0.000976071 -0.00124863 0.000793856 0.000374496 0.000210823
0.000456791 0.000106208 0.000684707 -0.00101445 0.000661351 -0.000804956 0.00076301 -0.000908384 0.000443355 0.000131973
-0.000558176 0.000500854 0.000127768 -0.000470632 -0.000601251 -0.000641542 -0.000349982 7.49848e-05 0.000612673 -0.000383608
-0.000901531 0.00023247 0.000894433 -0.000201225 -0.000557763 0.000316014 -0.00025625 0.000393416 0.000523044 -0.00164979
-0.00104572 0.000695439 -0.000254642 0.000887354 -0.000479045 -0.000240128 0.000410407 -0.000678436 -0.00115819 -0.000848955
0.00154038 0.000153121 0.000142067 0.000247592 -6.93513e-05 -0.000427037 7.43795e-05 -0.00133074 0.000608767 -0.000288153
-0.000400828 -0.000390415 -0.000434031 0.00053255 -0.000623953 -0.00037029 0.00105204 -0.000163249 6.54829e-05 0.000568476
-0.000274829 -0.000150011 -0.000947755 8.9773e-05 -0.00166499 -0.000139405 0.000599389 0.000504321 0.000449426 -3.74977e-05
0.000943923 -8.93543e-05 -0.000635392 -0.00034649 -0.000200934 0.000367686 0.000580742 4.21103e-05 -0.00108701 0.000215221
0.000933638 -0.000575469 0.000121907 -0.000347813 -0.000277493 -0.000866655 -0.00179191 -0.00123181 -1.56914e-05 -0.000122323
0.000174622 -0.00101144 9.90884e-05 -0.00141136 0.000499569 -0.000324117 0.00052525 0.00109895 0.000787054 0.0017486
0.00125564 0.000581324 1.61917e-05 0.000998361 0.00075181 0.000976746 -0.000420489 0.00072775 0.00056063 -0.000272956
6.70901e-05 0.00017775 0.000833301 -1.0945e-05 -6.59925e-05 -0.000459802 0.000375285 0.00017522 -5.00406e-05 0.00111327
0.000158178 -0.000318488 0.000163029 -0.000830906 0.000935295 0.000479653 0.000511708 0.000226332 0.000387612 9.99401e-05
-0.000705988 6.3781e-05 -0.000495981 0.000454822 0.000736246 0.000784387 -0.00089429 -0.000215367 0.00046785 -0.000303909
-6.85541e-05 -0.000959555 0.000349726 -0.00023875 0.000315226 -0.000340798 -0.00148593 -0.000816693 -9.56575e-05 -0.000142166