-0.0173334 0.0154824 0.0183224 0.0200417 -0.00340078 0.00116652 0.00408878 0.000795301 -0.000185306 -0.00717715 -0.0151121 -0.0019996 -0.00307803 -0.0012747 0.00378551 0.00436156 0.000723759 0.00124282 -0.00915099 0.00809645 0.0196473 -0.00213952 0.00223481 -0.00148105 0.00512666 -0.00175414 -0.00861802 0.00427354 -0.0146424 0.00763881 0.00715188 -0.0114738 0.00290395 -0.00455445 -0.0107655 -0.0126806 0.0156391 0.00972848 0.0133403 0.00559184 -0.0118188 -0.0166367 0.00369978 -0.00422379 0.000268849 0.00252358 -0.0117465 -0.00115188 -0.00509731 0.00591469 -0.000895632 0.00903655 0.00152906 -0.00797275 -0.0130045 0.0191136 -0.0100145 0.00588479 0.00336908 -0.00165414 0.00335288 0.0139906 0.00118167 0.000497086 -0.0132582 -0.0034007 -0.0177858 0.00445453 0.00106487 -0.0135217 0.00222302 0.00847194 -0.011722 -0.00431192 -0.0056735 0.0037199 -0.00837418 0.00183798 -0.00667976 0.0154582 -0.00758437 -0.00925693 -0.0153784 -0.00572014 0.00764913 -0.00497861 0.00410823 -0.0013039 -0.00320277 0.0063269 0.0115267 -0.00951431 -0.00976202 -0.000809962 -0.00886381 -0.00177037 -0.0133198 0.00349775 -0.00384181 0.0071118 0.00537959 -0.00841198 -0.0149032 -0.0146944 0.00800424 0.0010208 0.0101294 -0.00471023 0.00895381 0.00681412 0.00241525 -0.00428748 0.00022548 0.00461969 0.00125348 -0.00688172 -0.0103189 0.000745838 -0.00814441 0.00296856 -0.00445487 0.0118731 0.00831296 0.0117053 0.0118888 -0.000654116 -0.00279263 0.0123056 0.00667561 0.00738951 -0.0110588 0.00103865 -0.00679536 -0.00219317 0.00646055 0.0161732 -0.0115283 -0.00285926 0.00842842 -0.0057309 -0.0161797 0.00905506 -0.00272161 0.00675944 0.0035003 0.0161877 -0.00329569 -0.00881635 0.00866289 0.00406116 0.00146951 -0.00418961 -0.00251129 0.00767024 -0.00493852 0.0147971 0.00600327 0.00308377 -0.0155662 -0.00660202 0.000866308 0.0221792 -9.79839e-05 0.014538 0.00419815 0.00802709 -0.00330458 -0.014649 -0.0033358 0.011344 0.00789288 -0.00257918 -0.00344758 0.00611203 -0.0127625 -0.00168728 0.0129568 -0.00878204 -0.00636613 0.00273012 -0.0134996 -0.0144914 0.0087561 -0.00368284 -0.0236556 -0.0225932 -0.0118035 0.00546692 0.00227739 -0.0155584 -0.0119734 0.00376403 -0.00114611 -0.00154031 0.013457 0.00357637 0.00374292 0.0210612 0.0074016 -0.00027055 -0.00881859 -0.0025304 -0.0117369 -0.00963977 -0.00564706 -0.0219947 0.0015609 -0.00551221 -0.00122384 -0.0198432 0.0107544 0.00405747 -0.00145292 -0.00162005 0.0107213 0.0106591 0.00693692 0.000572282 -0.00377397 -3.19346e-06 0.0232128 -0.00299604 0.0013326 -0.00749711 0.00463023 0.00413778 -0.00955682 -0.00624465 0.00916047 0.0172332 -0.00787964 -0.00118693 -0.0162547 0.0161625 0.00371045 0.010028 -0.0146203 0.0150012 0.0111699 0.00585417 0.00872527 0.00234398 -0.00516149 0.01008 -0.00672228 -0.0101402 0.00537981 -0.00613599 0.00777325 -0.00484624 0.00122324 0.00684373 0.00727776 -0.00993633 0.0199093 0.00215178 0.00108795 -0.00470814 -0.01237 0.00487232 -0.0148101 0.0156343 0.00197219 0.00680339 0.034271 -0.00921101 0.0142832 -0.0167965 0.00129076 -0.00737083 -0.0108938 -0.00883519 -0.00586835 0.0109739 0.00956933 -0.0109074 -0.00549854 -0.0139122 0.00480788 0.00333002 -0.00109989 -0.00404801 0.00792735 -0.00848438 0.00515301 -0.00617194 -0.0101987 0.00875174 -0.00540623 -0.0220335 -0.00872435 0.000813122 0.00306396 -0.00298923 0.00850714 0.00298142 -0.00208337 -0.000915124 -0.00495038 -0.00936794 0.0275116 0.000262992 -0.00772153 -0.00473602 0.00476059 0.0216147 0.00438932 -0.0203759 -0.00425986 0.000675602 0.00237819 0.0101278 -0.00394938 0.00403066 -0.0193807 -0.00340736 -0.01281 -0.00731624 -0.00637578 -0.00373946 -0.00157119 0.014692 -0.015565 -0.000708473 -0.0167701 0.00537544 -0.0252489 -0.00614953 0.0230139 0.00553083 -0.0147551 -0.00341935 0.00378274 -0.00411317 -0.0145278 0.00369627 -0.0150004 0.0067149 -8.3035e-05 0.00311757 -0.00214099 0.00517754 0.00204147 0.00337508 0.00501831 0.00294037 -0.0058701 -0.00200459 0.00207205 0.00946895 -0.0110883 -0.0126842 0.0244547 0.0230929 0.0232769 0.0154361 0.0102172 0.0034766 -0.000496319 0.00663889 -0.00557198 -0.0020687 0.0100321 0.0062079 -0.0165924 -0.00962488 0.00978246 -0.000673018 0.0080752 -0.00533014 -0.00165151 0.00213494 -0.0129583 -0.00845481 0.0181559 0.00544561 -0.0109116 -0.00152179 0.00271754 -0.0172829 -0.00542919 -0.0130025 -0.0139366 -0.001663 0.00181279 0.0155425 -0.0159871 -0.0155536 0.0133811 -0.0201162 0.00279448 -0.00854143 0.0113383 0.012101 -0.00867816 -3.46019e-05 -0.00776676 0.00134054 0.0093728 -0.0066675 -0.0172046 3.71641e-05 0.00989205 -0.00705127 0.00865582 0.00886277 0.00123095 0.0176415 0.0085767 -0.00533605 0.00909947 -0.00569687 -0.0130348 0.00575575 -0.00373171 0.00735468 0.0086206 0.00167215 -0.0193814 -0.00687264 0.00367522 -0.00592913 0.0122555 -0.0140072 -0.0273711 -0.0161517 -0.00942183 0.00534015 -0.00490126 0.0158306 0.0148802 0.0119235 0.00498247 -0.0193551 0.000670185 -0.00426458 -0.00502299 0.00188878 -0.00800332 -0.00522757 -5.75177e-05 -0.00625266 -0.00497842 -0.0112031 -0.0227022 0.00312312 -0.00694541 0.00206076 -0.0014147 -0.0221936 0.00518693 0.0106396 0.00506827 -0.00283747 -0.00892457 -0.0103762 -0.00911686 -0.00410683 -0.00172015 0.0208986 -0.00633392 0.0184762 -0.000215166 0.0118393 -0.000953755 -0.000210926 -0.00277587 -0.022937 0.0157344 0.00175728 -0.00691714 0.0185299 -0.00958984 0.00204169 -0.0127576 -0.00441074 0.00780611 -0.000489154 -0.0115163 -0.00738079 0.0207853 0.0122689 -0.00219621 0.000351285 -0.00273467 -0.0123235 0.0020024 0.00535364 0.000624974 0.0120872 -0.00558444 0.00550693 0.00816424 0.00272506 -0.0108739 0.00335168 0.0157201 0.00321766 -0.00582395 -0.0170829 -0.0118961 0.0037004 0.00778729 0.0056504 -0.0195076 -0.0058061 -0.00620319 -0.0042074 -0.0112807 0.00117162 -0.0100787 -0.000269611
0.000880772 -0.00849449 0.00961084 -0.00217654 -0.0104544 0.00929612 -0.00226018 0.0111935 -0.0158359 0.000312192 -0.0142878 -0.00973406 0.00408444 0.00793817 0.0183063 -0.00113489 0.00847315 -0.0220679 -0.0138016 -0.0104548 -0.0113633 -0.0131888 0.00781162 0.00875232 -0.00905276 -0.00172948 0.00467433 -0.010586 -0.00963716 -0.00537932 -0.00612767 0.00215909 0.0325662 -0.00696234 0.0171144 0.00249796 0.00177205 0.00848879 -0.00570702 0.00887292 0.00283283 0.00799641 0.00971966 -0.0106064 0.0021925 0.00212398 -0.000244741 0.0144814 -0.0135855 -0.00313078 0.00212588 0.00129581 -0.00272725 0.00601435 0.0169947 -0.0166545 9.51198e-05 -0.00738766 -0.00489667 0.00258567 -0.00904004 -0.009073 -0.00329081 0.00774401 -0.008317 -0.000564801 -0.00289051 0.00525702 0.00716492 -0.00744621 0.00549649 -0.00708847 -0.000402989 0.00569927 -0.00654792 0.0119973 0.0136467 0.00555264 -0.00406281 -0.0040108 0.0119425 -0.0139246 0.00580588 0.00550075 0.0120595 0.00931211 0.000947014 0.0128254 0.0103761 -0.00988591 0.00455264 -0.0259907 0.0116081 -0.00024435 -0.0028198 -0.00890468 0.00801832 -0.0101958 0.0110838 -3.81531e-05 -0.00581184 -0.00498055 -0.00459862 -0.00400101 0.00599412 0.00985632 -0.00869321 0.00616852 0.0108142 0.0146951 -0.00794345 0.00464587 0.0202914 0.0117336 -0.0021128 0.00173061 0.0049153 0.00578859 -0.00807799 -0.000735499 0.0146989 -0.0245476 0.0196442 -0.00454515 0.0110525 -0.000475878 0.00898215 -0.00955167 -0.00405068 -0.00612205 0.000252921 -0.0171565 0.00603701 0.00258143 0.00322505 0.0145814 0.00296742 -0.0117439 0.00289085 -0.0123477 0.00134897 -0.00130332 0.00886479 -0.0131148 -0.0158868 -0.00469524 -0.00430679 -0.00955008 0.00626148 -0.00547234 -0.00688576 -0.0153281 0.00560977 0.00914935 -0.011813 -0.00573039 -0.0132555 -0.00392318 -0.00937772 0.0098193 -0.00607889 0.00939679 -0.0102607 0.004946 -0.00262139 -0.0061463 -0.00222498 0.0186766 -0.0110808 0.00428591 -0.0247284 0.00362911 0.00544254 0.0118055 0.00138733 -0.00316515 -0.0107129 -0.0137064 -0.000274639 -0.0116184 -0.0122272 -0.00730214 -0.00832071 -0.0053748 0.0107846 0.000638529 0.0057988 0.00898002 -0.00333165 -0.0130716 -0.00584872 -0.00306279 -0.0103661 0.0120293 -0.00382836 -0.00562167 0.0155609 0.00845104 0.00652349 0.0206337 0.0180526 0.0056988 0.00771195 0.017679 0.00102542 -0.000520402 -3.40341e-05 -0.00936156 -0.0088151 -0.00265243 -0.00426981 -0.0106743 -0.019897 0.0115472 -0.00194621 -0.012683 -0.00852868 -0.0226934 0.0137724 -0.000143939 0.00194038 0.00491366 0.00881411 0.00732842 -0.00436768 -0.00780009 0.00514091 0.00113274 0.00372159 -0.0033189 -0.00185482 0.00749392 0.0072525 -0.00473007 0.00236965 0.0235769 -0.0114127 0.00491189 -0.00940654 0.00836741 0.00028617 -0.0103714 -0.0183509 -0.0120624 -0.0136529 -0.00911976 -0.00725797 -0.00114084 -0.00399029 0.0101797 0.000392072 0.000431705 0.0125995 -0.00281316 -0.011578 -0.000360637 0.00352273 0.0112475 -0.00546835 -0.00286193 -0.00136448 0.0113162 -0.00999947 -0.00949962 -0.00304105 0.0106782 -0.0218071 0.00305745 -0.0194889 -0.0160241 0.00946683 -0.00309359 -0.0155406 0.0104701 -0.0114938 0.00685425 -0.00338595 -0.0147485 -0.00606366 0.00487514 0.0053109 -0.00532487 0.000847292 -0.00209157 -0.0110248 0.00399004 -0.0180884 0.0179174 -0.000242174 0.0048638 -0.00446145 0.0362258 0.0101029 -0.0132224 -0.00434341 0.00744431 0.0140492 0.00215049 0.00137882 -0.00298889 0.00184766 -0.00443012 0.0138805 -0.00252352 -0.00714861 0.0153939 -0.00663818 -0.00265119 0.0210335 0.011541 0.00911653 -0.0121271 0.00397482 0.00882307 0.00582003 -0.00971591 -0.00735737 0.00377437 -0.0070218 0.0196635 -0.00229524 0.00677922 -0.000169657 -0.00451092 -0.00207014 0.00454622 -0.00414227 -0.000528077 0.012358 -0.00249838 -0.00375029 -0.00618157 0.0137121 0.00455457 -0.00173381 0.00857248 -0.00355272 0.00716366 0.00279418 0.0161548 0.00735412 0.00989887 0.00428364 -0.00898475 0.0255312 0.00415649 -0.00689793 0.00423514 -0.00433599 -0.0166022 -0.00204009 0.00747984 0.00539877 -0.00720805 0.00192946 -0.000874715 -0.0133773 -0.0319903 0.0112625 -0.000802993 -0.00207319 -0.00534923 0.00767224 0.0231928 0.0136474 0.0108425 -0.00938628 -0.00135496 -0.00666877 0.00550153 0.0101556 0.0196935 0.0159419 0.00490586 -0.00864215 -0.0151969 -0.00818769 -0.0191854 0.00209615 -0.0132739 0.00306425 0.0143324 -0.0189467 0.00616241 0.0127324 -0.00876882 0.00275631 0.00977024 0.000297437 -0.00167231 -0.0151608 0.011454 0.0126002 0.00466049 -0.0159821 -0.00736868 -0.0086618 0.0046306 0.00124581 -0.0055022 -0.00702117 0.0193121 0.000604358 0.00438266 0.000634857 -0.0025881 -0.00648949 0.0132784 -0.00308553 0.00552301 0.000723199 -0.00510179 -0.00808995 -0.0233696 0.00773495 0.00193833 -0.00947631 0.000793113 0.0117492 -0.000487358 0.0163045 0.00114176 -0.00635219 -0.0135242 0.00537398 0.00228618 -0.00211495 -0.00327337 -0.00925788 0.00932072 -0.000273154 -0.00150698 0.000608697 -0.013575 0.00891967 0.000197857 0.0162542 0.00178528 0.0059278 -0.0119221 0.00498691 -0.0168502 -0.000895753 -0.0101394 -0.0122074 0.00554366 0.0109053 -0.00948106 -0.00500865 -0.00284039 0.00792906 -0.00299091 0.00453968 0.00131795 0.00607931 0.000253025 -0.00116031 0.00750812 -0.0086778 -0.014418 0.00811254 -0.00547674 -0.00552067 0.0104492 -0.00900692 0.00302284 0.00880599 -0.00364157 0.00329468 0.004623 -0.00356406 0.00722953 0.00395185 0.0153325 0.016145 -0.00488239 -0.00492672 -0.00141898 -0.0146662 0.0015819 0.00850545 -0.0198542 0.00556557 0.020144 0.0151984 0.0125161 0.000732187 0.0228377 -0.0145951 -0.00302854 -0.00158093 -0.00216228 -0.00487243 0.0112141 -0.0102334 -0.0061273 -0.00023529 0.0145718 0.00331413 0.00388548 0.00849813 0.0105052 -0.0157122 -0.00621502 -0.0111643 -0.00824262 -0.000344832 0.0107967 -0.00167097 0.00547181 0.0100266 -0.00135964
0.0111331 0.00658828 -0.00579693 0.013022 -0.00481662 -0.0114848 -0.00377199 0.0156701 -0.0154591 -0.00263646 -0.00473902 0.010074 -0.00969226 -0.00201714 -0.00788172 0.00204131 -0.00313495 0.00228609 0.00472763 0.00269559 -0.00079662 -0.000430813 -0.00824714 -0.00477922 -0.00216809 0.00070048 -0.011323 0.0135744 0.011033 0.0067953 -0.0101504 -0.0101413 0.00050623 -0.00658068 0.00828453 0.0192896 0.000784839 0.0169058 0.001999 0.0191813 0.013651 0.0161105 0.00553357 -0.000279024 0.0126982 0.00348662 0.00588733 -0.00851874 -0.00954259 0.0126018 0.0013767 -0.00855233 -0.00698464 0.00499574 0.0134077 -0.00200761 -0.0177248 0.000931538 0.00276869 -0.0219911 -0.00585988 0.0193653 0.0165019 0.000638729 0.00862676 0.0106118 0.00430811 0.00542547 -0.00880425 -0.0132563 0.00962644 0.00595045 1.42502e-05 -0.00881143 0.0118152 -0.00408811 0.00359377 -0.00347103 0.00348587 -0.00157886 0.00719121 0.011003 0.0237463 -0.0193453 0.00512924 -0.00660218 -0.00723465 -0.00725937 -0.00295941 -0.0142854 -0.0163806 -0.00633335 -0.0109785 -0.00119202 0.0138951 -0.00717051 0.0038804 0.014807 -0.00327352 -0.00141197 0.0133408 -0.000329345 -0.00403989 -0.00859697 0.0144464 0.00724602 -0.000754876 0.000602886 -0.00180128 -0.00140781 0.0149997 0.0116394 -0.00488456 -0.00808519 0.0101652 0.0138583 0.000799844 -0.0137271 0.00350582 0.0176701 0.0179193 -0.00168327 -0.00341004 -0.0138492 -0.0071091 0.00609968 0.00363414 0.0133466 0.0101174 0.00722682 0.00108601 0.00752191 0.00474234 0.0161721 -0.0067999 -0.0100397 -0.0155784 0.0118976 -0.018104 -0.00410206 -0.00578349 0.012789 -0.00377647 0.00707833 -0.00298467 -0.0229076 -0.0122574 -0.00879844 -0.000404108 -0.0058982 0.0143469 0.00691011 -4.95009e-05 0.0079672 0.00285394 -5.78293e-05 0.00606959 -0.0250408 -0.000210176 -0.0168961 -0.00147208 -0.00176432 0.000776686 0.00486762 0.010066 -0.0135422 -0.0100384 -0.0104596 0.00579039 -0.00408828 -0.000504586 -0.0200734 0.0104594 -0.000711126 -0.00792348 0.0137732 0.00065254 -0.00952545 0.0122258 0.00896345 0.00406028 0.0015914 -0.00262909 0.0192795 0.00688747 0.0183039 -0.00682621 0.00423147 0.00604011 0.000269064 -0.00988797 0.0120338 -0.00495808 -0.00110387 0.000682705 -0.0185529 -0.00551971 0.00470835 0.00410552 -0.0110312 -0.00550671 0.00581775 0.00180341 0.00690451 0.00466366 0.00856554 0.00831425 -0.0162715 -0.00203403 -0.000951782 -0.0100014 -0.0143036 0.00367631 0.0171767 0.00105471 -0.0050632 0.0124928 0.00269078 0.000197593 -0.0140479 -0.00264198 0.00609742 0.0155478 0.00703826 -0.0139358 0.00174621 -0.00794509 -0.0185097 0.00347425 -0.0212478 0.0137699 0.0121758 0.0140028 0.010143 -0.00176694 0.0111703 -0.00261531 -0.0161013 0.0130294 -0.00722725 -0.00525604 -0.00885727 -0.0103067 -0.00260043 -0.0118399 0.00621207 0.00403875 0.00441981 0.0198035 0.0062276 0.00674744 -0.0054046 0.00393885 0.00185281 -0.0100764 -0.0138552 0.00616223 0.00336472 0.00956024 -0.000413441 -0.0052076 -0.00692919 -6.63017e-05 -0.00407322 -0.0077682 -0.000227475 0.0115621 -0.00607839 -0.00717994 0.00433968 0.0126219 0.00785001 -0.00373696 0.0104214 -0.0123315 0.00683793 -0.0244352 0.00439654 0.00855644 0.0135947 0.00393366 0.00472811 -0.00383356 0.00680062 -0.00698423 0.00363184 0.00296819 0.0055927 -0.000175333 0.00592835 -0.00990341 -0.00196223 -0.00654046 0.00148604 -0.0102096 0.0174359 0.00851796 0.00950121 -0.007353 0.0216204 0.00759202 0.00850403 0.00463889 0.0122347 0.0126411 -0.00379269 0.00981053 -0.00196556 -0.0246859 0.0123182 0.00267971 0.00410058 0.00328769 0.00988738 -0.00308979 0.00204202 0.0069069 0.00754141 0.0168125 0.018856 -0.0148395 0.0080761 -0.00608405 -0.00191447 0.0130104 0.00208601 -0.00437529 2.63057e-05 -0.00729086 0.0189644 0.0102032 -0.0107384 -0.000475268 0.011333 -0.0149248 -0.0140029 0.00336499 0.00502262 0.00193213 0.0180317 0.0133231 -0.0165788 -0.0223318 -0.0142917 0.0102994 -0.00819711 -0.0169206 0.00725539 0.00198614 0.00581043 -0.00947305 -0.000952284 0.00346021 -0.00181207 0.00433636 -0.0136507 -0.0138611 0.00291824 -0.0146906 -0.0179324 0.00349555 -0.00400028 0.000894148 0.0166037 0.00815157 0.0164124 0.00133395 -0.00173811 -0.00215561 -0.0185995 0.00463127 -0.00285074 -0.00303325 -0.00837994 -0.00179775 -0.00582023 -0.00716858 -0.0113389 0.00801394 -0.0056153 0.0055358 -0.00770316 -0.00194376 -0.00416909 0.00397326 -0.0115142 -0.00985437 0.0172315 0.00661913 0.00538552 -0.00659622 -0.0100952 -0.00387468 -0.0110005 0.00140398 -0.0108224 -0.00114939 -0.00975355 -0.00213193 -0.0162041 -0.00570498 0.0223398 -0.00523995 0.00240455 0.0191349 0.00208612 0.00178813 -0.00336426 -0.00459761 0.00399712 0.0177027 -0.0110587 -0.0138745 -0.0246823 -0.00206196 0.0170724 0.0111644 0.00372806 -0.00525176 -0.00727506 -0.0020246 -0.000791374 0.000730352 0.00161836 -0.0029779 -0.0052935 0.00148241 0.0068862 0.00222095 -0.00253951 -0.000145685 0.0161282 -0.00106741 -0.0163182 0.0122572 -0.00402224 0.0152365 -0.00657397 -0.00246701 0.00241176 -0.00316008 -0.00310417 -0.000677008 -0.0069746 -0.003784 0.00312167 0.018208 -0.0138353 0.000746544 -0.00161984 0.00555188 0.00141516 -0.0168635 -0.00548259 0.00609129 -0.00548906 -0.00391999 0.00528747 -0.0076173 -0.00913094 0.00016107 0.0172243 0.00403819 0.00442164 -0.00441334 0.0208426 0.000921054 0.0076383 2.8857e-05 0.0107297 0.00214288 0.00917203 -0.00301376 -0.000329732 -0.0070191 0.00433613 -0.0170239 0.00762667 0.00586241 -0.00716482 -0.00147668 -0.0118869 0.00451409 0.00162842 0.0178588 -0.000920573 0.00600881 0.00541619 -0.00758688 0.00429989 -0.00201832 -0.00233039 -0.00594729 -0.00520298 -0.00292354 -0.00306502 -0.00460465 -0.0110367 -0.0174925 0.0096962 -0.00573989 0.00210976 -0.0069832 7.10981e-05 -0.016379 -0.0206419 0.00458981 0.00138847 0.00784246 0.00245494 -0.00642245 0.0194827
0.0053765 -0.0115303 0.00803965 -0.00456368 -0.00334632 0.00069928 -0.000397611 -0.00183551 0.0107514 -0.0152404 0.0101377 -0.0104943 -0.0219362 0.00591596 0.00252744 0.0126087 -0.00506959 0.0104387 0.00176491 0.00723439 0.00195223 0.00176844 -0.00527366 -0.00862347 0.00564773 -0.00967137 0.00334064 -0.00452441 -0.000165467 0.00186513 -0.0139404 0.00814736 -0.0109516 -0.00551748 0.0044415 0.0161401 0.00237724 0.00122626 0.00474133 -0.00178449 -0.00272196 -0.0275322 -0.00481295 0.000473715 -0.00388558 -0.00956635 0.00945726 -0.0169407 -0.00111358 0.00885957 -0.00212069 0.000962338 0.00358938 -0.00301875 -0.0130218 -0.00470631 0.00138026 0.0149981 0.00284979 -0.00540283 -0.0041377 -0.0145394 0.0122714 -0.00424698 -0.014115 0.0264142 -0.0175584 0.00614678 0.00364381 -0.0136827 0.0196112 0.0146343 -0.0166217 0.0151726 -0.00393044 0.00167336 0.00658018 0.00362023 0.00207779 0.0125791 0.00114615 0.00515809 -0.00744029 -0.00119103 0.00350392 0.00919752 -0.00352409 0.000691057 -0.0165813 -0.00848882 -0.00725167 0.00692079 0.00222461 -0.00531865 0.0248299 -0.00085421 0.0110855 0.00541986 0.00806319 0.00988492 -0.0148097 -0.00453026 0.00431388 -0.00693322 -0.00857283 0.00262345 0.0137877 -0.00271525 -0.00377031 0.0153627 0.00177574 -0.00458668 -0.00860142 0.00413221 -0.0135855 0.00387611 -0.00950708 0.00937438 0.00521471 0.00831207 0.00720919 -0.0115907 -0.0186575 -0.00868402 -0.00250521 0.00428973 0.00787749 0.00339243 0.0112357 0.0160298 0.0018169 0.00228724 -0.0127934 -0.0049903 -0.00999441 0.000658194 0.0201976 0.0183896 0.0122971 0.00685289 -0.0120426 0.00454575 0.0107386 0.0054443 0.00617547 -0.0103415 0.000533196 -0.0148844 0.00678454 0.00546238 -0.00321862 0.0185826 0.0174477 -0.000373334 -0.00391595 0.00361556 0.0147017 -0.00477742 0.00375948 -0.00621344 0.00635173 -0.0192171 0.00364367 -0.0167679 -0.0076712 -0.00605217 -0.000726172 -0.00272156 -0.0147686 0.00840159 0.00657659 -0.0093791 -0.00548691 0.00898147 0.00730706 -0.00721954 0.00944538 -0.0132899 -0.0260117 0.000757997 -0.00178461 -0.00156472 0.00051187 0.00691676 0.00531019 -0.023706 -0.0018448 -0.00938174 0.0108836 0.00718198 0.0130906 -0.00181444 -0.010539 0.00975921 0.00162561 0.00920939 -0.00562638 -0.00482628 -0.00742127 -0.0175941 -0.0197434 -0.00682728 -0.0137957 0.000825695 -0.000475837 0.00638291 0.00399892 -0.000420485 -0.00949398 0.00365957 0.00144082 0.00925631 -0.00186181 -0.0164567 0.0009445 0.0297154 0.0104583 0.00529191 -0.00428857 -0.00451695 0.00829132 -0.0042198 0.000405593 0.00414763 -0.0143753 -0.00225719 0.0199289 -0.0166214 0.0125473 -0.0129306 -0.00924669 0.00315757 0.00123023 -0.0048261 -0.000586227 -0.00163947 -0.00747354 -0.00389771 -0.00430306 -0.0152222 -0.00901593 0.00526226 0.00706337 0.0104861 -0.00685994 0.022617 0.0100999 -0.0109254 0.00962395 0.0038459 -0.0173002 0.00319177 0.0198887 0.0098176 -0.00752615 -0.00728697 -0.00297123 0.00127176 -0.00777527 0.010545 0.0246465 -0.00291141 -0.00518508 -0.00108003 -0.00186915 0.00228447 0.000732167 -0.00155237 -0.00395717 -0.00310789 0.0140512 -0.00044168 0.0139468 0.00576924 -0.00855884 -0.00606065 -0.00709593 -0.0138472 -0.0370922 0.0107252 0.0111564 0.00102175 0.00591992 -0.00137055 0.00762019 -0.00641396 -0.00858395 0.00586421 -0.0123591 -0.00903801 0.00461024 -0.00262594 -0.0117693 0.0025185 -0.00465829 0.0113431 0.00939843 0.00578894 -0.00390712 0.00184674 -0.00899112 0.0111783 -0.000425888 0.00447385 -0.0136294 0.00878202 -0.00899191 0.0245729 0.0118167 0.00228158 -0.00694149 -0.00473179 -0.00148898 -0.00965358 0.00643054 0.00999814 0.005615 -0.0151426 0.000466448 -0.00518619 0.00659894 -0.00576488 0.00245557 -0.00296843 -0.00626607 -0.0137418 0.00629432 -0.00614539 -0.00296289 -7.97139e-05 -0.00941207 -0.00198961 -0.0106616 -0.0168382 0.01126 -0.00156969 -0.00938913 -0.0139124 0.00978919 -0.00132436 0.00089594 -0.000161646 0.0148852 -0.0139609 -0.0235306 0.0116642 0.00198637 -0.00976798 0.00917668 -0.0139074 0.0106624 -0.00666846 0.00173915 -0.0064312 0.00981609 -0.0105423 0.00557331 -0.00426519 0.0171735 -0.00455193 -0.00536934 -0.0133026 -0.0019078 0.0124113 0.0155208 0.00605216 0.00377819 0.00254642 0.0135169 -0.00341531 -0.00722488 -0.0123055 0.0107132 0.0121607 0.00242548 0.0109327 -0.00330652 0.000374206 -0.0101367 0.00554722 0.00287633 -0.00281971 0.00571277 -0.0118084 -0.00730312 0.00701582 -0.00723469 0.00908225 -0.0014395 0.00263265 0.00617321 0.02502 -0.00488052 -0.00811071 0.0162454 -0.00460796 0.0011244 0.011358 -0.0144704 -0.00845276 0.00663072 0.0139616 -0.00671894 -0.00244155 -0.00294551 -0.0043515 0.013 -0.0147784 -0.00581362 0.0158332 -0.00355634 0.0205907 -0.00219673 -0.0179233 -0.0128405 0.00396179 0.0089464 0.000442613 0.0023302 -0.00662117 -0.00804669 -0.00918425 -0.00352682 -0.0238299 0.00564493 -0.00993629 0.00953727 -0.00102923 0.00348514 0.0124002 0.00446143 -0.00127942 0.00746352 -0.0106876 0.0145669 -0.0158823 -0.0103038 -0.0112242 0.00209208 -0.0072324 -0.0131126 0.00410347 1.33131e-05 0.00467052 -0.00812162 -0.00611483 0.0064553 0.00270694 -0.00463828 -0.00661275 0.0114433 0.00251772 -0.0226193 -0.00431037 0.00752229 -0.0196963 0.0124924 0.0019353 -0.0142248 0.00680187 0.00512444 -0.0108346 -0.000469409 -0.00779287 -0.0065134 0.0191268 0.0129584 0.00777578 0.00628591 -0.00979762 -0.00533081 0.0141686 0.0114534 0.00719372 0.00798269 -0.0198401 -0.00257015 -0.0195989 0.0153952 0.0103913 0.0250884 -0.000596045 -0.0170487 -0.000576382 0.00623338 0.0053685 0.00228843 -0.0190271 -0.00283512 0.00227224 0.00016009 0.0166637 -0.00217217 -0.0021887 -0.00842715 -0.00284213 0.00975404 -0.00950938 -0.00880143 -0.00337321 -0.0162336 -0.00471427 0.00578177 0.0123018 -0.00475282 -0.00646857 0.0034749 -0.00916378 -0.0127225 0.0122366 -0.0166377 -0.000218056
0.00396382 0.00646638 -0.00368408 -0.00923278 -0.00580459 -0.00245385 0.00145842 0.00680153 0.00101435 -0.0110593 0.0184354 -0.00375518 -0.0027561 -0.0078794 -0.0152374 -0.000311928 0.00141081 -0.00506942 0.00663847 0.00157663 -0.0068423 0.00546626 -0.00914696 -0.0132204 0.000975161 -0.0113921 0.00798935 0.00969325 0.0137654 0.0189589 0.00964954 -0.0114636 -0.00109933 -0.0188688 -0.0132425 0.0136315 -0.00428358 0.00594091 -0.0118424 -0.00088617 0.00509042 0.00937302 -0.0196844 -0.00310965 0.00313938 -0.000601698 0.0040511 0.0167793 0.00906862 -0.00810168 0.00512272 -0.00153139 0.0194994 -0.000317334 0.0100778 -0.00435337 -0.000922677 -0.00166379 -0.0106411 -0.00666532 -3.07654e-05 0.00981159 -0.000619738 0.0102628 -0.020915 0.00345251 0.0123181 -0.0139784 0.00471335 -0.00902186 -0.00887445 -0.00391236 -0.0155147 -7.99256e-06 -0.00107476 -0.00808084 0.00465491 0.0177572 -0.000529664 -0.0136875 0.0204592 0.00183935 -0.0054687 -0.0139849 0.00474615 0.0192882 -0.0116543 0.00208075 -0.00399217 -0.00638342 -0.0163921 -0.0067307 -0.0105992 0.0208191 0.0132495 -0.0114608 0.00878982 -0.0119424 0.0163083 -0.0079541 -0.000792142 -0.00137 -0.0098598 -0.00249578 0.0100883 -0.00210576 -0.00725334 -0.00919483 0.00277424 -0.000579536 -0.00174109 -0.026306 -0.00130815 -0.00401705 0.00361697 -0.00396329 0.00434355 0.00444551 -0.0148136 -0.00025125 -0.00213063 -0.00317844 -0.017787 -0.000403293 0.0083162 -0.00276667 -0.00809038 0.0140505 0.0153625 -0.0138771 -0.00273228 0.00763584 0.0148597 0.000679534 -0.00307593 0.0131299 0.00287441 -0.00366417 -0.0181485 0.00590354 -0.027034 0.00101603 -0.00622267 -0.0105756 0.00408708 -0.0253782 0.00991901 0.00251443 0.0140474 0.0128536 0.00265948 -0.020734 0.00019824 -0.00420702 -0.00642983 -0.0155436 -0.00344582 -0.00721699 0.00734498 0.00752924 0.0045412 0.00530375 0.00504771 0.00207127 0.00203506 5.88207e-05 -0.0129853 -0.00778679 -0.00275667 0.00193081 -0.0102276 0.0114405 0.00360439 0.00583678 0.00942522 0.000208181 -0.00515101 0.00404181 0.0104924 0.00764331 -0.000688509 0.00936287 0.0204263 0.00130141 0.00985772 0.00806881 -0.014001 0.0149806 -0.000141268 0.00360964 -0.000496399 -0.00451665 -0.00594941 -0.0109555 0.0136089 -0.00250769 0.00409792 -0.0015886 0.0126161 0.0103447 -0.0128579 -0.000424882 -0.0303241 -0.0113977 -0.0123238 0.00812657 0.00145396 -0.00732355 0.0197897 0.00791507 -0.000890696 0.00565036 -0.00286832 -0.00712719 0.00317592 -0.00829301 -0.00887466 0.0176338 -0.00875027 0.0117984 -0.0231883 0.00276688 0.0167318 0.00487368 0.004591 0.00761837 -0.000705376 -0.00504306 0.00672625 0.00269017 -0.00115886 0.0113458 -0.0146294 0.00303313 0.00577528 0.00150682 0.00522477 -0.00768925 0.0043579 0.0129368 -0.00327923 0.0293607 -0.00869704 -0.00610243 -0.0181001 0.00885078 -0.00044742 -0.0191804 0.00481339 0.0166433 -0.0135735 0.0135942 0.00299735 0.000619993 -0.0137545 -0.000879386 0.00103514 -0.00249234 -0.005454 0.00639368 -0.00624436 0.0108683 -0.00753388 -0.00245421 -0.00512278 0.0176547 -0.0160324 0.00990985 0.00878065 -0.00686222 -0.00199728 -0.010648 -0.00494168 0.000293716 0.000776827 -0.0104068 0.00109942 -0.0108398 -0.00771155 0.0157835 -0.00129574 -0.00899943 0.00183846 0.0117586 0.0116573 -0.0152904 -0.000753735 0.00806436 0.00221781 -0.0188303 -0.00855818 -0.00235313 -0.00473828 0.00548682 -1.44102e-05 0.00909101 -0.00624196 0.00752162 -0.0275695 -0.0138962 0.00255765 -0.00214409 0.0145551 0.00596973 0.00309177 0.0143334 -0.0110812 -0.00157899 0.00551106 0.00158306 0.00589361 -0.0022894 -9.67692e-05 -0.00448258 0.00219406 0.00765275 0.011505 0.00829977 0.0088545 0.00569619 0.00748034 -0.00947267 0.0112922 -0.00995872 0.0245606 -0.00242231 -0.0123172 -0.00340083 -0.00679753 -0.00199835 0.00791808 0.00826912 0.00203698 0.011697 0.00510807 0.00165176 -0.0138613 0.0125356 -0.0143134 -0.00198732 -0.0299281 0.00526764 0.00686223 0.0106007 0.00822153 -0.0064238 -0.010755 -0.000875259 -0.0029802 0.0224382 -0.00722436 0.0215627 -0.00133138 1.21789e-05 0.00781504 0.00379644 0.00272138 0.000816341 0.00565629 0.0149343 0.00343546 0.00905788 -0.00527457 -0.00996603 -0.0156444 0.000936772 -0.00953256 0.0164014 0.00404685 0.00404704 -0.0149501 0.0140159 0.0110255 0.000234873 0.00033704 3.75755e-05 0.00151549 -0.000124554 0.00688954 -0.0056925 -0.0174677 0.00894407 -0.00923178 -0.00801193 0.00908657 0.00431576 0.00596987 -0.0183045 -0.0112041 0.000353268 -0.0108029 0.016856 0.00843357 0.00340235 0.00172384 -0.00410423 0.0113751 -0.00365666 -0.00923802 0.00682071 0.00942711 0.00449694 -0.0267387 0.00881508 -0.00146943 0.0126565 -0.00781333 0.0269734 -0.022391 0.00398608 0.00333363 -0.0014829 -0.0111397 0.0034302 -0.0206068 0.00040763 0.0076929 0.00747358 -0.010073 0.00758376 0.00385301 -0.00752272 0.0101072 0.00479722 0.00137435 0.00550772 -0.0114771 0.0131569 -0.00621457 0.000689596 0.00595932 -1.06044e-05 0.011145 0.00382638 -0.0100481 0.0014017 -0.00365817 -0.00239428 -0.00346527 0.00424388 0.0110279 -0.00680087 0.000478701 0.00680877 -0.0100309 0.00226526 -0.00270292 0.00667108 0.00841215 0.00291916 0.0099435 0.0128124 -0.00832006 0.00631363 0.00939185 -0.0119735 0.0046179 0.00315418 0.0126719 -0.0156648 -0.00211853 -0.00751063 0.0123967 0.00406299 -0.0145686 0.00461805 -0.0111776 0.0124445 -0.010507 0.0070562 0.00574849 0.010643 -0.0088336 0.00133646 -0.00629222 -0.00123058 -0.00513805 0.000562492 0.00280326 0.00873274 0.00194728 -0.0139141 -0.00765529 0.00160972 -0.0144808 0.00777821 -0.00033108 0.0100654 0.00392919 0.00239325 0.0036874 0.0105454 -0.00661148 0.0167491 -0.00352897 0.000408183 0.015514 0.000541533 0.00954896 -0.00307925 0.00872817 -0.00499884 -0.00211049 -0.000705273 0.00371971 -0.0236545 0.00503877 0.00856771 -0.0135914 0.017137 0.0053612 0.00940604
-0.00867396 0.00132353 0.00930427 0.0105033 -0.00625544 0.00290725 0.00126937 -0.0174216 -0.00293726 0.00955465 0.0134613 0.00810435 0.00156883 -0.00491799 -0.015607 -0.0183907 0.00454577 -0.0165443 0.00232121 -0.000864899 -0.00490303 -0.000702421 -0.00347989 -0.00189773 0.00146755 0.0143104 0.0041887 -0.00800354 0.00373319 -0.00564825 -0.0125165 0.00894381 -0.00855976 0.016918 -0.000559768 0.00445287 0.00851202 0.00782273 -0.0029197 0.00783045 0.0210123 -0.0031642 0.00823737 0.0171719 0.00701308 0.0093809 0.0280343 0.00821993 0.0038276 -0.00566987 -0.00233966 -0.00426015 0.00453549 0.00507667 0.00544354 -0.00723638 -0.00587132 -0.0143035 -0.00331957 0.00609972 -0.00410609 0.00886165 -0.00751072 0.00353289 0.00807549 0.00219683 -0.00504811 -0.00773491 -0.00292614 -0.00922028 -0.00208142 -0.00701283 0.00388584 0.00550603 8.50289e-05 -0.00590216 0.00706696 -0.00622828 0.000228969 -0.00356829 0.00595755 -0.00696959 7.78705e-05 0.0101586 -0.0182475 -0.00282902 -0.00297437 0.00658575 0.00533323 -0.0271201 0.0103359 -0.00538781 0.0173316 -0.0350546 0.00400091 0.00477146 0.00479456 -0.00320569 -0.00777518 0.0119678 0.00675687 -0.00356781 -0.0120376 0.00116828 -0.00560808 0.00420854 0.0171327 0.00264683 -0.00892599 0.0129333 -0.00215149 -0.00246472 0.00263579 0.0106849 0.00416149 0.01115 0.00344148 0.00317972 0.00958901 -0.00718899 -0.0190884 -0.0108327 0.000757199 -0.0109087 -0.000906757 -0.00981098 0.00143769 -0.00822214 -0.0018633 0.010094 -0.00848406 -0.00374184 -0.0110786 -0.0104593 0.0156702 0.0239686 0.000395322 0.0176817 -0.0071979 -0.0109143 -0.00471931 0.0056737 0.00610078 -0.0140125 -0.0155849 0.00355685 -0.00748056 0.0215175 0.00827383 -0.00291695 -0.00151363 -0.00342019 0.0135358 -0.00190533 0.00338984 -0.00688529 0.0232206 -0.00501808 -0.00149095 -0.017446 0.00854734 -0.00224516 -0.010018 -0.00731317 -0.0133722 -0.00284723 -0.00333245 0.00120372 -0.0105983 2.07591e-05 0.000876908 -0.00664141 -0.0184234 0.00397485 0.00184895 -0.00565304 0.00384563 0.00483573 0.00837607 -0.00298547 -0.0223064 0.00761668 0.0017355 -0.0092078 -0.0141815 0.00436736 -0.00171626 -0.0123652 -0.00173632 -0.0106791 0.00567513 -0.0107129 -0.00963477 0.00695733 -0.00129308 -0.0134228 -0.0149604 -0.00639109 0.00243683 -0.00865606 -0.00802671 -0.00545217 -0.0163455 0.013464 0.0184392 -0.00497918 0.0209433 -0.00293603 -0.011886 0.0106568 0.00455817 0.00906102 -0.0130463 -0.0136798 0.00304034 -0.00692543 -0.00856153 0.00359343 -0.00812669 0.00885073 -0.00187486 0.000731189 -0.00450083 -0.00797579 -0.00256794 -0.00470488 -0.0146878 0.00459213 -0.0108989 0.0150223 0.0148934 -0.0021392 -0.00272739 -0.00532303 0.00809803 -0.00206349 -0.00393676 -0.017938 0.00138221 0.00830984 -0.000917321 0.00440248 0.000105668 -0.00162213 -0.00549804 0.0159981 -0.0269976 0.00376513 -0.00610854 -0.0167647 -0.01743 -0.010501 -0.0125789 -0.0053499 -0.0150091 -0.00379658 -0.0109464 0.00610924 0.0162705 -0.00189991 0.00323026 0.000649686 0.0170187 0.00302765 -0.000966173 0.00658677 0.00753972 -0.00996137 0.0130149 -0.00773911 0.00874943 0.00327625 -0.0182707 -0.00264805 0.00335816 -0.0160025 -0.00568076 -0.0030937 -0.00984669 -0.00818448 0.000913955 -0.00620407 0.00585061 -0.0050186 0.002748 0.00107173 0.000425578 0.0177993 0.0233918 -0.00290923 0.00368728 0.00267796 -0.00125349 0.00865089 0.0092119 0.00555751 -0.00387994 0.0102572 -0.00359831 -0.0113003 0.0104152 -0.00570552 -0.0125926 -0.000129633 -0.00767045 0.00346264 -0.0172345 -0.014366 -0.00924885 -0.0093616 -0.0101359 0.00954683 0.00373177 0.00640993 0.000675454 -0.00723696 -0.00109799 0.012505 0.0109712 0.0123187 0.000304002 -0.00207244 0.00408236 0.00220121 0.00650126 -0.00374278 -0.00371706 -0.0164843 -0.00559879 0.00239233 0.0129415 0.00236712 -5.46081e-05 -0.0158876 0.00616348 -0.00438926 0.0121719 -0.00670277 0.0104857 0.00571911 0.00712339 -0.0227748 0.0154141 -0.00677233 -0.0118561 -0.0061336 -0.00545678 0.00154416 -0.0111647 0.00632069 0.0071062 -0.00357513 0.00517662 -0.0037321 0.00824542 -0.00122775 0.013759 -0.0121957 -0.0177323 -0.00697169 0.0124771 -0.00243579 0.00700168 -0.00475169 0.0015988 0.00292672 -0.00229758 -0.00295517 0.00158222 0.00786061 -0.0211729 0.00963439 -0.0272429 -0.00120018 0.0192935 0.0245194 -0.00382715 0.00369305 -0.000645449 -0.00609329 0.0147531 0.00112884 0.0198128 -0.00332067 0.00803139 0.00466081 0.0195606 0.00442926 -0.00190846 -0.00169496 -0.00687529 0.00714103 -0.00442347 0.0048646 0.00566347 0.00395692 0.011618 -0.0197472 -0.0035561 0.00201044 -0.0139414 0.000852503 0.00256341 -0.00952794 0.00574544 -0.0113449 -0.0260334 -0.00178063 0.00917196 0.00253007 0.00725385 0.0118603 0.00363346 -0.00582201 0.00720486 -0.00937631 -0.0126166 -0.00347214 9.75825e-05 0.0153002 -0.0199872 0.00575119 0.0027475 -0.00148535 0.00260084 0.0172686 -9.29544e-05 -0.00466364 0.00378291 0.0136583 0.00818483 -0.00789952 0.0062974 0.0101622 -0.00215536 -0.00996321 -0.0185161 -0.0177279 -0.00740825 0.01664 0.0138506 -0.00538546 0.0030149 0.0012737 0.00524886 0.00431214 0.00734547 -0.00269817 -0.000961364 -8.66284e-05 0.0160959 0.0156495 0.00972854 -0.000934464 -0.0100965 0.0162326 -0.00603786 0.00278769 -0.0096559 0.00517161 0.0139922 -0.00634098 0.00504996 0.000301863 0.00624427 0.00864566 0.0101236 0.0133553 0.00925303 0.0123316 -0.00259808 0.0249262 -0.00740828 -0.00376853 0.00724585 -0.00840676 0.0144175 -0.00235655 0.000332666 -0.00752215 0.00846497 0.0142583 0.0166258 -0.0127076 -0.00866112 -0.00692602 0.00453317 0.0111227 0.000481118 0.00209937 0.00946411 -0.0145399 -8.9602e-05 0.00670215 0.0110672 -0.0201516 0.0228366 -0.000289196 -0.00953549 -0.0063333 -0.00142382 0.0161206 0.00590148 -0.00857518 0.00753076 -0.00315055 0.0115067 -0.00220076 0.0134763 0.026396 0.0121395 -0.00340423
0.00304579 -0.00837458 0.00475185 0.0136476 -0.0138367 -0.0151579 -0.00496639 -0.00187644 0.00293386 0.00708841 -0.0046719 -0.00915509 0.00531211 -0.0101705 -0.0134569 0.0109131 -0.00491306 0.0048243 0.0322004 0.00292629 0.00907395 -0.00179136 0.00288869 0.00462951 0.00182128 0.00102562 -0.0053952 -0.000624793 -0.00761582 -0.00968387 0.00707338 0.00362527 -0.0117501 0.00343145 0.00483474 -0.00625162 -0.0010988 -0.00885257 0.0193156 -0.00529822 -0.0108561 -0.00124802 -0.000352145 -0.00760127 -0.0132742 0.0201467 0.014979 -0.0113586 0.0111904 -0.00781887 0.0159403 -0.0038916 0.00337495 -0.00585687 0.00883939 0.00701111 -0.00486242 0.00663511 -0.0173658 -0.00145356 0.0158771 -0.0138393 0.00745415 -0.00156183 0.00357061 -0.0133837 -0.00272358 -0.00765571 0.00890903 0.0071414 0.012557 -0.00227395 0.012525 0.00643215 0.000390267 -0.00533758 0.00601235 -0.00463276 -0.0105455 0.0101479 0.00597497 -0.0118895 -0.0116649 0.0197045 -0.00580298 0.000225454 -0.0245279 0.0121626 0.00420698 0.0249124 -0.00039338 -0.00573184 0.0149137 -0.00653184 -0.0175404 -0.00434319 -0.00405524 0.00467832 0.00187952 0.00874233 -0.000114458 0.0174999 -0.0129252 0.00359032 -0.00367621 0.0151522 0.022903 -0.00466626 0.018913 0.0033753 0.0076011 -0.00337773 0.00211222 -0.000839029 -0.00384758 0.00490309 0.0233045 0.00627631 0.0013722 0.0163391 -0.0042397 -0.0022947 -0.00431283 0.0138305 -0.0107879 -0.00266195 -0.00928312 -0.0100925 0.0107161 -0.00511194 0.0111631 0.0037994 0.00213554 -0.0171713 0.00186307 -0.011644 0.00889179 -0.00143327 0.0084371 -0.0112291 0.00123924 -0.00887125 0.00139892 0.00991033 -0.0024533 0.00742695 -0.0044273 -0.0102011 0.00106245 0.000665809 0.0104458 0.000383143 0.0105351 0.00413168 0.013304 -0.00373159 0.00186961 0.00917305 -0.0160789 0.0166244 0.0144885 0.00627077 0.00296867 -0.0125004 0.000113565 0.00332964 -0.0067246 0.00216083 0.0181777 -0.00659279 0.0083222 -0.0157633 0.018292 -0.0123257 0.0217651 0.00291243 -0.00513259 0.00191372 -0.0134573 0.000362711 0.00250444 -0.0148514 0.00441799 -0.0150893 -0.00229841 0.00229513 -0.00163209 0.00305911 -0.00746087 -0.00124245 -0.00166122 0.00728054 0.0179721 0.00579553 0.003787 -0.000715588 0.000815672 -0.0117107 -0.00201179 0.0161097 -0.00326157 -0.0107757 0.0181745 -0.0182603 0.00799468 -0.0076395 -0.0127971 -0.00592114 0.00762351 -0.00581957 -0.0120356 0.00874845 0.00573276 -0.00373859 -0.00149075 0.00241271 0.0136604 -0.00673969 -0.0146395 0.0155418 -0.00251392 -0.00871817 0.00861107 0.00530816 0.00271046 -0.00750467 0.0104699 0.0105813 -0.00626599 0.00531811 0.00840224 0.00351376 0.00914097 -0.00203453 -0.00275697 -0.0039232 -0.0141464 0.0203183 0.00621699 0.00160485 -0.010249 0.0133436 0.00170771 0.0134682 0.00329483 0.00832495 -0.00606213 0.00966668 -0.00812001 -0.00213341 0.00883628 0.00488523 -0.00604518 0.00202367 0.00460296 -0.0142784 -0.00720529 -0.00601401 -0.0122552 -0.00933684 0.00314097 0.000609911 0.00807975 -0.0030587 0.00141557 -0.0118646 0.0108453 0.0180922 0.0286383 -1.21921e-05 -0.00392022 0.00950521 -0.0131895 -0.00248203 -0.000578934 -0.00604663 0.00421965 -0.0127105 -0.00432748 0.0045581 0.00749895 0.000810244 -0.0042817 0.00824564 -0.0120861 -0.00331346 -0.00524013 -0.00923027 0.0133303 0.0024495 8.10887e-05 0.00752254 -0.0123454 -0.00491746 -0.00396056 -0.0157203 -0.0110897 -0.00322182 0.0134225 0.0127905 0.00128027 0.0199149 0.0168309 0.00740605 0.000228786 -0.00286134 -0.0223492 0.0126718 -0.00234981 0.00584901 -0.00409228 0.008543 0.00118081 0.00380937 -0.0101588 -0.0319972 0.00252309 -0.0107791 0.0147461 -0.000781247 0.0160931 -0.00655262 0.00502064 0.000585098 0.00701616 0.00497495 0.0100276 -0.0161913 0.00377183 -0.00385316 0.0198751 -0.00540327 -0.0091364 0.00189673 0.00756245 0.0104461 -0.0226328 -0.0029234 -0.00389811 -0.00611118 0.00481446 0.00318399 0.0153485 0.000438819 0.0109621 -0.0121124 0.00440988 0.0212816 -0.00357898 0.0197521 -0.0196882 -0.0130995 0.0125407 0.00201957 0.0036052 0.0151136 -0.0144229 -0.00679123 -0.00926223 -0.0106069 -0.00147804 -0.0103135 0.000469561 0.0107599 -0.018713 -0.00428693 0.00811829 0.0170416 0.0115614 -0.00287582 0.00229253 -8.62284e-05 -0.00603812 0.016266 -0.00450588 -0.00262702 0.0121127 -0.0145046 0.00760199 0.0208695 0.00810129 0.000153092 -0.00451805 -0.00168361 -0.0100295 0.00566312 -0.00855498 0.00780277 -0.00421569 0.018624 -0.00945093 -0.0166867 0.00537537 -0.0182054 0.00307985 -0.00554052 0.0102019 -0.00607187 0.0140883 -0.00846172 0.025037 0.0124023 -0.00521967 0.00135552 -0.0170969 0.0245158 -0.0014538 -0.0101004 0.00949616 -0.00138399 -0.00230887 0.00540316 -0.00393054 0.00451013 0.00310981 0.00330327 -0.0105508 0.000402084 0.00190781 0.0100522 -0.000946156 -0.00429859 -0.00402376 -0.00920741 0.00207464 0.00500357 0.00455615 0.0147725 -0.0153988 0.00410672 0.00290008 0.00742822 -0.0210187 -0.00692555 -0.00543826 -0.00565576 -0.00563787 0.030756 -0.00299298 -9.68145e-05 -0.0129169 -0.0159907 0.0012508 0.00974595 -0.00359051 0.0195355 0.0132749 0.0067153 0.00812935 -0.00837242 -0.00608572 -0.00539278 -0.0166411 -0.00586984 0.00756666 -0.0241472 -0.00691141 -0.00432265 -0.0133054 0.00642708 -0.0103248 0.00268585 8.58563e-05 0.00423703 0.00432875 0.00127366 -0.00749895 -0.00540784 0.000977441 -0.00101213 -0.00955268 0.00223067 -0.0158077 0.00416081 -0.00162189 0.0129533 -0.00805793 0.0046645 -0.0100472 0.00378505 0.0131908 0.0201896 0.00130239 0.0121557 0.00561404 -0.0062057 0.00175697 0.00142527 -0.00316876 0.00276669 0.0111957 0.00687161 -0.0125619 0.0111344 -0.005417 0.00579795 -0.011149 0.00491755 -0.00419404 0.0200299 0.00764639 0.00764438 -0.0214022 -0.00524919 -0.0065368 -0.0146413 -0.000261082 0.00834757 0.000393398 -0.00537102 -0.00786225 -0.00480343
0.0109527 -0.0021009 0.00242049 0.0112333 -0.0103513 0.0129443 -0.017778 -0.00100802 0.00573252 -0.00452764 -0.00110842 0.000269238 0.00148439 0.0100466 0.00320001 -0.00125708 -0.00059967 -0.0165375 0.00536747 0.0118227 0.0035213 0.00406215 0.00158313 -0.00144788 0.0108245 0.00567158 0.0130084 0.00140716 0.0012899 -0.0144324 -0.00481316 0.0126397 -0.0101512 0.00486897 0.00815131 0.0146703 -0.00374704 0.00337298 0.0119345 -0.00235255 0.0211156 -0.0166022 -0.00789686 -0.0132527 0.00237283 -0.00726395 0.0139479 0.00383957 0.00098977 -0.00125376 -0.00781208 -0.00855917 0.00837156 -0.0211282 -0.0185786 0.0111826 -0.0162147 0.00373957 0.00275189 -0.00560002 0.00400162 -0.00586639 0.014716 -0.00824991 -0.00526589 -0.0090282 0.00017668 0.0161372 -0.0184446 -0.00979886 0.00490085 -0.00627902 0.00282279 0.00509217 -0.0148956 -0.0164774 -0.0012554 -0.00159056 0.00734361 0.00924492 -0.00706374 0.00873403 -0.0103511 -0.00435332 0.00974679 -0.00930622 0.0118116 0.00781075 -0.00840949 -0.0190943 0.00384249 0.0159396 -0.00277781 -0.00717796 -0.0137275 -0.000230124 0.0214568 0.0131902 -0.00724663 -0.0104485 0.00182853 0.00134139 0.0125433 0.000964063 0.0207583 -0.00273963 0.0104598 -0.000830097 0.016928 -0.00341982 -0.00257196 0.00466426 0.00263293 -0.00735772 0.00974279 -0.00240684 -0.0189393 0.012353 -0.00642692 -0.00386833 0.0049436 -0.00587743 0.0201902 -0.00857896 -0.00451246 0.00939465 0.011807 0.00360597 -0.00512983 0.00425377 -0.00141261 0.0110438 -0.00109283 0.00424959 0.0171545 -0.00490039 0.0144396 -0.00459684 -0.00642244 0.0104568 0.00618243 -0.0126137 -0.00493672 0.0201118 -0.0080872 -0.00680347 0.0044334 0.00908381 -0.00794106 -0.00411712 0.00202812 -0.0132732 0.00435916 0.00252465 -0.00963045 0.00999638 0.00137496 0.0222283 -0.0136668 0.0117733 0.0120515 -0.000621385 -0.00304574 -0.00740075 -0.0026692 -0.000269224 -0.00557228 -0.00131999 -0.00049718 0.000602891 -0.00616364 0.013447 0.0114957 -0.00238614 -0.0060556 0.0166509 0.00114745 0.0087845 -0.00426041 0.00822552 -0.0161167 -0.00122777 0.00996208 0.00311259 -0.012919 -0.000653595 0.0191159 -0.00524126 -0.0240174 -0.00785188 -0.00562807 -0.00538463 -0.00956492 -0.0130376 -0.00681539 0.00969807 0.00375776 -0.0150053 0.0102101 0.0112341 0.0126676 0.0135198 0.00418156 0.0163156 0.00118494 0.00865771 0.00563702 -0.00194627 0.00712795 0.00337925 0.0122444 0.000701745 0.0189311 0.0167413 0.00172622 -0.00522674 0.00469821 0.00408375 0.00471743 -0.00484928 0.00497961 -0.0115514 0.00315646 0.0134389 0.00435327 -0.00417033 -0.0105522 -0.00390719 7.72627e-05 0.00789459 0.0167935 -0.00252349 -0.0145864 0.00422719 -0.000618532 -0.0112729 -0.0244751 -0.00264702 -0.0106942 -0.00536867 -0.0137095 0.00890748 -0.0196084 0.00182959 -0.00282108 0.00400897 8.20647e-05 -0.00257148 -0.00747006 -0.00129318 -0.0059391 -0.00019095 -0.0037376 0.00528669 0.000729684 -0.0109533 -0.00167236 0.00282976 0.0118187 0.000479885 -0.00391084 -0.0169967 -0.00156076 0.000468853 0.000937775 -0.00721256 0.00294888 -0.0176763 -0.0125809 -0.0110254 -0.00321769 -0.00458784 -0.0100167 0.00611439 -0.0077066 -0.00204394 -1.73521e-05 -0.00887108 0.00171251 -0.0115061 0.0121759 0.00092175 0.000485157 -0.0282983 0.00476444 -0.0104084 0.0155157 -0.0148598 0.000499947 0.00894655 0.00399836 0.00269098 -0.014064 0.00377565 0.00635632 0.00822579 0.0108937 -0.0110124 0.0111091 -0.0167637 0.00417895 -0.012517 0.00491053 0.00639785 0.0068917 0.0129762 -0.00993093 0.0101017 -0.014811 0.0022213 0.0175089 0.00116052 -0.0128906 -0.0108686 0.00706196 -0.00378202 0.0145258 -0.0132875 -0.00554781 0.00881988 -0.00371233 0.00273772 0.00998211 0.00180409 -0.00218951 0.00975187 0.00209309 -0.0178683 -0.00623414 0.00944113 -0.00184806 -0.000718924 0.00847604 0.0129939 -0.0136424 0.00123059 0.00824056 -0.00629171 0.024996 0.0250782 0.0166412 0.0127483 0.00371673 -0.00450122 -0.0108234 0.000403256 -0.00607967 0.000823818 -0.00849073 -0.00391927 0.00245922 -0.0191157 0.00254131 0.00101554 0.00112342 0.00608004 -0.0134565 -0.00994655 0.00212592 -0.0057707 -0.00395949 -0.0119042 -0.00439411 -0.00668494 0.00480254 -0.0101565 0.00445558 -0.000503123 0.00152305 -0.00641495 -0.00564816 0.00911575 -0.00331467 -6.84371e-05 0.0125458 0.00945062 -0.00776915 0.00068848 0.0199848 0.0083684 0.00604758 -0.00718623 -0.00369788 0.00338419 0.00864685 -0.00822286 0.00247079 -0.0106805 0.0150363 -0.0138818 0.00307783 -0.0116668 -0.00428873 -0.0010077 -0.014035 0.00399772 0.00366427 0.00932728 0.0044986 -0.0106051 0.00143158 0.00696813 -0.00752674 -0.0083776 0.0125348 0.015228 0.00494598 -0.00584216 -0.00136315 0.00011992 0.00454932 -0.00865777 -0.00195102 0.0158559 0.0061481 0.00258202 0.0176906 -0.00224245 0.0135058 -0.00786263 0.0271478 -0.00118638 -0.00111225 -0.00670505 -0.0015164 0.00149068 -0.0107135 -0.0127861 0.00340367 -0.00426023 0.00135652 0.00255978 -0.0214382 -0.00703453 0.0102294 0.00928706 0.00653139 0.00505854 -0.0167253 0.00105205 0.00525313 -0.010939 -0.00557255 -0.00259241 -0.00242941 -0.0160235 0.017494 -0.0173147 0.000914392 -0.00747792 -0.00884522 0.0046874 0.00645477 -0.00165565 -0.00516447 0.0163229 -0.00859376 -0.01338 -0.0128877 0.0105085 0.00760483 -0.00645769 -0.0132477 -0.0111701 -0.00932317 0.0115243 -0.00468578 0.0012717 -0.00888387 0.0122442 -0.00192333 0.00651243 -0.00351837 0.00471269 -0.00155991 -0.00566357 0.00552064 -0.00267385 0.0111607 0.0194708 0.0021222 0.00318243 -0.0113615 -0.0113667 0.00517562 0.00774011 -0.00583128 0.00315928 -0.00874147 0.00905754 0.0156448 0.00347193 -0.0177907 -0.0155962 0.000570206 0.00958675 -0.00251607 -0.0136574 0.00993996 -0.00411761 -0.00677605 -0.0164353 -0.0143135 0.00325378 -0.00972576 0.015931 -0.00463014 -0.0149295 0.00572532 -0.00170296 -0.0030182 0.0223782
-0.0154415 -0.00210143 0.00518186 0.0074104 -0.00625506 -0.0227923 0.000495202 -0.00598521 -0.00659156 -0.0169186 0.00855435 0.000204398 0.0129229 0.0116185 0.00357785 -0.0137051 -0.0259943 -0.00170065 0.0173808 0.0051277 0.0177809 -0.00444138 -0.0165501 0.00917973 -0.0144935 -0.00852301 0.0121524 -0.0154478 -0.00887588 0.0170823 -0.00747628 -0.0197809 -0.00106092 -0.00206242 -0.00387654 0.0155266 -0.00246281 0.0276349 -0.00178319 0.00483049 -0.00261275 -0.0009073 -0.00561801 0.0099527 0.0151879 -0.0113799 -0.00776429 0.00782131 -0.0024824 -0.00348383 0.0173923 0.0196203 -0.0146468 -0.0033179 -0.00835732 0.000252977 0.0191359 -0.00378513 -0.00250363 -0.0122553 -0.00887689 -0.0171647 -0.00203699 -0.0153684 -0.00107946 0.00478225 0.00329105 -0.0233508 0.000857777 0.00287765 0.0066117 -0.0258287 0.00540506 0.0135438 0.00277967 0.00229309 -0.0132019 0.00946531 0.0152612 0.00351092 -0.0192749 0.0203552 -0.000904604 -0.00240502 -0.00880966 0.00661907 -0.0107499 -0.00528176 -0.00943646 0.00392365 -0.0100254 -0.00543155 -0.0102641 0.00353061 0.00899739 -0.00519875 -0.00432475 0.0272438 -0.00345317 0.00520296 -0.00481357 0.00125333 -0.0150383 -0.00494452 0.00846063 -0.00989862 -0.0151676 -0.0265388 0.01608 -0.0108122 -0.00906089 -0.00304558 -0.00612249 0.0051954 0.00764417 -0.00599879 0.00421919 0.000357214 -0.0015272 -0.0102779 -0.00520935 0.00351357 -0.00345759 -0.00270288 -0.00850765 -0.00902685 0.00350809 0.00796339 0.0103482 0.00573745 0.00442519 0.00342714 0.0176575 -0.0192502 0.00439329 -0.00187144 0.00772932 0.00225409 -0.0134819 0.000199509 0.00728381 -0.00886834 -0.00110478 -0.00947449 -0.0114715 -0.0066092 0.00614876 -0.0076052 0.00858264 0.00464747 -0.00957176 -0.0158288 0.00122382 0.000472506 0.00457752 0.0162271 0.00408388 0.00942344 -0.00170808 -0.00572217 -0.00343083 -0.000402121 0.00753838 0.0022923 0.0061839 -0.000829167 0.00689747 0.0140233 -0.00353967 0.00080772 0.000439444 -0.015868 0.0127202 -0.00247422 -0.0104873 -0.018075 -0.0094765 0.00516674 0.00545128 -0.00359441 -0.00112583 -0.0108783 -0.00639851 0.00344506 -0.0132617 0.00462326 -0.0044222 -0.00806964 0.00977223 -0.0025521 -0.00327843 0.0178774 0.00306063 0.00657351 0.00228653 0.00492382 -0.000705902 0.00467721 0.00602654 -0.00807603 0.00582882 0.0142445 -0.000474045 0.00286395 0.00374554 0.0107904 -0.00495403 0.0138382 -0.0247405 0.00577373 -0.0175881 0.00852029 0.0105138 0.00463194 0.00441703 0.0113733 -0.00130042 0.00104395 -0.0106128 0.0102454 0.0143372 0.00309063 0.00392993 -0.00495587 -0.0145657 0.0266434 0.00280594 -0.0078357 0.0229622 -0.0159365 -0.00124048 -0.000644408 -0.0287505 0.0132763 0.00183058 0.0078292 -0.00771429 0.00175562 0.00230632 -0.0159483 -0.00207481 0.0050757 -0.00602568 0.00602494 0.00080787 0.00828388 0.00342206 -0.00403797 0.00659744 -0.00527581 -0.0186423 -0.00559497 -0.00380051 0.0105296 -0.0210222 -0.00539467 0.00600542 0.00916814 -0.023938 -0.00476958 -0.00834981 0.00105144 -0.00572874 0.0109076 -0.00291087 0.0102417 -0.00322841 0.00851721 0.00246276 -0.00612182 -0.0101029 -0.00727096 -0.00591881 0.012311 -0.0106688 0.0109249 0.000351845 -0.0192083 -0.013452 -0.0150036 -0.0110656 -0.00329267 0.0123701 0.0194866 -0.00162674 -0.0149815 0.0112631 -0.00720327 0.0053734 -0.00724436 -0.00493248 0.00286371 0.00259766 0.00560232 -0.000802354 -0.00152302 0.00256581 0.00875034 0.00272144 -0.0116624 0.00991684 8.58265e-05 0.00895175 0.0011735 0.0139464 -0.00926181 -0.0112983 -0.00683777 0.00122932 -0.00122624 0.00655309 0.00860544 -2.28454e-05 0.00177231 0.00785558 -0.00727401 -0.0115861 0.00646648 0.00571792 -0.00639383 0.00436908 0.0108838 0.00182435 8.57393e-05 -0.0096788 -0.00634042 -0.0189872 -0.0049688 -0.00274229 -0.0162994 0.00366517 0.00754109 -0.00443226 0.00653818 0.0188884 -0.00532307 0.00751589 0.00528619 0.0254636 -0.0197628 -0.0069568 -0.0171571 -0.0094908 -0.011545 -0.00648831 -0.00239025 -0.0107599 0.00636682 0.00768081 -0.00981809 0.0123748 -0.00734264 0.00794757 0.00383279 -0.00329472 0.0104102 -0.00285047 -0.0160282 -0.00920952 0.0203735 -0.00564081 -0.00905202 -0.000223041 -0.0028437 0.0150549 0.0090772 0.0163727 0.00166619 -0.00851492 0.00633232 -0.00665542 -0.0103227 -0.00383191 -0.00386483 0.00462007 -0.00474033 -0.0136813 -0.0200625 -0.000825024 -0.0019792 -0.00137419 -0.00457516 0.0140631 0.00126193 -0.00699974 0.0405263 0.00642517 -0.00861344 -0.00632905 3.73914e-05 -0.0132103 0.00736723 -0.00989185 0.0303337 0.0128684 -0.0114083 -0.000462497 0.00306047 0.0077152 -0.00412943 -0.0111125 0.00868541 0.000145149 0.00945302 0.00340305 0.0123968 -0.00385866 -0.00179966 -0.00945807 0.000698013 0.00743965 0.00435387 0.00217888 -0.00348129 -0.00602051 -0.00295583 0.00609186 -0.00558258 0.0112713 -0.0173731 0.00150292 -0.0017073 -0.00874141 0.00309448 0.0128844 -0.00253454 -0.0107302 -0.0157166 0.00256848 -0.00191999 -0.0153986 0.0060554 0.012366 -0.0133656 -0.00916765 -0.0142485 -0.00656819 -0.00435457 0.0140799 -0.0367868 0.00218477 -0.0101893 0.00486329 0.0174273 0.0121547 -0.00761582 0.0149171 -0.00121068 -0.0070537 -0.0027631 -0.00537704 0.00209124 -0.00752313 -0.00810876 -0.016999 0.0183989 -0.00109616 -0.0123911 0.00179012 0.0234779 -0.0224707 0.00349978 0.00197177 1.15174e-05 -0.00486679 0.00308414 -0.0002745 -0.00339085 -0.0153085 0.00841117 0.0168154 -0.020138 0.0119159 0.0067522 -0.00303077 -0.0137272 -0.00769444 0.00103588 0.00486516 -0.00821485 -0.018846 0.00143052 -0.00333865 -0.0048903 -0.00345668 0.00988392 -0.00476886 0.0108323 -0.00242681 0.00378551 0.00341842 0.012212 -0.010622 0.0235393 -0.00418237 0.00607211 -0.00147541 0.00796255 -0.0063324 -0.00779729 -0.0236324 -0.0205714 0.00530007 0.0216543 -0.0130776 0.0127525 -0.00727107 -0.0130624 0.0141248 -0.00811482 0.012549 0.00615554
-0.00734462 0.0129304 0.00253488 0.00186987 -0.0231699 -0.00236609 -0.00703782 0.00510834 0.00771763 0.00162945 0.00869559 0.00385318 0.00409005 -0.000334099 0.00552221 -0.0289546 -0.00300784 -0.0190113 0.00366083 0.00947214 0.00078337 -0.003045 0.00893085 -0.0049661 -0.00783762 0.00810705 -0.0174364 -0.00320546 -0.0126258 -0.000226691 0.00696878 0.010978 -0.00620451 -0.00762142 -0.00172738 0.00195864 0.0110493 0.0198448 -0.014034 0.00387811 -0.00401827 -0.00314799 -0.00853353 0.00149965 0.00725634 0.00357101 -0.0143685 -0.0137796 0.0104292 0.0151604 0.00226339 0.00966207 -0.0011772 -0.0126971 0.0107644 0.00268915 0.0057085 0.0297587 0.00230236 -0.018 0.00218723 -0.0130534 -0.0113868 -0.0105535 -0.0114274 0.00125561 -0.0116786 0.00197133 -0.016993 -0.0141679 0.00677992 -0.00130291 -0.0111296 0.00325938 -0.00296105 0.00706315 -0.00853524 -0.00590937 0.000270764 -0.00637977 -0.00243079 0.0275472 -0.00772291 -0.0130134 -0.00279008 0.0041086 0.0107138 0.00534364 -0.0142353 0.0029552 -0.00494485 -0.025836 0.00436193 -0.0160918 -0.00863491 -0.00108576 -0.00895481 0.00200773 0.00351222 0.0168197 0.00484599 0.00271205 0.00887526 -0.0194686 -0.007786 -0.00510158 -0.00519916 0.0095124 -0.022173 0.0103003 -0.0162639 -0.00195837 -0.00803993 0.00439826 -0.0125817 0.0143709 0.0126447 -0.0116871 0.0151816 -0.0196188 -0.0083876 -0.00574252 0.0161633 -0.00293916 0.0127384 0.00919466 0.0129524 0.00985043 -0.00253984 -0.0145193 -0.0113855 0.00105806 -0.00972256 -0.00302296 3.90792e-05 -0.0129643 -0.0137873 0.00231595 0.00402149 0.00805298 -0.00255436 0.0186247 0.00451337 -0.0134771 -0.00841314 0.0133344 0.00137409 0.00831159 0.0127363 -0.0101717 0.0109046 -0.0132664 -0.000732243 0.00475077 -0.00751522 -0.00610419 0.013384 -0.00799398 -0.0202686 0.0027224 0.00826436 -0.0102234 0.00754585 0.0145782 0.00681798 -0.00119305 0.00281508 0.000716286 0.00542882 0.00157422 0.00748333 0.00801701 0.00910869 -0.0192147 -0.00440817 0.0175174 -0.000353575 -0.0082351 0.0136834 -0.00888933 -0.00191751 -0.0165557 0.00385145 0.00272044 -0.0115365 -0.00525935 -0.000938013 0.000639066 -0.00863221 -0.00293416 0.017946 0.0115192 0.00954575 0.00573461 -0.00600456 -0.0162851 0.00649093 0.00333659 -0.0128212 0.0260519 -0.00629821 0.0115016 0.00895236 0.0130177 0.00413204 -0.01255 -0.00428569 -0.00675046 0.0322153 0.0223134 -0.00131531 0.00937376 -0.0299796 -0.00490785 -0.00135647 0.00182113 0.000626093 -0.006446 -0.00237845 0.00307585 0.00317558 0.00017129 -9.30387e-05 -0.00106093 0.00897634 0.0119108 -0.014105 -0.0130628 -0.014996 -0.011058 -0.0134482 -0.00318007 0.00552191 0.0138792 -0.00935247 0.00720666 0.00953892 -0.0106569 0.00620466 -0.00400544 -0.00204093 0.00596137 0.00581615 -0.00215722 -0.00401052 -0.00799336 -0.00119078 -0.000178342 0.012873 -0.0093679 0.00697604 -0.010053 0.0019423 0.00516301 0.00929039 0.0096535 0.00671612 0.00647307 -0.00931498 -0.00609593 -0.015231 -0.00513773 0.0101954 0.0146596 -0.00582937 0.00649231 -0.0120074 -0.00143704 0.00880169 -0.0035596 0.00537281 -0.000371099 0.0015204 0.00094369 -0.00770418 0.00828407 -0.00936204 -0.00599807 -0.00244737 0.00970896 0.00176782 -0.00872503 0.00262025 0.000673651 -0.00675183 -0.0108317 0.0103586 -0.00108804 -0.0084148 0.00771942 -0.0214172 -0.0120248 -0.00687337 -0.0116023 -0.00125934 -0.00347011 0.0135266 -0.0153775 0.00937136 -0.000654022 -0.012579 -0.0113805 0.0018467 -0.0038137 0.00840563 -0.00538058 -0.00082689 -0.00283027 -0.014304 -0.00592878 -0.00923371 0.0104435 -0.00923326 -0.00743766 -0.00010173 0.0160104 0.0106999 0.00365618 -0.00270678 0.00723302 0.00107051 -0.00181796 -0.00175922 -0.0043689 -0.00416924 0.00639201 -0.0390835 -0.00172761 0.00348046 -0.00248792 0.00517135 0.00436503 -0.00532696 0.00273357 -0.00713423 -0.0117841 0.00366531 0.0329348 -0.00384693 0.0106454 -0.0151799 -0.0032909 0.0257721 -0.000768683 0.000226201 -0.00202492 -0.00518298 0.0164322 -0.00679821 0.0104842 -0.00517836 -0.00518979 -0.0158328 -0.00737406 -0.00784668 -0.00478443 -0.0381219 -0.00166073 0.0130166 -0.0180291 -0.0100271 -0.0211525 -0.00140282 -0.00447503 0.0101599 0.0255839 0.00241606 -0.0154825 0.00127182 0.0130335 -0.0151916 -0.000125093 -0.00854652 0.00131089 0.00562985 0.0153597 0.010469 0.00383592 0.00782433 0.000608516 0.00562693 0.0130324 -0.00760884 -0.00164284 -0.00189654 -0.00260482 -0.00336298 -0.0157654 0.00852013 -0.0159361 -0.00773694 -0.00156291 -0.00914857 -0.00890873 0.00165124 -0.00445012 0.00112541 0.00494288 -0.00369644 -0.0043329 -0.00513135 3.41055e-05 -0.00705379 -0.0015441 0.0133667 0.0024197 0.00051766 0.00317278 -0.00275151 0.0015942 -0.017712 -0.0025983 0.00373816 0.0031864 0.0128292 0.0078825 -0.00375702 0.0148036 0.0088315 -0.00509067 0.00956751 0.0213831 0.010931 0.00108331 -0.000782545 0.0128318 0.00897526 -0.00932473 0.0149793 0.0146925 -0.00192094 0.0103989 0.00418653 -0.00777373 -0.00741818 0.0117439 0.00578441 -0.00192193 0.00196236 -0.000871636 -0.000689449 -0.00198813 -0.00754627 -0.000103 -0.0188749 -0.00422993 0.0113335 -0.00184111 -0.00339736 0.0120352 -0.0151925 -0.00806973 0.0190098 -0.0228996 0.00732606 0.000462271 0.00186646 0.0121604 -0.00433352 -0.00852672 -0.0160492 0.0109116 -0.003154 -0.0087474 -0.00213472 0.00867831 0.0037542 -0.00213627 0.00874653 -0.00606356 0.00454033 0.00351103 0.00825987 0.00796977 0.00221494 0.0117201 0.00779771 0.00487482 0.0101529 0.0153524 -0.00820821 0.00891916 0.0204899 0.00828372 0.012448 -0.00157999 0.00027143 -0.0150005 0.0170866 -0.00662228 -0.0147403 0.00732795 0.00498124 -0.00616635 -0.0186712 -0.0157121 0.0103142 0.00790395 0.0171796 -0.00586502 0.0110482 -0.0130776 0.00773138 0.000912959 0.000965436 0.00626194 0.0165474 -0.00311801 -0.0072786 0.00811668 0.00126103 0.000488403
-0.00357663 0.0158986 -0.0251252 0.00215824 0.00953042 0.0103298 -0.00734128 -0.00222694 0.00398565 0.00342373 -0.00620103 0.0096737 0.00972486 0.00769323 0.00570507 0.00017455 -0.000359941 -0.00124447 0.00647616 -0.00716043 0.00257421 -0.00119591 0.00383153 -0.0167929 -0.0114089 -0.00402588 -0.00930083 0.00284421 -0.00504605 0.0115352 0.0100452 -0.0125613 -0.0033237 0.00627148 -0.0122249 -0.00370495 0.0162131 0.00329284 -0.00363626 -0.0100246 0.00854351 0.0102864 -0.0179264 -0.0165189 -0.00439146 0.0168543 -0.00180883 0.0171228 0.00616089 0.0118459 -0.0118221 -0.000467948 0.0109631 -0.00939512 0.00188798 -0.017885 0.00953305 0.00134856 -0.0040314 0.00183565 -0.0017393 0.00367145 0.000776585 0.00044995 -0.00471398 -0.00823788 0.0144684 0.00392383 0.0022975 0.0132191 0.010793 0.0181213 -0.000186139 -0.0167251 -0.0050913 -0.00278267 -0.00586727 0.023687 0.00643685 0.00824311 -0.00163258 -0.00764693 0.00161209 8.88211e-05 0.00978303 -0.00952245 0.0157062 -0.00169314 -0.00171415 -0.0107341 -0.0003963 -0.00562824 0.0225227 -0.00953684 -0.0036304 -0.0120316 -0.0143491 -0.00298733 0.00073319 -0.00229783 0.00802835 -0.00567681 0.0170719 0.00327909 -0.00525552 -0.0103654 0.00761086 -0.0022116 -0.0112453 0.00529916 -0.00460419 -0.0127092 0.0132563 0.00926491 -0.0140222 -0.00483958 0.00036798 0.00752112 0.010956 4.60089e-05 -0.00549763 -0.000346468 0.0204855 -0.00351586 0.00737495 -0.00868633 -0.0136629 0.00847728 -0.00716641 -0.0288262 -0.000852657 0.00478601 0.00584024 -0.0120628 -0.0184868 -0.0230167 0.00395537 0.0111733 0.00247976 0.00178927 -0.00185698 0.00612728 -0.017489 -0.0246796 0.00092228 -0.000185609 -0.00426856 0.0197909 0.00725776 -0.0106016 -0.00266651 0.00175185 -0.0069338 0.00544142 0.00129009 0.00614565 -0.00328279 0.0111567 0.00494911 -0.00634566 0.00599907 0.0112182 0.0279925 0.00409736 -0.00961151 -0.00737267 -0.0117697 0.0278053 0.0094618 0.0148665 -0.00811825 0.00469918 -0.00197624 0.0119756 0.00128848 0.0126253 -0.00726103 0.00496719 -0.000376135 -0.00422752 0.00455656 -9.80353e-05 0.00331666 -0.00170853 0.0211806 -0.00338336 -0.024043 0.00180059 0.0152887 0.00708683 -0.012144 0.0104729 0.00153661 0.00371707 -0.00288369 0.0142831 0.00406561 0.000847058 0.00391828 -0.00410185 0.00634351 -0.0123897 -0.0065437 -0.0106582 -0.00565942 0.00149393 -0.00272086 0.00399548 0.0100079 0.0157939 -0.00542731 0.0105741 0.0143966 0.00118861 0.0190179 -0.0207147 0.0355847 0.00442893 -0.00602139 -0.00264821 -0.00139055 -6.73939e-05 -0.00696556 -0.0125633 0.00687103 -0.0014806 0.00610043 -0.0148091 -0.0020453 -0.0115199 -0.00928016 -0.00241179 -0.0054238 -0.00439263 -0.0114716 0.0129176 0.00148178 -0.00490882 0.00445021 -0.00403145 0.00573659 0.0145101 0.0119451 -0.0100154 0.00963233 0.00868758 0.00218792 0.0167821 0.00628649 0.00138781 0.00525069 0.00248712 0.00283259 -0.0119311 0.00390253 0.0185564 -0.000434498 -0.00202404 -0.0111745 -0.0164262 0.0124601 -0.00134504 -0.00153956 -0.00593774 0.00675535 0.0011562 0.0107821 -0.0215862 0.00465764 -0.00118544 -0.0229619 0.0134504 -0.00193435 -0.0104444 -7.24359e-05 -0.00203383 0.00778965 0.0101051 -0.000489814 0.0039967 0.00234224 0.000700552 -0.00183763 0.0103015 -0.000616558 -0.00792972 -0.00465107 -0.00880165 -0.00233405 -0.00456547 0.00876938 0.00500438 0.00363132 0.0220078 0.000588039 0.00207343 -0.00490854 0.00473855 0.00198246 -0.0121257 0.0122664 0.0107615 -0.0123473 -0.00309183 -0.000280152 -0.00122168 0.000332377 -0.00450565 0.00497015 0.00487891 0.00802398 0.013811 -0.00235618 -0.00391136 0.00113071 0.00275541 -0.0183795 -0.0172066 0.00533119 -0.00892169 -0.00713834 0.00241212 -0.000899498 0.01726 0.00176848 0.00637018 -0.00421829 0.00493268 -0.00541932 0.0132522 -0.00863223 0.00891429 0.00303662 -0.00128855 0.00286585 -0.00319376 -0.00799589 -0.0127229 0.00928168 0.00344603 0.00455273 0.00139082 -0.00662093 -0.0108451 -0.0150152 0.0180022 -0.00532297 -0.0107181 0.000803727 0.00180104 -0.00345727 -0.00185561 -0.00213468 -0.00883416 0.00340348 0.00943827 -0.0098757 -0.00780946 0.00895587 0.009499 -0.00635298 0.00031377 -0.00907649 -0.00965583 -0.00700316 0.00997313 0.00251791 0.0065768 0.0094201 -0.0143786 0.00624909 0.014365 -0.00430498 0.00144872 -0.00976445 -0.00397856 0.0021309 -0.00737209 0.0240094 0.00660877 0.00757719 0.0110037 0.0236665 -0.0186753 -0.0147411 -0.000743155 -0.0183774 0.0162445 0.00567188 -0.0163503 0.00507873 0.00129431 0.000633207 0.0106349 0.0157669 -0.0149197 3.38964e-05 0.00686967 0.000694754 -0.00442708 -0.00446078 0.00851525 0.00221891 -0.011287 -0.00505092 0.00442604 -0.00527729 0.0207572 -0.0138245 0.000428643 0.00565938 -0.00481898 -0.00119864 -0.0186236 0.0129577 -0.00694087 0.012097 0.00648013 0.00468562 -0.00820547 -0.0169196 -0.0105465 -0.00498549 -0.000236897 -0.000233637 0.00948352 -0.00781658 -0.0100862 -0.0127245 -0.000689636 0.010454 0.000353405 -0.00464143 -0.00416583 0.0162883 0.0018868 0.0157382 -0.0104563 -0.00673059 -0.00342397 -0.00261476 -0.00956563 0.00494817 0.000597278 0.00803257 0.0085245 0.00411445 -0.0168336 -0.0120722 -0.0034185 0.012114 0.0314638 -0.00158502 0.00192284 0.000645396 -0.0116456 0.0228451 0.0117185 -0.0130259 -0.000458441 0.0174245 -0.00410153 -0.00266279 -0.00101055 0.00603122 0.00713871 -0.0215726 0.00319864 -0.000907264 0.00267907 2.04864e-05 -0.0101528 0.00813659 -0.0112251 -0.0010157 0.00783372 0.00377797 -0.00429921 0.00743715 0.0058517 0.00432096 -0.0154257 0.00233222 -0.00154047 -5.12789e-05 0.00206717 0.00264747 0.00849787 -0.00326908 0.0197256 0.00439212 -0.00859298 0.00454768 0.00215557 0.00900815 0.00755887 0.00181862 -0.0069079 -0.0114641 0.0161274 0.00102398 -0.00153083 -0.003409 -6.95217e-05 0.0203604 0.00820712 0.0175492 0.0145259 0.00408157 0.00795525 -0.00525372 -0.00461624
0.00454116 0.0095183 0.00655722 0.0180285 0.00635021 -0.00171969 0.00362292 0.0118913 0.012782 -0.0216132 -0.0120354 -0.00342254 0.0197862 0.00181521 -0.00957434 0.00261206 -0.00462755 -0.0103686 -0.00565389 0.016402 -0.0115978 0.00907534 0.00979926 0.00519838 0.00145778 -0.00938105 -0.0144876 -0.00162336 -0.00964616 -0.000815294 -0.0189566 0.0152253 0.00036139 -0.00653757 -0.00273583 0.0101121 0.00911625 -0.0113052 -0.00946954 0.00921723 -0.0202719 -0.00429382 -0.0129577 -0.00190225 -0.0127648 -0.0134486 -0.0014101 0.0167609 0.00196994 0.006175 0.0088445 -0.00646437 0.00553482 0.00474652 -0.00120939 -0.00801622 0.00255445 0.0124991 -0.0168633 -0.00877525 -0.000290424 -0.000513558 0.00118756 -0.00585894 0.00367391 -0.0106317 -0.0187302 0.0298165 -0.0140612 0.00388319 -0.0182758 0.00933889 0.00215218 -0.00699159 0.00336345 -0.000176964 0.0171256 -0.00919623 -0.00361812 -0.0105324 -0.0103582 -0.0129547 -0.00719888 0.00295303 0.00182585 -0.000593118 -0.00262442 -0.00163476 -0.000391925 0.000115378 0.00631345 0.000638694 0.00576216 -0.0101992 0.00707505 0.0127888 0.00493271 -0.0118694 0.0130174 -0.00324359 0.016481 0.000955804 -0.000463587 -0.00142737 0.00346173 -0.0149683 -0.00426999 -0.00255707 -0.00461059 0.000542747 0.0119163 0.000956092 0.00343641 0.0105324 0.00568523 0.00588751 0.00151427 -0.00141202 -0.00861717 -0.0102725 0.00338706 0.00329951 0.00537769 -0.0125283 -0.00153223 0.00355103 0.0166866 0.0122496 0.00241719 -0.00638386 -0.0075417 0.0127951 -0.0159863 -0.016514 0.00333812 -0.00441639 0.00466426 0.00803587 -0.0103946 -0.015673 -0.000215174 -0.0135065 -0.000341978 -0.0107748 -0.00720425 -0.0114532 -0.00319894 -0.00895173 -0.0165403 -0.000629058 0.019214 -0.000648008 0.01861 -0.00538857 -0.00491943 -0.00677232 0.0100844 0.012042 -0.00579296 0.00636926 0.00802783 0.00462638 -0.0143959 -0.00189059 -0.00236681 0.0024816 0.0096643 0.0135127 -0.00893135 -0.00125801 0.00147592 0.0142989 -0.00666842 -0.0132887 0.00340382 9.4714e-05 -0.0140387 0.0107955 0.0130063 -0.00733509 0.0233714 -0.000138491 0.00531723 -4.08159e-05 0.0102911 0.0085392 0.0058756 -0.0223218 0.00514125 0.00731837 -0.017352 -0.0162961 0.00498264 0.00059346 0.00505861 0.00120538 -0.000371584 0.00972692 0.00324187 0.0070777 0.00647858 -0.0227089 0.0052046 0.0122683 0.000156268 -0.00285623 -0.00331984 0.00466402 0.0117316 0.0234454 0.00523351 -8.3197e-05 -0.00873972 -0.0209608 -0.00389243 0.0217096 -0.00809359 -0.00773033 -0.0126925 0.00745789 -0.00516359 -0.0298355 0.00641872 -0.00254734 0.0170097 -0.0209308 0.00258724 0.0131457 -0.0135679 -0.00163864 0.00389353 -0.016133 0.00941843 -0.0100099 0.00136389 -0.00453374 0.0202366 0.00635702 -0.00344809 0.0113019 -0.00397507 0.00941647 0.00549226 -0.0114477 -0.0029094 0.0128912 -0.00949224 0.00916871 -0.00481775 0.00355226 -0.00364792 0.000609534 -0.00852159 -0.0011333 -0.00662163 -0.00635528 -0.00211512 0.00844641 0.00573405 0.0197973 0.00457472 0.00103214 0.00616439 0.0110501 -0.000626425 0.0146205 -0.00136597 0.00848257 0.0096893 0.0142164 0.0126923 0.00506763 -0.000359039 0.0316667 0.00586042 0.00339018 0.00934498 -0.00909684 0.00464594 -0.015892 0.00540721 0.0194203 0.00624789 0.00627745 0.000846043 0.00188353 0.00196129 0.00649612 0.0189619 -0.0137856 0.013076 0.00189365 0.000791994 -0.003818 0.00191374 -0.0118383 -0.00534399 -0.0071542 -0.0137981 0.00756572 -0.0124696 -0.0021097 0.00526193 -0.00468062 0.000313932 0.00207539 0.00211465 0.0133109 0.0149797 -0.000983784 -0.00461252 0.000220564 0.00829176 0.00500546 -0.0058874 -0.00433087 -0.00267025 0.0158952 0.00924107 -0.00276594 -0.0019248 0.0264947 -0.000129342 -0.0103372 0.000179501 0.00772904 -0.00130184 0.0148586 -0.0141534 -0.0121215 -0.00781865 0.00298548 -0.0211183 -0.011636 -0.0145789 -0.0126632 -0.0103474 0.0108187 -0.00197644 0.0207603 -0.00103988 0.00841434 0.00584033 -0.0117049 0.00837206 -0.0282583 0.0155034 -0.0149737 0.00153895 -0.00143695 0.0259438 0.00151545 0.0135997 0.00658472 0.0208967 0.000989859 -0.00894618 0.00454373 0.00487599 -0.00520073 0.0137571 -0.0114856 -0.00716895 -0.00839305 -0.0265413 -0.00279268 0.0177433 -0.0190404 0.00415951 -0.0188947 -0.00264738 0.0113638 0.0162304 0.0016189 -0.00901712 -0.00436266 0.0113787 -0.00748663 -0.0168774 0.00385741 -0.0195287 0.00887631 0.00735327 0.0196564 0.0139553 -0.0149089 -0.0051055 0.0125812 0.00772577 0.00110277 0.00935812 0.00467509 -0.00456849 -0.00573333 0.00165659 0.00254235 -0.000459306 -0.00194782 -0.00220874 0.0122957 0.0271278 -0.00870028 0.00187655 -0.0114817 0.00253625 -0.0032633 0.011292 0.00984571 -0.0234373 0.0280145 0.000211201 0.00405851 0.0043926 0.00446092 0.00830089 -0.0145517 -0.00177966 0.00882962 -0.00166398 -0.018119 -0.0161878 -0.0135188 -0.00278716 -0.00331798 -0.00367914 -0.000764704 0.0133732 -0.00330798 0.00225881 -0.00125785 0.0127442 -0.00144614 -0.00145373 -0.0103845 -0.00182502 -0.00346733 -0.011072 -0.0130236 0.0145377 0.00179391 0.00685384 -0.00505024 0.00396129 0.0031034 0.00691471 0.00891622 -0.0122298 0.00937122 -0.00831129 0.00654401 -0.00356342 0.00598282 -0.00120556 0.000955538 0.0107035 0.0120489 -0.00786896 -0.0187908 -0.00529158 -0.00657933 -0.000384057 -0.00540886 0.00171489 -0.0132986 0.00148768 -0.00318101 -0.00475347 -0.00257305 -0.0060542 0.00460091 0.00591633 0.00379489 0.0165843 -0.00121689 -0.0103216 -0.00653113 -0.00391719 -0.0150888 0.00542726 0.0217236 -0.00557638 -0.0195091 -0.00284487 0.00201145 -0.0100041 -0.0106419 -0.00943031 0.0061051 -0.0141236 -0.00390231 0.011718 -0.00534337 0.00384927 -0.00284487 0.00306233 0.00218955 -0.0156221 -0.0105514 -0.00553616 -0.00378571 0.00322246 -0.000270356 0.00055556 0.00676027 0.0108997 0.00148318 0.0100626 0.00704365 -0.00466278 -0.0017934 0.00202974 -0.0050302
0.0163534 0.0145262 -0.00123934 -0.0140263 0.0130231 0.011896 -0.0108829 -0.0207167 0.000800716 0.00258031 -0.00434184 0.0141279 -0.017258 -0.00534573 0.00673471 0.000913941 0.0120782 -0.00799887 -0.00394141 0.00592905 -4.25763e-05 -0.00287361 0.00474865 -0.00633223 -0.0192881 0.00396554 -0.000115786 0.00508287 0.00692969 -0.00278248 0.0113987 0.00185552 -0.000777108 0.00352134 -0.00496976 0.0113006 -0.00118197 0.00817088 -0.00465457 0.0188245 0.0151221 0.014705 -0.00182357 -0.00130555 -0.00405209 -0.000732001 0.0113476 0.00461644 0.0187149 -0.0115018 -0.00439649 -0.00190263 -0.0270922 0.0126425 -0.00179993 -0.00509633 0.013995 -0.00926264 0.0117603 -0.0156058 0.0087542 -0.0045803 -0.0185115 0.00534541 0.00706453 0.0143967 -0.00371884 -0.00887679 -0.016709 -0.00451097 -0.00791635 0.0005333 0.00539708 0.00444861 -0.00092542 -0.0111643 -0.0253276 -0.0134741 0.00725381 -0.00794184 0.0117266 -0.00586795 -0.0101096 0.00557183 -0.000164863 -0.00294191 -0.00885661 -0.000846786 0.00367472 0.00412373 -0.00425073 -0.016393 0.00423452 -0.0117845 0.0112245 0.00705374 0.0152135 0.0220131 0.00366186 -0.00563294 0.00794381 -0.0175535 -0.000926459 0.000995778 -0.0103282 0.00582846 0.000676439 0.0079204 -0.0097864 -0.0122248 -0.0105487 -0.00300179 0.00316497 -0.00380034 0.00338279 -0.00363549 -0.00696973 0.00171746 0.000632999 -0.00674115 -0.0100701 0.0103204 -0.00733049 -0.00285721 0.00127157 0.00188598 -0.0116759 -0.0121397 0.00211902 -0.00301196 -0.0112065 0.0106781 -0.0248246 0.0317743 0.00877855 -0.00157208 0.00734866 0.0042766 0.0132877 -0.00162924 0.00874114 0.00366747 0.00557159 0.00669079 0.00400438 -0.00270816 -0.00169221 0.0154653 -0.00945606 -0.0129529 -0.00390376 -0.000620782 -0.00991009 -0.0241582 -0.0106878 0.0103467 0.00125084 0.00155255 -0.014575 -0.00815672 0.00466674 0.0134207 -0.00153218 0.00862373 0.00146135 -0.00749221 0.0281707 -0.0161827 0.00525437 0.0040437 -0.0110629 -0.0078785 -0.0127965 -0.00761602 0.0109269 2.39362e-06 -0.00216262 0.00468225 -0.0190974 -0.00193152 -0.0173351 0.00161226 -0.0115732 0.0236973 0.013053 0.00972877 -0.0113477 0.00286665 -0.0111555 -0.00127588 0.00611898 -0.01039 0.0157423 0.0113492 -0.00977345 0.0190173 0.00277281 0.00154336 0.00377564 0.00257664 0.0176835 0.00729966 -0.0102597 -0.0088748 0.000964411 0.00945041 0.0015193 0.000196235 0.0085847 -0.00566001 0.00218905 -0.000465812 -0.000989708 -0.0214352 -0.000135747 -0.0256504 0.00747955 -0.00359271 -0.0210226 -0.00406862 -0.016283 0.00531498 0.0139524 0.0121527 -0.00822053 0.00660323 -0.0201134 0.00565573 0.0136081 0.00543484 -0.00250737 0.0149359 -0.00974832 -0.00732255 0.0163398 0.00813678 0.0044307 -0.0139203 -0.00201072 0.00581092 0.00599355 0.00193977 0.00952771 -0.00328442 0.00824708 0.00470664 -0.0107501 0.00129026 -0.00437848 0.0116 -0.0212835 -0.0229219 0.00357253 0.016738 0.00580997 0.000263964 0.0152952 -0.0100661 -0.0205813 -0.00649643 0.0111265 -0.00735889 0.0162376 0.00403533 -0.00421873 0.00170022 -0.0192563 0.0225171 0.00760096 0.00699363 -0.00367771 -0.00114067 -0.0138906 0.00285509 -0.0094728 -0.00204664 0.00521766 -0.0195578 -0.0123462 0.0316245 -0.00713582 -0.00907954 0.018864 0.00871109 -0.00130626 -0.0105174 0.0152547 -0.00193621 0.00734076 -0.0152979 0.00287542 -0.0047831 0.0129473 0.00124682 -8.94622e-05 -0.00995352 -0.00656194 0.00591681 -0.00654375 -0.0172485 -0.000298995 0.013584 -0.00723348 -0.0153017 0.0136679 -0.00398028 0.0243236 -0.000146531 0.0020045 0.00293951 0.0103545 0.00529552 0.00238681 -0.00454422 -0.0127259 0.0133689 -0.0129713 -0.00636662 -0.00133009 0.00407979 -0.0141133 0.00456724 -0.00758884 -0.0103666 0.0146056 -0.00743044 -0.0142877 0.00385738 -0.0076945 -0.014166 -0.011836 0.0182825 0.00402242 0.0034552 -0.00999626 -0.010625 0.00537412 0.0044188 -0.00277202 0.00240221 -0.00802055 0.00499271 -0.0138296 -0.00845611 -0.000912335 -0.0024389 0.000201184 0.00614072 -0.00402865 0.0024143 0.00851969 -0.0156037 -0.0100847 0.00923093 -0.0151243 -0.00143842 0.00401129 -0.00244645 0.0200639 -0.00482818 -0.0122337 -0.00550134 -0.000634301 -0.0063744 -0.0187974 -0.00335963 -0.00842363 0.019086 0.00196555 -0.00774203 -0.0152923 -0.0051621 -0.00515405 0.000292159 0.000287841 -0.000682051 -0.00955763 0.00415661 0.0162435 0.0020371 0.00879592 -0.00183953 0.0072518 0.0251721 -0.0139246 -0.0216853 -0.00454751 -0.0168135 0.00509488 -0.0121262 0.00642552 0.00547162 0.00346454 0.0248457 -0.00344091 0.00144187 0.0061308 0.000567504 0.00637744 -0.000641379 0.00942241 -0.00394717 -0.014431 0.00830215 0.000249747 -0.0079592 -0.0131183 0.00321384 -0.00389792 0.00169388 0.0136303 -0.0197051 0.00279732 0.00623496 -0.00575087 -0.0085745 0.0127596 -0.00265419 -0.00897757 -0.00923589 0.003392 0.00660538 -0.000781382 0.00631287 0.0124423 -0.0012905 -0.0248849 -0.00351535 0.00742525 0.00310459 -0.00540264 -0.016479 0.0118567 0.00922832 -0.0244374 0.0094611 -0.0128581 0.0153651 0.0118742 -0.00144828 0.00771427 -0.00480468 0.00973441 -0.00307594 -0.00502094 -0.0011576 0.00347496 -0.00794533 -0.00242831 -0.0114431 -0.00205949 0.0101335 -0.00862925 -0.00511188 -0.00581442 0.0293378 -0.00118371 0.0170779 0.0017052 0.021137 -0.00211179 -0.00693447 -0.00709681 0.009454 0.00864887 -0.00678462 0.0132716 -0.00857596 -0.0127369 0.00089411 -0.00370259 0.00405316 -0.00367627 -0.00381958 0.00162466 -0.00181338 -0.0155168 -0.00676141 -0.000999772 -0.0107243 -0.00279451 -0.0116998 -0.0037083 -0.0173858 -0.00268014 0.00331171 0.00967606 -0.00252063 -0.00485728 -0.0114706 -0.00127382 -0.00830694 0.00653324 -0.00234447 0.0015952 -0.00229823 -0.00178863 0.0110393 0.000547287 0.00162871 0.00691817 0.011639 0.01352 0.000502457 0.00038338 -0.012499 0.00722151 -0.00175367 0.00203778 -0.0106037 0.000382939 -0.0107773
0.00525913 0.00169289 -0.00739248 0.00102837 0.00416805 -0.00630011 -0.012856 0.0151731 0.0183937 -0.00294383 0.00752494 0.00982901 0.00659153 -0.00520322 -0.00996067 -0.00692344 -0.00923357 0.00206802 -0.00550027 -0.0150787 0.00191302 0.00512171 -0.000769286 -0.0109189 0.00920423 0.00356326 0.00328435 0.00438293 0.00303411 -0.00630865 0.0090801 -0.0104075 0.00556126 -0.00443143 0.0056391 -0.00761727 0.0252588 -0.00778056 -0.00314037 -0.011341 -0.00470755 0.0064547 0.010277 -0.00599498 -0.00734974 0.00915634 0.00350925 0.00695687 0.00261686 -0.000671822 0.000638734 0.00801259 0.01082 -0.0224401 9.67475e-05 -0.00220103 0.00476397 -0.00165354 -0.0064143 0.00808477 -0.00789614 -0.000662078 -0.00282646 -0.00420373 -0.00447182 0.0159324 0.0254752 -0.0272799 -0.00359968 0.00798181 0.0266291 -0.00181427 0.000773507 -0.00209796 -0.00972281 0.00176339 -0.0135705 -0.00214542 -0.00726273 0.00296529 -0.00740144 0.00986633 -0.00851182 -0.0010036 -0.00508256 0.0178279 0.00829506 -0.00552535 0.00276675 0.0217309 -0.00922422 0.00904509 0.00186658 0.0237837 -0.00503223 0.000438941 0.00194826 -0.00803729 0.00695144 0.000216484 0.00223164 0.020988 0.00692554 0.00507289 -0.010929 0.00408619 0.0107667 0.0281338 0.029483 -0.00666551 0.0135658 0.00743272 0.0159275 0.00275251 -0.0116097 0.00509905 0.00487149 0.0085497 0.00559808 2.77529e-05 -0.00315065 0.000820731 -0.00512063 -0.00706813 0.00463882 0.00347105 -0.00316236 -0.00688992 -0.0163429 0.00745242 -0.00834274 -0.00769438 0.00168532 -0.00503625 -0.00154129 0.00134086 0.0105895 0.0111072 0.0107773 -0.00195977 0.00223189 0.00518379 -0.00760674 -0.00376724 0.00467098 0.00386717 -0.00898674 -0.0160121 0.00494495 0.00212388 -0.0101998 0.0182426 -0.0221115 0.0046416 -0.00588089 0.000494021 -0.00565058 -0.00123392 0.00105587 -0.0117801 0.00685693 0.0103933 0.00153498 -0.00825097 0.0138319 0.00167807 0.00653072 0.011327 0.00176921 0.0022018 0.00792313 0.0102863 -0.00368304 -0.00723314 0.00475066 -0.00651842 -0.0151456 -0.00326045 -0.00902377 0.00828633 0.0091454 3.29113e-06 -0.00715656 -0.0106306 -0.00662707 -0.000198092 -0.0112966 -0.000625497 0.000589246 0.00374946 -0.00112674 -0.00415888 0.00741797 0.00621667 -0.00384669 -0.000444959 0.00152563 0.00737438 -0.00616191 -0.00452929 -0.00587163 0.0057151 -0.0120207 0.00989825 -0.00165736 -0.00921026 -0.00591896 -0.000139932 -0.0311459 0.00334153 0.00989923 0.00348285 -0.00251553 -0.00225851 0.012375 0.012147 0.0122863 0.00642582 -0.00416898 0.00354392 -0.00753371 0.00776226 -0.0180579 0.0177634 0.00176857 0.00151866 0.00285518 -0.0120553 -0.00827965 -0.00121068 0.00628595 0.0280048 -0.00772122 -0.0132471 0.0129928 -0.0038412 -0.0122077 0.00232745 0.0120501 -0.00488583 0.00427306 0.0104018 0.00709181 0.00332402 -0.0131127 0.0126656 0.00689491 0.0109065 0.00111157 0.00560855 0.0160928 0.00223578 -0.00675177 -0.0113998 0.0114357 -0.0154924 0.00963217 -0.00775265 -0.00162326 -0.00165868 0.0221875 -0.022138 -0.00392815 -0.000383451 -0.00576447 -0.00681486 0.0128892 0.0044554 -0.000422874 -0.00814804 0.00313814 0.00385693 -0.00929155 -0.00209633 0.00272508 0.00933445 -0.00202443 0.00771427 -0.00584775 -0.00324223 0.00767047 -0.0115256 0.00145913 -0.0223009 0.0237907 -0.0110633 -0.000459958 0.00483932 -0.00670736 0.00408571 0.00755914 -0.00230549 0.000139415 -0.00245556 -0.00104535 -0.000810286 -0.00712621 0.0125168 -0.00256884 -0.00945147 0.00510912 0.00307345 0.0173498 -0.014164 0.00844691 0.00506859 -0.000675192 -0.00650904 -0.0030974 0.00633671 0.0107641 0.00206633 -0.00465942 0.00240137 -0.0125475 -0.000924848 -0.00960385 -0.00272177 -0.00555219 -0.00548053 -0.00157907 0.0103272 0.00627083 -0.0066075 0.0148607 -0.00264904 0.00666562 0.00705607 -0.0071549 -0.00663157 0.0116787 0.00970512 -0.0109263 0.019288 0.00237384 0.00685987 0.00587359 -0.00547101 -0.0112236 -0.00653536 0.00361333 -0.00125836 -0.00117135 0.00901383 0.00023739 0.00207744 0.0159992 -0.00638199 -0.00792395 0.0041486 -0.0172437 0.00848978 0.00451434 0.000874175 -0.00171723 -0.0184966 -0.00837667 -0.00585449 -0.00611218 -0.00369354 -0.00930011 0.0132694 -0.00132425 -0.005941 0.0153209 0.0145972 -0.0047147 0.0041277 0.00802758 -0.0141241 0.0101256 -0.00170542 7.87786e-05 -0.0157019 0.00854581 0.00931915 0.00391112 0.0103674 -0.00124501 0.00927702 0.0133894 -0.000669588 0.000553936 -0.0106557 0.00129614 0.0041991 -0.00609429 0.00748761 -0.0122252 -0.00518235 0.0044571 0.000579212 -0.00632242 -0.00376564 -0.0183718 -0.0142342 -0.00539929 0.00502645 -0.00792197 -0.0021866 0.00221154 0.00939036 -0.0128816 -0.0058339 0.0100548 0.00603428 0.0018938 0.000121944 0.0111062 -0.00291081 -0.0102861 -0.00364293 -0.0222788 0.0148966 -0.00978161 -0.00964592 -0.00316384 0.0072754 0.00209843 -0.0115941 0.0128546 -0.0014052 0.00716511 -0.00172913 0.00682236 -0.015638 0.00303411 -0.000836479 -0.00898435 0.0282297 0.00791818 0.00402088 -0.00952211 -0.00223975 -0.00623773 0.00801349 -0.0104188 -0.0100104 0.00735516 0.00313112 -0.0123438 0.00640333 0.0194887 0.00393216 0.00618744 -0.0186083 -0.0119968 0.00986421 0.0132576 0.00528956 -0.00755929 -0.00591347 -0.010624 0.00113092 0.00619713 0.00638144 -0.0108827 -0.00598965 0.00355243 0.00418236 -0.00368319 0.0169188 0.00442625 -0.000219038 0.00618599 0.00432739 0.00519839 0.0196192 -0.00748559 0.00492019 0.00104556 -0.00810337 -0.00260167 0.00388174 0.0181955 -0.00829752 0.00792347 0.00387374 -0.0138817 0.00393774 -0.00775651 -0.00301295 -0.00193677 0.0115468 0.0171339 0.010809 0.000893715 -0.00297707 -0.0074006 0.00402996 0.00233766 0.00356836 0.0214062 -0.00552817 -0.0362116 0.00737367 -0.010621 -0.0204237 0.00587044 0.0103072 0.00833897 -0.0151933 0.0146385 0.00452606 0.00479297 0.00216407 -0.00619584 0.0193659 0.00176094 -0.00191906 -0.0159247 -0.0140115
0.0128253 0.001016 -0.00492494 0.00738039 0.00106414 0.00165249 0.0142168 -0.0130197 -0.00637069 -0.0111603 0.00186898 -0.0057121 -0.00460471 -0.0177639 -0.014778 -0.00172639 0.00388261 -0.0109597 0.00539841 0.000102125 -0.00683495 -0.0045249 0.0141235 0.00844393 -0.0177674 -0.0202357 -0.0107605 0.010441 -0.0131692 0.00749672 0.00996931 0.0102515 -0.00178486 -0.00700856 0.00591139 0.00250968 0.00558021 0.0202674 -0.002208 -0.000123167 0.0254881 0.0157524 -0.0239957 1.82792e-05 -0.00828288 0.00575151 -0.00854469 0.00989813 -0.00768379 -0.0150592 -0.00895025 0.00813701 -0.0189655 0.000931246 0.00441949 -0.0026883 0.00688422 -0.000720766 0.021141 0.0153731 -0.0039222 -0.0303112 0.0107293 0.0139003 -0.00805436 -0.0082603 0.0103927 -0.00781356 -0.00932051 0.00905543 -0.00955724 -0.0189335 0.0164287 -0.00485889 -0.00756547 -0.00201088 -0.0098601 0.00491661 0.00993442 -0.00247407 0.0220744 -0.0122955 0.0030395 -0.0146641 -0.0115216 -0.00139307 0.0142951 0.00708499 0.00399686 0.0047756 0.00732708 -0.0112375 0.00219483 -0.0165853 -0.0103534 -0.00778547 -0.000473332 0.0118884 0.00691535 -0.0126529 0.00532706 0.0077071 0.00829194 -0.00632641 -0.00358008 -0.00448426 0.00417743 -0.0119534 -0.0140055 -0.00232002 0.000936021 -0.0141499 -0.00146053 -0.00699572 -0.00708247 0.00761656 0.013777 0.0057501 -0.00463153 -0.00522362 0.00326157 0.00330163 0.00130843 -0.00979189 -0.00648854 -0.0182663 -0.0140703 -0.00449936 -0.00484735 -0.022432 0.000804573 2.24263e-05 -0.0106701 -0.00825055 -0.00908881 0.00260601 -0.000561516 -0.00340947 0.000279523 0.00644171 0.00646284 -0.00465437 0.021549 -0.019945 -0.00951791 0.0133969 0.0171295 0.00526293 0.000330093 -0.00038612 0.024993 -0.0150608 -0.0173409 0.0149802 0.00641637 0.00425655 0.0174635 -0.000116119 0.00215167 0.00610728 0.00158828 -0.00517149 0.00452942 -0.0111599 -0.000189867 -0.010767 0.00826499 -0.00237038 0.00305627 0.014634 0.00496337 0.00935117 0.00964402 0.0011284 -0.00803813 0.00459022 -0.0156758 0.00333891 0.01663 0.00710922 0.00976166 -0.0030901 -0.000146 -0.0103634 -0.0177696 -0.0289636 0.0115087 0.00945747 0.00838221 0.00114075 -0.0119342 0.00875737 0.00652221 0.000376644 -0.00261361 -0.0170265 0.00857463 -0.0159762 -0.00717514 -0.0113028 0.0128916 -0.0131818 -0.0109907 0.0165979 0.00357901 -0.00670338 0.00911484 0.0102157 0.00360642 0.00706979 -0.00186605 -0.00183512 -0.00369445 -0.00378291 -0.0126537 0.004176 -0.000855735 0.00193814 -0.00822058 0.00146139 0.0111934 -0.00844433 -0.000615535 -0.00226108 0.00414592 0.00102536 0.00207962 -0.000794943 0.000231435 0.000702667 -0.001049 0.0101451 0.0062595 0.0185593 0.00280564 -0.00217804 -0.0109897 -0.00098675 8.02388e-05 -0.000293105 0.0122421 -0.00996073 -0.0011995 0.00710982 0.0128184 -0.00689066 -0.00616982 -0.00102295 -0.00176411 0.0110828 0.00891699 -0.00275204 -0.00455642 0.00368448 -0.0116947 0.00378625 0.00562741 -0.00786537 -0.00976969 -0.0039147 0.013545 -0.00270208 0.0209571 0.00771756 -0.00482736 -0.00610348 -0.0108883 -0.00419973 -0.00137461 0.00100006 0.00812459 -0.00389842 0.00509322 -0.00589824 0.0137052 0.00126398 0.00358067 0.0154529 0.00358095 -0.00444396 -0.0071397 -0.00621786 -0.00332798 -0.00773751 0.00260596 0.0112928 -0.000412697 -0.0211545 0.0147199 -0.00173531 -0.0046137 -0.014076 -0.00294929 0.0128185 -0.0106568 -0.000874127 0.0059293 0.0119488 -0.00934791 -0.00282135 -0.00325203 0.00687154 0.0353013 -0.0134397 0.0070882 0.00828869 0.00620065 0.0141893 -0.00423778 0.00502172 -0.0041347 0.0042857 -0.00808944 -0.0130579 0.000470804 0.0125948 0.00889506 0.00408161 0.0158436 -0.0086324 0.0037607 0.00565236 -0.0161535 -0.0173985 0.0166486 0.0056144 0.0141886 -0.00325786 0.0155661 -0.00535237 -0.00380206 0.0166212 -0.00746677 0.0074029 -0.00916566 0.0246972 0.00209876 -0.0159614 0.00549462 -0.00254178 0.0101754 0.0128977 0.00271075 -0.0225533 -0.00317953 -0.00794823 -0.00290149 0.00912943 -0.00161261 0.000549233 -0.00254787 0.0089122 0.0118682 -0.00689773 -0.0149997 0.0184017 0.00164734 -0.00203592 -0.0134461 -0.0143316 -0.0064593 0.000323978 0.00526091 0.0119256 -0.0163239 -0.00179558 -0.00567043 -0.00998625 0.000572112 0.00163406 0.0165233 -0.0118872 -0.00286552 -0.00434134 -0.00542083 -0.00744885 -0.00529226 -0.00699148 -0.00673681 0.00988347 0.00829637 -0.00893181 0.000312734 0.00807449 -0.0206722 0.00247218 -0.0075019 0.00124849 0.0103408 0.0017325 -0.000607444 -0.0142972 -0.00858428 0.00646623 0.00367033 0.00205677 -0.00247613 -0.0055982 -0.00402926 -0.00786262 -0.0157065 -0.0126468 0.00892481 -0.0207124 -0.0170461 0.00734073 -0.00169681 0.0125391 -0.00387327 0.0220259 0.00820395 0.00398204 -0.00596134 -0.00714661 -0.0050191 0.0166308 0.00365656 -0.0126581 0.000355928 -0.0104977 -0.000535359 0.00485793 0.0117186 0.00482333 0.00411606 0.00902499 0.00029051 -0.00231877 0.016022 0.000407991 0.00730457 0.0021129 0.0109474 0.0147642 0.0102315 0.00935179 -0.0090884 -0.0261707 -0.00103938 0.00972624 -0.0039705 0.00982101 -0.00751985 -0.00481631 -0.00058222 0.00991871 0.0102194 0.00318028 0.00294595 0.00723637 -0.00783356 -0.00369374 0.000261143 -0.0169482 0.0056686 -0.0109988 0.00909631 0.0215679 -0.0104202 -0.0133904 -0.00648123 -0.00612403 0.0149493 0.00212682 0.00817325 0.0157475 -0.00532645 0.000647847 0.0122239 -0.00713092 -0.00237962 -0.000437348 -0.0090068 0.0252956 -0.0282832 0.010589 0.0246316 -0.00384096 0.0117608 0.00190846 -0.0161733 -0.00707458 -0.00635572 -0.0184337 -0.020113 0.0104016 -0.000637205 0.0112178 0.00283829 -0.0114008 0.00541988 -0.00187412 0.0011446 0.0111301 -0.00980236 -0.00249136 -0.00824999 -0.00817088 7.61788e-05 -0.0137668 0.0173056 -0.00147207 0.0133812 -0.000603797 0.010154 -0.00248074 -0.00132733 -0.00458921 -0.0125815 -0.0143279 -0.0120392 0.0230072
-0.0132577 -0.00530561 0.0260629 0.00649232 0.00451455 0.0267514 0.0144051 0.00862176 -0.00306126 -0.00419814 0.0121047 0.0121353 0.00369323 0.00113802 -0.00110821 -0.0138217 0.0147095 0.00726925 -0.0148342 -0.00415819 -0.0085704 -0.00328563 0.00877522 0.0089537 0.00230949 0.0207534 0.0212309 0.0023627 0.00309502 -0.0115705 0.00112835 0.00814612 0.00529351 0.0168124 -0.00129017 0.00204577 0.0289542 -0.00704995 0.0006354 -0.00524404 -0.0133363 0.00165036 -0.000747242 0.0160173 0.0125988 0.000810672 0.00202496 0.00930755 0.00801164 -0.000981887 -0.0108837 0.0196405 -0.0160129 -0.00225286 0.0045343 0.00346156 -0.00295823 0.0113832 0.00201592 0.00353611 -0.0139672 0.00567741 -0.0107972 -0.0163351 0.00113301 -0.0210691 0.0121746 0.0117707 0.00630484 -0.00225566 -0.0030886 0.00658575 -0.00235047 -0.00481936 0.0318626 0.00963569 0.00236057 0.00799885 -0.010058 0.000397543 0.0206838 -0.0131974 0.00514291 -0.00715296 -0.0087308 -0.00311047 0.00334813 0.00535599 -0.00508565 -0.00508818 -0.00462783 0.0206196 0.00322949 0.00371249 -0.0173486 -0.0101473 -0.0161327 -0.00153082 -0.00368362 0.00361671 -0.000388461 -0.00099599 -0.00653153 0.000249112 0.0167401 -0.0212601 0.0127547 -0.00353483 -0.00597475 0.0130942 0.00971263 0.00257547 -0.0121815 -0.00875063 -0.00059473 -0.00250231 0.00676382 0.0062965 0.00880856 -0.00592679 0.0168483 -0.00611193 0.0117758 -0.00707659 -0.00430374 -0.000386083 -0.00350767 0.00546976 -0.000174417 -0.0095186 -0.0120337 -0.000880142 0.0027401 -0.00485293 -0.00551919 -0.0059596 0.00494064 0.0120434 0.00160108 7.36893e-06 0.0145038 0.00384336 0.0051182 -0.011683 -0.0122801 0.017804 -0.0222141 -0.0184748 2.72332e-05 -0.00353823 -0.00724826 -0.00348697 0.00487072 0.00410169 -0.00172267 0.0151978 -0.00409738 0.0249573 -0.00921849 0.0118835 -0.0117528 0.0062685 0.0124489 -0.00166727 0.0107006 0.00521172 -0.0157676 -0.00295631 -0.0137807 0.00804744 -0.0124123 -0.00228089 -0.0161551 -0.00150312 0.00888188 -0.00768587 0.000543604 -0.0108136 0.0182401 -0.00809193 -0.0110068 0.00705474 -0.0186033 0.0125928 -0.00139661 -0.00641789 -0.011331 0.0146685 -0.0164871 0.000381151 0.000603764 -0.00601936 -0.00660787 -0.000889892 -0.00267741 -0.00121586 -0.0136741 -0.00293324 0.0116015 -0.00502324 0.0022231 0.00549475 0.00401364 0.00737961 0.00822006 -0.00959149 0.0188441 0.00124674 0.00292562 0.00694016 0.00465138 0.00679434 0.00988634 -0.00161538 -0.00582737 -0.00939599 -0.0215603 0.00809856 -0.00698997 0.000161963 -0.00926889 -0.00637695 0.0109556 0.00831097 -0.00522958 -0.0105356 -0.00854498 -0.0048601 -0.00524048 -0.0189497 -0.0131599 0.00821595 0.000170168 -0.00435234 0.00691024 0.0110793 0.000617568 -0.00899749 -0.0135938 0.00702821 -0.00652289 0.010236 0.032892 -0.00974116 0.0250161 0.00611655 -0.0203317 0.00173011 0.00752667 0.00671303 0.0100885 -0.00290165 -0.00417223 0.00170483 0.00893421 0.00233398 0.00137223 -0.0220374 0.00243692 0.00477938 -0.00483238 0.00164755 -0.0156001 -0.000222039 -0.0042294 -0.00441089 -0.00766032 0.0157874 -0.00771004 -0.0108516 -0.000832313 0.00413805 -0.00735448 0.0146183 -0.00359822 -0.00142436 0.0127099 -0.00258272 0.00155193 -0.0189298 0.00303012 0.00097704 0.00632895 0.0182726 0.00239501 0.0106666 -0.00310601 0.00283144 -0.00680144 0.017974 -0.0159074 0.0148793 0.0169008 1.16218e-05 0.0140249 -0.00656472 -0.00107235 -0.00554661 0.0203683 -0.00539551 -0.000814491 -0.0031514 0.00272661 0.00160097 0.015735 -0.00568448 -0.00589287 0.000414396 -0.000732967 -0.00542765 0.00343798 0.00797149 -0.00431987 -0.0104633 -0.00298585 0.00465508 -0.00761296 0.018259 0.00385455 -0.0102683 -0.00940759 -0.00942502 0.00531437 0.00225761 -0.0144847 -0.00607071 -0.00394599 0.00483896 0.000439584 0.00163902 0.00161976 -0.00519437 -0.0136238 -0.00805031 -0.00742983 0.0118995 0.00388444 0.00612637 -0.0148877 -0.012421 0.00478335 0.00887524 0.0129391 -0.00546496 -0.0190432 -0.0084551 -0.00686741 0.00244698 0.000710308 -0.00883034 0.00186032 -0.0087634 -0.00769658 0.00366946 0.00505399 -0.00432303 -0.00708084 -0.00196536 -0.00327291 0.00341026 0.0183909 -0.0133142 0.011348 0.0201405 0.0125513 -0.000976203 -0.00294926 0.00196461 -0.00127813 -0.00220672 0.00190122 0.0042456 -0.0131942 0.0105975 0.0134104 -0.00706988 0.0278877 -0.00284842 0.00482262 0.00830537 -0.00746582 -0.0198598 -0.0173348 -0.00637747 0.00289715 -0.00730044 -0.00819405 -0.00785897 0.0102651 -0.00563936 -0.00802432 0.00407169 -0.000224649 0.00410756 0.0166334 0.0202051 0.0129173 -0.00260469 -0.00515161 0.0179196 0.0013506 0.000833515 -0.0131414 -0.000198651 0.016796 -0.00955052 0.00400866 0.00687365 -0.00129533 -0.000231627 0.0105968 0.00132928 0.00876925 0.00333473 0.00310728 0.000162605 0.00591137 0.00569121 -0.000625743 -0.020349 -0.00157647 0.000344726 0.00667687 0.00560214 -0.00811424 -0.00341934 0.00234276 0.00743064 0.000914602 0.00334099 -0.0110623 -0.00432736 0.00679158 0.00895996 -0.0182482 0.000828756 -3.27534e-05 0.021399 0.00561947 0.0131492 -0.00194374 0.0313846 0.00530429 0.00129447 -0.00140506 0.0109004 8.93184e-05 0.00539452 0.00437725 -0.00446984 -0.00701571 0.00605054 0.00472593 0.00712102 0.0172946 0.00220073 0.00259897 -0.0206019 -0.00105152 -0.00517857 0.0010767 -0.00836394 0.00694455 -0.00462948 -0.00791318 0.0256376 -0.0205962 -0.0109211 0.00138263 0.00238842 -0.00645379 -0.00219322 -0.00386261 0.000789262 0.00110666 0.00425347 -0.0173518 -0.00575838 0.003133 0.00698673 0.00613292 -0.0102497 -0.00487316 0.011039 0.00854911 0.0101463 -0.0188139 0.0212343 0.0106774 -0.00187856 -0.0104214 0.0166301 0.0121137 0.0175664 -0.00464493 0.00433916 0.0192772 -0.00389298 -0.0105592 0.0123289 -0.00765568 0.000585916 -0.00135827 0.00531622 -0.0201695 -0.00268758 0.00848956 -0.00508325 0.0189621 -0.00764641 0.000582603 -0.00771845
-0.00875963 0.00627335 -0.0018238 -0.00292201 0.0127431 0.0103896 -0.000873417 0.00645949 0.011849 -0.0128303 -0.00391437 0.00200921 0.0125824 0.00910271 0.0055151 0.0110179 0.00365434 0.0104202 -0.000666471 -0.00475595 0.00351512 0.00640994 0.000191224 -0.0106189 0.00882987 -0.00172976 0.00410203 -0.011894 -0.0135116 0.00597405 0.00671229 -0.0118471 0.00471651 -0.012769 0.0100367 -0.0167914 0.000851715 -0.0240331 -0.000861656 0.00111189 0.0225357 -0.00260661 -0.0093343 -0.00665095 -0.00233724 0.00107591 0.000576345 0.0151241 -0.00174682 0.0189974 -0.00387312 0.00847162 0.019157 -0.00216829 -0.00777401 -0.00272597 -0.00503674 0.00621063 -0.00233692 0.0117037 0.0122216 -0.0114288 -0.00824888 0.012347 -0.00299548 0.0170563 -0.0229313 -0.00753409 -0.0123661 -0.0019989 -0.00220538 0.0090371 0.00493584 0.0111769 0.00754277 -0.00476377 0.00345731 0.00412681 0.00286286 -0.0171863 0.000243533 0.00407045 0.00409003 -0.00545971 -0.0024935 0.0262298 0.000396545 -0.00256286 -0.0133978 -0.0156504 0.0110943 -0.011803 -0.00287754 0.0074943 0.00547527 -0.00628651 0.00925585 0.0135506 0.00308912 0.00975323 0.0164298 0.0112156 0.000533791 0.00996804 0.0011131 -0.00155489 0.00326168 0.000464528 0.000377192 -0.01169 0.00820102 0.00991463 -0.012378 -7.34721e-05 -0.00362017 0.00261747 -0.00205147 0.0234065 -0.0217025 0.0171351 0.00690266 -0.000602348 -0.00707642 0.0035625 -0.000895296 0.0052938 0.0079226 -1.35748e-05 -0.0013564 -0.0122224 0.0128206 0.000160893 -0.00540312 -0.00898283 -0.00822355 -0.00186964 -0.0167096 -0.0156984 0.00860509 0.0102581 -0.00531484 0.00693482 0.0099702 0.00454573 -0.00104497 0.000166074 -0.00639013 -0.0190251 0.00842215 -0.00847071 0.0115533 0.0183095 0.00194145 -0.00549516 0.016246 -0.00518412 -0.0134246 0.00825861 0.00828015 -0.0223818 -0.0130337 0.00458627 -0.000166421 0.012684 -0.00221534 0.00377904 -0.00125487 -0.0202726 0.000398463 0.0126678 0.00767645 -0.0028575 -0.00568317 -0.00604653 0.0132522 0.00208482 -0.0149555 -0.0129499 0.00674844 -0.000748489 0.006972 -0.00434963 -0.00736577 0.0258917 0.0108428 0.011125 -0.00802801 -0.00509473 -0.0182706 0.00789255 -0.02357 0.00775117 0.00775083 0.00463998 -0.00926004 0.000348113 -0.0113402 -0.0033142 -0.014166 -0.000147577 0.0177355 -0.00252351 0.00835969 0.00337809 0.0097471 -0.0099324 0.0106016 -0.00532273 -0.000249531 0.00166366 -0.00296971 0.0121069 -0.00889594 -0.0019962 0.0080533 -0.001581 -0.0065715 -0.0225944 -0.00132569 0.0142273 0.00221653 -0.00407254 0.00155972 0.0143284 -0.00741689 0.000100544 0.0037146 -0.0344215 -0.0112813 -0.021982 0.00245355 -0.00703864 0.011894 -0.0137745 0.00684092 -0.0122447 -0.00901249 0.00261272 0.00319771 0.0123192 -0.0136028 -0.00375231 -0.00369971 0.0131813 0.0128527 0.00141537 -0.00332081 -0.0105892 -0.00886409 -0.00162737 0.00714742 0.000238792 -0.00515024 -0.00350068 -0.0216067 -0.00480796 -0.0062951 -0.00199926 -0.0148194 0.0171902 -0.0211165 -0.00101839 0.00525473 -0.00125331 0.0142034 -0.0225272 -0.000957093 -0.0133027 0.0022135 0.0101506 -0.00449834 -0.00110419 0.00129372 -0.0028801 -0.00418377 0.00250151 0.00313968 -0.00415999 -0.00561189 0.0152473 -0.0169781 -0.0246235 -0.00966258 -0.0150245 0.00831431 -0.00647605 -0.000290233 -0.0177139 0.0199147 0.0117934 0.0030746 0.000894409 4.83953e-05 0.0141811 -0.0103871 0.00841218 0.0231331 0.00327407 0.0156514 -0.00781673 -0.0111288 0.0221273 -0.00335554 -0.00570963 9.76028e-05 0.0120434 0.0172028 0.0173183 0.00669409 -0.00471334 0.0084863 -0.00579404 -0.00945086 0.00074534 0.00971515 -0.0173007 0.00185054 0.0203076 0.0107579 0.0102289 -0.00449367 0.00956616 -0.0127489 0.00818322 0.0185489 0.00324966 -0.0118371 -0.00360875 -0.00792276 0.011517 0.0137906 -0.00720046 0.00434603 -0.00551189 -0.0113411 0.00294042 0.00553124 -0.00175343 -0.0104214 0.00868652 0.0236419 -0.0165698 -0.0115704 0.00106291 0.00706559 -1.5492e-05 0.00472215 0.0249738 0.00246882 -0.015889 0.0147302 -0.019224 0.00221732 -0.00138467 -0.00568201 0.0103266 0.0171859 0.00109187 0.0109728 -0.0210591 -0.00895729 -0.00143059 -0.00212716 0.00495724 -0.00522175 0.0160227 -0.00594694 -0.0194536 0.0262156 -0.00582256 -0.00244617 0.000260908 -0.00393862 -0.0124036 0.00648374 0.0120055 0.019752 0.00332559 0.00840846 0.0150749 0.00448557 6.70941e-05 0.00909763 0.00098004 -0.00160246 -0.00878771 -0.0159898 -0.00620782 -0.00197327 -0.00498867 0.00550199 -0.00570314 0.00563762 -0.0131726 0.00127188 0.00203559 -0.0206548 0.00718499 -0.00475869 -0.0253752 -0.00150438 -0.0028083 -0.0116467 0.00962142 0.00163619 0.00572145 0.0103457 0.00621324 0.0177243 0.00201241 -0.0118659 -0.000106583 0.0142814 0.00367339 0.0031934 0.00995056 0.0021429 0.00933356 0.0121158 -0.00608617 0.00369027 0.00179957 0.00300074 -0.0236556 0.00528668 0.00139061 0.0171189 -0.00143002 -0.00270389 -0.00583123 0.0212032 -0.00475364 -0.00841107 0.00225258 0.0178725 0.00196779 -0.000378001 0.0107306 -0.00921237 -0.000260959 -0.00639482 0.00400948 0.0132767 0.0109278 -0.00459059 -0.0204612 -0.000994151 -0.00150316 -0.0133884 -0.0128072 -0.0104203 0.0221073 0.00450295 -0.00427256 -0.00557847 -0.0109707 -0.0241182 -0.0149684 -0.00447168 0.0218863 0.00862841 0.0109203 0.00333601 -0.00636657 0.00260632 0.00225597 -0.00550916 -0.00730259 0.0238602 -0.000285101 0.00653326 -0.00584759 0.00306821 -0.000292324 0.0041834 -0.0152761 -0.00268661 0.00749069 0.00996606 -0.00776309 -0.00224097 -0.000835069 0.013075 0.0176929 0.00167006 -0.0102012 -0.00342676 0.0161823 -0.00351744 0.00261762 0.00707733 0.00260397 0.00369769 0.0184438 -0.00444546 0.0122769 -0.00947125 -0.0133008 -0.0034996 0.0178579 -0.00227619 0.0255778 0.00940078 0.0173383 0.000191947 0.00806421 0.0111272 0.011146 -0.0196301 -0.0136954 -0.00710034 -0.00817924
